-0.186249151826,-0.730064630508,0.852348208427,-2.04769849777,-1.35269093513,3.22772026062,-0.165381461382,-0.695174872875,0.592908740044,0.0178668610752,-1.01147758961,-0.195764049888,0.450112521648,-3.68164539337,0.318542599678,0.722299993038,1.59374248981,0.70301836729,-0.786812961102,0.164399266243,0.351630061865,0.30404868722,3.52203965187,-0.221189185977,0.124966725707,-0.448190480471,-0.546279549599,0.106320887804,-0.545444071293,-0.0966210067272,3.40385270119,-2.32182145119,-1.09891986847,0.22807405889,-0.373425990343,0.018322987482,-0.0653282403946,-0.63199454546,0.713388621807,-0.174352243543,-1.80983316898,2.35809230804,-0.264727413654,-0.528629362583,0.266842365265,-0.164630159736,-0.264498800039,-0.237846270204,-0.23389737308,4.26770353317,-0.0765121802688,-0.464599639177,-0.231211468577,-0.472469836473,0.258597910404,0.18490485847,0.181078284979,-0.796267390251,3.28958535194,-0.177034795284,0.0802977979183,-1.19840764999,-0.300633043051,-1.00026845932,-1.49707508087,-0.742920815945,-0.325515329838,-0.459393233061,-0.3807528615,1.11671519279,2.18145561218,1.07603943348,0.332949906588,0.759478449821,0.439555764198,-1.31798911095,-1.91808736324,-1.1501210928,0.333123534918,1.18021810055,0.367093026638,-0.951469480991,-1.25741827488,2.36652636528,-0.158204361796,-2.55193376541,2.8124499321,-1.25585842133,-1.20677232742,2.76596736908,0.259963065386,2.34729218483,0.859089493752,0.100843891501,0.325964510441,0.188046634197,-0.724921226501,-1.96949052811,-0.428712457418,-0.426726102829,0.370117515326,1.35996603966,-0.976382791996,-1.19015276432,2.00441551208,-0.272710710764,-1.07090592384,0.0319505296648,-0.0872875526547,0.083894148469,-0.0463474877179,-0.222354471684,2.65705609322,0.216110572219,0.151568263769,-0.0404740273952,0.0907334685326,0.000184630102012,0.608061432838,0.231883630157,0.466675400734,1.98323976994,-0.0675876140594,-0.0917439907789,0.361069232225,0.101517722011,-0.128177568316,-1.0753582716,0.430137127638,-1.2436978817,-2.13175773621,1.00785779953,0.446686625481,0.595784783363,2.17004323006,-0.59976297617,-0.611204743385,-0.43375352025,-0.560816586018,-0.406694322824,-0.361113786697,-0.538735508919,-0.267152398825,-0.477874666452,-0.427753150463,-0.538773715496,0.943965911865,-2.09255886078,0.608574748039,1.71359860897,-0.722576677799,-0.375286638737,0.843421697617,0.0786076635122,-0.604423761368,0.144305691123,-0.536455512047,-2.57042384148,-0.271763890982,-0.245742335916,-0.298903018236,-0.261330097914,-1.4311863184,0.499206274748,0.42973664403,0.471501916647,-2.15226387978,0.0338191576302,0.525116682053,0.666248440742,-1.24734115601,0.581708431244,2.35858225822,0.403321832418,-0.760504841805,-2.31941556931,-0.717153429985,-0.143501996994,-0.143630698323,0.0190646518022,-0.807435035706,-0.864054679871,-0.514812707901,-0.354126513004,3.19863271713,-0.162811294198,-0.093441978097,-0.879352748394,-0.0040977280587,0.327798098326,-1.63660788536,0.0668274238706,-0.589057683945,-2.73076295853,-0.679744243622,0.217033684254,4.25106048584,0.579263985157,-0.891831219196,-1.32133436203,-0.942025661469,-0.544573903084,-0.473236918449,-0.268199414015,1.02511870861,2.38173961639,0.960143923759,1.21426510811,3.16735935211,1.30329525471,-0.890984177589,0.783542871475,-0.766499042511,-0.751790344715,-3.23834061623,-1.04667723179,0.490456670523,-0.526133954525,-0.507813513279,2.99344921112,-1.68261814117,-0.354239284992,0.309075891972,-0.136354088783,-0.418124318123,-0.0691142752767,0.264667868614,-0.184377551079,-0.277443736792,-3.36202478409,-0.087155148387,0.654727995396,0.784091114998,0.605985701084,0.696832060814,-0.273320764303,-0.498338490725,3.30273485184,-0.957016527653,-2.29325008392,1.10777044296,-0.389045417309,-0.765486717224,-0.207950040698,-0.191845357418,-0.292075008154,-0.17142277956,3.26642179489,-0.0501744113863,-0.0494153052568,-0.129665821791,-0.218670263886,-0.831568777561,-2.3060464859,-0.707838535309,0.119758658111,1.12448525429,-0.11393352598,0.742918491364,1.54222917557,0.479005098343,0.827263116837,-0.0339502468705,-0.303187608719,0.218126818538,-3.57063603401,0.61752307415,-0.531839966774,0.322483122349,0.94677734375,-0.863219678402,-0.307700008154,-0.853895008564,-0.351698726416,2.94926023483,-0.200450450182,-1.19212806225,-0.0170381795615,-0.801773071289,0.631788492203,-0.353985965252,-0.221520841122,2.12168240547,-1.83194446564,-0.406987041235,0.0776017159224,-0.433686673641,0.0226189587265,0.727222442627,0.3168810606,-0.202720463276,0.0321464836597,2.82449364662,0.511873185635,-0.0410881005228,0.131732031703,0.214254498482,-0.165628239512,0.286655336618,-0.110784128308,0.142970442772,3.62155008316,0.144798859954,-0.233034685254,-0.117693886161,-0.21268555522,0.226394742727,0.183413982391,0.305237054825,0.284835934639,-3.54608511925,0.268505811691,0.197788119316,0.49043700099,0.1365249753,-0.0171502102166,0.523052334785,0.0267902966589,0.566831052303,2.921697855,0.400163531303,-0.141862049699,0.381243944168,-0.070889621973,-0.000637612189166,0.196435779333,-0.131314992905,-0.00932882539928,2.46101331711,-0.00253875041381,0.151592940092,0.133911833167,0.0785663798451,0.455056339502,1.22035312653,0.262119263411,-1.05259978771,-2.52147388458,-0.372629314661,0.212031528354,0.688777983189,-0.281622290611,0.176600322127,4.59900283813,-0.195270135999,-0.584181368351,-2.51413798332,-0.282242029905,-0.163165569305,-0.625295102596,-0.24673178792,0.478678435087,-0.314381480217,-0.728032827377,1.93781721592,0.259387791157,-2.26048111916,0.589405834675,0.142401114106,-0.333815693855,-0.32926222682,-1.31896984577,-0.376520782709,-0.136088103056,0.677415788174,-0.454760789871,0.27511036396,2.67276573181,-0.499179542065,0.00116600235924,0.298146247864,-0.094552911818,-0.282409220934,3.26043486595,-0.143558472395,0.0239245500416,-0.107015058398,-0.117773480713,-0.544794797897,-0.925805211067,-0.493268609047,-0.825137674809,3.13977789879,-1.02981817722,-0.649596810341,-0.617797791958,-0.479846388102,-0.0393484942615,-1.15875613689,0.76755797863,-0.713218152523,-2.21189188957,1.58271312714,0.217938959599,-0.41270929575,1.90440225601,-0.455957502127,-1.62302553654,0.967390179634,-1.64667248726,3.16516804695,-0.087393887341,1.13554048538,0.0301994979382,-0.244267627597,-0.0773704722524,-0.371094375849,2.37808680534,-0.633041679859,-1.21551072598,1.17358374596,0.0388688184321,-0.789667546749,-0.0936055779457,0.600971579552,-0.199287936091,-0.317954719067,-2.99311184883,1.18413627148,1.95498335361,1.04317569733,-0.427081167698,-0.621569514275,-0.122578859329,-0.432675153017,0.391053140163,-1.72147369385,-0.705728292465,2.20794844627,-0.0711087286472,-0.319504767656,0.422325849533,-0.475051611662,-0.290084034204,-0.41076028347,-0.231759190559,4.10632705688,-0.250213325024,-0.35044169426,-0.310054987669,-0.351941615343,-0.114426858723,3.30410051346,0.0998034626245,-0.143961191177,-0.0596420913935,-0.0860796794295,0.165440231562,-3.02580237389,0.0462513454258,-0.215421929955,-1.7322576046,-0.27221173048,-0.277860164642,3.20412111282,-0.116557478905,-0.351785629988,-0.59371304512,-0.320659190416,-0.536567091942,-0.349543690681,0.553479075432,-2.67052674294,-0.610886335373,3.30474376678,-0.497587054968,-0.316341638565,0.715433776379,0.0513745769858,-1.37595963478,0.153568834066,-0.0274978093803,3.74052405357,0.112972095609,-0.0391897931695,-1.51591551304,-0.213600024581,0.0649032890797,-0.427207589149,0.0418813079596,-0.450032502413,-2.89438557625,-0.340655088425,0.142404466867,4.30141305923,-0.129410937428,0.612978100777,2.73368859291,0.529893994331,-0.193954914808,-0.137304753065,-0.0275026634336,-0.647478222847,-2.50641226768,-0.538287818432,-0.0349830985069,-0.114002585411,-0.0762415155768,-0.350456357002,-3.97557854652,-0.0750791281462,-0.0779128968716,-0.266336500645,-0.0115286726505,-0.153185725212,0.769663333893,-0.086671769619,0.160874769092,3.19628715515,0.170760467649,0.0809071809053,-0.236919030547,0.0937492325902,-0.903611183167,-0.634869337082,0.169802635908,4.52606201172,-1.49392282963,-0.0495565347373,-1.08621132374,-0.14997369051,0.258692860603,0.411907970905,-0.672897875309,-1.1209551096,2.17108917236,-0.234883964062,-2.05083870888,0.691057085991,0.29769462347,-0.302995741367,0.657500088215,1.11978793144,-0.285412758589,1.19365334511,0.795186936855,-1.75397074223,0.000208779369132,-1.49210882187,-1.20004558563,0.326901674271,-0.389904677868,0.119535371661,3.16794085503,-2.7898080349,-0.570615530014,0.12535661459,0.01363095548,-0.148758471012,-0.222883015871,-1.09046304226,-0.144608110189,0.213199883699,3.27651047707,-0.102498307824,-0.237649351358,-0.85217833519,-0.0297486260533,-0.751957058907,-0.261223435402,-0.546026706696,-0.180225610733,0.27924105525,-0.293647050858,-0.880533277988,-0.316286385059,-0.670950114727,0.194919332862,0.533381283283,0.193806216121,-0.25167375803,2.49824714661,0.170399084687,0.163404613733,0.803796112537,0.130924254656,0.410967946053,-0.432175427675,0.589425265789,1.7888559103,-0.350098133087,1.74113929272,-0.288893043995,0.420974075794,-0.253109544516,0.788748264313,2.39948034286,0.891509056091,-0.459593236446,-1.66507279873,-0.872805476189,-0.592462837696,-0.647632479668,-0.307838320732,0.0376893766224,1.17695999146,0.807047784328,1.68008756638,-3.00918149948,-0.512653172016,0.196582511067,-0.443032115698,-0.145287200809,-0.369467496872,-0.726103723049,0.0334147140384,1.17601025105,3.31311607361,-0.57481777668,-0.39934694767,-0.875525832176,0.121433980763,0.335207074881,0.855886638165,-0.197800010443,0.558675944805,3.27771282196,0.907947361469,-0.164114847779,0.481085121632,-0.17338334024,-0.13684886694,-0.288890510798,0.0297112874687,-1.35975706577,-1.04270660877,2.32296609879,-0.117437288165,-0.184575229883,0.271189391613,-0.431975603104,-1.82765090466,-0.295371770859,-0.456481456757,-1.34697246552,-0.209050118923,0.844144821167,3.08329820633,0.814773440361,0.657990694046,-0.240772947669,-0.419118732214,2.45075678825,-0.278598964214,-2.47427654266,0.523711442947,-0.156791716814,-0.437025427818,-0.165531441569,0.377166599035,-0.174453541636,-0.0120882522315,4.1289896965,-0.180124059319,-0.249707400799,-0.192210435867,-0.27773848176,0.0776402130723,0.576021134853,0.655834555626,-0.318049043417,2.16683411598,-1.17192816734,0.637153983116,0.79577755928,-0.391546726227,-0.538015246391,-0.873903930187,-0.645330965519,-1.00006890297,3.72483849525,-0.937968850136,-0.463448792696,-0.993448615074,-0.464215159416,0.537067353725,0.0368991866708,0.667016625404,0.429240107536,-2.89131474495,0.277240544558,0.732358515263,0.401411384344,1.04605793953,0.120533719659,0.0879064053297,-0.419391483068,2.45464396477,-1.1058858633,-0.0107590099797,0.00808219611645,-1.10669255257,-0.269765943289,0.386318355799,3.29855298996,0.21457888186,-0.592284023762,-0.98904889822,-0.59830725193,-0.10701829195,-1.68780469894,-0.0403141863644,-0.0435097888112,-0.410785883665,-0.0440078005195,-1.0264185667,-0.917675614357,-0.902732729912,0.000799205212388,-0.503632366657,-0.0169916767627,-0.694066762924,1.09732270241,1.4385304451,-1.42046391964,-1.00056290627,1.4985666275,-0.0186353996396,-1.20938825607,-0.947355508804,0.117333106697,-2.59371614456,0.0766417533159,-0.699862718582,-1.46345889568,-0.670530974865,0.405049443245,4.21601343155,0.562362849712,-0.60992616415,-1.31986868382,-0.28243792057,-0.581701159477,3.46271085739,-0.258022487164,-0.274329304695,-0.565036892891,-0.356241255999,0.0182285476476,0.0256213471293,0.154670625925,-0.287212699652,-3.12873029709,-0.10565700382,0.494348704815,0.0202541872859,-0.218172073364,-0.615388333797,-2.04844594002,-0.450218319893,2.49427747726,1.19032502174,-0.220175310969,-0.0945322215557,-0.262720108032,0.0177450105548,0.109780535102,-1.13910627365,-0.467306405306,-0.117408461869,3.83374977112,-0.183863982558,-1.10267722607,-0.825118660927,-0.105357065797,-0.124580167234,-0.979857683182,0.123544149101,-0.919235706329,-1.21286201477,-0.705335140228,-0.027357827872,-0.482554078102,0.0375646315515,0.525604307652,-1.57152843475,0.285714477301,1.19439148903,-2.80115413666,0.254325270653,0.577644586563,-1.68306052685,0.144535109401,-0.127377226949,0.72264790535,0.441188335419,-0.854268968105,3.25624084473,-0.220264539123,0.430346310139,0.0836739763618,-0.290361493826,-0.216922879219,0.111705563962,-0.2797062397,-0.281983852386,4.14434528351,-0.400360763073,-0.237474262714,-0.68470031023,-0.289311826229,-0.682079255581,-0.438405811787,-0.612693965435,-0.35058298707,-0.637222409248,-0.222537979484,-0.613335311413,0.0694742053747,-0.513846755028,-0.543774068356,-0.74334603548,-0.528366327286,-0.651835739613,0.144451200962,-0.515216290951,-0.404813587666,-0.483985364437,-0.412635713816,0.521249115467,-0.230576977134,-0.625868737698,2.0154299736,-0.0998627319932,-1.88054227829,0.433311671019,-0.158589109778,-0.479802429676,0.856964826584,2.3050096035,0.878955543041,-0.943815112114,-0.893722712994,-0.164823487401,-0.51143938303,-1.64319503307,-0.0863759443164,1.51383650303,0.675438702106,0.622791588306,1.04301035404,-1.83352708817,-0.045327398926,0.368611693382,-1.33236956596,-1.04208242893,-0.004700536374,0.388855397701,-0.0328608751297,0.411335021257,2.12204504013,0.107648067176,0.0607893504202,0.201835036278,0.0689148679376,-0.0865407660604,-1.0335726738,-0.252793759108,-1.20386695862,5.02784156799,-0.616732001305,-0.08591517061,-0.659959375858,-0.127864003181,2.75300002098,0.332687288523,-0.639856517315,2.04908466339,-1.72665894032,-1.26569104195,-0.581491112709,-1.28074729443,-0.965809464455,-0.151177763939,0.893490970135,0.0421335659921,-1.53409719467,2.42372632027,0.180745139718,0.157455712557,0.391917735338,0.414724767208,0.659929513931,2.93283367157,-0.124258860946,-0.138620853424,0.257545411587,-0.169217169285,-0.244446128607,0.333575427532,-0.205645605922,-0.289241492748,-0.783450067043,2.96540355682,-0.0540142357349,-0.94563126564,-0.413230121136,-0.163528889418,-0.154246509075,-0.336442530155,-0.0453028678894,2.88354873657,1.18677568436,-0.747351169586,-1.24848079681,-0.154794350266,-0.493375897408,-0.35151347518,0.164014458656,-0.22094155848,-0.732795536518,-0.0601132288575,-0.0736390426755,3.71611046791,-0.45063740015,-0.389072656631,-2.29568243027,-0.348003059626,-0.550637483597,0.486318260431,-0.346306592226,0.611642599106,2.72200489044,0.41058960557,-0.410428881645,0.22329133749,-0.379810065031,0.940567374229,1.68612909317,0.498115003109,0.111160337925,-0.471127778292,-0.859083473682,-0.299565255642,-1.45685303211,-0.777684569359,-0.0354738757014,0.619890093803,0.0356823503971,0.225790068507,2.13042807579,0.208995595574,-0.191987290978,0.700222074986,-0.244698554277,0.0284566991031,0.914136528969,0.215486377478,0.418337523937,-3.51354837418,0.0746318548918,0.231192976236,0.0874096229672,0.230482071638,-0.649891555309,-1.58747112751,-0.239881560206,-2.45357370377,-0.658574402332,1.86622774601,-0.544951736927,1.27231609821,1.75079059601,-0.41994202137,-0.286977499723,-0.353702962399,-0.723260104656,-0.601900756359,-0.667922019958,-0.287583827972,-0.338900923729,-0.338525801897,0.545105397701,-0.225794315338,-0.551555991173,-1.4715886116,3.72831368446,0.0372839011252,-0.355035543442,-1.12860631943,0.123631671071,-0.638144314289,-0.00345246167853,0.175014272332,0.321292102337,2.83332133293,0.0850809216499,0.139906361699,-0.177290409803,-0.219703048468,0.0317118056118,2.96910667419,0.307092815638,-0.48772957921,-1.77358949184,-0.245146587491,-0.110474333167,-0.807015001774,-0.104973144829,0.000407273502788,0.0585165955126,-0.207531020045,-1.01856768131,-2.14897990227,-0.320878356695,0.458469301462,1.75407576561,0.0549369007349,-0.0976778045297,-0.426633387804,-0.310269087553,-0.568387985229,5.05930328369,-0.479824244976,-0.141961202025,-0.739851653576,-0.123175561428,-1.40773439407,-0.554594874382,1.50087296963,-1.54767370224,-0.0857202708721,1.98967838287,-0.421122074127,-0.225941583514,0.591811954975,0.447793334723,-0.951130270958,-0.403353184462,1.1437984705,-2.12755179405,-0.901988565922,1.4299172163,1.21818637848,0.241803243756,-0.863474965096,-0.424513965845,-0.500873923302,-1.24487888813,-1.92661273479,-1.44369399548,2.33427667618,3.60785222054,0.795488238335,0.180530756712,-0.261301994324,-0.0149821080267,-0.573972642422,5.04256916046,-0.905977129936,-0.294239461422,-0.594730496407,0.28003886342,-0.148386612535,2.91372418404,0.164494603872,-0.0932065099478,-2.11198782921,-0.70412260294,-0.221564561129,-0.233210086823,0.129173979163,-1.43742465973,-0.820567786694,-0.75909024477,1.51660442352,-1.13915586472,-1.34079396725,1.09507024288,-0.0650387629867,-0.897141396999,-1.88399791718,1.0344684124,0.337970882654,1.70071482658,1.14691495895,-0.57610476017,0.261387646198,-0.498528063297,0.0764835998416,-0.502054512501,-0.470941901207,-0.45903095603,0.00808483548462,3.52133584023,0.626583814621,-0.348999559879,-0.0338858738542,-0.210938483477,-1.06912839413,2.07322311401,-0.620475769043,0.661462664604,1.29282915592,0.291214287281,0.249637126923,-1.00828933716,-0.16001842916,0.654047548771,2.76069116592,0.666001558304,-0.500138580799,-0.263269782066,-0.482587218285,-0.300739556551,-2.19906282425,-0.253959566355,-0.465937107801,-0.433902055025,0.57418435812,-1.98353803158,0.0610112585127,2.70932149887,-0.626532196999,-0.441604882479,0.731917619705,-0.000989452120848,-1.59234249592,-0.929059863091,1.36081504822,-0.0076531842351,-1.73475635052,1.34281849861,1.25474536419,0.0761696398258,-0.454889059067,-2.87992739677,-0.587391555309,-0.500839233398,0.132922142744,-0.284038186073,0.628209173679,3.26256394386,0.676346361637,0.208668172359,0.366492688656,-0.265150636435,0.572299540043,2.85512804985,0.333935916424,-0.232225075364,0.353405863047,0.0654008612037,0.214046493173,-0.261547416449,0.100814908743,-0.395297795534,-2.44311833382,-0.189351409674,0.0783934742212,-0.253619730473,-0.0480535887182,-0.462951302528,-0.244469210505,-0.294251590967,-0.330760926008,4.42178869247,-0.446034431458,-0.436502099037,-0.633998692036,-0.341594368219,0.930328369141,-0.860846817493,-0.311979025602,3.5886182785,-1.68184876442,-1.45872020721,0.234729737043,-0.585754334927,-0.157416447997,-0.602596998215,0.00936455558985,0.738463997841,-1.85076224804,-1.01902770996,2.55353283882,-0.532427191734,-0.0387147217989,0.786824285984,-0.134987398982,-0.102468602359,-0.131181836128,-0.0532838702202,2.50235366821,-0.0474346913397,-0.0296144224703,0.161710858345,0.0294419806451,0.50585347414,1.91012990475,0.294746875763,0.533668518066,0.538510382175,0.650330722332,0.237621799111,0.0290597509593,0.0453103817999,0.146484792233,0.959156095982,-0.506153404713,0.699004411697,2.30222821236,0.408039271832,-0.437711268663,0.33075901866,-0.183688029647,0.130131244659,4.34973096848,0.192295610905,-0.372863948345,-2.22563028336,-0.654251515865,-0.270261883736,-0.528040826321,-0.26056843996,-0.0679647698998,2.45447969437,1.04131829739,-1.27415859699,0.724582672119,0.145491555333,-0.911175847054,-2.13912129402,-0.754325926304,0.242773279548,0.550672650337,0.159507155418,0.799213588238,1.84297561646,-0.241209745407,0.313437014818,0.734942257404,0.23463010788,-0.451283574104,-1.28864383698,0.293591916561,-1.34479427338,-1.49514532089,1.54364192486,0.26953753829,0.660451233387,1.62142384052,-0.307951360941,-1.1472414732,0.119820162654,-1.13889813423,-2.50874209404,1.31480276585,0.0524053536355,0.903219759464,2.43972921371,-0.25639718771,0.362780660391,-0.139173194766,-0.911817789078,3.23694562912,0.0253248829395,-0.633313715458,-0.982724010944,-0.425165116787,-0.0781604871154,-0.304724544287,-0.010927750729,-0.319058775902,4.76563215256,-0.322490513325,-0.0292343068868,-0.541229367256,-0.0985818505287,-0.407597601414,0.320399612188,-0.661679387093,-0.958104074001,3.74433612823,-0.809177875519,-0.128719896078,-1.72732698917,-0.200347900391,-0.559532880783,-0.452266454697,0.15271127224,-2.0602042675,0.749857544899,2.08701992035,0.0397308394313,-0.285242706537,0.260642498732,0.288349449635,0.0658977627754,0.0814015120268,3.45807433128,-3.00502586365,-1.15685331821,0.216743931174,-0.112515330315,0.0942280963063,0.823724687099,2.8931183815,0.696922719479,-0.750273704529,-1.14795529842,-0.55123257637,-0.308452218771,-1.61965918541,-0.312661826611,-0.0796380117536,0.0436298921704,0.0864056944847,-2.76277899742,2.82083916664,-0.160464465618,-0.104671597481,-0.0563058592379,0.170136108994,-1.00769257545,-1.18412923813,0.0320061296225,-1.48063790798,-1.11473703384,0.989416658878,-0.0157811548561,1.19458174706,1.44313776493,-0.146465212107,0.122453652322,-0.171542108059,0.194938614964,2.65140104294,0.108727633953,-0.0354919917881,0.0796482861042,-0.0594539940357,-0.728184044361,-0.493349045515,-0.566414237022,-0.539040088654,-0.345983982086,-0.452360957861,-0.619170546532,-0.332304090261,-0.610674381256,0.363330543041,3.22157049179,0.596563220024,-0.795697033405,-1.69312953949,-0.22906832397,0.0620388239622,-1.56178724766,-0.017133038491,0.221691191196,0.586784601212,0.220220834017,0.430134475231,1.49855387211,0.465974956751,0.320085436106,0.478642970324,0.357846945524,0.285448908806,0.0061458395794,-0.786892771721,0.476861149073,2.15734291077,-2.35796618462,0.408566832542,0.316433489323,-0.573319673538,0.477957814932,2.42944979668,0.308210611343,-0.311231464148,-0.801088809967,-0.0864055156708,-0.251387745142,0.139513373375,-0.16468295455,0.0646538287401,-0.516828298569,-0.53455221653,-0.0841287821531,3.42477679253,0.119676500559,-1.04206860065,0.256103545427,-0.0305162128061,-0.062774784863,0.389546185732,-0.153930202127,0.653188765049,-3.4218211174,-0.299017071724,0.103109866381,0.414295077324,0.0771585777402,-0.16891002655,-1.01071572304,-0.301340758801,-0.468669176102,-3.00134253502,-0.372243076563,-0.344258487225,0.671731472015,-0.455067515373,0.272316277027,-0.321623831987,-0.112128295004,0.0635190159082,2.94287395477,0.120809480548,-0.474475651979,0.646981775761,-0.0784415304661,-0.271812677383,-0.216258168221,-0.332247525454,-0.29479855299,3.97075939178,-0.294239521027,-0.185860469937,-0.438209891319,-0.161981463432,-0.13514880836,-0.426529049873,-0.253390163183,-0.802199363708,-1.36752045155,-0.526242375374,0.48156440258,2.2763645649,0.38312330842,-0.00557897705585,-0.809290409088,-0.955462098122,-1.25140678883,-0.535575628281,-0.949699759483,-0.720702111721,-0.523612260818,0.0252676159143,-0.157359108329,0.121140174568,-0.15716214478,-0.375387936831,3.35041236877,-0.663455367088,-0.253155529499,-1.40197408199,-0.250577628613,0.602747380733,3.09819316864,0.550748229027,-0.247613981366,-1.0715072155,-0.130413070321,-0.652320981026,-2.02340507507,-0.563998520374,0.531887114048,0.822082579136,0.398134827614,-2.15718889236,-2.07852244377,-1.59325802326,0.288292646408,0.203061938286,0.200285211205,-0.218976691365,-1.33667075634,-0.371633321047,-1.13997197151,4.2365064621,-0.222006589174,-0.40752017498,-0.387415140867,-0.217637494206,0.18269996345,-0.63012778759,0.336896330118,-1.9439637661,-0.650201976299,2.68335795403,-0.156473726034,-0.369547307491,0.470417439938,1.34083795547,0.211190342903,-0.336213946342,2.03318762779,-0.991163909435,-1.38915753365,0.174510627985,-0.91573035717,-0.699629426003,1.2171434164,0.925177514553,0.429994523525,1.71677601337,-1.56813657284,-1.35173118114,0.304984658957,-1.29354250431,-0.383960813284,-0.530601024628,-0.480907350779,-0.577108383179,-0.662220835686,0.288628965616,-0.268209636211,-0.542177498341,-0.575999677181,-0.675242483616,-0.852790653706,-0.953949034214,0.260259926319,-1.62862861156,-0.68874001503,1.94827461243,-0.269477635622,0.322676032782,0.881514012814,0.20630210638,-1.1626175642,-0.0447612926364,2.03620028496,-1.56632637978,-0.982616841793,1.09443986416,0.201193422079,0.16050799191,0.564551711082,0.401782602072,-0.174759507179,1.44421029091,-2.33525681496,-0.464226484299,0.275821954012,-1.05669510365,-0.0123137561604,-0.552339375019,0.343051105738,0.701214015484,-1.4004046917,3.14089751244,-0.634786367416,0.814385294914,0.439228445292,0.240150913596,-0.204399600625,-0.153992950916,-0.657063782215,-0.275902152061,3.32199072838,0.0547630898654,-0.741936087608,-0.286168336868,-0.214287176728,-2.02767944336,-1.99782001972,-0.43668410182,-0.823995888233,1.80458462238,2.19300627708,0.10317786783,0.110252082348,0.918311417103,-0.412353187799,0.234272673726,1.05781507492,-1.97870457172,-0.527567923069,2.06568074226,-1.31906437874,-1.38267636299,0.410441637039,-0.258682191372,0.840683698654,-0.411304801702,-0.108556315303,-1.82577764988,1.84496676922,-0.204632610083,-0.692953705788,0.174994602799,0.410034000874,0.909644603729,1.04848945141,-1.3562772274,-0.497671872377,1.62152123451,-0.521549642086,-1.86224997044,0.455576300621,-0.582001745701,-0.5552932024,-0.466291040182,-0.560098826885,-0.454229295254,-0.260169863701,-0.628028154373,-0.774130105972,-0.486308634281,0.114470660686,-0.562679350376,0.0031072597485,3.11209011078,-1.7982916832,-1.23489785194,0.414690852165,0.176983684301,-0.0843422040343,-0.588781654835,-2.3294403553,-0.347160190344,-0.518589556217,-0.125155806541,-0.252636134624,0.707315325737,2.68101119995,0.875639021397,-0.735521018505,-1.6803085804,-0.122229635715,-0.440680533648,-0.586036801338,0.288524478674,0.621554970741,1.79814147949,0.744999229908,-0.953433871269,-0.800074994564,-0.84035384655,-0.554114818573,-0.58156400919,-0.520065367222,-0.465657740831,-0.189215824008,-0.542665421963,-0.177151456475,-0.402010023594,-0.131809741259,-0.763716101646,-1.36725139618,-0.691327035427,0.644347131252,2.57785725594,0.0207176636904,-0.14527361095,-1.03427231312,-0.187176063657,0.268879652023,3.15986990929,0.365399837494,-0.245212480426,-0.646035969257,-0.116217590868,0.231373488903,-1.12950825691,-0.0478875227273,-1.88121128082,2.5910050869,0.257367283106,-0.576046824455,0.735650777817,-0.344582259655,-0.0683509260416,0.223715886474,-0.186059325933,-0.822344958782,-1.43417537212,-0.852848410606,0.728406012058,1.61971688271,0.647031486034,-0.0920396223664,-0.993698298931,-0.893820285797,1.22950541973,2.52232766151,-0.244371801615,-0.383889436722,1.05843865871,0.150005042553,-0.705892622471,-0.418037652969,1.20169770718,-0.949787676334,-1.68967020512,2.04278731346,-0.346059650183,-0.35228356719,0.944343924522,0.1105870381,0.0616247579455,-0.317129015923,-0.659634292126,2.94913101196,-0.92246556282,-0.0977298095822,-0.014358039014,-0.176444247365,2.00988101959,0.76576179266,0.693822443485,0.854290187359,-2.23598790169,-1.12286889553,0.35932931304,-0.992496788502,-0.298872500658,-0.485259413719,-2.02928709984,0.0503869950771,-1.68955111504,-1.09285485744,0.798075973988,0.144330456853,1.90409660339,1.62692892551,0.167679399252,-0.450226396322,-0.468006551266,-2.23529267311,4.07151985168,-0.184502437711,-0.603233218193,-0.829910635948,-0.255014568567,-0.500941038132,-1.2748118639,-0.448726207018,-0.414104163647,-0.644732475281,-0.775569617748,0.966561436653,2.10778737068,0.580819189548,3.01354622841,0.261369675398,0.218562573195,-0.0769089460373,-1.24187076092,-0.926077961922,-0.0225942805409,-0.773647844791,-0.598177850246,-0.247628301382,0.26885637641,-0.284499108791,0.0402356795967,3.69188141823,0.16068059206,-0.0983648896217,-0.0872782245278,-0.13117466867,-0.128506109118,0.03141406551,-0.170102983713,-1.34437775612,3.36085486412,-0.931597232819,-0.325560331345,0.280639946461,-0.107075870037,-0.0834865644574,-1.0594959259,-0.125551939011,-0.174918249249,3.98254370689,-0.285430908203,0.029124841094,-0.661121547222,0.108415961266,0.27264007926,-0.0879098176956,-0.210703104734,-0.126660749316,3.22939229012,-0.342556327581,-0.563489198685,-0.20609472692,0.0161465071142,0.0953596457839,-1.06675183773,0.0787386447191,-0.785519719124,-2.15921211243,-0.284770578146,0.490516811609,0.312633216381,0.351670920849,0.0342168137431,-0.162722498178,0.134441778064,0.440389037132,2.8020837307,0.278713226318,0.113261565566,-0.103558830917,0.246507570148,-0.461208969355,-0.661787688732,0.726653337479,-0.343453735113,-1.83444845676,2.94816327095,-0.35436207056,-0.600809931755,0.362182915211,0.0744675919414,3.19311714172,0.651931881905,-0.295133084059,-0.995294988155,-0.672981739044,-0.419581860304,0.124939985573,-0.00538267288357,-0.0625734329224,0.386952579021,-0.101579844952,0.320627450943,2.70871639252,0.326042860746,-0.140675738454,0.215094521642,-0.165457770228,0.554413080215,2.32774138451,0.055546682328,0.569682121277,-1.39671194553,-1.01477169991,-0.492525815964,-0.884168148041,-0.112930074334,-0.174275398254,-1.12216925621,-0.367285788059,-1.21102511883,4.5802936554,-0.569673836231,-0.440828055143,-0.749163687229,-0.26334348321,1.38152122498,3.31929850578,1.07716977596,-1.09578573704,-2.33760976791,-0.771341562271,-0.469447463751,-0.926267743111,-0.505520701408,-0.771580338478,-0.306009531021,1.29419159889,-1.89434611797,-0.997712671757,3.07005977631,-0.477534383535,-0.71438485384,0.637531816959,0.0188430398703,-0.197008773685,0.0228565745056,0.0888983607292,3.57095718384,-0.141067653894,0.0994406268001,-0.291101723909,0.0327714011073,-0.305740922689,-0.694535672665,0.464647978544,-1.06261301041,-1.10684204102,2.17611789703,-0.180933266878,-0.423929572105,0.383253753185,0.439160138369,3.14770197868,0.436419427395,-0.30139452219,-0.580296337605,-0.0206279940903,-0.268793284893,-2.76541519165,-0.247869566083,-0.499273151159,-0.855221569538,-0.508395791054,1.33626711369,2.21539592743,0.928879320621,-0.580403089523,-0.518615663052,-0.288203805685,0.00904937833548,-1.07263708115,-0.76558727026,1.63414871693,-1.19935619831,-1.10014426708,1.42857396603,0.931459844112,0.0645464286208,-0.644961774349,-0.464140057564,-0.512073278427,-0.52559441328,-0.440638899803,-0.45499637723,-0.261493295431,-0.536079406738,-0.211354583502,0.0544677488506,0.558972775936,-0.0920586436987,0.376237303019,3.07539772987,0.0353152379394,-0.0497682727873,-0.135605961084,0.00553866289556,0.112889654934,0.115746743977,-0.100901499391,0.205153882504,1.97812688351,0.296942859888,-0.0194370616227,0.169366776943,-0.11698769778,-0.41529533267,2.11341309547,-0.272638231516,-0.808745145798,0.722251832485,0.603243112564,-0.392388105392,-0.747750580311,0.600412547588,-0.582502484322,3.43574476242,-0.694516301155,-0.483541578054,-1.3902708292,0.113349236548,0.215422093868,0.306391447783,-0.0382841341197,0.330141186714,-0.327011793852,0.174446135759,-0.341299414635,-3.47774481773,-0.0295359138399,0.43957644701,-0.75655901432,0.266210615635,0.824614584446,-0.878511786461,-0.0666723996401,3.90166831017,-1.96990847588,-1.81027829647,0.977895796299,-0.746997594833,-0.410053253174,0.00671699410304,-0.0784719511867,-0.0270337350667,0.241342559457,3.8715031147,0.0605871975422,0.298506826162,0.278263628483,0.0699121579528,0.241652727127,-1.30893611908,-0.0640483796597,2.95008683205,-0.800459504128,-2.07656049728,0.588866949081,0.303441435099,0.127595245838,0.56711012125,3.312718153,0.624895811081,-0.0150627102703,0.452228069305,-0.177141413093,-0.634180247784,-3.40582156181,-0.749164044857,-0.131422549486,-0.228526711464,0.657407462597,-2.76157355309,-0.1816919595,3.03429913521,-0.451957762241,-0.36346283555,0.41112858057,-1.31065320969,0.137289315462,0.792271316051,-0.182698175311,3.33361411095,-0.391545653343,1.18293488026,-0.598694682121,-0.831522881985,0.144661456347,-0.853295922279,-0.083247423172,0.377336025238,2.91809177399,0.357899278402,-0.0217617452145,-0.228082165122,-0.0014697695151,-0.146722018719,0.429074138403,-0.247896641493,0.304785966873,3.78638315201,-0.160347625613,0.037480995059,0.201717421412,-0.0767205283046,0.4974783957,-1.26819682121,-0.00473798578605,1.4427189827,-2.21092557907,-0.738910198212,1.36301720142,0.533215641975,0.337969392538,-0.246205180883,0.0764014273882,-0.262528687716,-0.589465558529,-0.164702042937,-0.396510571241,-0.776929914951,-1.08281588554,-0.445612251759,-0.172948569059,0.672501504421,-0.15510211885,0.721170246601,1.65665733814,0.659454524517,-0.0672836750746,0.12181045115,-0.055123757571,0.855345606804,3.41742944717,0.82377243042,-0.374433457851,-0.803988814354,-0.480114758015,-0.482698231936,-2.40596652031,-0.57825165987,0.0810370221734,0.167944401503,0.122845925391,0.270510733128,-3.75406312943,0.282590001822,0.142221927643,0.363961666822,0.175131902099,-0.110186547041,-0.0574625171721,0.0708426386118,3.40189671516,-2.67016816139,-0.767863810062,0.155248120427,-0.208946973085,0.0629634559155,-0.0145427053794,0.575153231621,0.00298913056031,0.117896966636,2.95309185982,0.0706738606095,-0.0356540940702,0.322871029377,-0.0153204193339,-0.0592475011945,-0.541830301285,-0.127004832029,-0.719013750553,4.28843450546,-0.443055957556,-0.279938310385,-0.817583560944,-0.27102586627,0.467064857483,-0.169736504555,-0.0449389591813,2.5993335247,-0.84155112505,-0.45595729351,0.139684930444,0.0423368439078,-0.137519299984,-1.23100066185,0.364522904158,0.216954410076,-0.685852348804,3.33791518211,-0.970965206623,-0.0447767414153,0.114209316671,-0.743855416775,0.143320918083,-0.413418263197,0.240924879909,0.287835627794,2.92944693565,0.551050782204,0.278378814459,-0.926681518555,0.0513116084039,0.597410917282,-0.446222782135,-0.703949213028,-0.23129978776,2.90202760696,-0.476502329111,-0.995531797409,-0.430006712675,0.435952007771,-0.120716311038,0.324144780636,-0.0590451173484,0.20809930563,2.4485373497,0.219492718577,-0.053463280201,0.0768421813846,-0.0353096500039,0.979715466499,1.29911744595,-0.232288494706,1.66075003147,1.00079226494,-2.32543587685,-0.342049390078,-1.21843516827,-1.28253936768,0.985251426697,0.119754686952,-0.180311903358,-0.771898210049,2.46354198456,0.195709004998,-0.894006729126,0.440517961979,0.308798313141,0.362630397081,1.17888188362,0.282024890184,1.19739210606,0.0347706526518,-0.733685076237,0.486501902342,1.11706602573,0.611411571503,-0.243713855743,0.54007679224,0.376561045647,0.562410354614,2.59392952919,0.613544285297,0.435312986374,0.350399196148,-0.128605931997,1.86558926105,0.546072721481,-2.25045704842,-0.377513259649,0.150710985065,0.348814845085,-0.490397632122,-0.173765912652,0.63546782732,-0.183693766594,0.0215821880847,-0.473293304443,0.941524028778,2.75298190117,-0.729673266411,-0.471625298262,-0.390663266182,-0.847275793552,1.6143001318,-0.432022631168,-0.559904098511,2.76889967918,-1.17665171623,-1.45669078827,0.462979257107,-0.899725317955,-0.556553304195,-0.952902138233,-0.482052654028,0.0970948785543,0.297395646572,3.01598763466,-0.0461439229548,-0.028960108757,-1.36873197556,-0.790108025074,-0.618862390518,-0.439806878567,-0.631768584251,-0.939258873463,-0.44476634264,-0.64302521944,-0.435453742743,-0.871667504311,-0.4001981318,0.22465364635,0.602149009705,0.119381576777,0.362825542688,2.45711135864,0.108305878937,0.0199379846454,0.197709858418,0.0909762904048,-0.199962168932,-0.115255184472,-0.188849449158,-0.211521491408,4.34212493896,-0.30645403266,-0.0574706755579,-0.417607694864,-0.178779572248,0.171272307634,-0.419054239988,-0.312418997288,2.95705080032,-1.85378193855,-0.553824663162,0.649066448212,-0.738834619522,-0.0960306152701,0.0518407262862,-0.791482150555,0.123058892787,-0.88479167223,4.06532621384,-1.61671125889,-0.00552539201453,-0.392041414976,0.156258240342,-0.587048530579,0.761939704418,0.0236357133836,-0.517200469971,3.59404468536,0.0487838238478,0.345218777657,-0.665984153748,0.192583292723,-0.442128330469,-0.137087509036,-0.315392136574,-0.57419449091,4.88929224014,-0.552328705788,-0.461119413376,-0.848869979382,-0.466867566109,0.00591633794829,-0.185685798526,-0.183797180653,-1.03492426872,5.23287391663,-0.0699452236295,-0.0761218518019,-0.859933435917,-0.207793265581,-0.500805437565,-1.10419309139,-0.581623494625,-0.494947373867,-1.20479202271,-0.329479813576,-0.500559389591,-0.457395225763,-0.452588677406,-0.354316145182,0.304877221584,0.927454829216,-2.25498604774,0.0819188207388,2.22464752197,-0.854196548462,-0.817645907402,0.356005430222,-0.650033891201,-1.54254114628,-0.646246731281,0.134898066521,3.48904895782,-0.0138673456386,-0.460357546806,-1.10733306408,-0.336344838142,0.879918932915,3.14850759506,1.00405037403,-0.871542870998,-1.33728659153,-0.28070807457,-0.288606017828,-2.04606842995,-0.205807060003,-0.111399739981,-0.625328719616,-0.310173541307,-0.876649081707,3.34323859215,-0.301043838263,-0.249945789576,-1.19535279274,-0.455655217171,0.215429469943,0.719329237938,0.141110554338,0.694504857063,2.5323741436,0.369837552309,0.118039786816,0.351109832525,0.0457456298172,0.192644760013,0.277904570103,0.111415363848,0.313415080309,2.2098762989,0.295858025551,0.148343965411,0.351820528507,0.044149171561,-0.57759976387,-2.62583637238,-0.596139609814,-0.320457100868,-0.844543576241,-0.89065015316,1.22430157661,3.37392616272,0.504266500473,-0.260258734226,-1.2924258709,0.50159150362,1.23700654507,-2.30337071419,-1.5879970789,-0.643282055855,1.90904974937,-0.0216107796878,0.157873228192,-0.374163269997,0.215451404452,-0.241789594293,-3.45257854462,-0.0251843705773,0.243025556207,0.268661350012,0.22742395103,-0.0335864797235,0.0468289963901,0.0107099851593,0.0681110844016,2.98970508575,0.0166506636888,-0.201463356614,-0.185539826751,-0.232273548841,0.321474790573,-0.153818637133,0.18522106111,0.0348993167281,-3.52655410767,-0.068454824388,0.196378409863,-0.0476567260921,0.172257706523,0.427746474743,-0.158348530531,-0.148016571999,3.02628016472,-1.70388948917,-1.60158014297,0.42410287261,-0.623102903366,-0.217020899057,1.25376939774,0.415228337049,-0.0112661253661,-1.28646171093,-2.22835302353,-0.132778644562,-0.0281895250082,0.852400004864,0.295544356108,-0.19253385067,-0.752478182316,0.458548873663,-2.52334713936,-0.576689243317,3.10389876366,-0.184209853411,-0.00541089568287,0.581202626228,-0.218774601817,-0.0778176635504,0.139851689339,0.532220125198,2.83866262436,-3.22158479691,0.157075956464,-0.301256150007,-0.084506817162,0.0635109692812,-0.222530126572,-0.17505787313,-0.345268458128,-1.59192955494,-0.30427891016,0.044911775738,3.21652936935,0.173126086593,0.768427073956,-0.61849373579,-0.672124445438,-0.210072040558,2.81534051895,-0.758139371872,-0.00855333264917,0.0558603666723,1.22549521923,0.762089014053,-0.878917634487,-0.0528268702328,2.96401453018,-0.894490361214,-2.22110509872,0.604778707027,-0.215593576431,-0.263177603483,0.0241090878844,0.484028398991,-0.100478038192,0.212342724204,3.17701816559,0.118871882558,-0.0541734881699,-0.0744636431336,-0.0788089409471,-0.113969616592,-0.931078732014,-0.302205562592,-0.349371224642,2.8887219429,0.159852564335,0.00649905810133,1.03634762764,0.223901510239,-0.265377283096,-0.332180678844,-1.06060051918,-0.489180535078,4.54694032669,-0.821580588818,-0.397831648588,-0.208475381136,-0.113079868257,-0.792879939079,1.24117779732,0.147154033184,1.26872777939,1.37653231621,-1.01453638077,0.145875096321,0.0368363149464,-0.793007850647,-0.300469696522,-0.474918574095,-0.317190080881,-0.434043616056,-1.41355502605,-0.298452138901,-0.157217100263,-0.291915237904,-0.123390026391,-0.158083885908,0.584773957729,-0.113306283951,0.593480348587,2.49940538406,0.300073623657,-0.0284165795892,0.174975916743,0.0299934707582,-1.07128870487,-1.61066699028,-0.51609736681,-0.911202847958,2.4157102108,0.471600919962,0.16487403214,0.826575279236,0.146186932921,0.189395383,-0.90842205286,0.398030430079,-1.90654885769,-1.54486703873,3.80252695084,-0.208019345999,-0.71888422966,0.790764331818,0.295120835304,1.00399887562,1.9559289217,-1.28236961365,-0.656385183334,0.899171769619,-1.03041863441,-1.53089332581,0.289175450802,0.867429196835,-0.0136746512726,-0.211612761021,3.21812176704,-3.33857059479,0.156430870295,0.212740987539,-0.13220334053,-0.72915583849,1.03935468197,3.86051273346,0.890478014946,-1.24047255516,-1.96174347401,-1.17412543297,0.174782782793,-1.37316858768,-0.0765615999699,-0.38364264369,0.824117481709,-0.276245832443,0.625332713127,3.04834628105,0.500998973846,-0.090330041945,0.229679912329,-0.124780975282,0.368984341621,0.514515459538,1.55121922493,-0.966937184334,-1.30928599834,1.01204848289,-0.399554371834,-1.31420862675,0.345590442419,-0.868979692459,0.214420616627,1.47610604763,-1.96571183205,-0.93994641304,2.04867386818,-1.00148117542,-1.66260397434,-0.357508182526,-0.566054880619,-0.394155412912,-0.98510569334,-0.114179745317,4.1710858345,-0.401500314474,-0.485597848892,-0.483813226223,-0.70784676075,0.300334513187,-0.582204222679,-0.109724536538,2.67348814011,-1.45565378666,-0.14167933166,0.0853825062513,-0.474895983934,-0.259145975113,2.54012107849,0.415880173445,-0.313955783844,0.30922305584,-0.843043148518,-0.857194662094,-0.179746001959,-0.596486210823,-0.464203804731,0.156746894121,-0.390056848526,0.197570726275,2.36986160278,-2.62888050079,0.109452821314,-0.0562705881894,-0.0074150711298,-0.13672144711,3.68007040024,-0.254723608494,0.147904872894,-0.624662280083,-1.53587150574,-0.319156199694,0.289313942194,-0.549839019775,0.0664458945394,-0.132401958108,-0.525497496128,0.955026984215,-1.41945791245,-0.330082058907,1.67388117313,0.245460554957,0.0309662427753,1.30858826637,-0.363741070032,-0.511654555798,-0.00989949982613,-1.51356625557,-2.40655493736,-1.41142940521,0.136356398463,0.324143499136,0.0631142556667,-0.0798658877611,-0.22405141592,0.00633065309376,0.110064603388,3.24873948097,-0.0490262024105,-0.0947659164667,-0.0724363178015,-0.184018656611,0.478447526693,2.07070040703,0.586250722408,0.111553430557,-1.36703145504,0.538969933987,-1.34175372124,-1.74484920502,0.25818002224,-0.476473987103,-0.170887231827,0.542516887188,-3.24190044403,-0.53541469574,3.96498441696,-0.228620946407,-0.213635206223,0.35882923007,-0.304643064737,0.160557806492,-0.151154384017,-2.34375929832,2.92089891434,-0.0912640020251,-0.276766210794,-0.186767697334,-0.115858726203,-0.388212144375,-0.803387999535,-0.596206963062,-0.866839945316,4.38643217087,-0.703622758389,-0.452874004841,-1.02214932442,-0.437257289886,-0.67427366972,-0.424757927656,0.0686434879899,-0.0930787324905,3.67228960991,-0.0841513499618,-0.0495466850698,-0.536565244198,-0.857646524906,1.03274178505,0.32996815443,-1.40340530872,-1.51657235622,2.75352811813,0.639072358608,-0.332554072142,-0.738742589951,0.688236534595,-0.527837455273,-0.270453751087,-0.0341340526938,-0.213078707457,3.99379324913,0.306165874004,0.189616784453,0.180590718985,-0.18267083168,3.2124414444,-0.390108972788,-0.539027094841,-0.512738466263,-0.835053026676,-0.168699607253,-0.478222429752,-0.0865733250976,-0.071776330471,-0.482206374407,-1.90949964523,-0.658200204372,-0.145106732845,3.41006064415,-0.431573420763,-0.179045781493,-0.250291883945,-0.253327280283,-0.672538042068,-1.39938688278,-0.228017747402,-1.49971091747,-1.38593196869,0.745137155056,-0.0952492877841,2.31722331047,1.94807744026,0.787294626236,-0.339128941298,-0.216708555818,3.64668869972,-0.87213486433,0.0462859272957,-0.0995933711529,-0.51563757658,-0.259580522776,-0.628701090813,0.656284153461,2.2828938961,-1.73575723171,-0.776321411133,2.20110464096,-0.842281162739,-1.44617271423,0.23293466866,-0.246491014957,-0.559907793999,0.757304131985,-2.63902163506,-0.360213816166,2.99514484406,-0.428647845984,-0.391032248735,0.929501831532,0.525716125965,-0.506031572819,0.0466139912605,-0.554612874985,-2.82281422615,0.92030352354,0.408039957285,1.09859001637,0.754163980484,-0.52496701479,0.138072937727,0.181789264083,0.0273621343076,4.09456396103,-0.482912659645,0.0921399444342,-0.230241179466,-0.0956933870912,0.178289100528,-0.757728695869,0.244977250695,-0.0357129834592,-2.0549788475,-0.0996447354555,0.121325455606,-0.476748019457,0.173569858074,0.0352163687348,0.129589766264,-0.139555469155,-0.149520412087,3.39169168472,0.0425283946097,-0.110768951476,0.0167824160308,-0.181020155549,-0.0522105395794,0.612540900707,-0.0544008910656,0.316945701838,2.41972327232,0.150149896741,-0.158224239945,0.151746064425,-0.0795360133052,-0.0280154626817,0.180878832936,-0.117404967546,-0.496283441782,-3.40273070335,-0.338449269533,0.117613732815,0.0672380849719,0.0912923365831,0.748905360699,3.17344546318,0.226128667593,-1.12371766567,-0.844356417656,-0.286152720451,0.0219262149185,-0.0481828898191,-0.366233915091,0.0618807934225,-0.0477719046175,0.230330318213,-0.314208567142,-2.70956254005,2.74564552307,0.0245240163058,0.165415450931,0.103153437376,0.0858108401299,-0.553796887398,0.0203561689705,-0.529380023479,5.14974975586,-0.89976388216,-0.163336485624,-0.652780175209,0.0461147539318,-0.740308046341,-1.92497873306,-1.03289699554,0.32179120183,2.14290690422,-0.375924527645,0.231463730335,1.82275247574,0.0429139882326,0.195267990232,0.466632336378,0.245959863067,0.528390705585,-4.23116207123,0.43831923604,0.128874257207,0.505357801914,0.17777466774,1.23199176788,-0.436532258987,-0.443858653307,3.09696888924,-2.84935092926,-0.636400401592,1.01357114315,-0.231751725078,-0.310189127922,-0.564655900002,-0.845215082169,-0.660544574261,-0.892355620861,3.64991545677,-0.480051368475,-0.835528433323,-0.620505154133,-0.863957583904,-0.329324454069,0.721245110035,1.60312747955,-1.19565832615,-0.598969936371,1.06357431412,-0.777052283287,-1.14078950882,-0.502392947674,1.13439393044,-1.11027824879,-0.3255636096,0.584201812744,1.94166815281,-1.16435778141,-0.596875667572,1.81431984901,-0.288435310125,0.805808901787,0.0247465129942,-0.825233757496,-1.66943490505,-2.07795381546,-0.0960995927453,-0.232625499368,0.178895488381,0.109969697893,1.08877372742,1.97548151016,1.2967247963,0.534646689892,-2.03333520889,0.0944091752172,-0.426806539297,-1.35875809193,-0.253373414278,0.0192576218396,0.240810900927,0.0101753212512,0.18608263135,1.89127230644,0.110027939081,-0.0359145104885,-0.0684517845511,-0.106686927378,-0.589329302311,-0.385076910257,-0.516120254993,-0.543220937252,-0.793943881989,-0.54039978981,-0.396852254868,-0.533296585083,-0.331195741892,1.3435549736,-0.115993730724,-0.730718195438,3.28503274918,-3.83750748634,-0.382038474083,0.965266525745,0.386882245541,-0.908048808575,-1.08338713646,-2.58011960983,-0.99311876297,-1.16505253315,-1.53006064892,-0.916726589203,1.62671017647,5.42130994797,1.35383653641,0.194162249565,0.732494175434,0.0691509842873,-0.388679563999,-2.90970730782,-0.244062036276,0.010710503906,1.9541258812,0.224790841341,-0.120360195637,-0.0759937763214,-0.0532482936978,-0.0779917910695,4.05749559402,-0.280945062637,-0.154584527016,-0.0494571514428,-0.0548981018364,0.321133941412,2.60781574249,0.221426054835,-0.501632034779,-2.36117601395,-0.0490218810737,-0.200284048915,-0.162949576974,-0.0885724946856,0.793725430965,3.18322610855,0.966177046299,-0.537993311882,-0.37100148201,-0.176796495914,-0.410377621651,-2.87733435631,-0.456251680851,-0.617814779282,-0.572877585888,-0.484981358051,-0.705729484558,4.20990753174,-0.638211190701,-0.092965349555,-1.34471428394,-0.620659172535,-0.192672014236,0.491470456123,-0.310132086277,0.39849203825,2.56992149353,0.492321103811,-0.0917202681303,0.567390918732,-0.14294719696,0.403229832649,-0.23689250648,0.0101439179853,-0.228547975421,-2.84058070183,-0.241424784064,0.0564607866108,-0.643916070461,0.400537759066,0.363987922668,-1.10865974426,0.397604316473,-0.647828876972,-2.62122678757,-0.61176109314,0.257308185101,-0.902079164982,0.272765576839,-0.521462798119,-2.39434361458,-0.338052600622,-0.557746112347,3.07450604439,-0.00332559575327,-0.137235715985,0.157899230719,-0.207106590271,0.0926239714026,0.41255569458,0.0867750868201,0.514973163605,2.27977371216,-0.00107074913103,0.514759540558,0.425544410944,0.405197232962,0.088621981442,-0.307754248381,-0.0275541730225,0.89890986681,-3.73398017883,0.399960935116,0.123628243804,1.11631727219,0.402265042067,-0.758987545967,-0.444539010525,-0.585539221764,-0.285871893167,-0.0510804206133,-0.154026836157,-0.808697879314,-0.227824881673,-0.742734074593,-0.24189338088,-0.653720021248,0.921985685825,-2.84463572502,-0.989821612835,3.74033236504,-0.132824167609,-0.756955385208,0.781970322132,0.0934134945273,-0.321938037872,-0.224919497967,-0.33477422595,4.02768421173,-0.733726382256,-0.151544868946,-1.03901684284,0.0327439755201,0.519593596458,-0.310231387615,-0.620014309883,2.07689881325,0.584002912045,-2.55812573433,0.280875146389,-0.146597296,-0.435084700584,1.62213504314,0.977609574795,-0.157379776239,1.4871982336,-0.52077382803,-1.41634476185,0.00117907579988,-1.24074780941,-1.06170737743,-0.277277082205,-0.0963694229722,0.0751498043537,-0.852201998234,3.25426411629,-0.851168632507,-0.126306474209,0.135822027922,0.0603264570236,0.103246793151,0.234034061432,0.229331329465,0.60215318203,3.61662650108,0.328936368227,-0.1776227355,0.205575719476,-0.12977181375,0.0157303977758,0.970909833908,-0.60158842802,-1.12476146221,2.85868406296,-0.494450837374,-0.146814271808,-0.115810133517,0.0621173046529,0.115112103522,-0.0847129523754,0.0502847209573,0.371187329292,2.65355634689,0.0559563674033,-0.135618403554,0.391445219517,-0.0250333659351,0.281335502863,-0.216524854302,0.0236495304853,1.847697258,-2.56431055069,1.25091588497,0.32302030921,-0.227090805769,0.170843973756,-0.176551863551,-0.0666793063283,1.0047519207,-1.40264332294,-1.02099692822,1.7791544199,-0.390999555588,-0.763047337532,0.577106297016,-0.247873216867,-0.160435244441,0.182899594307,-1.59098160267,3.27971673012,-0.625376045704,-0.533041119576,0.49258095026,-0.114141963422,-0.0836048945785,-0.639111340046,0.137569516897,-0.533589243889,-1.85692596436,-0.348523914814,0.0383163243532,-0.157538324594,0.0984782651067,0.411608844995,1.37054526806,0.010944629088,1.92669844627,-0.718536913395,-1.05836713314,0.051557701081,-0.860438942909,-0.988572120667,0.0973280966282,0.208160623908,0.201136440039,0.263993442059,3.903414011,0.0993860810995,-0.0692957565188,-0.192838385701,-0.10784792155,-0.0662858635187,0.153410598636,0.016758846119,0.420708537102,2.99017953873,0.24071392417,-0.167160511017,0.326183855534,-0.110857695341,0.618257462978,-0.290286451578,-0.364236921072,3.26497793198,-0.519864976406,-2.80320429802,0.777429223061,-0.290364474058,-0.463774889708,1.9800620079,-1.61445605755,-0.0773829072714,-0.770216822624,0.122403278947,0.0809205472469,-1.35100257397,1.53771579266,-0.182515755296,-0.292150139809,0.645142316818,0.0488771684468,-0.421162843704,3.40008687973,-0.986542284489,0.120965331793,0.475239336491,-0.472542256117,0.0453555248678,-0.352852374315,-0.0106454007328,2.50839209557,-3.54839968681,0.325663387775,-0.383944988251,0.133809939027,-0.00421758927405,0.0791966021061,0.297049313784,0.0497903563082,0.123462960124,2.99144101143,-0.0338216349483,0.0550768226385,0.458183646202,0.12002902478,-0.318556666374,-1.26974093914,-0.308277279139,-0.789761424065,-1.43681442738,-0.602218747139,0.535893678665,2.45034575462,0.565582811832,-1.07327139378,-1.73502898216,-0.396661013365,1.70140624046,2.1878027916,-0.540204703808,-0.0677153542638,0.261629611254,0.923633813858,-0.142988324165,-0.612390577793,-0.325319468975,-0.567680001259,4.54951429367,-0.641611158848,-0.160467892885,-0.714751541615,-0.215887784958,-0.607554972172,-0.713017880917,-0.134815499187,0.0678848326206,3.82182359695,-0.14704965055,0.0811851546168,-0.450818479061,-0.175249874592,-0.0528436340392,-0.54086959362,-0.222357988358,-0.911673843861,-1.81335532665,2.50627303123,-0.464627087116,-0.300411552191,1.09577095509,0.760685503483,-1.52109348774,-1.18933856487,-1.45641469955,0.803203046322,1.30781435966,-0.738531351089,1.22344732285,0.844031989574,0.160232186317,3.21846437454,0.385203689337,-0.224203795195,-2.8352098465,-0.154158085585,0.124284096062,-0.428361028433,0.0698956847191,0.0699361488223,0.219507098198,-0.120529778302,-0.0445944778621,2.44444060326,-0.046917643398,-0.130179852247,-0.149656400084,-0.277628004551,-0.230469822884,-0.276689022779,-0.1101026088,-0.370597451925,3.97158885002,-0.278521567583,-0.196675151587,-0.279163122177,-0.152967080474,0.675570845604,3.24693417549,0.757598698139,-0.890223443508,-1.39285826683,-0.892256736755,-0.279140383005,-1.27556192875,-0.496895283461,-0.0264349784702,-0.554487228394,-0.135998308659,-0.909234285355,3.32783198357,-0.330461323261,-0.311777740717,-0.683207392693,-0.392561793327,0.170906484127,-1.48676526546,0.0930383503437,0.537772357464,3.5854113102,0.0810412615538,-0.205469042063,-0.688055932522,0.00580723769963,1.76063203812,1.01808297634,0.552182257175,1.60944509506,-2.32716202736,-1.35005950928,0.52345597744,-1.29173851013,-0.435636669397,0.0542909279466,-1.16373896599,0.153425335884,-1.31183898449,-1.97395992279,1.40438008308,0.129631057382,0.990517795086,1.45282149315,-1.07383239269,-0.551086246967,0.340608596802,-1.24115204811,3.82085800171,-0.155982226133,-0.0218575838953,-0.567544519901,-0.589485883713,0.0971515029669,0.0352689661086,-0.267679929733,2.65549516678,-1.70045816898,-0.228598609567,0.587321579456,-1.0269536972,-0.155333593488,0.0469709821045,-0.860017597675,0.652127802372,-1.32920634747,-1.49569356441,3.09712958336,-0.126403301954,-0.892002701759,0.600213587284,-0.754015088081,-1.42497062683,-0.640537381172,-0.519174039364,-1.78812301159,-0.565469264984,1.21518158913,3.63180994987,1.08719480038,-0.317922979593,0.230784162879,-1.02437078953,-0.235498011112,-0.528668820858,-0.533494770527,-1.16111338139,-1.05596613884,-0.647322535515,-0.426617056131,-0.163383483887,-0.616226732731,-0.372085988522,3.48045945168,-0.480159372091,-0.123432844877,-0.53088593483,-0.302666187286,-0.380087375641,-0.414629906416,0.64501541853,-2.49443864822,-0.143321797252,2.74462032318,-0.249290332198,-0.439494282007,0.570650815964,-0.000743571436033,-1.22907590866,0.058580994606,-0.590144813061,-1.22684979439,-1.09474396706,0.686021029949,2.8325150013,0.325907707214,-1.27233421803,-2.53071570396,-0.345888018608,-0.627578854561,1.64383518696,0.473135620356,0.308314085007,2.21342635155,0.684594511986,0.0444789975882,-0.176436290145,-0.0428729318082,-0.0434866808355,2.84969782829,-0.1151073277,-0.0828786343336,-0.0270491912961,-0.10500203073,-0.937723100185,1.12609887123,0.622029781342,0.57561981678,-2.17590928078,-0.864795565605,0.120272196829,0.635071694851,0.0120970206335,-0.0764435827732,-0.603908002377,0.064532160759,-0.310442477465,-2.7241601944,0.0620185993612,0.202847570181,0.16620656848,0.223968848586,0.992960035801,4.45735454559,1.31254041195,-1.27742469311,-1.14229893684,-1.27424299717,0.0599579513073,-2.86776137352,-0.337307482958,-1.20973706245,1.80235755444,-0.440219223499,-0.0331733040512,-0.584113419056,0.166878551245,1.12337136269,-1.52919256687,0.19799874723,-0.110882051289,0.584192097187,-0.11167178303,0.191015616059,2.26102280617,0.211127728224,-0.259447157383,-0.130950316787,-0.276244044304,-0.195376887918,-1.29188191891,-0.176402032375,-0.176774963737,-1.97846722603,-0.712556898594,0.809308111668,2.85389113426,0.325855493546,0.624305784702,0.157996237278,0.34138739109,-0.100094392896,2.15543293953,0.145450353622,0.331552356482,0.25886836648,0.230004623532,-0.0623499639332,0.228766441345,-0.200558558106,-0.058187559247,3.20073771477,0.272178173065,-0.00717073399574,0.039191853255,-0.147069394588,-1.13100421429,-0.538015365601,1.81668007374,-1.15358936787,-1.0609061718,2.04578566551,-0.130033776164,-0.00380989583209,0.0361387990415,-0.421174049377,-1.00970649719,-0.465159982443,-0.0174094829708,-2.37903809547,0.0891216471791,0.616789102554,2.88978791237,0.841503143311,-0.630899786949,-0.485371887684,0.375205099583,0.257466673851,3.00592470169,-0.381405860186,0.169042184949,-1.44904232025,-0.496909558773,0.509240925312,-0.284343838692,-0.415035963058,3.36622285843,-1.78383898735,-1.11421191692,0.363094627857,-0.812369048595,-0.0282051488757,0.22008164227,-0.0819015279412,-0.0728105977178,-0.385110497475,-2.83200550079,-0.275215536356,-0.194683760405,0.0460014864802,0.316362202168,-0.944989442825,3.29748177528,-0.905560255051,-0.146702498198,-1.69929265976,0.060723554343,0.54037129879,0.00223114574328,0.231845363975,0.904277563095,0.540000975132,-0.023339074105,1.82229995728,0.605566680431,-1.01195001602,-0.240367755294,-0.983109712601,-1.53097128868,0.692454218864,-0.554418683052,-0.291802823544,3.98104834557,-0.89314031601,-2.95167827606,0.781585335732,-0.550411462784,-0.585775971413,0.542079329491,0.363550841808,-0.432291805744,-1.04788398743,1.74019014835,1.4678337574,-0.120595052838,-1.17178177834,-0.664527356625,-0.0939143821597,-1.49553501606,0.00836394913495,-0.83168810606,-2.24609780312,-0.981378734112,0.586649298668,3.87783575058,0.510399103165,1.04650175571,4.85591363907,1.03172814846,-1.03411948681,-2.14681601524,-0.731686413288,-0.358501106501,-2.06142354012,-0.442829996347,0.540419757366,-0.421865820885,-0.284430414438,-3.04761743546,3.25192594528,0.254890650511,-0.350813508034,-0.107873491943,0.188441231847,0.048009224236,0.200886696577,-0.452237188816,-1.27207124233,-2.65997767448,-1.36565363407,-0.00984485726804,0.489739596844,0.0130902985111,-0.470544040203,-0.618885099888,-0.314691990614,-0.62918305397,-0.272410422564,-0.563265562057,-0.351627826691,-0.540723025799,-0.424700677395,1.01904678345,-0.882084965706,-0.791842579842,-0.121864818037,-1.56799197197,3.36908459663,0.363089025021,-0.388871818781,-0.163872346282,-0.444960743189,0.801107704639,-0.340077996254,0.237702593207,3.45865273476,0.70560413599,-0.718276321888,-0.357152998447,-0.573374629021,-1.22407996655,-1.53388023376,0.0639963299036,-1.7020573616,1.76339697838,0.841284811497,-0.0288010500371,0.448893278837,0.429329991341,1.59717810154,2.13692355156,0.109101198614,0.724056184292,-2.24611973763,-0.805052161217,-0.186703547835,-0.805136203766,-0.478827446699,0.226371586323,1.06944346428,2.22825074196,-1.20758736134,-2.04524755478,0.918249547482,-0.0356985628605,-0.921746075153,-0.0477698147297,-0.467554241419,-0.84311401844,-0.570558071136,-0.692995369434,-0.814174473286,-0.108238555491,-0.314408689737,-0.374765753746,-0.388669788837,0.406838595867,-1.68792891502,0.143940508366,-0.166305884719,3.69657468796,-0.0820735692978,-0.644270420074,-1.76325798035,-0.226041153073,-0.0588008388877,0.461304664612,-0.147524192929,0.316430151463,2.89130783081,0.121521309018,-0.0316785126925,-0.0776600912213,-0.0341741740704,-0.0708687826991,-0.217620402575,0.0381507575512,1.08300769329,0.0417925789952,1.07466983795,0.283879905939,-0.459847480059,0.289697736502,1.59003925323,1.3233602047,-0.154717460275,1.74079704285,-2.34619855881,-1.05586063862,0.140019610524,-0.992749750614,-0.310380458832,-0.00778121175244,0.963661253452,-0.101617224514,0.238510087132,2.62583827972,0.32439750433,-0.121172651649,-0.124362073839,-0.232424914837,-0.195017263293,-0.0861966684461,-0.26235678792,0.704829096794,3.05145645142,0.673975288868,-0.539340317249,0.103251948953,-0.247943043709,0.181177675724,-0.809369683266,-0.31441283226,-2.59607434273,4.62861442566,-0.982331335545,0.104061357677,-0.62129843235,-0.00822471547872,-0.259151995182,-0.353994816542,0.636678516865,-0.689836800098,-1.44042277336,2.8273165226,-0.32285118103,-0.825422644615,0.540523707867,-0.862779378891,-0.315496534109,-0.779935121536,-0.0716509893537,0.434286773205,-0.0921702757478,-0.736278355122,0.00505404733121,-0.646754980087,0.0979033112526,0.439848065376,0.136310592294,0.398947089911,2.24241495132,0.0237746331841,0.139082238078,0.0794589743018,0.0382038205862,-0.821523785591,0.0271943863481,-0.606540679932,-0.201509326696,-0.592106819153,-0.283555030823,-0.531267821789,-0.187735825777,-0.412932962179,-0.193137764931,-0.481586247683,-0.352277010679,-0.921355068684,-0.814337849617,0.324954152107,-0.348306924105,-0.630206048489,-0.333772182465,-0.330418974161,-0.0242999885231,0.538445651531,-2.88787198067,0.546702086926,2.43341469765,-0.375896036625,-0.170978024602,0.395859718323,0.119161739945,0.0779208019376,0.104249402881,0.123300142586,3.76293611526,0.161862835288,0.0870593115687,0.128071889281,0.18304528296,-0.886590957642,-0.238534972072,1.1353354454,2.38139772415,0.526035249233,-2.59534525871,-0.999402880669,-0.485774576664,1.53531336784,0.618394434452,0.956592082977,0.327316135168,2.42779326439,0.242934897542,-0.744863510132,-0.0751459822059,0.411650329828,0.0178170390427,-0.678671658039,-0.390128791332,-0.664484858513,-0.517555236816,0.0318559296429,-0.44226026535,-0.802181065083,-0.703809082508,-0.539133608341,0.576207280159,-0.631947994232,-0.200570315123,3.22909522057,-0.929411530495,-2.30186462402,0.232747271657,-0.128090128303,0.0610184632242,0.0207992047071,0.202891469002,0.0385563671589,-0.0654076114297,3.0676574707,-0.0270099118352,0.0461781583726,0.237918928266,0.0715542584658,-0.198666989803,0.639184951782,0.12985573709,0.864398419857,3.19808220863,0.485521614552,-0.0431729219854,0.417239665985,-0.247483089566,0.15639269352,-0.319781243801,0.2878279984,-0.50273090601,-2.15364646912,-0.767098009586,0.798804342747,1.81115436554,0.744216382504,0.0949147492647,-1.0642516613,-0.205316931009,0.463459759951,-2.82148098946,-1.02968680859,1.20727610588,2.6835706234,0.516739368439,0.697249054909,-0.61083984375,-1.02583181858,0.0606859996915,-1.64276921749,0.667301476002,-1.08713650703,-0.241444841027,0.709370315075,0.816629827023,1.30605137348,1.25228750706,-0.759122431278,-2.09031534195,0.765941202641,-0.81493473053,-1.04731070995,0.298122525215,0.0278536807746,-1.24544930458,0.19943022728,-1.14690160751,-2.54876160622,0.0577365383506,0.0221019871533,0.403733700514,-0.138869315386,-0.430990099907,-0.611493349075,-0.304110348225,-0.938099443913,-0.620246589184,-0.436922669411,-0.471627295017,-0.473919630051,-0.476584911346,-0.42564022541,0.829839169979,-0.37741240859,0.507793366909,2.24028992653,0.06955396384,-0.209212318063,0.518128275871,-0.143266841769,-0.145850554109,-0.0450338535011,-0.267263323069,-2.45077490807,3.43610143661,-0.188528731465,-0.215822845697,-0.657867789268,-0.354208916426,0.484703093767,2.59135580063,0.362896502018,-0.386805862188,-1.76686728001,-0.364101886749,-0.30994784832,-1.09200704098,-0.201113715768,1.5282882452,1.75743460655,-0.125976502895,-0.0590301826596,0.30099901557,-0.279183417559,-0.333185791969,-1.91928684711,-0.825835108757,-0.169205024838,-0.94069904089,-0.238708481193,3.09195971489,-0.981958627701,-1.76048135757,0.771380960941,-0.697401702404,-0.389330595732,0.922409951687,-0.362674027681,-0.454503268003,3.06265616417,-1.01737535,-2.10998034477,0.626771211624,-0.757363021374,-0.817196786404,0.0804638490081,-0.524665951729,-0.346837073565,0.424728095531,-3.16434216499,-0.17824152112,1.6567530632,1.4287276268,0.853898763657,-0.690471470356,-2.38061332703,-0.670803368092,-0.467117249966,0.285990357399,0.0305197890848,0.400293380022,2.82480359077,0.834402740002,0.65701520443,1.62570405006,1.31158173084,-0.865144312382,-1.78289294243,-0.263125419617,-0.0313344113529,-0.798018753529,0.177424281836,0.775834321976,2.6554505825,0.459061354399,-0.256506562233,-0.880356252193,-0.407335668802,-0.680929899216,-1.17251682281,-0.5888261199,0.735756695271,2.71471238136,0.567158102989,-0.335529386997,-0.107843980193,-0.28719329834,-0.740624785423,-2.03753638268,-0.596175074577,0.635511100292,-0.478294491768,-0.87913185358,-0.408518642187,3.23739504814,0.159015327692,-0.423740833998,-0.655155897141,0.222442865372,0.315057396889,2.7265162468,0.392205625772,0.094011515379,-1.6876732111,-0.322887301445,-0.0687194690108,-0.898176312447,-0.197071537375,-0.420669347048,-0.448089897633,-0.566908538342,-0.409284353256,-0.141617581248,-0.37380284071,-0.620992362499,-0.538744270802,-0.48129183054,-1.06042873859,-1.08285713196,-0.839186489582,0.516346871853,1.52115821838,0.449467986822,0.634457230568,1.47828388214,0.447103738785,-0.0744460374117,-1.02655792236,-0.136683821678,0.513970553875,3.10149979591,0.410312891006,-0.123212851584,-0.706720590591,-0.163298740983,0.237566918135,-4.54098415375,0.169704496861,-0.67519390583,2.36253070831,-0.47144189477,0.338108718395,2.49784016609,0.275696963072,-1.32297563553,-2.10227441788,-1.35640692711,0.0890510156751,1.05660092831,-0.0870836749673,1.34780287743,1.5623716116,0.694450438023,0.00342778931372,-0.00900967046618,-0.123588271439,0.352322876453,2.80680632591,0.501956164837,0.267644673586,0.455989420414,0.0770200267434,-0.024962445721,0.116075709462,-0.00397048518062,-0.310254752636,3.33708429337,-0.200406849384,0.0730738639832,-0.229708865285,-0.00178251217585,-0.149547934532,-1.19285976887,0.809250593185,-0.628232657909,2.68863415718,-0.409887760878,0.365125656128,0.217795073986,-0.421038120985,0.103702314198,0.493705451488,0.0105534950271,0.393496453762,2.27880167961,0.268602222204,0.233526259661,0.374964863062,0.163955241442,-0.777416288853,0.175050884485,0.596618771553,0.0367592126131,-1.47752952576,2.47062277794,-0.451764285564,-0.38208013773,-0.0912102535367,-0.0556383579969,-0.786766588688,-0.107877753675,-0.652219355106,4.04641914368,-0.357521593571,0.0281522143632,-0.347320556641,-0.0569823682308,-0.859828472137,-0.79527926445,0.450612843037,0.252866268158,-1.47711527348,-0.605320513248,1.17400634289,-0.28528213501,-0.771286308765,-0.454903632402,-1.43871557713,-1.07377636433,1.7440046072,-0.291136622429,-1.52660298347,1.6243263483,1.24655544758,-0.12326643616,-1.2518748045,3.40738081932,-0.80329221487,0.346924841404,-1.68544256687,-0.0669655799866,0.171974241734,-0.226759880781,0.0658101215959,-0.569557130337,0.96666932106,0.143429517746,0.56003600359,2.50872206688,0.175631329417,0.179889157414,0.182997450233,-0.0686597675085,-0.523694217205,-0.670037984848,-0.559735238552,-0.71106082201,-0.530048012733,-0.691562592983,-0.400329530239,-0.484262943268,-0.346789956093,-0.281006813049,-0.369963377714,-0.332852452993,-0.739204764366,-1.75340306759,-0.862673938274,0.533589959145,2.30877614021,0.445225208998,-1.25039243698,0.378917694092,0.964122235775,2.54753518105,-1.22127425671,-1.5814845562,-0.164322942495,0.00797395780683,0.173635676503,0.558880329132,1.10218024254,1.88073849678,-0.863356888294,-2.66886854172,0.777389764786,-0.148406326771,-0.721915602684,0.259357571602,-0.698127388954,0.00360675086267,-0.682614862919,-0.275661200285,0.0884119570255,-0.115552887321,-0.740057706833,-0.397428661585,-0.514988958836,-0.288317233324,0.0594349242747,0.0664812251925,-1.69746267796,4.30234766006,-1.42013788223,0.287640720606,-0.176396459341,-0.00661361869425,0.0833577588201,-1.09402930737,-0.127723649144,2.42747092247,-1.11340868473,-0.429727941751,1.81780171394,-0.888699650764,-0.33341562748,-0.617087841034,-0.388932555914,0.936676442623,-1.36270713806,-0.379485487938,2.19470715523,-0.60406601429,-0.467043757439,0.391081899405,0.0123063353822,-0.836912631989,0.690951406956,-1.53486943245,-1.75935411453,3.48920726776,0.0328641459346,-1.06601536274,0.690983653069,-1.24238419533,-2.0291929245,-0.111516818404,0.00778285926208,1.85436022282,0.0978519842029,-0.130939617753,1.29626214504,0.324065804482,0.374831020832,-0.316177636385,-0.174653574824,2.15655255318,-2.21856284142,-0.484325677156,0.453539460897,-0.102256171405,-0.186225071549,-0.110877037048,-1.47986268997,-0.272092431784,0.129424080253,-1.65219306946,-1.26096475124,1.02286171913,2.71387910843,0.179730117321,0.271879732609,0.0483222007751,0.174186199903,0.820293903351,3.34296655655,0.153443083167,0.150283426046,-0.126103147864,0.10451965034,0.789792597294,3.09018373489,0.723153352737,-0.495140045881,-0.594498872757,-0.394976884127,-0.489788144827,-2.42492461205,-0.350239932537,0.482670128345,-0.248527467251,-0.244574040174,2.77829170227,-0.0123082157224,-2.45996689796,0.319297283888,-0.211268112063,-0.374763518572,-0.657232761383,0.604913473129,-0.817192912102,-0.703729629517,3.47174978256,-0.500479698181,-0.619722783566,-0.281299740076,-0.787880063057,0.663422882557,-0.806129693985,-0.111409835517,2.56910300255,-1.41557812691,0.00675413757563,0.164200946689,-0.0478547848761,-0.457452058792,0.721120417118,1.49913406372,0.575164556503,-0.819763600826,-2.34192728996,-0.474196642637,-0.00752332247794,-0.274866402149,-0.120077058673,-0.838352382183,-0.640728712082,-0.777739167213,-0.614412367344,4.18616819382,-0.475331515074,-0.879812121391,-1.38712096214,-0.837141871452,-0.431016176939,0.0376000590622,-0.558891773224,0.258740514517,1.77749156952,0.218132406473,0.180175110698,1.47908198833,0.0972709655762,0.0886755138636,-0.619697153568,0.074340544641,-2.74836158752,-0.115018986166,2.94141030312,0.247601121664,-0.177733227611,0.227408394217,0.428352087736,-1.34877371788,-0.886763751507,2.39657306671,-0.893874585629,-2.14621734619,1.83720099926,0.723192095757,0.204227000475,1.73152649403,1.49752366543,0.257879704237,1.15868985653,-0.823232114315,-1.77361154556,-0.00750790955499,-1.64659821987,-0.745834410191,0.607782304287,2.09233593941,0.616686880589,-0.688188970089,0.042961191386,-0.676832854748,-0.315432220697,-1.33868050575,-0.367327570915,-1.07831859589,-2.18568229675,-0.745535314083,0.277245700359,1.22470605373,0.128682285547,0.539639949799,1.18950486183,0.485683143139,1.07343709469,-0.899183034897,-0.525987625122,3.21603894234,-1.59676718712,-1.2127341032,0.698838055134,-0.550572872162,-0.395963072777,-0.127015739679,-0.752904295921,-0.0209065712988,-0.521847546101,-2.86870956421,-0.20607636869,-0.156169250607,-0.279078543186,-0.185922071338,0.0358143039048,-0.300572186708,0.181145191193,-0.657502233982,-1.22100019455,-0.453144580126,2.91086769104,0.141480118036,-0.0593645721674,-1.07914292812,-0.190678045154,-0.168627887964,-2.37863564491,2.77064490318,0.119230791926,-0.0121218720451,0.672182440758,0.383943706751,-0.772172033787,-1.86537694931,-0.948360383511,-0.616949498653,-1.26575934887,-0.297691851854,1.52151572704,3.45788860321,1.4565141201,-0.0228445790708,-0.626542389393,0.0194419845939,-0.357831180096,-1.41074478626,-0.441109865904,0.00834581442177,-0.658098697662,0.0767009854317,-0.266413062811,0.172626003623,0.896719276905,-2.44732475281,-0.310055077076,2.87650132179,-0.814942836761,-0.776313304901,0.442579329014,-0.0735902562737,-0.025116270408,-0.198736950755,0.0716924071312,2.49485611916,0.208429977298,-0.110351607203,0.123372420669,-0.114290647209,0.205090031028,0.538607120514,0.116052977741,0.0232737585902,1.79682350159,0.497345775366,0.252788364887,0.773322224617,0.305229276419,-0.0343123860657,-1.20673084259,-0.251835823059,-1.25733232498,4.54389476776,-0.765877425671,-0.180603563786,-1.10913479328,-0.364773333073,0.185416176915,3.62087988853,0.181450039148,-0.667141258717,-1.43457937241,-0.697372436523,-0.354356169701,-1.42892372608,-0.255256921053,0.082827091217,-0.196671500802,0.117988869548,2.96348524094,-1.7415241003,-1.29549503326,0.18768684566,-0.498258829117,-0.0304093230516,-0.168279111385,1.41838002205,-0.413511037827,-1.12566411495,2.98241901398,-1.0865675211,0.235344409943,-0.0419453084469,0.198363244534,1.38616144657,0.389188289642,-1.78306531906,-1.75315284729,-0.788968145847,2.34389543533,0.423105239868,-0.136578053236,-0.276908665895,-0.338558405638,-0.772401809692,-0.310141354799,-1.14262461662,4.25460338593,-0.922804176807,-0.027729569003,-1.21557164192,-0.184598460793,0.479625672102,2.55621576309,0.507987678051,-0.577173173428,-1.17380273342,-0.0872731506824,-0.288663208485,-1.41605365276,-0.148838028312,0.204180315137,0.523410856724,0.0895240679383,0.102904722095,1.99861550331,0.260802417994,0.162060722709,-0.00987256318331,-0.111036889255,1.0415327549,-0.499094069004,-0.935446321964,2.76637005806,0.0383924208581,-2.60431194305,1.16312301159,0.121404215693,-0.799089729786,-0.191949173808,-0.34830275178,0.0149252945557,0.959782600403,2.68290662766,0.227278485894,-0.510109722614,-0.616390168667,-0.429753601551