0.0624090433121,-0.193418994546,-0.044727511704,-0.674283623695,-3.05623412132,0.0224237889051,-0.0545429773629,-0.129265770316,-0.147920787334,0.848891496658,0.36798915267,1.09895992279,-0.0135557837784,-0.0666587278247,0.132526129484,0.630588591099,0.161848172545,0.837357521057,-0.0412364080548,-0.707817912102,0.0114434156567,-0.687866747379,-1.54880142212,-0.316865265369,0.0466447472572,-0.434381514788,0.0428194478154,0.134951516986,-0.229069143534,0.221757382154,0.8097692132,1.33661603928,0.399274051189,0.464279294014,0.959893584251,0.138668000698,-0.65674239397,-0.818097174168,-0.405787199736,-0.806028902531,-0.784673929214,-0.50337022543,-0.298181533813,-0.503753185272,-0.181420460343,-0.937940835953,-0.46457478404,1.30475485325,-1.37125694752,-0.458088606596,1.65566492081,-0.0978115648031,-0.15555216372,0.446157813072,-0.542497754097,-0.581927359104,-0.430625915527,-0.510869681835,-0.245058164001,-0.393308252096,-0.604769051075,-0.518350362778,-0.436520636082,0.630948483944,1.01335275173,0.41620850563,0.873842000961,1.75050199032,-0.000353122566594,0.401588946581,-0.104656361043,0.518169879913,0.836212694645,0.367056906223,0.760624468327,0.900420129299,0.819360136986,0.556306302547,0.315587610006,0.444628685713,0.279316693544,-0.347745835781,-0.665443181992,-0.164453595877,-0.76648247242,-0.729615449905,-0.478140056133,-0.532567977905,-0.643101632595,-0.334569901228,-0.331132858992,-0.275712937117,-0.300954669714,-0.586439609528,-1.14433240891,-0.193197578192,-0.572871446609,-0.64552462101,-0.385926455259,-0.319145381451,-0.647117853165,-0.107691735029,-0.752835631371,-0.492418915033,-0.563626408577,-0.342749506235,-0.448771744967,-0.169287890196,-0.0132889272645,0.970011770725,-0.0866874530911,1.07275378704,1.434466362,0.0104864547029,0.307610481977,0.364119261503,0.489849299192,-0.936883747578,-0.349625855684,-0.750286221504,-0.456582307816,-0.510615646839,-0.272967487574,-0.553096950054,-0.499191075563,-0.345702201128,0.60428160429,0.850692689419,0.386015295982,0.748495340347,0.980691432953,0.558480918407,0.601143121719,0.447764754295,0.345689415932,-0.201885417104,-1.35077393055,0.0561559274793,-0.405014336109,-2.54697275162,0.364800751209,0.676103651524,1.00291228294,0.28411012888,-0.46912163496,-0.982104301453,-0.203024640679,0.382594257593,-0.399948269129,0.3746560812,1.44696390629,2.44204378128,0.811059713364,0.305902391672,-0.507392585278,-1.20305144787,1.35640501976,0.170833140612,-1.20964372158,0.15796892345,-0.389592856169,-0.953136622906,-0.703119635582,-0.484025150537,-0.50202870369,-0.724851250648,-0.935098588467,-0.422179162502,-0.443852216005,-0.460010200739,-0.305085897446,-1.26296544075,-0.0486832894385,0.963430166245,-1.49310600758,-0.352884083986,1.62738573551,-0.704144001007,0.563684284687,0.488056510687,-0.390932410955,-0.586409807205,-0.234324336052,-0.715450763702,-1.11246204376,-0.42012694478,-0.56717145443,-0.744310677052,-0.362123012543,0.550750613213,0.932318806648,0.306225985289,1.03332257271,1.09816133976,0.58451128006,0.492743343115,0.45611140132,0.474502891302,1.2642621994,1.04392588139,0.863461434841,0.814953029156,1.46231138706,0.490793168545,-0.160213708878,-0.290192216635,-0.548628687859,-0.262821346521,-0.113645210862,0.363895148039,-1.51106405258,0.615477979183,1.88034427166,-0.339406728745,0.102450810373,1.23775017262,0.80177462101,1.92393946648,0.255587279797,0.0886848568916,1.93403184414,-0.445584595203,-1.15187764168,-1.23747515678,-0.728633761406,0.606089949608,0.751897931099,0.461171388626,0.945405125618,1.24880969524,0.426889687777,0.329332470894,0.778078138828,0.244355544448,-0.69591075182,-1.83256363869,-0.291770458221,0.0815724357963,-0.840525925159,0.29477250576,1.64521086216,1.58941423893,1.04310810566,0.896711409092,1.13825249672,0.565589725971,0.753361463547,1.11031913757,0.354838520288,0.250636816025,-1.18260955811,0.37623000145,-0.535688877106,-0.677594542503,-0.392164796591,-0.655295610428,-0.0246173162013,-0.587940037251,-0.433874368668,-0.715069949627,-0.308033168316,0.918599009514,0.615390479565,0.666547834873,0.808484077454,0.379018336535,0.546830832958,0.45833954215,0.709010064602,0.286534696817,-0.326996684074,-0.756687164307,-0.0260529760271,0.591458976269,1.47964262962,0.0425898730755,0.960272610188,1.06249022484,0.722772121429,-1.22092664242,1.13670802116,0.230923876166,-1.77142989635,0.321635872126,-0.678334116936,-0.672894656658,1.28310883045,0.287486314774,-0.162353113294,-0.175976336002,-0.128833428025,0.485830098391,3.41165447235,-0.3359195292,0.0169918164611,-0.069998383522,0.124294877052,0.0333418473601,-0.0654077380896,-0.0351770110428,-0.300130218267,-2.1575024128,0.275968194008,-0.402127742767,-0.3400349617,-0.305790603161,0.872615396976,0.868208408356,0.624301195145,0.828136444092,1.37760710716,0.416916012764,0.710762262344,0.404483020306,0.587604641914,-0.676039040089,-0.558786690235,-0.480117410421,-0.637013673782,-0.489593833685,-0.436502486467,-0.466210395098,-0.418953865767,-0.287617087364,-0.512557268143,-1.08327889442,-0.124322071671,0.729167521,2.41539692879,0.0688071623445,0.366382658482,1.11088502407,0.0532654747367,0.889337062836,1.02424752712,0.559515535831,0.689014673233,1.04726040363,0.345256656408,-0.261630982161,-0.461072862148,0.039625287056,0.354392826557,0.413736402988,0.331047594547,0.576570689678,1.7167236805,0.0330054312944,0.40958532691,-0.0413442403078,0.447741478682,-0.0517335087061,0.175304323435,0.00200999481604,0.29241257906,0.283430427313,0.202894747257,1.46470189095,1.64197587967,1.02728486061,-0.624879300594,0.148069694638,1.66821789742,-0.760707676411,-0.4089422822,1.79397344589,-0.619524598122,-0.122504085302,0.715020477772,0.739764750004,0.248814731836,0.53801959753,0.957825601101,0.81919157505,0.596569776535,0.732234835625,0.690398037434,0.572837293148,-0.651409447193,-0.560739099979,-0.414789885283,-0.695285797119,-0.732067346573,-0.456203043461,-0.534447073936,-0.50724619627,-0.342602849007,0.833343744278,0.711969614029,0.560231149197,0.851652979851,0.880841493607,0.646131396294,0.14066337049,0.582558989525,-0.0554511062801,0.242629483342,-0.53423923254,0.290441572666,0.762658715248,0.91841173172,0.530198037624,0.390208095312,1.23652803898,0.108425483108,0.250906020403,0.368632793427,0.192531079054,0.940943002701,3.05240869522,-0.251857966185,0.280998468399,0.204813033342,0.321395605803,-0.494289398193,-1.08729028702,-0.276880562305,-1.00631511211,-1.40956234932,-0.624171495438,-0.0427157320082,-0.352841317654,-0.00947816483676,0.856332302094,1.32165300846,0.686913907528,0.704216718674,1.14885985851,0.0599357374012,0.400557428598,0.771709024906,0.440867424011,1.59240531921,1.14687228203,1.18601763248,0.211634263396,-1.31708204746,0.444695174694,-0.0847726017237,-0.773922085762,0.0756121426821,0.624058663845,0.892852306366,0.41104516387,0.819544672966,1.12588787079,0.403014749289,0.379132628441,0.269762247801,0.383316636086,0.858868479729,0.568871974945,0.768336594105,0.390299618244,1.37457156181,-0.335206151009,0.449421912432,0.516777098179,0.465497672558,-0.619103431702,-0.373733669519,-0.4667134583,0.452886283398,1.67027723789,0.0963234528899,0.939730107784,1.28317737579,0.565679967403,0.643404304981,0.867996692657,0.448806226254,0.918015897274,1.28770196438,0.419119805098,0.519182860851,0.439902633429,0.431709647179,-0.220709905028,0.482936888933,0.171427831054,-1.50202715397,-0.898763000965,1.44719648361,-0.534944474697,-0.387221336365,1.31092882156,1.10305225849,1.08343446255,0.766963899136,0.612667560577,1.01457822323,0.1350299716,-0.626696765423,-0.119464665651,-0.400324881077,-0.575755834579,-0.856275975704,-0.398011416197,-0.897587716579,-1.19379365444,-0.40919277072,-0.0668606162071,-0.0736661702394,-0.0811344608665,-0.493641287088,-0.216173574328,-0.320729970932,-0.148621305823,3.76555109024,-0.8738540411,-0.615879058838,-0.394490867853,-0.428344815969,1.07471418381,1.08624589443,0.82433360815,1.30699050426,2.10272288322,0.577805578709,-0.0259955842048,0.445144593716,-0.0242399834096,-0.779743373394,-0.658966302872,-0.875183463097,-0.926650643349,-0.160722494125,-0.0631612613797,-0.455897569656,-0.389941781759,-0.890920519829,0.431172221899,0.819292485714,0.274264961481,0.776668787003,1.89533662796,0.0126761859283,0.174152925611,-0.0275443680584,0.274580895901,0.801260709763,0.956396758556,0.524196624756,0.719720959663,1.45521581173,0.330451577902,0.637942910194,-0.0297676734626,0.556378543377,-1.58508324623,-2.30555677414,-0.92592716217,0.280477523804,-0.238849192858,0.357758760452,0.796770453453,1.37642168999,0.359606474638,0.617811501026,0.806826651096,0.349130213261,0.756279945374,1.86642742157,0.0186423975974,0.00863845646381,-0.18234488368,0.161311462522,-0.530913829803,-0.631082653999,-0.387394726276,-0.666671812534,-0.354088246822,-0.498859494925,-0.389946341515,-0.751977145672,-0.244446054101,0.516621589661,0.772706151009,0.340928226709,0.773754179478,1.81970393658,0.200848653913,0.216004490852,0.109404332936,0.228487864137,0.341572314501,0.804961323738,0.251460194588,0.485769182444,1.47566235065,0.128249064088,0.385653942823,0.515466570854,0.269919097424,0.712194561958,0.903601825237,0.435830116272,0.898030221462,1.31799972057,0.481847435236,0.277828872204,0.280537009239,0.208222612739,0.252914994955,-0.426636010408,0.366899490356,0.56421983242,1.06247067451,0.194390147924,0.940491735935,1.20029425621,0.575011312962,-0.120246887207,-0.675404787064,0.00567294284701,-0.773026227951,-1.05902910233,-0.324423253536,-0.376987218857,-0.267536640167,-0.338709563017,-0.48381921649,-0.614328086376,-0.297807574272,-0.535733282566,-0.567220568657,-0.266930013895,-0.513727366924,-0.479192227125,-0.330177992582,0.856140911579,0.34261277318,0.821404755116,1.04920303822,0.783487439156,0.678177833557,-0.576321065426,0.928145945072,-0.529349267483,-0.864504933357,-0.431383877993,-0.618172049522,-0.309339255095,-0.138127297163,-0.208683654666,-0.721775591373,-0.28962340951,-0.61685782671,-0.160747855902,-0.662961244583,0.00375933945179,-0.492723315954,-0.561334133148,-0.377722322941,-0.751373946667,-0.254558473825,-0.589191615582,0.761192440987,1.02607238293,0.441804379225,0.831174135208,1.43607866764,0.279773920774,0.151322767138,0.0176595356315,0.196198567748,0.712563276291,1.0258783102,0.387344181538,0.76361823082,1.10071897507,0.39762750268,0.169498369098,-0.775704205036,0.27824935317,-1.1581902504,0.29631665349,1.30626380444,-1.9040440321,0.287329614162,1.45491290092,-0.694985568523,0.364217817783,0.895703494549,-0.71429091692,-0.517203629017,-0.477963745594,-0.568185210228,-0.317013531923,-0.398217350245,-0.579883158207,-0.352116972208,-0.447456717491,-1.7135874033,-0.0269957147539,0.923517167568,-1.62536132336,-0.21126896143,1.917735219,-0.791237413883,-0.287294119596,0.508946537971,-0.236765608191,-1.08096468449,-0.0207285769284,-0.590789973736,-0.979348003864,-0.430002868176,-0.400324523449,-0.743198990822,-0.236505776644,0.674323856831,1.37213397026,0.189822018147,0.745377361774,1.47320771217,0.307272166014,0.145333662629,-0.472250908613,0.237205475569,-0.331713020802,-0.0533089190722,-0.149424061179,0.367332547903,3.3047888279,-0.60287553072,0.0711566507816,-0.1860755831,0.246474549174,-0.00185243401211,-0.671117663383,0.145213142037,-0.541185855865,-3.12674927711,0.285073876381,0.187362417579,0.571630775928,0.000855244987179,-0.269748240709,0.390893995762,-0.318254679441,0.545650660992,0.454290479422,0.299240767956,1.39385962486,0.856846213341,1.17961013317,0.560209155083,1.3939896822,0.357055157423,-0.266791403294,1.45823264122,-0.531586229801,-1.52706563473,-1.55912935734,-1.17437493801,-0.64882349968,-0.39870172739,-0.508161783218,-0.638315737247,-0.550172746181,-0.456958115101,-0.565473973751,-0.369022578001,-0.412834078074,-0.345198631287,-0.865458548069,-0.236929967999,-0.568922817707,-0.448591768742,-0.442084550858,-0.741432607174,0.0900939777493,-0.716664254665,-1.55405116081,-0.337856382132,0.859820127487,-1.48598265648,1.2587249279,1.19574642181,-0.84838283062,-0.55599039793,1.02596569061,0.546031594276,1.4418284893,0.221880078316,-0.112499594688,-0.327872931957,-0.0272087976336,-1.16920530796,-1.95791172981,-0.618368506432,0.591710805893,0.964648425579,0.269731193781,0.806572854519,2.0299706459,0.112596191466,0.228832274675,0.015174257569,0.279146462679,0.422433584929,0.988939225674,0.060480158776,0.910145044327,1.20772635937,0.529975116253,0.408148169518,0.11605104804,0.341327399015,-0.248736158013,0.0681775510311,-0.143391907215,0.853514492512,1.40897285938,0.354365080595,0.879523873329,1.29281902313,0.608468472958,0.180833771825,0.0880882889032,0.202243477106,-0.145677030087,-3.25352215767,0.652559399605,0.23188982904,0.651044249535,0.00561265647411,-0.613792479038,-0.558074057102,-0.426045030355,-0.655985474586,-0.387013018131,-0.508591294289,-0.454538464546,-0.291345596313,-0.379434645176,0.808538854122,1.09426033497,0.442655354738,-0.095858477056,-0.474259793758,0.0659141838551,-1.31085026264,-1.42260241508,-0.842259883881,0.50351190567,0.768952786922,0.293654620647,0.971198141575,1.04092526436,0.625084400177,-0.257666558027,0.679032683372,-0.375829488039,-0.611021280289,-1.65105223656,-0.0729679018259,0.525077164173,2.23801803589,-0.184701010585,0.614439189434,1.25163185596,0.281511634588,-0.640079021454,-0.410784482956,-0.481727987528,-0.623894274235,-0.615717887878,-0.368222236633,-0.485289812088,-0.507968485355,-0.325352817774,1.32998239994,1.91586256027,0.705850481987,0.241551056504,-0.108698889613,0.30668514967,-0.476583212614,-1.55709910393,-0.16345012188,-0.632957339287,-0.461263537407,-0.470107734203,-0.749699532986,-0.467103213072,-0.533048570156,-0.516405642033,-0.507090032101,-0.311719894409,0.327045887709,-0.270788580179,0.382372677326,0.807405471802,1.40240705013,0.279139846563,0.52450299263,0.731337606907,0.319502919912,-0.330770254135,-0.456207901239,-0.157508358359,-0.396954596043,-1.25711226463,-0.158300831914,-0.183704376221,-0.39371868968,-0.14011734724,0.920194625854,1.27659785748,0.501454949379,0.706901609898,1.91236579418,0.147074401379,-0.35972815752,-0.950173318386,-0.0550353266299,0.910184383392,1.94525372982,0.207693040371,0.346462637186,2.0445086956,-0.249394029379,-0.557817578316,-0.988911807537,-0.257539838552,-1.00339818001,-0.497716009617,-0.758430242538,-0.507315397263,-0.152686268091,-0.40856730938,-0.373624354601,-0.362872630358,-0.301901549101,-0.207659676671,-1.19561564922,0.147094160318,0.00673505384475,-2.22946476936,0.54351913929,0.567430615425,0.962639689445,0.341328769922,-0.629220724106,-0.566081523895,-0.496955573559,-0.705386340618,-0.555703043938,-0.477389842272,-0.472421348095,-0.539133250713,-0.372332662344,0.874846160412,0.885898590088,0.532562613487,0.263375282288,1.20264720917,-0.0301815122366,0.162831664085,-0.657025158405,0.278116703033,0.136681690812,-0.474129080772,0.274804830551,-0.427534520626,-4.12666940689,0.674393773079,0.476821154356,0.964474022388,0.183661684394,0.56405633688,0.671189010143,0.342608124018,0.984458267689,0.984237313271,0.610510766506,0.438601076603,0.65787345171,0.264064967632,-0.367510467768,-0.439759612083,-0.29099214077,-0.540485084057,-1.69507265091,0.00751105090603,-0.357006579638,-0.0591057837009,-0.352235376835,0.191018402576,0.383505672216,0.297602385283,0.968291342258,1.84583485126,0.0983742251992,0.586570441723,0.584893286228,0.581769406796,0.900892198086,1.2489746809,0.206481069326,1.05789709091,1.54664707184,-0.570988476276,-0.549409866333,-0.498115956783,-0.302884042263,1.07831954956,2.50502562523,0.521039962769,-0.251294285059,-1.11965513229,0.0369374379516,-0.182397916913,-0.373406141996,-0.0768668204546,-0.752383768559,-0.91978597641,-0.465382486582,-0.626092851162,-0.39837795496,-0.46473634243,-0.277185410261,0.0387565493584,-0.300111234188,-0.647539436817,-0.667104899883,-0.398547261953,-0.667992413044,-0.835365951061,-0.361841648817,-0.447974145412,-0.349263638258,-0.31773608923,-0.496612012386,-0.679032742977,-0.268846124411,-0.564287483692,-0.450957030058,-0.383580356836,-0.433131724596,-0.319385617971,-0.280031323433,0.76224732399,0.832157075405,0.512914121151,0.747564136982,0.904914498329,0.400418132544,0.70948022604,0.0238226279616,0.649128258228,-0.57994890213,-0.479805648327,-0.365832865238,-0.578761994839,-0.492934823036,-0.476301312447,-0.503538668156,-0.555081546307,-0.281851619482,-0.570160984993,-0.372392982244,-0.474467515945,-0.604253947735,-0.634954333305,-0.374654829502,-0.617570698261,-0.616714596748,-0.471920996904,0.0577516965568,-0.586103379726,0.206722185016,0.527603209019,1.52109861374,0.152357414365,0.778206586838,1.32337379456,0.352801650763,1.502430439,1.45684993267,1.06354248524,-0.101115845144,-0.597725093365,-0.0172753892839,-0.560003876686,-0.960327267647,-0.189572036266,0.507905900478,-0.57959151268,0.483628898859,0.306490242481,-2.04928684235,0.650551021099,0.722271203995,0.412358105183,0.551164627075,0.8651689291,-0.534606873989,0.820805549622,0.490576505661,-2.71180915833,0.71047604084,0.798052489758,0.153599336743,0.64462518692,-0.611395835876,-0.537130773067,-0.456346064806,-0.629909157753,-0.825193047523,-0.368160545826,-0.442803144455,-0.52186447382,-0.247856333852,0.666340768337,0.395138204098,0.668374598026,0.742927789688,1.11480379105,0.346584916115,0.625103414059,0.762156486511,0.473153024912,1.12382590771,0.855723977089,0.701525390148,0.438878953457,0.55466145277,0.281588613987,1.55111050606,0.352890342474,1.3044937849,-0.266141921282,-1.55217134953,0.0903388932347,0.0511991344392,-0.880493044853,0.109505005181,2.0692384243,0.744190514088,1.79037427902,0.287250936031,-0.0176491551101,0.362626969814,0.94047242403,1.51277732849,0.462343156338,0.697382986546,0.927800953388,0.387635707855,-0.0189633704722,-0.604683935642,-0.0434807054698,-0.480583161116,-3.20239448547,0.234768778086,0.0455672629178,0.0520494021475,-0.0803142040968,-0.893943667412,-0.797526180744,-0.542604029179,-0.18757390976,0.429119110107,-0.284097343683,-0.725687205791,-1.00857567787,-0.387885063887,0.74361127615,0.72170317173,0.575492918491,0.941817343235,0.802972555161,0.490100473166,-0.587387621403,0.440284967422,-0.708168327808,0.747332215309,0.922101974487,0.412549883127,0.85760140419,1.0282535553,0.428993433714,-0.507666885853,0.233093738556,-0.62897837162,-0.478880614042,-0.353641569614,-0.444247275591,-0.549012899399,-0.700334310532,-0.282544374466,-0.596019327641,-0.385711103678,-0.444318890572,0.631031811237,1.27973806858,0.238836139441,-0.201400995255,-2.31894993782,0.347171217203,-0.812448382378,-0.913371384144,-0.545324742794,0.599547386169,0.9743309021,0.331201046705,0.66257160902,0.996789336205,0.218447998166,0.479026257992,-0.0595458224416,0.579050421715,-0.218098327518,-0.812339663506,-0.0762421637774,0.700523614883,-0.8377161026,0.853166818619,1.1986014843,1.04415738583,0.87962859869,-0.730048060417,-0.655119717121,-0.599394500256,-0.452928930521,-0.692117035389,-0.173414185643,-0.755046010017,-0.215663805604,-0.679048061371,0.921577870846,0.795562684536,0.577660620213,0.901760935783,0.992684781551,0.441969692707,0.0467633195221,0.220654264092,0.188765481114,-0.670906066895,-0.540656089783,-0.522892832756,-0.281077682972,-0.3781914711,-0.201619490981,-0.50833761692,-0.221082419157,-0.404532313347,2.16132259369,0.702634036541,1.75364756584,0.291124373674,-1.43933665752,0.545357167721,-0.56324005127,-1.23042857647,-0.405622333288,0.690580785275,2.29131364822,0.123557455838,-0.480138093233,0.180195122957,-0.421414136887,-0.848806202412,-1.27347970009,-0.491828024387,0.775490880013,0.689149022102,0.65265506506,0.921178042889,1.07720839977,0.480762898922,0.587023496628,0.408995777369,0.466919392347,-0.687545657158,-2.04561829567,-0.213907107711,0.379891932011,-0.974653482437,0.650101304054,0.872739672661,1.53876197338,0.356106191874,1.63449442387,-0.0392810441554,-0.594662249088,2.04479312897,-0.708009958267,-0.648810684681,0.822461724281,-0.370447874069,-0.507004201412,-0.988109707832,-0.957804858685,-0.684217691422,-0.75474178791,-0.605533719063,-0.466767221689,-0.120846047997,-0.00914054829627,-0.138794630766,0.0580222681165,0.303473711014,0.147837027907,0.624417722225,0.716477513313,0.302809178829,1.04427945614,0.689777374268,0.872456073761,0.73034876585,0.885353326797,0.583443462849,0.762307703495,1.44175887108,0.13010455668,0.253462105989,-0.106842316687,0.370863109827,1.8632029295,1.1074552536,1.41461920738,0.0374790616333,-2.03771662712,0.517025530338,-0.482052654028,-0.965383112431,-0.268399685621,0.237645864487,-0.207984566689,0.270068943501,0.718431174755,1.0725685358,0.425990849733,0.671802937984,1.26766395569,0.350811421871,1.05487060547,1.24132525921,0.603807151318,0.874903321266,0.712322950363,0.549113571644,-0.075064830482,0.0508695021272,0.00552428374067,1.09156489372,2.45893359184,0.470070242882,-0.490747481585,0.357292175293,-0.461966842413,-0.522535145283,-1.10161530972,-0.240332424641,0.940823674202,0.548765480518,0.856782853603,0.678898990154,1.48903310299,0.0395498163998,-0.0813823342323,0.0469169765711,0.0166795831174,-0.896563947201,-0.419166982174,-0.657200396061,-0.180904716253,5.3347902298,-1.29265964031,-1.40217971802,-1.33396136761,-0.973232924938,0.916161298752,1.3112527132,0.521683096886,0.559157788754,1.45327997208,0.250077873468,0.0665567293763,-0.388763695955,0.134795561433,-0.629440665245,-0.548338890076,-0.452247440815,-0.841499626637,-0.548216402531,-0.545802056789,-0.591203153133,-0.495262205601,-0.462936341763,0.766582250595,1.1142642498,0.497438549995,0.771024763584,0.732688784599,0.496484220028,0.319983810186,0.320143789053,0.228965625167,-1.54442894459,-0.244092866778,1.96491014957,-1.48319244385,0.324699580669,1.16470944881,-0.454658508301,-0.0501930229366,0.560883045197,0.761923134327,0.480655550957,0.531926333904,0.846100091934,1.19484579563,0.424991995096,-0.329629391432,0.512031793594,-0.382689386606,-0.60101121664,-0.738045990467,-0.333961933851,-0.852556943893,-0.868756115437,-0.54269605875,-0.230684325099,-0.434314846992,-0.061299379915,-0.431957930326,-0.734610617161,-0.219356387854,-0.79555106163,-1.18820500374,-0.402106076479,-0.26134249568,-0.329639643431,-0.210968926549,-0.81883597374,-0.921375274658,-0.51786339283,-0.849647641182,-0.966070175171,-0.534860193729,-0.354254007339,-0.474449068308,-0.234530180693,2.23322319984,0.62095272541,0.343281835318,0.378803312778,-0.890168607235,-0.553082585335,0.486561000347,0.218387231231,0.137405857444,0.439981281757,0.35999044776,0.309908092022,0.603423595428,1.28865349293,0.228818565607,0.623615801334,0.592525601387,0.369011282921,1.24678301811,0.221124753356,1.09002780914,1.06502461433,-0.325203388929,0.958979070187,0.975540041924,-0.667853415012,0.974155545235,-0.0507678464055,-0.0376466959715,-0.0803492069244,-0.535323381424,-2.91509723663,0.350822240114,-0.168349280953,-0.194855630398,-0.178597331047,-0.969603180885,-1.45207679272,-0.490259736776,-0.279942631721,0.0626004338264,-0.289893060923,1.11745452881,1.87930035591,0.57360714674,-1.14442336559,0.271239161491,1.68694496155,-1.35788238049,-0.297546863556,1.5622395277,-0.573595643044,0.483314573765,0.692155241966,0.652317106724,0.964751720428,0.357796430588,0.814697682858,1.02261567116,0.426013499498,0.490661531687,-0.876750051975,0.557306885719,0.254533797503,0.288867384195,0.125990286469,-0.0285162515938,2.89199948311,-0.7992836833,-0.693649530411,-1.18789970875,-0.466838598251,-0.321908921003,-0.724229514599,-0.133085101843,-0.627409338951,-0.977591395378,-0.367396682501,-0.298776090145,-0.780420839787,-0.233058363199,-0.617908775806,-0.630609571934,1.27947211266,-1.73424899578,-0.183000311255,1.97184550762,-0.0433495678008,-0.468889325857,0.532140135765,-0.0146298715845,-0.588095128536,0.131248250604,0.884605646133,0.237564176321,0.701823055744,0.667157411575,1.25921225548,0.299807876348,0.580046534538,1.03775250912,0.333109170198,0.798907697201,1.13473057747,0.353286266327,0.296269804239,0.198148071766,0.290074825287,0.807053148746,0.518772482872,0.608142733574,0.812361419201,0.084560200572,0.72769755125,0.376547813416,0.741161823273,0.248707562685,-1.01681983471,-0.998876810074,-0.699775338173,-0.650202810764,-1.39119410515,-0.158735394478,-0.304276704788,-0.0587910115719,-0.328751891851,-0.227629825473,-0.445601284504,-0.140708088875,-0.607151448727,-0.777469217777,-0.419786095619,-0.632008671761,-0.429981589317,-0.484469622374,0.447517216206,0.838876783848,0.252507656813,0.725590109825,1.39178168774,0.252778500319,0.657713890076,0.427808851004,0.506553769112,-0.327005684376,-1.33635890484,-0.0158999077976,0.27360060811,-2.22741913795,0.715173840523,1.32652175426,1.1394534111,0.844025433064,1.70663785934,0.756921768188,1.29498410225,0.293216943741,-0.624289393425,0.532047152519,-0.760830283165,-1.22677195072,-0.586475908756,0.677604019642,1.08500933647,0.373055428267,0.990774154663,0.0650556162,0.865980684757,0.313328176737,0.790991187096,0.0103212026879,-0.62336063385,-0.861979484558,-0.433884203434,-0.58222168684,-1.13139712811,-0.236397206783,-0.467426627874,-0.2952234447,-0.377519339323,-0.690116345882,-0.712944209576,-0.470906436443,-0.763673067093,-0.147272646427,-0.646661102772,-0.552421748638,-0.598929643631,-0.391950249672,0.64613121748,0.854124069214,0.577995479107,1.35516119003,1.14957046509,0.394980788231,-0.233888879418,0.459366381168,0.334660977125,1.31241321564,0.632912874222,1.00180482864,-0.0611302629113,-2.23104190826,0.43914809823,0.602704226971,-0.454500824213,0.58770942688,0.0827779248357,-0.165702059865,0.0546330474317,-0.219634771347,-1.59966659546,-0.136097684503,0.0663947984576,-0.142244771123,0.0262829829007,0.803086698055,1.09135508537,0.659294903278,1.12807321548,0.810773968697,0.450298637152,-0.185494333506,1.11898040771,-0.180407866836,0.714263737202,-0.234940797091,-0.74961745739,1.04467797279,-0.692380547523,-0.938103020191,0.978803157806,0.0500894524157,-0.784049272537,0.364478737116,1.8848259449,-0.219844684005,0.473417669535,2.38859605789,-0.141978025436,-0.733316242695,-1.23098349571,-0.373923540115,-0.76751178503,-0.672686040401,-0.557036399841,-0.50155121088,-0.313496679068,-0.342956095934,-0.423335909843,-0.541082262993,-0.251802295446,-0.602798342705,-0.390906244516,-0.48094651103,-0.495205670595,-0.456380605698,-0.373712867498,-0.689583301544,-0.472078949213,-0.495992541313,-0.648458957672,-0.860480964184,-0.384257942438,-0.72436863184,-1.03079175949,-0.388086438179,-0.25902852416,-0.33080470562,-0.219444826245,0.299156695604,0.462804079056,0.260503411293,0.902569234371,3.04461574554,-0.141802072525,0.288694947958,0.228750064969,0.344181776047,1.51430535316,0.600921928883,1.18777775764,0.541282176971,0.725850582123,0.437949806452,0.489503592253,0.670331001282,0.206935867667,-0.77515488863,-0.734601676464,-0.50278288126,-0.545151054859,-0.560526788235,-0.307393968105,-0.41646116972,-0.266930758953,-0.356249302626,-0.830761492252,-1.39898407459,-0.346109598875,0.337676674128,1.1403491497,0.00827915593982,0.994405150414,1.4489159584,0.590902268887,-0.206797167659,-0.448441982269,-0.00268012308516,0.738387525082,1.22466945648,0.334742635489,1.03805828094,1.32530248165,0.63822478056,0.904581308365,1.47879362106,0.447134554386,0.478885293007,1.20606005192,0.055315092206,0.125386312604,0.329835981131,0.0589230544865,-0.234874621034,0.185903429985,-0.222881093621,-0.739878833294,-0.373735815287,-0.614125967026,-1.14445698261,-1.44665169716,-0.680662333965,0.453665971756,0.132503196597,0.442268401384,0.530928015709,2.59619045258,-0.0870788246393,0.443814903498,0.552133023739,0.395183742046,-0.38667216897,-0.71246278286,-0.174085557461,-0.80369079113,-0.958847165108,-0.503164827824,-0.42807456851,-0.881175220013,-0.166163116693,0.518638908863,1.06989896297,0.196418955922,1.28932332993,0.43666473031,1.02288067341,0.528231739998,0.601442337036,0.41682523489,-0.5306661129,-0.636141061783,-0.312911421061,-0.698856890202,-0.640199422836,-0.461760610342,-0.537321329117,-0.327948510647,-0.417187362909,1.14942085743,0.873807311058,0.897261023521,0.51958411932,1.5845284462,-0.0688558965921,-0.138682603836,0.00244708987884,0.0282340403646,0.951149404049,0.605358481407,0.76928961277,0.479950845242,0.858192563057,0.137073040009,0.740762174129,0.265988051891,0.683694839478,-0.567843317986,-0.404631197453,-0.401174962521,0.286081492901,2.53078484535,-0.168410420418,0.0448083169758,0.428355455399,0.0145520865917,-0.630180239677,-0.487233430147,-0.429692387581,-0.67463517189,-0.321539819241,-0.565613985062,-0.419618815184,-0.740312337875,-0.212773427367,0.643489420414,0.739333033562,0.367158830166,0.837247133255,1.77140414715,0.127606481314,-0.00707874726504,0.103615403175,0.102517172694,-0.233420357108,-1.28146147728,0.0555977970362,-0.0630864277482,-1.57049322128,0.488289415836,1.31332051754,1.33042156696,0.916780054569,-0.337095081806,-0.510862767696,-0.172477036715,-0.418555229902,-0.780589222908,-0.143937841058,-0.746861100197,-0.464522480965,-0.555758357048,-0.635633945465,-0.594097495079,-0.509927093983,-0.675959348679,-0.526148438454,-0.455214381218,-0.702652812004,-0.395620584488,-0.481165021658,-0.730233252048,0.275872051716,-0.627334237099,-0.597755789757,-0.124859943986,-0.497073054314,-0.796810686588,-0.202567711473,-0.673843920231,0.97079461813,1.08267402649,0.515393078327,0.163035169244,0.826119482517,0.0104390494525,0.688592255116,1.0182454586,0.365587115288,0.0106444647536,0.0419989451766,0.173541352153,0.69108825922,0.926073133945,0.375671088696,0.791374504566,1.22599291801,0.53729736805,-0.746349573135,-0.764258563519,-0.481276959181,-0.637087702751,-0.68524980545,-0.365600287914,-0.458149164915,-0.25781172514,-0.41164124012,0.673227667809,0.783614456654,0.454198181629,0.698778927326,1.27127790451,0.233743339777,0.354713559151,-0.171731427312,0.435475379229,-0.0284882672131,-1.12170886993,0.206007882953,0.0290466956794,-1.81755793095,0.520795166492,1.57940685749,1.83123266697,0.902294516563,0.512747347355,1.29468274117,0.139464497566,0.708321213722,2.17337465286,-0.013994817622,0.25889056921,0.0224515832961,0.341919332743,0.294966816902,0.24732260406,0.326730787754,0.659843981266,1.9853978157,-0.0774788036942,0.468399524689,0.242743998766,0.504909098148,-0.549734175205,-0.952052772045,-0.379606962204,-0.81353777647,-0.0168249122798,-0.70839381218,-0.248487889767,-0.798562645912,-0.165958300233,-0.739625275135,-0.683639287949,-0.455198079348,-0.731810331345,-0.614481568336,-0.585269749165,-0.787839353085,-0.660992145538,-0.509655594826,0.787759363651,0.918185353279,0.473496675491,0.823241591454,0.822154521942,0.523314297199,0.697421193123,0.387952119112,0.592216789722,1.58343183994,2.1410138607,0.981805026531,-0.309392541647,0.102498330176,-0.242679789662,-0.492963701487,-0.955986976624,-0.23559461534,-0.592870533466,-1.0176461935,-0.298616111279,-0.44776442647,-0.405706465244,-0.426140666008,-0.48234307766,-0.737817108631,-0.310186296701,0.517492234707,0.764997363091,0.253489494324,0.764769673347,1.19746232033,0.398188829422,0.445966660976,0.289252758026,0.347001194954,-0.694377422333,-0.552904129028,-0.418887317181,-0.690295517445,-0.393144220114,-0.49493598938,-0.502522647381,-0.400514602661,-0.354151815176,0.723799347878,0.531849384308,0.69029957056,0.683151304722,1.12685990334,0.189183920622,0.575747966766,0.229276269674,0.623565018177,0.72094810009,1.40625095367,-0.401648908854,1.10450947285,1.39540624619,0.0695825666189,0.274004220963,-0.476758986712,0.10108666867,0.256047546864,0.793752610683,-0.000673086324241,-0.306091338396,-3.95709991455,0.717554152012,0.254620283842,0.447641760111,0.0664594098926,0.336946755648,-0.457146465778,0.34948527813,0.822302281857,0.39072394371,0.690042078495,0.953762352467,1.06637513638,0.675304591656,-0.641394495964,-0.524156272411,-0.433839857578,-0.66005730629,-0.503820300102,-0.501389205456,-0.62909924984,-0.431357502937,-0.509935677052,-0.104498058558,-1.08367908001,0.177797690034,1.21175813675,1.80254149437,0.654081285,0.143965467811,0.462244004011,0.0386577993631,0.7264290452,0.847579538822,0.401810407639,0.767649829388,0.697415709496,0.559951484203,0.678329885006,0.441174000502,0.414604038,-0.514033019543,-0.260362446308,-0.36435046792,-0.370060026646,-0.163214355707,-0.335173904896,-0.893551528454,-0.403067618608,-0.683439254761,-0.62032610178,-0.522302091122,-0.442885309458,-0.753717601299,-0.0800063535571,-0.653375148773,-0.582174122334,-0.399895429611,-0.389659941196,-0.597677528858,-0.635823845863,-0.407042562962,-0.692589044571,-0.7820327878,-0.490866333246,-0.395863413811,-0.582634806633,-0.239364638925,0.376438945532,0.902055501938,0.198122158647,0.940639197826,1.79694449902,0.0170043129474,0.125490412116,0.358536273241,0.115289770067,0.901018738747,1.68250274658,0.463029116392,0.978654921055,0.777430653572,0.647663116455,-0.156964421272,-0.685942709446,0.100162796676,-1.95794665813,-0.975206136703,-0.540503919125,-0.636380732059,0.220981642604,-0.014036597684,-0.605676651001,-0.371611893177,-0.163719698787,-0.590222299099,-0.814755558968,-0.425506621599,-0.585412681103,-0.236010536551,-0.562819361687,-0.486481547356,-0.619608819485,-0.283360391855,-0.278024882078,-0.312130153179,-0.196475997567,-0.642471551895,-0.547596931458,-0.689310848713,-0.682048976421,-0.786819517612,-0.471002876759,0.645600259304,1.14356637001,0.218281254172,0.622705161572,1.52275419235,0.220570594072,0.39521124959,-0.309662044048,0.443717986345,-0.0746232792735,0.339730918407,-0.0980715453625,0.574335336685,3.81758713722,-0.422418683767,-0.293802112341,-0.868516564369,0.0555479675531,0.472990393639,0.947766005993,0.27267947793,0.944282829762,1.94014084339,0.210827767849,0.0140413315967,0.224560409784,0.166977405548,0.525441110134,-1.3423371315,0.578482270241,0.67937618494,0.984743773937,0.486747175455,0.622074842453,0.947504580021,0.346871137619,0.853200674057,0.633799731731,0.585995733738,0.875295519829,1.02422392368,0.528232574463,0.247217923403,0.332350492477,0.144520774484,0.726869046688,0.783898055553,0.4447093606,0.404540151358,1.1579760313,0.196262553334,0.557359695435,0.170597612858,0.416488707066,0.905916333199,-0.693211138248,-1.01963245869,1.81154763699,0.0558245256543,-1.14619898796,0.905952274799,-0.383668810129,-0.765309989452,0.333468616009,0.208244293928,0.377435773611,0.7252150774,1.45568585396,0.286023914814,0.673988580704,0.727004528046,0.428000569344,-0.771499872208,-0.491809934378,-0.584235966206,-0.576527476311,-0.407974988222,-0.437366217375,-0.388989090919,-0.219990283251,-0.299501538277,-0.671150803566,-0.510948896408,-0.511533439159,-0.648056030273,-0.380453824997,-0.505475699902,-0.488899558783,-0.511896133423,-0.338173478842,-0.499602407217,-0.441074222326,-0.347362875938,-0.605453252792,-0.809480130672,-0.389597356319,-0.652101635933,-0.441308557987,-0.491139829159,1.11875474453,1.5591057539,0.616316795349,0.375661373138,-0.85048443079,0.491491436958,-1.66737031937,-1.98320734501,-1.05973410606,1.17924177647,1.13466751575,0.808807790279,0.635154485703,1.43052756786,0.140573516488,-0.318661600351,-0.506463110447,-0.189635962248,0.898339450359,1.33011257648,0.65097039938,0.458629190922,1.3105994463,-0.213562190533,0.0705842450261,-0.0873469412327,0.370932161808,0.700000047684,0.95498842001,0.451728910208,1.00023496151,1.78430151939,0.379244238138,0.00444585410878,0.344333052635,0.0759718492627,1.14144313335,0.916508555412,0.857947766781,0.614773988724,1.60105729103,-0.0336483158171,-0.993005871773,-0.0284102838486,-0.791747748852,1.2917137146,1.84192943573,0.703053236008,0.159995257854,-2.25389862061,0.651952922344,0.0154308397323,-0.997030854225,0.191441863775,-0.650987565517,-0.489741414785,-0.441425323486,-0.603724181652,-0.321803927422,-0.467604070902,-0.445871382952,-0.437843292952,-0.365559905767,-0.84112650156,0.134215816855,-0.75197738409,-0.59806394577,-0.0211463794112,-0.536810219288,-0.408572912216,-0.854187428951,-0.237030148506,0.528939366341,1.01085948944,0.192759379745,0.819144368172,1.66660702229,0.303269207478,0.832341134548,-0.312227994204,0.814187526703,0.50473845005,1.08450424671,0.15336664021,0.969588756561,1.62867641449,0.499082237482,0.547136008739,0.310701221228,0.410394906998,1.07404005527,0.477797925472,0.856832623482,0.232433393598,1.11430358887,0.0274428036064,0.0656417906284,0.719125032425,-0.148747593164,1.50691699982,0.360339015722,-0.42053732276,0.805232346058,-0.682501494884,-0.554453909397,1.30461215973,-0.258324086666,-0.364260405302,0.653922557831,0.944385528564,0.353924423456,0.670138478279,2.20657920837,0.0130242081359,-0.0539695136249,-0.216423600912,0.0827995240688,0.839810788631,0.861669182777,0.688038051128,0.578941047192,1.75930082798,-0.0972151309252,0.00513778580353,-0.458322674036,0.177470862865,-1.95184230804,-0.544511377811,-1.89078128338,-0.400798529387,0.966286242008,-0.395085990429,-0.0673152580857,0.383533209562,-0.186149135232,0.357288300991,1.11951291561,0.116358369589,0.862843513489,1.39242720604,0.385401695967,0.506109416485,-0.713988602161,0.580205619335,0.976604223251,0.135660171509,0.797627985477,0.69328391552,1.58874464035,0.159609556198,0.142255350947,0.347643613815,0.134169653058,1.23663985729,0.971643328667,1.74285030365,-0.484452337027,0.0762302726507,0.385005772114,1.36496031284,0.52861058712,0.487575769424,0.67444562912,-0.587934136391,0.657299041748,0.149606660008,-3.70804572105,0.887772858143,1.14264273643,1.09524095058,0.679093062878,-0.453809648752,-0.667222261429,-0.27522367239,-0.71430927515,-0.555098056793,-0.616108000278,-0.377295285463,-0.504296898842,-0.254720777273,0.739385247231,0.894159018993,0.514061689377,0.747394979,1.20890986919,0.357273310423,0.0738334283233,0.255435824394,0.151836201549,0.996122837067,1.51070976257,0.497904986143,0.827480018139,0.633374273777,0.60731613636,0.288286209106,0.49081864953,0.148893132806,0.832355320454,1.17077052593,0.37357506156,0.733227670193,1.52300608158,0.201518163085,-0.0213534720242,-0.228574618697,0.000400839548092,-0.56612432003,-0.694124281406,-0.35958686471,-0.707661926746,-0.713036358356,-0.49682483077,-0.459938764572,-0.330045729876,-0.324059575796,1.73398649693,1.27183103561,1.24124658108,0.623420953751,-1.8373824358,0.95940631628,0.157755509019,-0.874156475067,0.296709597111,0.971774816513,0.360246926546,1.1101026535,0.793105006218,0.955305278301,0.186368778348,0.331737011671,-0.434342175722,0.550783932209,-1.20495200157,0.579860568047,0.333894342184,-0.702875614166,0.638551592827,0.610853612423,-1.72177243233,-0.0451674498618,0.684083521366,0.988329529762,1.4676926136,0.473079323769,-0.186718836427,-1.98909914494,0.340268403292,-0.560497164726,-0.89192533493,-0.372617483139,-0.316287249327,-1.19840586185,-0.096617937088,-0.174118578434,-2.91178607941,0.580817520618,0.766251027584,1.09757184982,0.398789852858,0.730496108532,0.972515106201,0.412488996983,0.603764653206,0.832629621029,0.257692456245,0.484420001507,0.838379323483,0.34090256691,1.471180439,1.65451002121,1.01488256454,0.529880940914,0.81610584259,0.147498175502,-0.291362434626,-0.302712857723,-0.127934262156,-0.37451761961,-0.614714205265,-0.278625249863,-0.926585614681,-0.966586172581,-0.453608959913,-0.438155353069,-0.497523367405,-0.382741630077,0.780875504017,1.14990627766,0.489273101091,0.871141374111,0.94405901432,0.554494202137,0.401218175888,0.783285856247,0.188585743308,-1.11405193806,0.0739075988531,1.32228636742,-1.6703774929,0.797312259674,1.1681804657,-0.701315104961,-0.245649039745,0.77006059885,-0.661100149155,-0.728686928749,-0.525606513023,-0.842499494553,-1.25199007988,-0.595417380333,-0.65901350975,-0.827050507069,-0.506128013134,-0.507002353668,-0.437011212111,-0.365357160568,-0.490576118231,-0.904303908348,-0.297500044107,-0.713852286339,-0.602398216724,-0.516095459461,0.565878510475,0.708147883415,0.360834777355,0.997644484043,2.01992440224,0.180955603719,0.256708860397,0.133219376206,0.256492674351,1.03570353985,1.73450863361,0.493574380875,-0.611720860004,-1.13083410263,-0.238737091422,-0.800293624401,-1.60317504406,-0.370839595795,-0.0721860826015,0.541617035866,-0.340837478638,0.961913347244,1.24901974201,0.660798430443,0.796506583691,0.904730677605,0.533394694328,0.604736447334,0.833416283131,0.390350073576,0.865588247776,0.690447390079,0.578726649284,0.393342792988,0.557990849018,0.247846201062,-1.19602537155,-1.7258579731,-0.695114374161,-0.586182415485,-0.54445630312,-0.316410809755,-0.017146922648,0.303341239691,-0.217225253582,0.616690576077,2.22401380539,0.0324592888355,-0.298030763865,-1.44904065132,0.206335231662,-1.12334930897,-0.605340063572,-0.906522750854,0.62918305397,-0.99951416254,0.697341918945,0.801662921906,1.31501841545,0.457545131445,0.782974779606,0.576803982258,0.588411927223,-0.313038498163,-0.128135636449,-0.251257061958,-0.710776627064,-0.799576818943,-0.505912065506,-0.591308653355,-0.547789335251,-0.419154107571,-1.12705075741,-0.908689081669,-0.752928972244,0.0921472087502,-0.813420057297,0.26218482852,0.980295181274,1.41055774689,0.539309263229,-0.742916285992,-0.601918756962,-0.444964379072,-0.685264527798,-0.485480189323,-0.583771109581,-0.604278147221,-0.641730427742,-0.332465082407,0.698480546474,0.864098787308,0.402386307716,0.867124557495,0.737456321716,0.591476261616,0.873393952847,-0.081469476223,0.796264588833,0.720607817173,0.724404990673,0.461140990257,0.919806182384,1.35418617725,0.390588760376,0.661877095699,0.392223834991,0.491494804621,0.865476965904,1.10418903828,0.486151486635,0.771754086018,0.978955984116,0.512095034122,0.551918923855,0.230055749416,0.434186279774,0.784576237202,-0.400591313839,-0.609006762505,1.42004144192,-0.614149987698,-0.72286605835,1.41682827473,0.452588737011,-0.859834134579,0.546109616756,-0.347461044788,0.526044309139,0.262237399817,-2.7965734005,0.784755766392,0.521019101143,0.613747000694,0.278167128563,0.624672830105,0.84696829319,0.469213992357,0.870033979416,1.41095387936,0.448517948389,0.799671590328,-0.913602352142,0.908989429474,-0.277724206448,-0.407889574766,-0.166085764766,-0.760804653168,-1.2412405014,-0.307014524937,-0.620904803276,-0.670550048351,-0.389429777861,-0.704994797707,-0.494358897209,-0.670259177685,-0.626310825348,-0.134132757783,-0.483269929886,-0.415192872286,-0.11128655076,-0.359921246767,1.34490823746,0.29582798481,1.12695455551,1.1925381422,0.66400885582,0.806807100773,-0.886850059032,-0.900096893311,-0.511505067348,0.601691484451,-0.949839413166,0.667475104332,0.103907831013,-3.12118935585,0.88458865881,1.02098572254,0.941767156124,0.661503911018,0.35785228014,1.20325529575,0.0702424570918,-0.224817931652,-0.0511556528509,-0.14328558743,-1.12962770462,-1.39314210415,-0.697664260864,0.0764681696892,0.992688775063,-0.0731381103396,-0.659388542175,1.06888794899,-0.780909597874,-1.66737663746,-1.58201825619,-1.20372331142,-0.912753641605,-1.54404497147,-0.422539442778,-0.555634975433,-1.21947860718,-0.112308882177,0.374992638826,0.166893348098,0.236852660775,-1.42403781414,-2.48427343369,-0.775812327862,-0.0693423449993,0.988908410072,-0.337692975998,0.181338176131,0.578225374222,0.121300235391,-0.671649575233,-0.769835591316,-0.427930414677,-0.943741083145,-0.974488437176,-0.642506539822,-0.546301841736,-0.584784090519,-0.426618218422,-0.91849398613,-2.00506210327,-0.375392526388,-0.251374393702,-1.2198163271,0.0283427797258,0.943940341473,1.0692293644,0.498174071312,-0.949013411999,0.305003106594,0.917625367641,-1.12355303764,-1.32556974888,1.70271778107,-0.640854895115,0.563607752323,0.936760544777,0.763776659966,-0.128789052367,0.695619881153,0.852294385433,0.848527252674,0.545045256615,0.437098652124,0.763777852058,0.238783717155,-0.462976872921,-0.782092869282,-0.359663903713,-0.596689343452,-2.68454241753,0.22802118957,0.0188043601811,0.302268028259,-0.176797196269,-0.855177402496,-0.930156826973,-0.541810810566,-0.76756131649,-1.07717573643,-0.359477937222,0.300191998482,0.711517989635,0.0450497865677,-0.767956852913,-0.757586479187,-0.506972193718,-0.785663127899,-0.80968028307,-0.479390501976,-0.32788926363,-0.399210125208,-0.187895566225,-1.61464452744,-0.0253587961197,0.985797345638,-1.65873253345,0.353871107101,2.02205872536,-1.2657968998,-0.115062989295,0.868898272514,0.651164352894,0.785375535488,0.42610642314,0.75334829092,1.04991316795,0.370204746723,0.127835601568,0.556561052799,0.0224852710962,-1.44682407379,-1.49447703362,-1.02371573448,-0.357570558786,1.64810419083,-0.669085144997,-0.1723741889,1.12167286873,-0.196381613612,-0.339951187372,-1.62801980972,-0.0872130617499,0.637164235115,-2.40538287163,0.968778133392,0.638591587543,1.80016422272,0.322711974382,1.48851883411,0.756959080696,-0.903726398945,-0.00169393455144,0.883580863476,0.480498462915,1.38187158108,0.689679265022,-0.619436204433,0.697987616062,0.61911547184,0.558003783226,0.940169036388,1.85744345188,0.363049775362,0.656322717667,-0.318331241608,0.649743437767,-0.837274432182,-0.88747882843,-0.575520694256,0.875036120415,0.904742181301,0.779993474483,1.13856971264,1.37480199337,0.64217710495,-1.10586595535,-0.0983213931322,0.867145895958,-1.51722586155,0.571778774261,1.27792584896,-1.05092775822,0.14027453959,1.06561231613,0.993496417999,-0.125615924597,0.829394996166,0.821550130844,1.12811684608,0.521769762039,0.474277734756,0.554897665977,0.297515392303,0.398867458105,1.03893280029,0.101366341114,-0.3699041605,-0.312152057886,-0.238750040531,-1.23038268089,-0.942303836346,-0.8552724123,0.643014192581,0.55717176199,0.34783628583,0.362647980452,1.48712587357,-0.00743322307244,0.607389569283,-0.0688690468669,0.600650310516,0.963677406311,1.46734154224,0.455358922482,0.145832523704,-0.986517250538,0.318875104189,-1.37255036831,-1.46372389793,-0.948430478573,-0.226155489683,0.134936437011,-0.119880720973,0.64475518465,1.20049381256,0.220479264855,0.926937401295,0.848017692566,0.666036367416,-1.30709826946,0.188578650355,1.03968119621,-1.61632025242,0.390332967043,1.14409697056,-0.978058636189,0.0272203907371,1.15738594532,0.314445137978,0.425270110369,0.127289503813,0.190476775169,0.983147501945,-0.00731359887868,1.19122457504,1.05904364586,0.840931534767,0.350276827812,0.472847044468,0.302158683538,0.916225016117,2.12030982971,0.27445140481,0.385066717863,0.362989783287,0.318814396858,-0.13743339479,-0.708703100681,-0.111522771418,-0.67899787426,-1.33988404274,-0.32272991538,-0.214953392744,-0.712551474571,-0.195574149489,0.878201007843,0.666296541691,0.710106372833,0.670911252499,0.939505040646,0.302125364542,0.647917151451,0.286371707916,0.621996998787,0.581017136574,0.824147224426,0.433437049389,0.211347058415,2.12427616119,-0.254537194967,0.445336163044,0.633044183254,0.287498801947,0.930485129356,1.29783987999,0.422107040882,1.28447306156,0.45265480876,0.358197301626,0.297557085752,-0.471299260855,0.130131974816,-0.705956101418,-0.391493827105,-0.477681666613,-0.569377958775,-0.315117746592,-0.359618186951,-0.388312995434,-0.594306707382,-0.232950255275,0.901850879192,1.03396475315,0.588018476963,0.811204195023,0.708361923695,0.707961976528,0.798671007156,-0.208787471056,0.640818655491,0.290810972452,0.908451080322,0.0323851555586,0.665957152843,1.26386260986,0.240749642253,0.360061645508,0.480087906122,0.350705087185,-0.072556167841,-0.588664531708,0.119366012514,0.584143280983,2.11584281921,-0.119693510234,0.722025215626,1.04965114594,0.463448375463,-1.85818564892,-1.84026038647,-1.40546154976,0.592784047127,-0.125224024057,0.672554910183,0.732866764069,1.36091125011,0.395372211933,0.587032735348,0.829172372818,0.428559094667,0.99471193552,1.94467246532,0.196282088757,0.280471503735,0.270097672939,0.330933898687,0.38149830699,0.236042335629,0.374283790588,0.625838518143,1.50100827217,-0.0575980767608,0.611066102982,0.682768642902,0.468337923288,0.250430524349,0.469272524118,0.0800929814577,-0.308267772198,-3.09660482407,0.533675611019,0.0441102720797,0.11607055366,-0.0728248432279,-1.6412268877,-0.686140298843,-1.3170645237,0.15513317287,2.48916864395,-0.198681116104,-0.0966512858868,0.539571046829,0.177112221718,-2.15579223633,0.221996307373,-0.609227061272,-0.184725731611,1.51312279701,0.0494063347578,-1.91237509251,-0.235927298665,-0.391345381737,1.70909011364,1.31600213051,1.20771825314,0.0745042487979,-1.951390028,0.572066128254,-0.342550128698,-0.87557053566,-0.210065558553,0.901857733727,1.12139260769,0.454152554274,0.812963366508,0.462183445692,0.633697867393,0.864895582199,-0.39356482029,0.802557229996,0.48554110527,0.750092327595,0.261625319719,0.893604397774,0.95447653532,0.58730006218,0.0795362144709,0.555471837521,-0.0707986354828,0.353216022253,0.631597757339,0.250291407108,0.673963725567,1.3499917984,0.00693052122369,0.282656401396,0.26517021656,0.393807798624,0.659931242466,1.17299854755,0.219571262598,0.76521641016,1.53380036354,0.124372832477,0.162803560495,-0.214245393872,0.348612248898,0.783372700214,0.963458359241,0.53433662653,0.670255661011,1.38445830345,0.312447339296,0.521541535854,0.0157978516072,0.516446232796,0.971171021461,1.31789493561,0.497272074223,0.902167677879,1.49510240555,0.314636826515,0.717449188232,-0.126044377685,0.685986578465,-0.855864882469,-0.180999726057,-0.700033485889,-0.319196522236,0.0419056490064,-0.245352238417,-0.68045848608,-0.185455694795,-0.541450858116,-0.886457324028,-0.329773664474,-0.535438716412,0.581730782986,1.31150734425,0.0829701423645,1.15784931183,0.631009995937,0.918930351734,0.38825315237,0.177294328809,0.770202755928,0.779844462872,1.32528710365,-0.177522927523,0.885769605637,0.399047672749,0.968025147915,1.16428029537,0.544527173042,0.973826110363,0.361963868141,1.43422985077,0.0375722162426,-0.498332053423,-0.302929669619,-0.394545853138,-0.573700785637,-1.1129283905,-0.203565761447,-0.277901291847,-2.04510378838,0.274223685265,0.763533592224,0.779342234135,0.485087513924,1.16716170311,0.455747872591,1.14135885239,0.809441268444,1.44008600712,-0.205026403069,0.485564380884,0.408773750067,0.849816262722,0.655109226704,0.265069842339,0.501534223557,0.863246977329,1.92472934723,0.277898699045,0.495598971844,-0.130055546761,0.409314781427,0.714506983757,1.12738311291,0.263612627983,1.24889314175,1.3148380518,0.774145841599,-0.22735068202,0.96982562542,-0.502084732056,0.628992974758,0.576403081417,0.504936337471,0.750981032848,1.19831311703,0.215927779675,0.177970394492,-0.152136608958,0.319682091475,-0.0744802355766,0.572034418583,1.78581285477,-0.823294043541,-0.910248756409,0.983825206757,-0.324870467186,0.0619493238628,1.25429391861,-0.788754463196,-0.586720108986,-0.568493366241,-0.656737446785,-0.358503878117,-0.563114583492,-0.349975675344,-0.522187948227,-0.218057215214,-1.65835011005,-2.09870481491,-0.987163603306,0.416377484798,1.02031946182,0.133650630713,0.93988275528,1.23057258129,0.604794859886,1.47350549698,1.79410469532,0.822472631931,0.473951309919,-1.58473157883,0.713112235069,-0.444555580616,-0.545185387135,-0.289218008518,0.525532722473,0.755010426044,0.361315429211,0.625005662441,1.23094642162,0.036176674068,0.413738310337,-0.07727406919,0.528383731842,0.798206329346,0.952132403851,0.549160063267,0.836863040924,1.32289588451,0.223862394691,0.521631777287,0.431808978319,0.524838030338,0.458419054747,0.67624181509,0.285358816385,0.749381184578,1.56205439568,0.163478523493,0.266596704721,0.0512381233275,0.293611854315,0.218585148454,0.571926295757,0.0767567306757,0.746765315533,1.30803906918,0.404129892588,0.712458133698,0.692058563232,0.551888465881,-0.274108946323,-0.179559707642,-0.208340659738,0.104568183422,0.320522278547,0.0481486953795,1.06737148762,2.14809823036,0.488489538431,1.45742678642,-0.189473927021,-1.40468001366,1.75595498085,0.402027904987,-0.922208726406,0.696272373199,-0.526976644993,-0.693883657455,-0.164505377412,-0.269081264734,0.0866709724069,0.797208607197,0.508687078953,0.638493299484,1.00687110424,1.49512720108,0.6116142869,-0.568726480007,-0.501814782619,-0.401161134243,-0.737857937813,-0.774134814739,-0.437899887562,-0.324502915144,-0.642082810402,-0.180336728692,0.635569095612,0.849962234497,0.280881166458,0.801625072956,1.21194267273,0.435198038816,0.600936830044,0.70240354538,0.291960388422,0.810990393162,2.01380300522,0.192977324128,0.24078682065,2.47160172462,-0.40574786067,-0.755994975567,-1.1964379549,-0.440013021231,0.740605711937,0.264101475477,0.677423357964,0.641134262085,1.11945450306,0.267427384853,0.915569186211,0.50126594305,0.690223872662,-0.404565691948,-0.750250816345,-0.227886036038,-0.774396300316,-0.998300552368,-0.328144609928,-0.450700819492,-0.4826361835,-0.354869484901,0.681718528271,1.10235273838,0.0121403392404,0.863497376442,0.957652270794,0.835599780083,0.542937934399,0.851794838905,-0.015530734323,-0.603354990482,-0.850327849388,-0.366540789604,-0.813920676708,-1.1484913826,-0.301935374737,-0.498557806015,-0.366858899593,-0.420950680971,0.746675670147,1.16674160957,0.0989445596933,1.01010048389,1.05481922626,0.760389149189,0.179651781917,0.646760046482,-0.0854056999087,-0.526170134544,-0.511302828789,-0.406515091658,-0.497376650572,-0.407740950584,-0.396947592497,-0.536367058754,-0.488740324974,-0.390089035034,0.830475568771,1.41592931747,0.250909924507,1.18581902981,1.81173396111,0.4130679667,0.0818960815668,-0.0379674732685,0.301263213158,-0.383088737726,0.231649786234,-0.656776607037,1.22448146343,1.19011890888,0.902661144733,0.585026144981,0.808928847313,0.435944467783,0.846024274826,0.243357911706,0.659914374352,1.00343263149,1.01204574108,0.621141254902,0.623830258846,0.531070053577,0.350935906172,-0.471909075975,-0.229484543204,-0.365194708109,0.984250843525,1.56700742245,-0.337268769741,0.900935292244,1.25092506409,0.392827153206,0.499301493168,0.54002404213,0.391626775265,0.652084171772,2.59302735329,-0.22173653543,0.188780814409,-0.0364031940699,0.251615822315,-0.605807065964,-1.03385233879,-0.341561168432,-0.668911933899,-1.57361352444,-0.00158313219436,-0.472897976637,-0.81926125288,-0.202698603272,0.582720458508,-1.83275341988,0.804150462151,0.954928576946,0.957149267197,0.645168125629,0.721750497818,0.865832090378,0.502547979355,0.814567029476,0.372054278851,0.632562100887,0.663852930069,0.922358632088,0.440366148949,0.646565973759,0.382650732994,0.418555855751,0.7694003582,0.825326025486,0.720066070557,1.29541087151,1.05910170078,0.568008959293,-0.251217901707,0.13370808959,0.273231774569,0.776836335659,0.744288027287,0.522974133492,0.771912932396,1.64276897907,0.290565133095,0.541554510593,0.404992252588,0.362880378962,0.561252236366,0.704626142979,0.38959479332,0.490994125605,2.00941228867,-0.195087492466,0.0118005042896,-0.160449206829,0.131568104029,-0.513545572758,-0.844885647297,-0.271244317293,-0.37844696641,-0.943265616894,-0.0594801194966,-0.248832389712,-0.494337022305,-0.190058097243,0.710596561432,0.989819526672,0.434900105,0.989194869995,1.06801843643,0.596508145332,-0.467445462942,0.406859517097,-0.239243939519,0.757349610329,-0.0419276170433,0.594662070274,0.695567250252,0.343110054731,0.690658807755,0.197091311216,0.90479195118,-0.124739892781,1.07623493671,0.698030292988,0.813884913921,1.06434869766,0.263581931591,0.789368569851,-0.119862467051,-0.249980345368,0.0180830918252,0.362180829048,1.08450496197,0.0256023257971,1.04782998562,0.144423380494,0.882608056068,0.22675254941,0.742790043354,0.0668837279081,-0.757397830486,-0.521143257618,-0.63275706768,-0.59135890007,-0.282281935215,-0.543944835663,-0.469814956188,-0.523706138134,-0.350385725498,0.03373388201,1.1282762289,-0.171042904258,0.158771231771,1.1843123436,-0.170628607273,-1.88363552094,-1.95804858208,-1.13899612427,0.510680913925,0.615968286991,0.281926631927,-0.250159174204,-3.82657456398,0.690103232861,0.121399670839,0.531384587288,-0.10187394172,0.836289763451,-0.0375005938113,0.700770199299,0.838150918484,1.93657195568,0.282243639231,0.478468447924,0.281750440598,0.363668501377,-0.292846739292,-0.978720068932,-0.167631044984,-0.734248936176,-1.70095741749,-0.276828020811,0.105245321989,0.103597119451,-0.000285287329461,-0.523971915245,-0.822319567204,-0.309040248394,-0.695930480957,-0.501383364201,-0.474088639021,-0.46182307601,-0.617059707642,-0.308292359114,1.15690076351,0.859481155872,0.867835700512,0.257139623165,1.21235895157,-0.110215246677,-0.238576024771,-0.416924953461,-0.0797072350979,-0.677619874477,0.0513030700386,-0.557591736317,-0.821206867695,-0.264485865831,-0.668151974678,-0.695964097977,-0.763406276703,-0.405890613794,-0.645826220512,0.0325136855245,-0.97925388813,0.937957346439,1.08210396767,0.61076182127,0.675796866417,0.601734757423,0.496175020933,0.94209587574,0.209328427911,0.835110545158,1.06808841228,-0.0383796468377,0.875343859196,0.274049341679,-0.871374487877,0.467968463898,0.611079335213,0.864686191082,0.373412847519,0.874818265438,1.16980838776,0.482764333487,0.382501453161,-0.388940483332,0.421596705914,1.35790646076,1.04300451279,0.8460252285,0.830947399139,0.970508277416,0.56749355793,0.0934421792626,1.24494123459,-0.159370526671,0.629572093487,1.05485093594,0.367017805576,0.340175032616,0.423891365528,0.237326309085,0.794364392757,0.524031758308,0.55521273613,0.221199080348,0.608616769314,-0.0297151654959,-0.508248627186,-1.26236832142,-0.119978450239,-0.915648579597,-1.24290883541,-0.515954971313,-0.594155967236,-0.504917860031,-0.429347902536,-0.65597140789,-0.508715748787,-0.47646355629,-0.346232831478,-0.542819499969,-0.201744928956,0.169084712863,-0.550786018372,0.30843731761,0.362696886063,-0.705192804337,0.292272031307,2.03153824806,0.180577591062,1.84310698509,0.664116978645,0.690535306931,0.50437515974,0.63157171011,1.50783288479,0.16103322804,0.316501140594,0.260168075562,0.256871193647,1.69728672504,1.74590873718,1.19064569473,0.264572829008,1.01486182213,-0.111905090511,-1.23262584209,-0.823209583759,-0.823109924793,0.833301544189,1.42640817165,0.409396618605,0.500763773918,1.31551682949,0.0316528603435,-0.333631247282,-0.892955005169,-0.0427230745554,0.677521586418,0.658889770508,0.434482187033,0.746664047241,1.27886176109,0.364983767271,0.147030353546,0.139171987772,0.175211429596,-0.796926021576,-1.67234134674,-0.280496239662,-0.357376158237,-1.84891009331,0.27096426487,0.813318133354,1.12125873566,0.44704002142,-0.493332564831,-0.526789486408,-0.343313008547,-0.555504739285,-0.686075866222,-0.343872278929,-0.529068529606,-0.478192716837,-0.400424182415,-0.413626015186,-0.601926922798,-0.276947259903,-0.390965491533,-1.14689218998,-0.0506346262991,-0.473579734564,-0.552134394646,-0.334051936865,0.925616145134,0.86797785759,0.63715928793,0.569669544697,1.48142325878,0.217307388783,-0.221747353673,-0.675573885441,-0.0833261013031,0.587780117989,1.496925354,0.145365417004,0.60609036684,0.73942810297,0.337817162275,0.496045708656,0.347672879696,0.404889345169,1.08027625084,-0.0652108490467,0.964819908142,0.652627825737,1.22676408291,0.34919372201,-0.170914426446,0.926011502743,-0.331085592508,-0.545622527599,-0.435318052769,-0.459665358067,-0.762577354908,-0.734596788883,-0.490563392639,-0.335852384567,-0.225029245019,-0.262013316154,0.78740042448,0.754046201706,0.618511557579,1.02751076221,1.02235281467,0.664784252644,-0.506148457527,0.160251244903,-0.589701890945,1.42065501213,0.660538911819,1.45516192913,-1.17974925041,-0.795562684536,-0.403341054916,-0.129414767027,0.538589596748,-0.188591510057,0.83854496479,0.886183857918,0.451648920774,0.783384382725,0.806608736515,0.666215658188,0.645198643208,0.528609573841,0.368881464005,0.677345752716,2.11034345627,0.144304573536,0.806593060493,0.128216773272,0.705478310585,0.0108657591045,-0.308046102524,0.0743258818984,-0.633104383945,-0.742773771286,-0.38303810358,-0.755862593651,-0.591794550419,-0.535516321659,-0.439632147551,-0.640292346478,-0.222348794341,-0.624407231808,-0.0477455481887,-0.552240431309,-0.47207659483,-0.658470869064,-0.348793745041,-0.653980374336,-0.868555247784,-0.470866024494,-0.599555253983,-0.532408952713,-0.475961685181,-0.711448609829,-0.55203640461,-0.435200333595,-0.562772035599,-0.488252997398,-0.395500957966,1.3237760067,1.74743843079,0.88395935297,0.670848369598,0.252421706915,0.498479306698,-0.169666230679,0.314478605986,-0.257703781128,-0.35450387001,-0.9206610322,-0.125378832221,-1.01450204849,-0.683957278728,-0.774252057076,-0.734103381634,-0.392900973558,-0.639558494091,0.950725317001,0.719483733177,0.762470722198,0.542629122734,1.20135331154,0.00271227234043,0.127741128206,0.342275649309,0.0792204141617,0.440978378057,0.868260264397,0.228744968772,0.854513764381,1.54298496246,0.327880233526,0.472410291433,0.479080528021,0.357720464468,0.75882589817,0.21960157156,0.681491374969,-0.334541022778,0.623333752155,-0.438747733831,-2.10093069077,-1.04214954376,-1.69394624233,0.170739427209,1.07092249393,-0.132510364056,0.867948651314,0.851522922516,0.595807313919,0.653376460075,0.384040862322,0.509969294071,0.451671153307,0.701622605324,0.145234078169,0.635247468948,1.59616708755,0.140794679523,0.347291916609,-0.0503657087684,0.371321588755,0.702777445316,0.814804494381,0.431037336588,0.761895239353,1.45897424221,0.136250764132,-0.00762544199824,-0.278089344501,0.193110510707,-0.362238556147,-2.75184369087,0.241980656981,0.873146891594,1.70952439308,0.348149240017,0.48700132966,1.87231075764,-0.0217179469764,-0.944973707199,-0.8376262784,-0.606277644634,-0.627644121647,-0.520646989346,-0.467641860247,-0.295588374138,0.165560096502,-0.295552313328,-0.771017193794,-0.562079310417,-0.495319277048,-0.590922534466,-0.22635820508,-0.509285509586,-0.757688224316,-0.673507630825,-0.510421395302,1.06383180618,1.56656205654,0.578316807747,0.241196215153,-0.811585128307,0.450207382441,-0.694683372974,-0.702663719654,-0.431558102369,0.407150894403,1.85345494747,-0.209360063076,0.61038094759,1.79246413708,0.124750636518,0.521469831467,-0.783326387405,0.613425254822,0.677783668041,0.792881131172,0.43977355957,0.781881392002,1.60761582851,0.279200464487,0.240447327495,-0.165763676167,0.320832103491,0.734978377819,0.419633746147,0.592899084091,0.826593995094,1.28763568401,0.413410544395,0.688011944294,0.568321943283,0.447908759117,0.854407966137,-0.345967441797,0.823158621788,0.58664047718,-0.176624417305,0.557889640331,1.06904828548,1.80979824066,0.709161162376,0.648860216141,0.85088044405,0.392529159784,-0.391601204872,-1.52625441551,0.0453144013882,-0.550500154495,-1.16494131088,-0.258995115757,0.751136124134,0.408294081688,0.621188521385,-0.0168968122452,0.532029867172,-0.0573522858322,-1.61875343323,-2.3714723587,-1.02939653397,0.445798039436,0.359788924456,0.510013997555,0.761789798737,1.92975199223,-0.0107212085277,0.173486113548,0.256515026093,0.254271239042,0.989441990852,0.626313567162,0.819608986378,0.34287571907,1.20100426674,0.0427612885833,0.78970015049,-0.0105362879112,0.702574431896,0.304194509983,0.484957426786,0.151892453432,0.744078695774,1.60040700436,0.176740467548,0.310963660479,0.323796838522,0.276049107313,0.959178268909,1.01724243164,-0.663778960705,1.07748293877,1.64281177521,-1.31289184093,0.186787188053,0.138548463583,-0.365628510714,-0.0150007233024,-0.0732596293092,2.33992552757,-0.591187775135,-1.13809645176,0.0270246509463,0.367531120777,0.19205673039,2.3965473175,-0.404736787081,-0.1646848768,-0.284551650286,1.0239123106,1.42316579819,0.506659209728,0.719178199768,0.766496062279,0.587272942066,0.52593266964,0.571440935135,0.455540269613,0.21669113636,1.26384651661,-0.266311496496,0.620732188225,0.392576277256,0.578637897968,0.782873630524,0.568770468235,0.561519265175,0.987191081047,1.04001092911,0.56391620636,-0.0589957423508,0.709676623344,-0.0903931036592,-0.838687598705,-0.833037376404,-0.576433062553,-0.945456087589,-0.959278762341,-0.536094665527,-0.457364022732,-0.560621261597,-0.334366768599,0.411405920982,-2.082280159,0.439343035221,0.912524878979,0.319651842117,0.836599290371,0.615304648876,1.06002616882,0.322793841362,-1.56929528713,-1.81035971642,-1.0450810194,-0.216885372996,1.54124951363,-0.5751080513,0.104900337756,1.7481931448,-0.108231186867,0.576636254787,0.696768641472,0.391034722328,0.544098138809,0.990341067314,0.198521718383,0.523773908615,-0.288942962885,0.561085939407,-0.599269807339,-0.687606096268,-0.345214903355,-0.734891593456,-0.903589189053,-0.348439157009,-0.100124128163,-0.394254237413,-0.0166386757046,1.03670501709,0.579828083515,0.850748062134,0.665085434914,1.3512815237,0.16040584445,-0.190793186426,0.029008070007,-0.0872728377581,-1.11373543739,-0.279096931219,-0.980848252773,-0.569463551044,-0.0493368469179,-0.340732812881,-0.637638628483,-0.315807431936,-0.478432327509,1.31335794926,1.06022119522,0.970255613327,0.543034315109,-0.596875369549,0.624546468258,0.334763795137,-0.143695175648,0.235731780529,-0.620375216007,-0.754032671452,-0.450323373079,-0.723548710346,-0.558356165886,-0.4874522686,-0.518442869186,-0.412702232599,-0.391279995441,1.34654605389,0.552494764328,0.995394825935,0.474819660187,1.30287897587,0.27142599225,0.108410663903,0.612980425358,0.00278593273833,-0.633024334908,-0.927524447441,-0.368908017874,-0.785607814789,-1.52556824684,-0.368037581444,0.107699535787,0.0936917662621,0.0240819137543,0.940669178963,0.836572051048,0.669170260429,0.847527861595,0.789959013462,0.568787515163,-0.500713527203,0.406093120575,-0.529792964458,-0.65830796957,-0.370290517807,-0.561200857162,-0.458320945501,-0.29874971509,-0.297707498074,-0.570550620556,-0.488168776035,-0.483799338341,0.739172101021,1.08047354221,0.40866547823,0.809285581112,0.754417955875,0.609948277473,0.556005179882,-1.31151509285,0.614713549614,-0.607424616814,-1.18902158737,-0.252892613411,-0.490018129349,-1.42255437374,-0.15036034584,0.0840705558658,0.0430831611156,0.089512296021,-1.48952519894,-1.5923769474,-0.843555033207,-0.135596767068,2.48697590828,-0.74468255043,0.325885415077,1.41528463364,0.153172567487,-0.732418000698,-0.750720620155,-0.531476318836,-0.805782854557,-0.876798272133,-0.538652122021,0.109906233847,-0.606322228909,0.16926625371,-0.426427453756,-0.884439706802,-0.157162636518,-0.859563231468,-0.979413330555,-0.490074187517,-0.162360399961,-0.29765188694,-0.0956109389663,0.837720155716,0.145555689931,0.574344873428,0.634443819523,1.20753777027,0.461300164461,0.750203609467,0.917818188667,0.302627027035,1.08868288994,-0.627941071987,1.10539186001,1.31604230404,0.227702260017,1.15729880333,0.410319983959,-0.11684859544,0.367211401463,0.886915266514,-0.484365314245,0.795129716396,0.19943331182,-0.0793084576726,0.259125709534,1.35086977482,0.79340583086,1.05859613419,-1.29220724106,0.175301000476,1.04627370834,-0.555739879608,0.274011671543,1.43345487118,-0.883035421371,-0.110819138587,0.554074764252,-0.590288281441,-0.718424320221,-0.380753427744,-0.811383664608,-0.808888554573,-0.621061444283,-0.328808814287,-0.515603482723,-0.174949452281,-0.755714893341,-0.500366985798,-0.518247067928,-0.455012530088,-0.174534380436,-0.377670735121,-0.627606868744,-0.560754239559,-0.46472337842,-0.672943413258,-0.767448365688,-0.38285535574,-0.854533135891,-0.714181661606,-0.639545500278,-0.501522004604,-0.478438228369,-0.331866294146,0.857789337635,0.391795486212,0.656610548496,0.404651105404,1.01576840878,0.181283921003,0.536703944206,0.713288009167,0.320666015148,-0.642084062099,-0.68957400322,-0.391945183277,-0.746732592583,-0.795844137669,-0.415623366833,-0.362845510244,-0.403932482004,-0.231549978256,0.896467685699,-0.406224876642,-0.964565336704,1.21266782284,-0.305590540171,-0.694668531418,0.695267438889,-0.666242241859,-1.57661867142,-0.350567609072,-1.21600437164,-0.0824011936784,0.180930346251,1.56551265717,-0.242719963193,0.973661243916,1.82971692085,0.435057759285,0.677005410194,0.658701717854,0.542726993561,0.765940070152,1.37642419338,0.258296340704,-0.020967502147,0.0176617819816,0.118742153049,0.771074831486,-0.834464728832,-1.03748750687,1.47322416306,-0.868976056576,-0.993236720562,0.701539039612,-0.363720446825,-1.189925313,-0.460346221924,-0.0180332399905,2.04884696007,-0.832647025585,-0.79148453474,0.871814250946,-0.412281394005,-0.0276547931135,1.52683675289,0.56914460659,0.603594779968,0.335723847151,0.693975627422,1.01510298252,0.422233134508,1.03288400173,-0.299988240004,0.915660321712,-1.29683732986,-0.892855465412,-0.917462766171,-0.710194706917,-0.236546725035,-0.55072504282,-0.397894382477,-0.0201983563602,-0.304440319538,0.725116848946,1.10552716255,0.427636235952,0.848272144794,1.31194639206,0.302855908871,0.596026420593,0.313459903002,0.48825186491,2.09594941139,-0.321312725544,-0.080831117928,0.658857762814,-1.28929424286,-0.260073333979,1.33804821968,-0.320678204298,0.00610933359712,0.976827085018,1.08874940872,0.681150794029,1.26952517033,0.191226735711,0.908647239208,0.177678778768,0.00339565449394,0.220563307405,0.61549448967,0.746058702469,0.476367324591,0.787726640701,1.8130402565,0.121250502765,0.283406674862,-0.0716652497649,0.403648108244,0.683611631393,0.925745606422,0.413100242615,0.746245861053,0.262197643518,0.606734275818,0.482802689075,-1.89987254143,0.683456420898,0.569271147251,1.07715570927,0.166791111231,0.89521509409,1.49418783188,0.303985416889,-0.0496807023883,0.363794386387,-0.0322858504951,0.463917464018,0.853985905647,0.266904711723,0.667813181877,0.922444999218,0.43507617712,0.997459113598,-0.582327544689,0.90697491169,-1.7483921051,-1.67215573788,-1.23056948185,-0.316170930862,1.0941170454,-0.447877198458,0.348527520895,1.12248682976,0.177423760295,0.842457830906,2.38778281212,0.163698226213,-0.188616290689,0.501499593258,-0.295168727636,-0.575719177723,-1.5755251646,-0.156726196408,-0.547486722469,-0.648289144039,-0.368663340807,-0.538467109203,-0.835623681545,-0.229396209121,-0.214482754469,-0.0797432512045,-0.188416734338,0.921108722687,0.420500040054,0.806901574135,0.764661729336,1.38529729843,0.361264467239,0.45015874505,0.7427277565,0.224828198552,-0.71854788065,-0.395109176636,-0.562528729439,-0.7193390131,-1.17581439018,-0.427139550447,-0.415210753679,-0.763502836227,-0.166025087237,-1.51824259758,0.133019179106,0.419992774725,-2.2645983696,1.90563213825,0.81064170599,-0.782141447067,-0.220018535852,0.338122457266,0.326947271824,1.27327573299,-0.128990143538,-0.161414831877,-1.24547350407,0.158339679241,-0.691270172596,-1.57355201244,-0.473890483379,-0.747627735138,-0.30360904336,-0.646504282951,-0.448528081179,-0.418196320534,-0.261169821024,-0.476799100637,-0.0866401717067,-0.47879832983,0.223832279444,-0.138876646757,0.74012440443,0.318276047707,-0.298005998135,1.07494807243,0.14367698133,0.0164906363934,0.336137801409,0.107557699084,-0.0342026092112,0.00432342058048,-0.547017276287,-3.11310887337,0.297683537006,-0.0112454378977,0.317415446043,-0.167857244611,-0.616720438004,-0.870723426342,-0.427155226469,-0.880183875561,-1.08471560478,-0.435509204865,-0.382737696171,-0.323065519333,-0.310291320086