-1.18843066692,-1.40890729427,-1.37065565586,-0.659350275993,-0.9412509799,-1.27428305149,0.202126905322,-0.720499038696,-0.0780312865973,-0.796515107155,-2.93453741074,0.825737476349,1.64871168137,12.15853405,-3.46729207039,-2.96744513512,1.56255459785,-1.5359287262,-0.721337616444,10.1550226212,-0.546263039112,0.272180914879,-9.44435405731,0.334331274033,0.0946041867137,-0.257201820612,0.127528548241,0.046617589891,0.322784155607,1.47597539425,-0.00634556869045,-0.766414403915,-0.760948121548,-0.248760402203,-0.175719633698,-0.170371964574,-0.220057547092,0.639639019966,1.24092924595,-0.973544538021,-0.369248569012,0.634218811989,-0.0615111328661,-0.0195516906679,0.444336533546,1.55464470387,3.12287330627,-0.541903138161,-4.19920539856,-11.6297044754,3.13587880135,4.16580581665,-2.0498650074,1.73999524117,-0.564015746117,2.4369134903,0.324015617371,2.73990750313,-13.529291153,-0.486182153225,-0.341006815434,2.46468091011,0.496994256973,-1.60522961617,-5.75466394424,0.802620053291,3.48974251747,13.4985551834,-2.57401227951,-4.93537902832,2.83143806458,-2.7165658474,-1.09842896461,-0.757790327072,-1.06910562515,-1.3393458128,-1.19827401638,-1.19549095631,-1.21630036831,-1.20339691639,-1.35661077499,-0.070641182363,-0.925646901131,-0.262458741665,-2.66433763504,-2.17877864838,0.205876499414,-0.119266748428,0.589883506298,-0.898753464222,0.00691854534671,-2.55726861954,-0.351534515619,2.31565546989,10.8142194748,0.656706154346,-0.377795726061,-2.44558119774,-0.351588666439,0.120363488793,-0.327657341957,0.94818264246,0.574121654034,1.91711628437,-0.64791238308,1.20689976215,1.01728236675,-0.806420266628,12.790851593,14.370475769,-2.86781620979,-15.695142746,-8.23072910309,1.83485841751,2.30222702026,-4.52189302444,1.04907739162,-1.01668190956,0.53482568264,0.33590093255,-12.1738462448,12.6322383881,-0.306754112244,0.158544674516,0.129388868809,-0.359626233578,-5.05267810822,4.38962030411,0.331525534391,5.02402544022,-4.07418060303,-0.259182333946,-0.270205080509,-0.119929902256,0.072360612452,-1.36478126049,0.131588324904,-1.23249614239,-1.14356935024,-0.931586802006,-0.466105401516,-1.38180088997,-0.898698031902,-0.189956530929,-0.484396308661,-0.52148526907,0.318352282047,-0.674262046814,-0.517533481121,-0.223566815257,-0.558150887489,-0.890888035297,-0.0708562061191,1.76571452618,4.97559642792,0.673523902893,3.8066637516,6.82442045212,0.371348202229,3.0128660202,4.17530345917,-1.54883909225,-3.19297242165,-25.7481555939,-2.41872358322,-1.6226722002,0.942201495171,-0.971321642399,5.26850366592,24.0109634399,3.88521075249,-0.441381931305,4.01036548615,-3.36613082886,-30.6072158813,22.1644668579,7.28519964218,-9.22394561768,13.818482399,-3.96239352226,-0.809744298458,-0.613493561745,-1.29615700245,-0.994843840599,0.200393676758,-0.815435171127,-0.914411127567,-0.401488006115,-0.731375098228,0.0194943137467,-1.02649044991,-0.507675349712,0.346960604191,0.993552625179,-0.216637209058,0.155001521111,1.04276406765,0.477927625179,-1.2708646059,0.0257664509118,0.489825963974,2.45471549034,7.87687778473,-1.744171381,-2.2689101696,1.38232183456,-0.911066174507,0.131894350052,-0.0411306917667,0.0507805943489,9.18506526947,-9.622133255,0.074401460588,-0.327744483948,0.117972798645,0.191046595573,-0.347586274147,0.559171259403,0.145314350724,-0.441444009542,-0.74235355854,-0.325800001621,-1.14903998375,-0.892473876476,-1.11591291428,0.720355987549,-1.1081032753,0.0319338068366,1.29344344139,7.15266513824,-0.706732928753,-2.26504349709,-4.96175432205,0.2931009233,0.532323360443,0.0917778909206,0.0303559303284,-0.870743095875,-7.28049755096,1.74668598175,1.00688397884,0.396583884954,-0.0266360957175,0.621978342533,1.80179405212,0.377703070641,5.95531606674,-13.0058774948,-0.342162579298,-0.185099929571,1.94822561741,-0.0306368134916,-0.390509426594,-1.99535119534,0.114059723914,-2.30653381348,11.3188524246,-1.57163631916,-0.0958686545491,-3.89889216423,-0.731587052345,0.289133608341,0.867843389511,-0.978354394436,-1.29519331455,-7.36870527267,2.71742200851,0.924869179726,0.431994050741,-0.444892525673,-0.397648453712,-0.260382562876,0.0468000285327,-1.80154073238,4.60909938812,-0.728088259697,-0.350374877453,-0.444068193436,-0.425199121237,-1.6190110445,-0.987270414829,-1.05772733688,-0.994689285755,-0.859945058823,-1.43063235283,-0.466483950615,-0.293283700943,0.799867451191