-0.335763156414,-2.65654706955,1.65460956097,-2.23238396645,-4.69047403336,-1.7608730793,0.687265455723,2.72483944893,-0.71864336729,0.196275115013,-1.26494801044,-1.48561894894,6.73539113998,-0.0406192019582,-0.901508450508,-0.446526706219,-0.915829062462,-1.55923306942,-0.736366927624,1.21149194241,-1.70968008041,-1.8840174675,5.5017490387,0.466199338436,-2.15821218491,-0.298182249069,-0.209698706865,-0.116907648742,-0.656358659267,0.214002385736,0.442015260458,-3.67943811417,0.0885402709246,-0.364997029305,-0.0359775386751,0.0766416415572,2.65695571899,-1.73988056183,-3.00441288948,1.36510109901,0.561232805252,0.946725189686,-3.19695329666,-1.48379266262,2.53818535805,0.349825322628,0.0112708061934,-0.773638725281,0.967732071877,1.75861442089,-0.108682945371,-1.20775783062,0.739770114422,0.220708996058,-1.40692305565,0.0556004010141,-0.534551143646,2.28827834129,3.43320202827,-1.53843212128,-0.08871974051,0.297774404287,-0.52796536684,0.0509611852467,0.552521288395,-0.240098178387,-0.129995062947,4.25823020935,-1.01324653625,-0.0607656128705,0.2453764081,-0.085984043777,-1.88220262527,0.6852003932,0.285357773304,0.603952229023,4.3822927475,-0.98479706049,1.10235440731,-2.05489134789,0.0120678143576,1.05648589134,-2.00540184975,0.555762112141,4.13854169846,-7.35579442978,2.94660520554,0.134969815612,-0.630462944508,0.356523275375,1.64187824726,-6.13841533661,2.82761144638,-3.68231844902,10.1578817368,-4.52592372894,2.72942209244,-6.22173261642,1.99075222015,-0.665377259254,5.71822786331,4.53291749954,-3.21053671837,1.81042301655,1.24448537827,-2.03476262093,-4.06503629684,-3.26444530487,-1.8841227293,0.333257198334,1.15377867222,-0.661972880363,1.3675096035,1.23849737644,0.493289917707,0.654728889465,-1.07713079453,1.6690299511,-5.07882404327,1.01212668419,-1.22638344765,4.32452535629,-0.542820036411,-0.338990479708,0.758484780788,-0.31059718132,-2.66868185997,0.574443399906,1.94302654266,0.883348822594,-6.2012295723,0.11232714355,3.16328787804,3.33380889893,-1.91021609306,-1.80601215363,1.72360539436,0.490751683712,1.76539039612,1.83891797066,-5.04199075699,0.498099684715,-2.76300525665,2.12853360176,0.330986946821,-1.86702907085,0.221706733108,-0.225827902555,4.19044113159,-0.352401405573,-0.0847427472472,-0.867697119713,0.0775227099657,-0.0965613797307,-0.424293607473,-0.230186969042,-0.534891426563,3.56048345566,-0.117131173611,-0.240674391389,0.244100093842,-0.18878954649,-0.102559447289,1.66862940788,-0.0816511362791,0.0738716423512,4.15218734741,0.0550184473395,-0.0939498841763,0.308910608292,-0.391619324684,-1.00161588192,1.22260868549,-0.966784477234,0.21291962266,9.97637939453,-1.17548620701,-0.895269930363,-0.521836996078,-0.891068696976,0.0321841649711,-0.521036148071,0.472195714712,3.54914355278,-5.14757013321,1.08109354973,0.241620391607,0.497442156076,-0.312320291996,0.528289735317,-1.46180522442,0.802651703358,1.54617226124,-4.48310899734,3.23992824554,0.26953676343,-1.27114927769,0.531136333942,-0.476238459349,0.0770349726081,0.319953292608,0.452193170786,-0.300713837147,0.994403600693,0.276672393084,0.00543258013204,0.931846320629,-0.458599299192,-1.95530843735,-0.0810267776251,-1.22007203102,1.53595995903,-0.551434576511,-0.0312266424298,-0.902341008186,0.140462368727,0.114527612925,1.24702560902,-0.513427317142,-0.187432974577,3.91448450089,-1.01403665543,-0.661098718643,-2.01731157303,-1.21961343288,1.7946293354,1.57457983494,0.801172673702,-1.19352436066,-7.80771493912,-0.672671794891,0.539268493652,0.253831267357,1.93201637268,-0.123083233833,-0.665293991566,0.692973613739,1.84046173096,-6.40305614471,4.87742900848,-0.0611884593964,-0.758248865604,0.630829870701,-1.47539544106,-0.561160206795,1.2890137434,-1.49895846844,-1.90597355366,5.49297428131,-0.44321206212,-1.08770084381,0.473187744617,-0.629436254501,-0.285613059998,0.0994605794549,-1.03697752953,4.62093162537,-0.637855648994,0.472948551178,-0.0744009763002,-1.05442082882,4.49842119217,0.540054500103,-0.341852992773,-0.988911867142,-1.88815116882,-0.497380673885,-0.652145922184,-0.238923892379,-0.167039692402,-0.297389149666,0.221087947488,-0.349071264267,0.216934412718,5.44313049316,-1.12887096405,-0.157479435205,-0.255072146654,-0.269613236189,-1.10598015785,0.924838542938,-0.926291465759,1.21263933182,4.69118881226,0.200246155262,-0.958457529545,0.468181699514,-0.73671233654,-0.736932933331,-0.855704307556,-0.793973207474,-0.995708525181,-2.18936896324,-1.29068350792,-0.832533895969,-0.854133665562,-0.224300414324,1.93853569031,4.23012924194,0.678858339787,-2.50201201439,-8.82432365417,-0.576651751995,1.63721549511,3.77797436714,1.01856648922,-0.255171865225,-2.30376982689,0.4191660285,-0.00472882715985,4.48828220367,-0.023583246395,0.00106867717113,-0.873795390129,-0.487668544054,0.0980418473482,0.885988116264,0.227240800858,1.92565560341,-7.33551883698,1.99180066586,0.185619369149,1.76374232769,0.121836073697,0.498498797417,1.71065926552,-1.19772708416,-2.09787988663,3.03211641312,0.945093989372,-0.412415742874,-0.326891869307,0.506700575352,-1.6156411171,-1.61060595512,-1.38771474361,3.75417566299,4.68302726746,-2.55861854553,0.111592687666,0.803635895252,-1.27393758297,2.91371488571,2.28080129623,-1.34575796127,0.49669060111,-2.9187939167,-0.543492674828,1.73739778996,-1.31731557846,-1.22373378277,2.3293800354,-1.49529135227,-0.73887526989,12.7195806503,-7.70782756805,-5.3251452446,-0.141061395407,1.17709743977,-0.751348555088,1.65797305107,-2.42811441422,-0.577350497246,8.20757102966,-2.74756789207,-3.55892944336,1.95032215118,-1.16858696938,-0.936309039593,-0.519459426403,0.555031478405,-0.392227143049,-0.867511451244,-3.09980726242,-0.49149364233,-0.142109647393,-0.341066867113,-0.411305844784,3.48855447769,-1.76656150818,-0.652424097061,8.85651111603,-7.86444044113,-1.35700190067,-0.2623064816,-0.2023114115,1.01669347286,-3.58264350891,3.70445466042,0.1504535079,4.31781291962,-4.67150163651,0.114763796329,-0.480267733335,0.791607618332,-0.350949525833,-0.527484953403,-0.305062443018,-0.379935979843,3.37949538231,4.25889253616,-6.12137079239,-0.476666837931,0.286826789379,-1.14182281494,-0.0661921575665,-0.135134980083,-0.339410513639,1.12725114822,0.682539522648,-0.00844522193074,0.0509871579707,0.592884659767,-0.265894383192,-3.59030723572,-8.7486743927,-1.59904766083,-0.94480997324,1.14869356155,0.8822914958,3.98067092896,7.66199302673,1.19317901134,-1.16334426403,-3.40700912476,1.55606997013,2.81832718849,-0.430830568075,2.63077116013,1.09694647789,-2.8618414402,-1.01447379589,0.217477023602,0.106661394238,-0.532736599445,0.430342912674,4.75087308884,0.49264806509,-0.670785725117,-0.287704855204,-0.0453546978533,-0.265824556351,0.12364923954,-0.0667919889092,-1.31010746956,-3.44913053513,0.117297694087,0.0140634141862,0.629655122757,-0.0880969613791,-0.526363909245,3.92561721802,-0.798887193203,0.833257675171,3.3308403492,-0.653817117214,-1.00118672848,-2.19143748283,-1.88899087906,-0.316884607077,-2.06825470924,1.8874835968,-0.111320212483,-3.63345646858,-0.433631688356,1.54189157486,0.550700366497,1.07099688053,-1.49645030499,1.44858324528,0.472257614136,-4.55991458893,1.42724561691,0.906706929207,-0.0294521506876,0.737715065479,-0.0184641424567,-0.10918559134,-2.99232149124,0.351467639208,0.112095408142,6.03507184982,-0.263809710741,-0.183033391833,-0.430210709572,-0.257983475924,3.35507917404,-2.71236014366,0.222297936678,-0.86498516798,-0.190990999341,0.936809718609,-0.405264377594,1.27925944328,0.0376181565225,-1.06754291058,-5.98325586319,-0.648646593094,1.08456385136,-1.99004709721,4.16452884674,0.84127831459,3.27955532074,-0.23727107048,0.293970197439,2.3247692585,-2.31766462326,1.54201078415,-3.41892576218,1.77988946438,0.239387646317,-0.442153692245,0.283110409975,-0.0110594220459,1.49370002747,0.629931926727,0.0574557483196,-5.93105792999,0.183013468981,0.959601104259,2.23819541931,0.305915117264,-0.406445533037,-2.55105066299,-0.0127212097868,-1.26571309566,-3.00290179253,0.508772313595,1.83470916748,4.35728025436,1.00214099884,3.79580903053,3.85140728951,-3.27460837364,2.21018028259,3.90116357803,-1.20090818405,-3.32116580009,-1.96812367439,-0.350624024868,0.240564450622,-0.578513920307,0.0335916355252,-0.677527785301,7.79121398926,-0.558385908604,0.149780407548,-2.22165346146,0.24003277719,-1.76324987411,-1.60002267361,4.08166599274,-1.54816377163,-1.53393661976,3.91235351562,0.00953302253038,-1.40522146225,0.506526112556,-1.77660870552,2.82868981361,1.68379640579,0.538260698318,1.48523414135,0.737853288651,0.0968370959163,0.234176918864,-1.66799890995,-0.125290066004,-1.47865509987,0.252639949322,-1.18989038467,6.02251195908,-1.78077065945,0.0469804033637,-0.959908008575,-0.388128042221,-0.129847243428,-3.23820233345,-0.614689528942,-2.88465356827,-1.11846065521,2.66778874397,0.451274067163,2.95355701447,1.94168150425,0.4132117033,2.39205574989,0.46052968502,-1.30102789402,-4.44963645935,-0.844258725643,0.716815292835,2.30776906013,0.276484340429,-0.837788760662,1.24136137962,-0.443644464016,-1.78885698318,3.71609187126,-0.996869385242,-0.388181120157,0.683470964432,-0.334344834089,0.92423415184,-1.34097063541,0.250775188208,5.70436239243,-5.50342655182,-0.0789289176464,0.545976161957,-1.17289805412,0.5413621068,-3.42828130722,-8.48328304291,-1.72998273373,-1.38726842403,3.35822892189,-0.00366536458023,4.31534671783,6.31075143814,1.159273386,0.542474627495,3.95264482498,0.655271112919,-0.680174708366,-4.43050909042,-0.79791021347,-0.104712702334,0.800212323666,-0.0567352212965,-0.107181333005,0.535982251167,-0.0272411070764,0.812392473221,4.33748340607,0.111538864672,-0.0591137968004,0.0560012310743,-0.364794999361,-2.53500056267,1.64813113213,-0.0297422409058,1.12401914597,4.84031248093,-1.48613083363,0.635306537151,-1.75535202026,-0.0485026873648,0.353077679873,1.35352468491,0.141612976789,0.327311486006,-4.20020532608,0.682851910591,0.376758635044,0.637308776379,0.305430322886,-0.343872964382,-1.26244914532,-0.120566532016,1.29610681534,4.02659463882,0.347000986338,-0.734344124794,-2.47281146049,-0.486285418272,1.2198587656,-2.89215707779,0.241041228175,-1.7966337204,4.5268535614,-0.258483439684,0.389717787504,-0.77933961153,-0.524659335613,2.28562188148,-1.69913494587,0.29510974884,-1.45105397701,0.112646073103,0.306412100792,-0.68663084507,1.06790828705,-0.114698916674,0.711599111557,1.41730630398,-0.0198968797922,1.78913402557,-8.55760574341,1.69106149673,-0.220008909702,1.68860113621,0.853889465332,-1.31175506115,1.12030732632,0.465898931026,-3.67185020447,3.51654195786,0.113363027573,-0.824899017811,0.291037142277,0.234280198812,0.492944061756,-0.710899412632,0.238069653511,5.3894443512,-3.22934556007,0.121818214655,-1.17978358269,-0.191107079387,0.331329584122,-0.437551409006,-0.522918581963,-0.204228207469,0.0777983441949,5.35473203659,0.24797642231,-0.455385714769,-0.369679570198,-0.674126923084,1.72808432579,-0.190642148256,0.0372729003429,1.8275001049,-4.97416591644,1.68643200397,0.054158732295,-0.0143907079473,0.979941487312,-0.471508234739,0.535122275352,-0.837692201138,0.288184314966,11.9643411636,-1.27261865139,-1.27453136444,-1.35063660145,-0.780297279358,0.944067060947,1.3447394371,0.671748757362,0.690106391907,0.518602967262,0.930573821068,0.604352772236,0.357254445553,0.279314666986,-1.22974252701,-1.62599718571,-0.751902759075,-1.21540534496,-1.41940963268,-1.04931592941,1.15457618237,5.26944494247,0.983864068985,-0.537218153477,7.05467367172,6.37388944626,-3.71657705307,0.201176300645,0.615646600723,-2.39797878265,-5.10483121872,-2.51183652878,0.177581682801,-0.774001836777,0.00349274557084,-2.69313073158,6.02898454666,-1.13395130634,0.310741782188,-1.03024494648,-0.180087193847,-0.791622698307,0.96670204401,0.107485115528,0.775462627411,-3.63699960709,0.689048707485,0.407960981131,0.240667760372,-0.116532444954,-0.0265611130744,-3.21655321121,-0.129961237311,0.532211244106,4.22088861465,-0.0236873403192,-0.694409608841,-0.372213751078,0.0197154469788,0.359841793776,-4.88358163834,0.565876126289,0.283973842859,4.39838409424,-0.642886757851,-0.522215902805,0.543635427952,-0.33196040988,1.47234725952,-3.7899389267,0.257165431976,0.804781138897,1.2347574234,-0.735028922558,-2.07522940636,2.67900276184,-0.789964497089,-1.43812561035,-2.46910524368,-0.0633442997932,2.37978410721,4.3257393837,0.596438884735,-0.688711106777,-1.75457954407,-0.218571305275,0.730883777142,0.586518883705,0.122687898576,0.347375959158,0.527203083038,0.141527742147,0.803068339825,0.968089818954,0.817491173744,0.179513454437,-0.473743349314,-0.0062331375666,-0.338395595551,-3.05673575401,-0.0512627214193,-0.231137722731,-0.41232663393,-0.32487437129,2.98157262802,-0.0757962614298,0.0108451573178,-1.94921982288,-1.937063694,-0.167263776064,-1.07069373131,1.93099927902,0.541292369366,-0.351961284876,-1.0498944521,-0.283961415291,-1.45616042614,9.17546844482,-2.19672584534,0.028968360275,-2.39991736412,0.29462647438,1.40097391605,-1.82575547695,-0.375284194946,0.0846600756049,4.09997415543,-0.689538002014,-1.73766303062,0.487160384655,0.0990593656898,0.57861405611,-0.176127895713,0.276527613401,-2.98657393456,-4.2153544426,1.79136073589,1.90398490429,0.00180070055649,0.661636292934,0.8619363904,3.9922990799,0.611048221588,-1.21770465374,-3.49698066711,-0.917767524719,-0.334301739931,0.885838985443,-0.245357617736,-0.118766441941,0.53084218502,0.527459561825,0.434481501579,-5.76804447174,0.942977309227,0.91105556488,0.643804073334,0.0301155652851,-0.63933724165,0.0355014167726,0.26937136054,0.1514108181,4.5652756691,-0.239132195711,0.100970588624,-0.37404742837,-0.633832156658,2.43578910828,-2.90306425095,0.497154444456,-3.88303780556,0.840816795826,0.156093090773,0.40886759758,1.5543705225,-0.665885329247,-0.0610958151519,-1.72555756569,0.0266612228006,0.0646919235587,-1.75108194351,0.215851485729,-0.287997454405,-0.219594448805,0.0678947344422,-0.159221336246,0.380968242884,-0.0102373911068,4.28719806671,-5.29181957245,0.778197467327,-0.873719394207,2.05016565323,-0.397179245949,-0.0921665728092,1.07555603981,0.653689801693,4.48395490646,-10.7647781372,5.15705394745,0.361603796482,2.07195138931,-0.430681794882,0.682808101177,0.573589801788,0.401283740997,0.125880673528,-6.33467960358,0.723976612091,0.884616851807,0.898883283138,0.930754780769,0.578183233738,0.106734320521,-0.0271972659975,0.0278724785894,4.4340596199,-0.473083436489,-0.189902693033,-0.266028791666,0.225835114717,-0.206544548273,0.331515878439,-0.385100334883,-0.310056120157,6.47279691696,-1.03028464317,-0.445968210697,-0.343040585518,-0.402648836374,0.0131053216755,-0.918818235397,0.186857625842,-0.988990545273,4.23651456833,-1.07810199261,-0.00247892970219,-0.78226929903,-0.132171332836,-0.634273290634,-0.120505064726,-0.253740489483,-0.0901969596744,5.11735582352,0.000323236803524,-0.284549087286,-0.12082978338,-0.823783040047,0.478827685118,2.07332372665,0.16541287303,-1.87219583988,-4.83765697479,-1.18676531315,0.670260310173,2.41542077065,0.213294938207,0.025208177045,-0.470955997705,-0.193614080548,-0.121015116572,-3.44420313835,0.437368184328,-0.0671319663525,0.0157302208245,-0.0158225353807,-0.054920244962,3.11218881607,-1.58024096489,-4.13822650909,-0.0903833582997,3.83262944221,1.80464971066,-2.55827522278,-0.422613114119,-0.758227527142,-0.18376173079,-0.752347826958,-1.81782591343,6.72991752625,-0.878709316254,0.0596775524318,-1.03429853916,-0.503595113754,0.798010349274,-0.365507423878,-0.686246752739,-5.36092090607,2.96165895462,1.31279194355,0.794553816319,-0.516582906246,-0.372413307428,-2.19055080414,-9.20033454895,-0.118710935116,1.88650989532,6.25794839859,0.112381637096,-0.154951423407,2.3820078373,0.125845044851,0.339668303728,0.527380287647,-0.165413126349,0.0634452626109,2.5326397419,-0.141086965799,-0.284173130989,-0.312337547541,-0.427581369877,1.39552533627,-1.57500755787,-0.54340326786,-3.13549923897,5.33924293518,-1.20608496666,0.640554845333,-3.16845560074,1.19486820698,-0.234452232718,0.98662686348,0.0143630821258,-0.00648535974324,3.94846105576,0.435555160046,0.0321836657822,0.312921226025,-0.342850953341,0.176719635725,0.381823599339,0.391516178846,0.184249579906,-5.21201896667,0.80458343029,0.358262479305,1.15374135971,0.353146970272,0.127906858921,0.583351492882,-1.35774433613,0.426104277372,4.06618881226,0.670798897743,-1.16169416904,0.0232286266983,-0.223568156362,-0.641111910343,0.189217463136,-1.05879151821,-1.71194529533,-2.29582285881,-1.05727171898,-0.89952892065,0.415223032236,-0.195071816444,1.07673108578,-6.66977310181,-3.69313383102,2.77594947815,-2.51810312271,-0.556973278522,1.80666720867,3.92885661125,3.74413371086,0.894576668739,1.21710646152,0.512741029263,0.0185004156083,-4.94936418533,0.152194142342,0.742824912071,1.27739536762,0.63771122694,-0.603740394115,3.31135392189,-0.21744659543,0.520643055439,-4.49634742737,0.258106648922,0.0922269448638,1.00029838085,-0.100358679891,0.17894667387,-0.279712110758,0.245716676116,-1.7514295578,-3.07712745667,0.405320972204,0.23765823245,0.322252422571,0.213680610061,-1.240706563,-2.46864891052,-0.854169726372,0.530033409595,3.42407751083,0.262314766645,-0.735676288605,-0.106941975653,-0.490810871124,-0.136510312557,-1.64573562145,0.122663788497,-0.950628638268,4.89541578293,-1.52401137352,0.122087433934,-0.785062730312,-0.026188608259,1.61540949345,-1.81947684288,0.287967562675,4.74133872986,-5.86425685883,1.01980185509,1.02580797672,-1.10986959934,0.154934465885