-0.530942976475,-0.671395599842,-0.448806941509,-0.488114386797,-0.391461223364,-0.42294806242,-0.455052524805,-0.487198621035,-0.379436731339,-0.129541143775,-0.472040593624,1.28930640221,-0.515015900135,-1.13247406483,1.95416891575,-0.3077455163,-0.0391649007797,0.49885904789,-0.378270894289,-1.02670204639,-0.347779542208,-0.656486272812,-1.45541369915,-0.539601683617,0.0392927415669,-0.491987705231,0.0596538037062,-0.261929988861,-0.279906272888,-0.347978949547,0.521698832512,1.70315515995,0.494103223085,0.119361542165,1.0988959074,0.0198203232139,0.404243856668,1.03800666332,0.57354837656,-0.260980308056,-2.2682056427,1.43349778652,-0.736301720142,-0.390999644995,1.02224695683,0.349219918251,-0.360894739628,0.41008284688,-0.626168787479,-0.957796752453,-0.725498497486,0.0577465966344,2.40869617462,-0.0576128214598,0.320933938026,0.252752155066,0.31179523468,0.152721017599,-3.95704913139,0.178270354867,0.211571410298,0.216916620731,0.239079639316,0.189985945821,-0.348612427711,0.251211315393,-0.275007069111,-1.56068336964,-0.190103471279,-0.539852023125,-0.648474037647,-0.505652010441,-0.110481910408,-0.648333251476,0.355420827866,-0.588771820068,0.796325445175,2.1800096035,-0.0903830975294,-0.449016720057,0.230134874582,0.00555824395269,0.0501394048333,0.073390468955,-0.0244742184877,3.18988847733,-0.127791166306,-0.0103900711983,0.062965914607,0.029448479414,1.13079702854,0.576142013073,1.26685643196,-0.0496924929321,-0.317428201437,0.188468456268,0.0712130144238,-0.275384992361,-0.0316334739327,-0.460745066404,-0.560221791267,-0.430479198694,-0.766180038452,-0.5313590765,-0.632997572422,-0.538932263851,-0.464694172144,-0.421096473932,0.689597785473,-0.132286801934,0.565634012222,1.43859028816,-0.0564278028905,1.27907168865,0.55722039938,-0.364697903395,0.565706849098,-0.166821286082,0.242206439376,1.80542182922,-0.67862290144,-1.3362749815,0.926590204239,-0.231809452176,0.142463669181,1.32000613213,0.325111687183,0.199786663055,0.238970458508,0.217917948961,2.03660726547,0.203852042556,0.236713081598,0.382836073637,0.196105122566,-0.110581874847,-1.18014025688,0.00181774946395,0.0887395963073,-2.70920443535,0.119339667261,0.160570442677,2.505423069,0.125960797071,0.424734383821,2.12679004669,0.479011803865,-0.204859301448,1.28539526463,-0.266146034002,-0.134551405907,-0.694959163666,-0.126721829176,-0.334802925587,0.926099419594,-0.4168651402,1.1658000946,-0.969356179237,1.21910583973,0.254129379988,-3.04805421829,0.556630134583,0.528539776802,1.16466152668,0.329401731491,0.0851127207279,1.29543220997,-0.265863567591,0.558815658092,0.40288746357,0.738929510117,-0.230379700661,-0.494300216436,-0.172035440803,-0.431717395782,-1.07506108284,-0.269871473312,-0.346305638552,-0.493684262037,-0.331187874079,-0.955326855183,-0.136470809579,1.04041159153,-1.12654387951,0.0916123539209,1.79816508293,-0.852213978767,-0.128225415945,1.23747742176,0.327196419239,-0.0386967174709,0.285319000483,2.13052606583,-1.28445935249,-0.577597200871,1.41265809536,-0.564526438713,-0.375454425812,0.00673841685057,-1.81196689606,0.0687077045441,0.433627873659,-2.68278360367,0.548351824284,0.834792077541,1.09319102764,0.744494915009,0.604113161564,0.357418477535,0.495970189571,-0.176417857409,1.22881698608,-0.104973681271,0.495329737663,1.13127553463,0.417368382215,-0.161367103457,-0.762887179852,-0.174124926329,-0.0766295045614,-0.489914566278,-0.0840530246496,1.24453294277,1.16239106655,1.11499392986,0.157088011503,-0.769142150879,0.228275761008,0.71137201786,-1.48247599602,0.725949823856,0.612530648708,1.73537564278,0.496823221445,-0.446707636118,-0.68016397953,-0.473135203123,-0.529637098312,0.132786288857,-0.492456376553,-0.433454185724,-0.502747356892,-0.371817439795,-0.198506236076,-0.47490349412,-0.209738388658,-0.558071255684,4.82898330688,-0.574265480042,-0.180815964937,-0.170090615749,-0.146179109812,0.137479484081,-0.298418015242,1.03515565395,0.847768068314,0.703691005707,0.565370976925,1.28863728046,0.383393228054,0.282257080078,0.452537089586,1.18989253044,-3.01785421371,0.0228760037571,0.70079857111,1.44460344315,-0.638805866241,0.289078116417,0.578408181667,-0.613434314728,0.192422941327,-0.531613826752,0.0244570076466,-2.12648487091,0.680570423603,1.49389886856,1.26114475727,1.15453636646,-0.486034482718,-0.257840573788,-0.405488878489,-0.555557370186,-0.508351683617,-0.509737610817,-0.573221921921,-0.375154912472,-0.527166604996,0.538333058357,0.779278457165,-0.303039044142,0.403170108795,1.7835650444,0.553915560246,0.323221981525,0.463528871536,0.292099177837,-0.32197406888,-0.368386000395,-0.389452695847,-0.454179078341,4.44071292877,-0.462794691324,-0.349170506001,-0.149068415165,-0.364381313324,0.889808118343,1.26699388027,0.806329607964,0.620383024216,-2.45004558563,0.703116714954,-0.525066554546,-1.16320574284,-0.453316420317,-0.57026052475,-0.491537392139,-0.590166211128,-0.519369244576,-0.857902705669,-0.419716268778,-0.6246265769,-0.405481100082,-0.612716972828,-0.309319913387,-0.266243964434,-0.410939216614,-0.480417698622,-1.64362931252,-0.282272905111,-0.251165002584,-0.517192542553,-0.250276505947,-0.592194497585,-0.736939609051,-0.62629532814,-0.426138550043,4.58415937424,-0.505826771259,-0.335443437099,0.0748024508357,-0.342096805573,-1.07047510147,-1.68833637238,-1.08202135563,-0.769703805447,4.01255846024,-0.770696818829,-0.23782248795,0.426220476627,-0.295799136162,-0.26013225317,-0.00689786439762,-0.281669348478,-0.428867638111,4.2974190712,-0.474058181047,-0.033127181232,-0.330246388912,-0.0310639124364,-0.42052936554,-0.644677460194,-0.353648990393,-0.543228805065,-0.690300405025,-0.560777962208,-0.264894038439,-0.350510925055,-0.21091234684,1.11391615868,0.241213575006,0.211032539606,1.53021121025,-1.5941092968,-0.879928350449,1.04550671577,0.099632166326,0.216770932078,-0.438193053007,-0.388685315847,-0.515543520451,-0.492660820484,3.89575743675,-0.548065185547,-0.437944889069,-0.111580848694,-0.416185200214,0.48888862133,0.490985870361,0.427552521229,0.456752002239,1.58088827133,0.377097755671,0.739471495152,0.123240679502,0.703392624855,-0.509463131428,-2.1521024704,-0.438280016184,-0.56323325634,-0.297467410564,-0.470340579748,1.02872085571,2.83149242401,0.854825913906,0.659702956676,1.46898555756,0.675355374813,-0.0956525728106,1.23246240616,-0.202913656831,-0.624469816685,-0.737415671349,-0.61820089817,1.11122047901,1.56807684898,1.01083528996,0.241343989968,-0.830872952938,0.241897404194,-1.06176507473,-1.0625898838,-1.04644310474,-0.748721599579,-1.48580861092,-0.645600318909,-0.437306821346,0.79667276144,-0.445735514164,0.1126280725,1.93919324875,0.131162524223,-0.230333074927,0.232183739543,0.915925741196,-0.478149205446,0.375290334225,1.73297321796,-0.0604722835124,0.574367523193,0.844893097878,-0.930139183998,-0.884797692299,-0.897947609425,-0.695659816265,-0.0527811199427,-0.656916737556,-0.329870820045,-0.513201534748,-0.261788338423,0.744157075882,-0.657485663891,0.0208436213434,0.968621551991,-0.914088726044,-0.202519953251,0.608467936516,-0.624022960663,-0.24589946866,0.241231814027,-1.16106033325,0.21262010932,-0.302614301443,-0.350838899612,-0.424449026585,0.883550286293,2.04829478264,1.00092446804,-0.314714729786,-0.660042524338,-0.359145700932,-0.783956825733,4.5791683197,-0.850098490715,-0.189499869943,-0.340633898973,-0.246710255742,-0.031973619014,-0.41278731823,-0.0944766625762,0.720362126827,-3.29129385948,0.857601702213,0.879078149796,1.89138829708,0.726107180119,-0.119223758578,-2.58025407791,-0.00563658447936,0.193404659629,-0.559572041035,0.120349027216,0.780723333359,2.45660376549,0.813693523407,1.67672228813,0.486494004726,-0.2489605546,0.912860512733,0.34957703948,0.227917417884,-0.694601297379,-0.905371189117,0.439355373383,0.850214540958,0.428726285696,-1.35208833218,1.17042028904,-0.153602227569,-1.61842429638,0.653010845184,0.313021421432,-1.0027654171,0.629894793034,0.358808547258,0.585586369038,0.697817921638,1.32547104359,0.447973459959,0.622629463673,0.462009936571,0.610980212688,-0.355752110481,-0.447058737278,-0.306910037994,-0.517228722572,-0.742457985878,-0.553588807583,-0.414735734463,-0.488006621599,-0.403167098761,0.720886290073,0.546261966228,0.591471552849,0.354101061821,2.15634703636,0.443792015314,0.50777477026,-0.154291898012,0.474659442902,0.370635867119,1.74377691746,0.341161221266,-0.103597179055,1.40202462673,-0.208062067628,-0.715345978737,-3.26257944107,-0.641175091267,0.953978002071,-0.714634180069,-0.608886599541,2.35565876961,-0.323430746794,-2.05825138092,0.472239643335,-0.576288759708,-0.279453217983,0.557213306427,0.864655017853,0.529594302177,0.257824808359,1.98843467236,0.259445935488,0.213127091527,0.735995054245,0.0689865425229,0.384344339371,-1.92390668392,0.353757947683,-0.458842158318,-0.741195082664,-0.370172947645,0.925911009312,2.37551379204,0.863152146339,0.731679022312,0.393965989351,0.577429890633,0.438902020454,1.89685130119,0.462990373373,-0.0757014378905,-0.35165181756,-0.0177150759846,1.19184172153,0.504051744938,-0.282029360533,1.20825362206,0.960381686687,-0.343187570572,-1.40047430992,0.221069902182,-0.00295719830319,0.0738669857383,0.140260353684,-0.0459496602416,0.167458146811,2.47386479378,0.117428615689,-0.0528180301189,0.410446763039,-0.0727334022522,-1.44017469883,-0.541342198849,-1.31392276287,0.129054218531,-1.47307193279,0.134432449937,1.09008312225,0.890091061592,1.05591356754,0.131824806333,-0.101581119001,0.0608860626817,0.116637997329,2.89801430702,0.0722834765911,0.147030115128,0.0361081175506,0.029876627028,-0.154310107231,0.673322081566,0.819170534611,-0.160667225718,1.70119082928,0.57955378294,-0.0864844322205,-0.504919469357,0.274196863174,0.0765969157219,0.0283488649875,0.0501677542925,0.142569363117,2.79853129387,0.0263909641653,0.175613254309,0.222596585751,0.165205046535,0.0605019703507,-0.167009472847,-0.0968208611012,-2.53781723976,0.490627348423,2.18671059608,-0.575056910515,-0.125381425023,0.560994803905,-0.482044368982,-0.237890690565,-0.435066074133,-0.402736008167,-0.637578547001,-0.366139143705,-0.317246109247,-0.563960194588,-0.333874791861,0.302661269903,-0.000555361271836,0.164218991995,1.35428905487,-3.65491771698,1.91330873966,0.403616696596,-0.89848536253,0.690148770809,0.126832693815,0.256052553654,0.108412533998,0.137144878507,2.18851041794,0.122365817428,0.183609768748,-0.0921429246664,0.0885289311409,0.396733552217,2.90986514091,0.404223024845,-0.0575947836041,-0.224245384336,-0.168590828776,-0.311551511288,0.159056335688,-0.25842615962,0.0675385892391,-0.0129002155736,0.0349034629762,-1.62945532799,-0.980121552944,-1.39161086082,-0.195363774896,-0.0525381490588,-0.237353950739,-0.292226165533,-0.472420215607,-0.273699015379,0.290464788675,0.787131428719,0.198187321424,0.732350885868,2.005412817,0.490080147982,0.629568397999,0.390540659428,0.559951901436,1.48740983009,0.168402895331,1.37066686153,0.0592595674098,-1.20283806324,0.0818007290363,0.628621816635,-0.427871316671,0.324191957712,0.890312790871,0.890327572823,0.852689623833,1.03127086163,0.209023892879,1.28175258636,0.867321789265,0.0666445195675,0.162634909153,1.82879376411,0.683526754379,0.140666335821,-0.486319124699,-0.378824949265,0.110907241702,-0.282466739416,0.865298628807,-0.467273592949,0.911076009274,1.563991189,0.729415118694,0.31578874588,-0.109729066491,0.365185707808,1.26280844212,1.74706590176,1.23982226849,0.329845190048,-2.79548835754,0.416677027941,0.244772717357,-0.95617210865,0.248837545514,0.399465948343,-0.583394467831,-0.114319123328,1.96618700027,-0.526868700981,-0.592336058617,0.582647681236,-0.172497183084,-0.0226873066276,0.205478802323,-0.00813587009907,-0.340627640486,-1.6747854948,-0.369977921247,1.64852881432,-1.98451161385,0.229249954224,2.24799537659,0.369045823812,1.08871328831,0.281483262777,0.0444324538112,0.21870714426,0.00730886776,0.304198414087,1.50947606564,0.232158541679,-0.50874966383,-1.44552993774,-0.457994669676,-0.211908623576,3.03414773941,-0.220006719232,-0.0922372937202,-0.28243842721,-0.0122147183865,-0.0701434016228,-0.66680932045,-0.024321269244,-0.531447947025,-1.4948939085,-0.502353489399,-0.0504288040102,-0.13414773345,-0.0150191150606,0.711044549942,2.56808400154,0.533978879452,-0.440826565027,-1.11630535126,-0.366127848625,-0.408829540014,-1.47463071346,-0.253165394068,-0.473877340555,-0.304497748613,-0.469459891319,-0.178238347173,3.66329479218,-0.341885268688,-0.487545490265,-0.1896853894,-0.485968828201,-0.434870123863,0.245736524463,-0.426054567099,-0.407841026783,-0.730979382992,-0.227747857571,-0.771480202675,-0.732107639313,-0.749671399593,-0.0696731135249,0.720006942749,-0.0617998205125,0.782226741314,1.33872175217,0.699223816395,-0.410964995623,0.584208846092,-0.528985798359,0.288150072098,0.179010570049,0.303820550442,0.361632287502,1.84020137787,0.291928976774,0.457245349884,-0.331026464701,0.454605340958,-0.389184355736,0.622060596943,-0.410695821047,0.312659293413,1.40768301487,0.134479627013,0.665118157864,0.0684045255184,0.713943779469,1.49520361423,-0.203301012516,0.0957064032555,1.87889742851,-0.254903227091,-0.311088740826,1.16664624214,-0.448486149311,-0.0809326395392,-0.207919746637,-1.01001536846,0.70869243145,-0.828685522079,-1.17874073982,0.805264651775,0.7980722785,0.925418257713,0.784727573395,0.606677055359,0.367158234119,0.405621677637,1.20000016689,0.879304409027,1.18772447109,0.212586298585,0.243850573897,0.941990554333,-0.612711012363,-0.402711987495,-0.531871259212,-0.181745633483,-0.209567308426,-0.179025948048,-0.659973442554,-0.159467041492,-0.592760562897,-0.324214428663,-0.827488899231,-0.257113695145,-0.686886012554,-0.721449792385,-0.636368453503,-0.228104054928,-0.69043135643,-0.223147019744,0.841410934925,-2.41276264191,0.856568455696,0.674616158009,1.59981548786,0.567021906376,0.346185833216,0.321518301964,0.29707840085,-0.129177957773,-1.40279829502,-0.0621211118996,0.345044404268,-2.79595923424,0.41663402319,0.793367028236,1.20415878296,0.745635390282,0.773790538311,1.48181521893,0.637934565544,-0.0252054240555,-1.62518405914,0.0266022272408,-0.45476475358,-0.853968441486,-0.374363213778,-0.0465751290321,-0.150856077671,-0.113557986915,-0.307271808386,4.44637680054,-0.257688969374,-0.25153490901,-0.590845346451,-0.222795367241,-0.428013652563,-0.695713818073,-0.406358659267,-0.498664021492,-0.630575120449,-0.474686324596,-0.389042288065,-0.386900573969,-0.380687862635,1.27349054813,2.49459981918,1.03981304169,-0.389494687319,-1.68197274208,-0.233988434076,-0.447799086571,-0.839594900608,-0.321318089962,-0.176572620869,-0.896926045418,-0.187045872211,-0.520602345467,4.0605711937,-0.560848236084,-0.203005596995,-1.08105432987,-0.151774510741,0.31358486414,2.15763282776,0.141196534038,-0.24481447041,0.907489717007,-0.260023921728,0.23853084445,0.2444794029,0.243572324514,0.708172023296,0.878362119198,0.719331562519,0.864076673985,-0.723828852177,0.820449531078,0.345244169235,-1.05496561527,0.196145772934,1.14152371883,-0.826255500317,1.04756844044,1.10905945301,0.604732871056,1.12570893764,-0.244012653828,-0.199798345566,-0.279414385557,0.843104958534,1.51056277752,0.796044886112,0.77720785141,-0.973687648773,0.636082053185,-0.379912793636,-0.257789373398,-0.378595858812,-0.0351461544633,-0.477049320936,-0.000378741679015,-0.430489361286,-1.29836905003,-0.366273254156,-0.133578523993,-0.307584315538,-0.11524040997,-0.293581157923,-0.384848743677,-0.26994112134,-0.603716790676,-0.519229352474,-0.459357142448,-0.743904769421,-0.849477112293,-0.750222921371,0.94463455677,-0.161108270288,0.843153059483,-0.080523096025,1.50669038296,-0.285989224911,-1.29191875458,-1.86416387558,-1.14586210251,-0.160615250468,-1.57703709602,-0.260461598635,0.797188222408,2.48186659813,0.761911392212,0.440816402435,0.207402482629,0.339948445559,1.08174133301,0.925131738186,0.230593696237,0.672165036201,-1.41814911366,-0.630386888981,1.14357483387,-0.491369903088,-0.638683438301,0.619192004204,1.17060220242,0.627090632915,0.412705898285,-2.69555044174,0.361374258995,0.0137545410544,-0.986700475216,0.0490862242877,0.491290807724,0.995885550976,-0.318375170231,0.656872570515,0.841897368431,-0.677713096142,-0.0984803065658,-0.626304924488,-0.495517760515,1.57028782368,0.373326212168,-0.0530870184302,1.09261286259,-1.77802670002,-0.497533679008,1.45135819912,0.159639984369,-0.275821775198,0.993701398373,1.86345815659,0.93986004591,0.771003961563,-1.27145433426,0.799482703209,-0.314451903105,-0.237893953919,-0.333959460258,-0.144909098744,-0.923822879791,-0.139660567045,0.742353796959,0.626270294189,0.665442585945,0.550419688225,0.989540815353,0.495655030012,0.523647069931,0.907551586628,-0.763932108879,0.025590961799,1.94293928146,1.28878939152,0.591602802277,0.188985541463,0.0578593760729,0.86467820406,0.766662597656,0.783054113388,0.183238103986,-0.0065342457965,0.193619981408,0.0720838084817,-2.34281635284,0.0817346349359,0.48628115654,1.41868913174,0.498373568058,0.514426529408,-4.4677233696,0.592669248581,0.0823352858424,-0.375934571028,0.0819362178445,1.24456310272,0.579957187176,-1.17028951645,0.51339328289,0.61971706152,-1.93980228901,1.0351678133,0.296090692282,-0.791965901852,-0.123845390975,-0.289011210203,-0.19508510828,0.577637434006,2.37556099892,0.5948818326,0.718919277191,-0.283410578966,0.70606225729,-0.440206825733,-1.13179802895,-0.336974084377,0.0872075855732,-1.71384584904,0.127657786012,0.545969605446,2.37056446075,0.468489319086,0.630292415619,-0.893048763275,0.624896347523,0.784644722939,1.15899825096,0.770913302898,0.5843090415,-0.793880045414,0.577065110207,0.340410500765,-0.66982614994,0.331634640694,0.763060450554,-0.610996305943,0.732191801071,0.43107047677,1.80129432678,0.465482413769,0.574109494686,0.427741616964,0.519363164902,0.861923158169,1.0260630846,0.838171303272,0.331743001938,-0.999876022339,0.201568439603,-0.0732892379165,0.09378901124,-0.271988272667,2.02303910255,0.431286722422,-2.06148910522,0.749379217625,-4.75871129311e-05,-1.03236842155,0.590454399586,0.880699932575,0.598020851612,1.2052154541,-1.7665091753,1.15232741833,0.79739266634,-1.32502996922,0.808780431747,1.20041453838,1.03732597828,0.0584705211222,0.283934354782,0.219311073422,-0.131414175034,1.09121966362,0.727732777596,-0.04929118976,-0.0142561690882,0.0131197012961,0.0844962596893,0.216378495097,3.00203633308,0.0949511155486,0.0776399970055,0.0763855725527,0.0949233025312,0.642877757549,0.955179274082,0.582309186459,0.216907680035,2.01330757141,-0.0112120835111,-0.183071568608,-0.703780651093,-0.208540081978,-0.219984441996,-0.0823763459921,-0.182182177901,-0.422770351171,0.120309390128,-0.322241544724,-1.03450489044,-1.47632324696,-0.839424371719,0.0809375271201,0.435419589281,0.113949306309,0.337768286467,1.9583324194,0.328516423702,0.100432597101,0.159038633108,0.0446380749345,0.368496179581,-0.816697359085,0.39855954051,1.16887390614,-1.50265598297,1.21767389774,0.184568062425,-1.06734609604,0.122441135347,-0.127626791596,0.0748460292816,-0.0590338855982,0.268078714609,2.2335793972,0.13434432447,0.0285138171166,0.187386065722,0.0593684352934,-0.401892364025,-0.566706001759,-0.371797144413,-0.727273821831,-0.111614383757,-0.760333240032,-0.564851999283,-0.403756648302,-0.513035356998,0.162200316787,0.748981893063,0.17019020021,0.274664700031,1.97440552711,0.157569169998,0.0525171272457,0.0535524152219,0.0743521153927,-0.493916511536,-0.586597084999,-0.545678019524,-0.53728055954,-0.692094862461,-0.469239413738,-0.537182688713,0.0481311529875,-0.477803915739,0.280624985695,0.263828516006,0.219484865665,0.34083160758,1.81871044636,0.259942144156,0.300493061543,0.506146371365,0.315131813288,-2.15208530426,0.060945186764,0.837140381336,-0.727322399616,0.434161961079,0.292294979095,-1.84826171398,-0.363327711821,0.66450303793,0.164870113134,0.308021664619,0.265693724155,0.494113177061,1.38371098042,0.330983281136,1.11769926548,-0.198665186763,1.1157656908,-0.0768628567457,-0.0888938754797,-0.157035917044,0.454492211342,2.35778307915,0.38844165206,0.141578108072,0.847271442413,0.0469746291637,-0.0042442898266,0.219223409891,-0.0528010688722,-0.551773130894,-1.10738956928,-0.438539534807,-0.614968180656,-0.704738616943,-0.589748680592,0.882279098034,2.03611779213,0.779550790787,-0.0112648596987,1.44244873524,-0.0345694050193,-0.168037071824,-0.971213817596,-0.110132113099,-0.0262264385819,0.164662286639,-0.0498008206487,-0.135786131024,2.73917388916,-0.179196938872,-0.433731019497,-0.534060955048,-0.379500389099,-0.117927707732,-0.28772315383,-0.121551908553,-0.757076740265,-1.1316806078,-0.709929645061,-0.148070827127,-0.315868586302,-0.167347684503,-0.271848261356,-1.44425165653,-0.252865582705,-0.220719501376,2.93003296852,-0.338690161705,0.197823494673,0.843296706676,0.178968071938,0.432559639215,0.91569674015,0.411387175322,-0.131694212556,-0.916473388672,-0.165137931705,-0.999998152256,-1.56767487526,-0.92301928997,0.0247128345072,0.0221912842244,2.45125770569,-0.207566440105,-0.821684002876,0.297855049372,-0.0587015524507,-0.351046860218,0.647077977657,0.348964124918,0.479550510645,0.34227848053,0.400258094072,-4.5595202446,0.441611498594,0.170242100954,-0.231240570545,0.18842972815,-0.20675355196,-0.53813123703,-0.187648758292,-0.695229351521,0.333165824413,-0.634464323521,-1.06954932213,-0.376106768847,-1.10053539276,0.418761342764,0.589365780354,0.433556348085,0.747114002705,1.98666262627,0.726299524307,-0.510580658913,-0.286857694387,-0.656815826893,-0.601447045803,-0.514990329742,-0.650119185448,-0.307148814201,-0.347413212061,-0.179114446044,-0.614742875099,-0.32026425004,-0.689333260059,-2.82950663567,1.13145792484,0.391749471426,1.41732752323,0.601751744747,-0.00391392409801,0.578362703323,0.231093347073,-0.553462028503,0.489192843437,0.327723145485,0.459540009499,0.677925765514,-4.02426052094,0.715304613113,0.383880376816,0.264112383127,0.367867171764,-1.6980714798,0.228588208556,0.045368514955,-1.60151052475,-0.336249887943,0.477607727051,-1.19308102131,-0.484237998724,-0.0379161946476,0.119446247816,-0.981236338615,0.210264742374,0.452941328287,-2.66576695442,0.482893824577,0.401382803917,-0.0709593296051,0.439244091511,-0.454850226641,0.430875211954,0.0417724810541,-0.894288420677,2.98168373108,0.259895175695,-0.258051007986,-0.929046452045,-0.5264133811,-0.31813365221,-0.684209227562,-0.343667149544,0.387971997261,-2.92370176315,0.468053936958,1.05342650414,1.80118989944,1.06819033623,0.19809243083,-0.882407069206,0.196691468358,0.157447427511,-2.08459067345,0.274656176567,1.1926292181,1.28132128716,1.10557305813,0.443368256092,0.92929905653,0.331263750792,0.423690617085,2.36488199234,0.308179527521,-0.484143614769,-0.96914690733,-0.371994614601,0.0305689293891,-0.0234304275364,0.0824012458324,0.559407234192,1.9388859272,0.280652135611,-0.0979296416044,0.174817591906,-0.0645287260413,-0.477136045694,-1.62086081505,-0.450424402952,0.631527781487,-1.58908522129,0.766860067844,0.236788228154,0.783066391945,0.257513344288,-0.379598021507,0.570601046085,0.418591201305,-0.304919779301,1.19674122334,1.30056881905,-0.370383441448,0.0873092114925,0.184929639101,0.145779579878,-0.119320228696,0.115275859833,0.219318047166,2.75166940689,0.125484660268,0.0787756666541,-0.126977086067,0.148942068219,0.233862772584,0.472257554531,0.209543302655,0.31329742074,1.72961962223,0.152193412185,0.0330510400236,0.821916103363,0.105517841876,-0.449272185564,-1.16007626057,-0.432450264692,-0.766896605492,-1.16466009617,-0.664989590645,0.0349838994443,1.82108592987,0.0608245357871,-0.422414302826,-0.831450283527,-0.440695077181,-0.849213540554,-0.455405622721,-0.800842225552,-0.572059214115,-0.601760864258,-0.507826507092,0.608770132065,-0.656298696995,0.606848716736,0.801723837852,1.53911697865,0.695402443409,0.274911910295,-0.186514616013,0.342768609524,0.0685000866652,-0.253143548965,-0.00424669636413,0.01303539332,3.01146578789,0.0411259643734,0.0385892726481,0.225455492735,0.0677818357944,-0.332510262728,-0.517322957516,-0.274007588625,-0.743537425995,-0.301499605179,-0.728408515453,-0.503923475742,-0.502697408199,-0.403461068869,-0.572275400162,-2.01852059364,-0.533693909645,-0.39916780591,3.64226770401,-0.427373588085,-0.360278308392,0.149159669876,-0.389106541872,0.159694969654,0.429389774799,0.0633257031441,0.223675772548,2.99237370491,0.125308826566,0.108367241919,0.205752119422,0.0664646476507,-0.442235052586,-0.41010260582,-0.400370717049,-0.649588227272,-0.22897605598,-0.493013262749,-0.468307882547,-0.646711230278,-0.412101358175,0.0613504573703,-0.0533475726843,0.110558442771,-0.311135262251,3.33947968483,-0.288951128721,-0.0338928773999,-0.0982646718621,-0.153490692377,-0.305408895016,-0.778432607651,-0.233349815011,0.406840801239,-2.40673899651,0.455292850733,1.06190359592,1.32103908062,1.06910741329,-0.739448368549,-0.781258881092,-0.672195315361,-0.0175623688847,-0.448018550873,-0.0814701169729,0.817913353443,2.19712972641,0.764554262161,-0.152656182647,-0.742229640484,-0.0471685901284,-0.446397185326,-1.28326487541,-0.364791482687,-0.219353035092,-0.72286605835,-0.236781984568,-0.484668016434,-0.867531955242,-0.479145407677,-0.901548981667,2.68250989914,-0.909023702145,-0.335980772972,-1.42229795456,-0.315121412277,-0.290091663599,-0.339266002178,-0.24279370904,-0.360032349825,-1.25191307068,-0.350522816181,-0.0172881558537,-0.352390110493,0.0125093515962,-0.43859487772,-0.283843904734,-0.420878738165,-0.623740315437,-0.778506159782,-0.551377177238,-0.448849648237,-0.420351952314,-0.385155111551,-0.156410947442,-0.316582351923,-0.228026673198,-0.187391161919,3.85771489143,-0.204277679324,-0.134734123945,-0.373040884733,-0.172983005643,1.74433934689,0.0640536174178,1.02274036407,0.176770761609,-0.584806501865,-0.0729553624988,1.29975247383,0.25573015213,0.873604357243,-0.205878853798,-0.405668884516,-0.122438304126,-0.829324483871,0.738253891468,-0.878221750259,-0.0431332476437,2.78648805618,-0.094167470932,0.412213504314,-0.580607116222,0.379930645227,1.11112594604,-3.10270833969,1.11690568924,0.598984777927,-0.776620566845,0.590747475624,0.566743969917,1.24156880379,0.51988607645,0.197678014636,1.18363046646,0.174187079072,0.595769643784,-0.812973618507,0.668996989727,2.22714757919,-0.666611254215,-0.469840347767,1.73195791245,-0.771689891815,-0.612060546875,0.403368920088,-0.0449653230608,-0.130368560553,-1.05858254433,-1.38408029079,-0.926786363125,-0.0483444333076,-0.125322416425,-0.0286536905915,-0.0613219775259,1.22261571884,-0.0204424895346,-0.143527835608,0.00977110210806,-0.21870316565,0.26872831583,2.18548536301,0.148940727115,0.192433193326,0.547523736954,0.0880372077227,-0.158347904682,-0.524255990982,-0.819324791431,-0.683270514011,-0.282016932964,-0.545593202114,-0.734715104103,-0.108575828373,-0.348103046417,-0.132540374994,0.780918478966,-0.0995001196861,0.584413230419,2.35309576988,0.493117898703,0.122673839331,0.517368078232,0.212647736073,-0.273317992687,-1.35767424107,-0.235260382295,-0.159815996885,2.33091902733,-0.179208278656,0.474882811308,1.57138574123,0.448528021574,-0.183051973581,0.113179564476,-0.12886801362,-0.965938687325,-0.69404053688,-0.902476668358,-0.498915016651,-0.66873806715,-0.446124583483,0.353440105915,-0.734579086304,-0.424523591995,2.27232503891,-1.73425209522,-0.446937888861,0.0255113374442,-0.357857882977,-0.0583724379539,-0.0409397408366,-0.543078064919,-0.0842773094773,-0.0639001429081,3.20781707764,-0.0289981309325,0.182764753699,0.684782207012,0.118325345218,-0.507249951363,-0.831832289696,-0.474632769823,-0.560869455338,-1.31416165829,-0.479081720114,-0.0112878931686,-0.434154212475,0.0704447999597,0.365506291389,0.760731697083,0.228964537382,0.204359427094,1.65111386776,0.190947800875,0.382275998592,-0.383021682501,0.346829265356,-0.12871336937,-1.17822384834,-0.0948682650924,0.265111714602,-2.02917218208,0.330116420984,1.15715718269,0.890513241291,1.10864424706,0.23178884387,0.590930759907,0.117861106992,0.983947098255,-1.02901637554,1.15090918541,-1.05744540691,-1.70826971531,-0.993970036507,0.512885510921,1.92358255386,0.460318356752,-0.324799150229,0.63134264946,-0.177824124694,0.332114040852,0.31386718154,0.259864717722,-0.0989459753036,-0.43616065383,-0.05188171193,-0.374818325043,-1.49212026596,-0.463690131903,-0.0444396212697,-0.2973048985,-0.0546768940985,2.72097611427,-0.18169669807,-0.879328787327,0.544827818871,-0.542021512985,0.0428197011352,0.0788822621107,-0.250829279423,0.168667137623,-0.523690283298,-0.220677539706,-0.463932931423,-0.387509822845,-0.17981852591,-0.349658161402,-0.732980787754,-0.313980281353,-0.682692229748,0.925823390484,-0.193473622203,-0.787429451942,2.20452094078,0.505703747272,-1.83831572533,0.712005972862,-0.42263224721,-0.146500170231,0.0135869421065,-0.659317135811,0.014190335758,0.679760098457,-1.9492880106,0.669648230076,1.04979228973,1.40103626251,1.01972746849,-0.669770658016,-0.488056331873,-0.615129351616,-0.538981854916,-0.389209091663,-0.482461988926,-0.600607872009,-0.498547673225,-0.516207039356,-0.0443466491997,-0.184708878398,0.0495241358876,-0.0102985138074,1.52583026886,-0.155126571655,0.517198443413,1.4271736145,0.541447460651,0.383179008961,0.88107329607,0.273245662451,-0.227121844888,2.31830596924,-0.241366505623,-0.085023842752,-0.424216359854,-0.100075945258,-0.331272929907,-0.48247268796,-0.387428224087,-0.156750231981,3.24409294128,-0.190911486745,0.274762541056,0.579611778259,0.157007306814,-0.83729493618,-1.10094487667,-0.405866801739,-0.304255187511,-0.16578990221,-0.553869962692,1.48821437359,1.79903149605,0.236911326647,-0.58392894268,-0.504871964455,-0.489460587502,-0.524941205978,-0.419305145741,-0.51761496067,-0.543891787529,-0.457422345877,-0.533210575581,-0.169931128621,-1.54471480846,-0.110986210406,0.0855432152748,3.57902812958,-0.043188624084,-0.058962829411,0.129821673036,-0.0942300707102,0.787800550461,1.39923727512,1.03364121914,0.904132008553,-0.76108443737,-0.769106209278,0.946414470673,-0.836028397083,-0.148927256465,0.0556005127728,0.771987140179,0.168561264873,0.570268213749,1.69449079037,0.127893805504,0.235443279147,0.501711308956,0.340340465307,-1.24304080009,-0.0782804712653,0.496978908777,-1.58082211018,-0.685315012932,1.97824025154,-0.389233648777,0.183425888419,-0.286177963018,-0.510195732117,-0.486668884754,-0.48874810338,-0.561639964581,-0.340007722378,-0.567092418671,-0.569523513317,-0.563660562038,-0.624284744263,-0.380683094263,-0.735827445984,-0.325806975365,-0.292208462954,-1.97868919373,-0.252469360828,0.0278835147619,-0.552441060543,0.0628265589476,-0.100761719048,-0.0267767459154,-0.16862526536,-0.284900397062,-0.437290966511,-0.329794406891,1.36435520649,1.93516623974,1.40099835396,1.31218397617,0.680803656578,1.24963259697,0.194866091013,-0.353516638279,0.241623684764,-0.0519206002355,-0.777866303921,0.715840339661,0.280701905489,-1.19092595577,0.254105865955,0.61552375555,0.261445522308,0.655610144138,0.447454422712,1.81739866734,0.287952035666,-0.218506187201,-0.78852212429,-0.277280718088,-0.090827703476,3.87835788727,0.0441196151078,-0.225037336349,0.349829018116,-0.243527323008,-0.328337401152,-0.350506812334,-0.352256536484,-0.511197030544,-0.527199923992,-0.488729566336,-0.408759117126,-0.527161538601,-0.371100246906,0.274482131004,2.48139190674,0.0998502597213,-0.90148884058,0.770082116127,-0.790983080864,-0.0126989027485,-0.633485138416,0.00140758277848,0.530872762203,-0.251441925764,0.46086165309,0.454351454973,1.77953803539,0.455687999725,0.393005162477,-0.494385272264,0.445278704166,-0.448348134756,-0.216954827309,-0.429441273212,-0.513052165508,-0.555347263813,-0.458223313093,-0.355098187923,-0.599128723145,-0.298184275627,0.522776961327,1.05505728722,0.602205514908,0.774661660194,0.485181957483,0.583191096783,0.159067451954,-0.96457695961,0.273591041565,-0.283919602633,-1.23116731644,-0.172062695026,-0.362394928932,-1.83256924152,-0.318482756615,0.562759876251,2.23303818703,0.406843215227,-0.0195821300149,-0.920058846474,0.0458257682621,-0.394957751036,-1.09410953522,-0.23780605197,0.00897334050387,-0.403790712357,-0.011214600876,1.19949388504,1.84593904018,1.02877736092,-0.374787598848,0.356876373291,-0.345682740211,-0.339212030172,-1.06737923622,-0.323940336704,0.198432251811,0.107625730336,0.0640098899603,0.00100635970011,2.80319356918,0.0714460536838,0.293145924807,0.116118602455,0.195712581277,-0.60187548399,0.664436042309,-0.517690241337,0.655806720257,-3.47180914879,0.557263553143,-0.248923003674,0.201810419559,-0.144591212273,0.918714106083,1.81467020512,0.898910462856,0.549807488918,-2.16893839836,0.522589385509,-0.0773177593946,-0.765956223011,-0.0989038050175,0.758255660534,0.715438425541,0.720144093037,0.408099621534,1.30287230015,0.370079100132,-0.69475877285,0.0185189191252,-0.715358436108,0.307639211416,0.49959218502,0.198933303356,0.167717680335,1.78155839443,0.210031732917,0.322572588921,-0.154025405645,0.291936069727,0.405662059784,-0.0653334856033,0.356989771128,-0.0821168720722,-0.53408652544,0.0137182762846,0.29679441452,2.42464756966,0.141089871526,-0.0354043543339,-0.202905640006,0.0413984321058,1.81222259998,-2.03534841537,1.72750031948,0.292503118515,-0.853249132633,0.330351740122,0.25840651989,1.58252286911,-0.416892915964,-0.394416898489,2.7195186615,-1.22483491898,-0.629168272018,-0.920608103275,-0.158238947392,0.395148187876,0.0623806081712,0.321367323399,0.207497432828,2.19594860077,0.229817822576,0.062531106174,0.0370585508645,0.0897687897086,-0.249856457114,0.244168147445,-0.228225871921,-0.56910276413,3.24060940742,-0.591524064541,0.0317218154669,0.0202637724578,0.125070929527,-1.10809111595,0.70105701685,1.23911321163,-1.59869754314,-1.09301424026,1.30588304996,-0.981927394867,-0.177043378353,0.370417684317,0.200309440494,-1.85734498501,0.0806844010949,-0.967792391777,4.31090831757,-0.688620090485,0.0520001724362,0.108018763363,0.0823758020997,0.326554715633,-0.148172259331,0.16892029345,1.6212195158,0.305334687233,1.63428914547,1.03061676025,-2.28014731407,1.21267533302,0.897466540337,-0.153084531426,1.54922890663,0.777684867382,-0.303996503353,0.770209550858,0.907072544098,-0.15460345149,1.26018452644,-0.61088347435,-0.374367326498,-0.50691640377,-0.435146778822,-0.210862636566,-0.394885212183,-0.472693771124,-0.413009285927,-0.405712753534,0.412532001734,1.52152192593,0.367535740137,0.212433710694,1.11910188198,0.0680278465152,-0.397694528103,-0.058165974915,-0.361412674189,0.0907354131341,-1.27737915516,0.0987519919872,1.06560838223,-1.04772245884,1.08441317081,0.563973128796,1.20104849339,0.52248698473,-0.451503664255,-0.346520483494,-0.503650128841,-0.378029644489,-0.329758733511,-0.30216255784,-0.541473984718,-0.281489908695,-0.50961971283,0.562322437763,0.727803885937,0.481785535812,0.510362029076,1.67918467522,0.355849951506,-0.197243511677,-0.548291265965,-0.217255532742,-0.492539137602,-0.366643816233,-0.429065078497,-0.508969902992,-0.343219459057,-0.492969453335,-0.595854580402,-0.358182698488,-0.589667022228,-0.374107301235,-0.422735631466,-0.384591221809,-0.174614846706,-1.54849517345,-0.0443254597485,0.700135171413,1.9501979351,0.607826888561,-0.13417442143,0.652686357498,-0.158423483372,-0.425384819508,3.71301269531,-0.457304418087,-0.298137366772,-1.17120945454,-0.32829400897,0.228323623538,-2.9464673996,0.295806646347,-0.522295773029,1.19463145733,-0.487042367458,0.0717341974378,1.64256834984,0.0052493494004,-0.497128546238,-0.352100521326,-0.457850337029,-0.236625358462,-0.499430507421,-0.269528001547,-0.590366005898,-0.385644316673,-0.513521909714,-0.731315970421,-0.517195940018,0.65442019701,-1.67032980919,-0.584786772728,1.96807336807,-0.610420942307,-0.547207534313,0.514110207558,0.355922818184,-0.32798230648,0.239408075809,0.952262341976,0.872006237507,0.991762042046,0.514789283276,-0.290809750557,0.472230941057,-0.486374020576,2.98162531853,-0.527989864349,-0.592780947685,-1.9233571291,-0.38562759757,0.178892508149,0.213330492377,0.212005093694,-0.256129562855,0.21995395422,0.566159546375,-1.6585777998,-0.0490869544446,1.65132176876,-2.19819521904,-0.0846087783575,2.24884486198,0.721191227436,1.06862437725,0.703024923801,0.412681818008,1.31312775612,0.306565314531,-0.746511876583,-0.624323248863,-0.520910859108,-0.0200072973967,-0.806021273136,0.355804949999,-1.12910056114,-0.802294313908,2.90518760681,-0.660561919212,-0.147539556026,-0.103575892746,0.172073438764,-0.60351651907,0.134471029043,0.479029595852,1.30548989773,0.435123205185,0.193300649524,1.54160130024,0.125211283565,1.18624925613,0.750012814999,1.0482647419,0.542937457561,1.20387935638,0.501038610935,-0.292738378048,-0.752406060696,-0.375534117222,0.979193031788,2.00527977943,0.983307301998,0.127831354737,-2.11396312714,0.061538849026,-0.196157813072,-0.894489526749,-0.080587849021,0.646708488464,1.0942709446,0.546556770802,0.834121286869,-1.35266983509,0.872196614742,0.747716903687,0.608364343643,0.667185842991,-0.18628692627,-0.124550752342,-0.220860734582,-0.342194736004,3.77018165588,-0.415811806917,-0.229340076447,-0.33609393239,-0.239100426435,-0.337535887957,-0.536601305008,-0.268114119768,-0.0380700938404,2.73393130302,-0.144462928176,0.34025478363,0.443535745144,0.381901532412,0.230024650693,0.687622725964,0.0907292515039,0.510274291039,1.63829362392,0.487880915403,0.164768353105,0.304929584265,0.120259068906,-0.111474692822,0.238025650382,-0.265906065702,0.541814029217,2.48470830917,0.319963753223,0.178973779082,0.551305949688,0.106593169272,-0.133336514235,-1.15327811241,-0.110743045807,0.485798358917,-1.35674190521,0.389778971672,0.931374669075,1.68625593185,0.864990472794,-0.0479572601616,-1.44302642345,-0.0968378707767,0.728092074394,-1.97972202301,0.885692119598,0.958932757378,1.4142011404,0.888846814632,-0.20678858459,0.384601026773,-0.107106767595,-0.0662638768554,3.06123995781,-0.167988538742,-0.420458287001,-0.726287961006,-0.306987404823,-0.157872855663,-0.00560301542282,-0.131945028901,0.520301640034,1.83191764355,0.369862705469,0.628924489021,-0.392591446638,0.632128715515,0.0169846732169,-0.752605974674,0.0482040792704,0.178831487894,3.59132552147,0.105789124966,-0.117600351572,0.842784464359,-0.115457750857,-0.350137650967,-0.536650538445,-0.573682427406,-0.454310327768,0.0953476577997,-0.403316497803,-0.719992280006,-0.465199202299,-0.442064553499,0.0663884058595,0.632220089436,-0.0229508467019,0.57993221283,1.8366471529,0.366788417101,0.508114159107,0.615091264248,0.428785562515,-0.761968970299,-1.37506115437,-0.802736461163,-1.38725328445,2.27660989761,-1.31287384033,-0.692126333714,-1.37540924549,-0.686478614807,0.138629481196,-0.17514796555,0.0719133913517,0.135438427329,2.66444516182,0.0756686404347,0.20609870553,0.230665594339,0.0955489724874,-0.0407913736999,1.46708548069,-0.201477408409,0.521186292171,1.61321496964,0.495014458895,0.314072817564,-0.799246013165,0.200813189149,0.0730083361268,-0.176423087716,0.070188164711,0.691794812679,-0.430359452963,0.762879550457,0.801553428173,1.84471714497,0.696736574173,-0.590325057507,-0.24446053803,-0.548425197601,-0.582408905029,-0.737014889717,-0.549215614796,-0.138677403331,-0.578630745411,-0.0870221853256,0.454889416695,0.368993550539,0.487945944071,0.991208732128,-0.983182966709,0.922735095024,0.472506850958,0.914379537106,0.499882370234,0.466525614262,2.56418681145,0.22603097558,-1.00569701195,0.93149548769,-0.990138709545,0.150627627969,-0.560922145844,0.157471895218,0.0441720858216,0.813176751137,0.730668604374,-0.0497701689601,1.51834905148,0.691879630089,0.461566269398,-0.637757360935,-1.03196942806,0.167150124907,-0.597455203533,0.193132996559,0.573302149773,-2.76687431335,0.560119628906,0.613459706306,0.399213254452,0.675348341465,1.2415728569,1.62227451801,1.05043792725,0.293855667114,-1.85519421101,0.415832132101,-0.19085124135,-1.39729630947,-0.189554676414,-0.672717869282,-0.644808351994,-0.645019292831,-0.371037006378,-0.289878457785,-0.365482777357,-0.335921138525,0.00204535224475,-0.323771774769,0.0307954158634,0.937714517117,0.119938470423,0.508843719959,1.75155770779,0.156312152743,-0.15862467885,0.317988008261,0.0822475403547,0.437302619219,0.713974893093,0.385206580162,0.680884897709,2.02957201004,0.417271077633,0.240089476109,-1.19506204128,0.448473572731,-0.318112105131,-0.453420013189,0.54482871294,2.36254286766,-0.592549622059,-1.51660084724,0.919871687889,-0.006839054171,-0.488688826561,-0.982622563839,0.006920510903,0.744359970093,-1.98993504047,0.364902853966,1.48702049255,-0.691214382648,0.191247105598,0.563204526901,-0.372658580542,-1.27194917202,-0.366078555584,-0.132836848497,-2.04875254631,-0.0477761663496,0.206095889211,0.190419092774,0.202366173267,0.490602195263,2.73750066757,0.391763716936,-0.137842997909,-0.200207173824,-0.089114792645,0.0696089416742,-0.219924196601,-0.0367742478848,-0.233238562942,-2.08964705467,-0.366597414017,1.1358011961,-0.272067040205,-0.988573729992,1.37411141396,1.24330794811,0.0146231707186,-0.38772264123,-0.580741286278,-0.345635294914,-0.835812568665,0.0926286652684,-0.754479765892,-0.756902575493,-0.781544268131,-0.73980909586,0.167608529329,-0.437582314014,0.0228940788656,0.310459822416,1.52982318401,0.258158534765,0.584394037724,1.42195868492,0.367633193731,0.524030506611,-0.713298797607,0.509276688099,-0.361002713442,-2.75299024582,-0.263417214155,1.08301174641,-0.43891876936,1.01015639305,1.15224051476,0.773691892624,1.11238253117,0.642401993275,-3.2855117321,0.68663841486,0.383837491274,-0.570629835129,0.412609875202,0.267064481974,1.32051420212,0.236632660031,0.318434655666,1.76266980171,0.289750874043,-0.0905729979277,-0.386394113302,-0.117822185159,-0.620478928089,0.202551692724,1.11143994331,-0.936990559101,-1.3350174427,1.05069231987,-0.732834875584,0.276914656162,0.874380588531,-0.176202923059,-0.735683441162,-0.294159621,-0.39657253027,4.53076267242,-0.519582092762,0.0409239120781,-0.380205780268,0.0457997880876,-0.523624122143,-0.533881425858,-0.581670224667,-0.410446852446,5.31412935257,-0.444257289171,-0.363245725632,-0.242751836777,-0.361703127623,1.09699499607,-0.156926423311,-0.425616770983,1.95582151413,-1.93099701405,-0.746148705482,-0.481829017401,1.52533197403,0.849356770515,0.0601642839611,0.0445524938405,0.0265821572393,-0.253334820271,2.83379626274,-0.278920680285,-0.450193405151,-1.40832924843,-0.598144829273,-0.105647191405,-1.07136869431,-0.016906183213,0.235731691122,2.47202253342,0.184229165316,0.00278308917768,0.878058373928,-0.00206034723669,-0.245196580887,0.0386883951724,-0.136157974601,-0.256259322166,-2.18524050713,-0.283096402884,0.00103689811658,-0.305404126644,0.0663675740361,-0.358919382095,-0.477884232998,-0.283324301243,-0.638066351414,-0.506246268749,-0.59159630537,-0.355724722147,-0.543732464314,-0.303082764149,0.345834165812,0.254583448172,0.1549295187,0.0784719511867,2.98204088211,0.119481697679,0.130698725581,0.0528328418732,0.0087796645239,0.226302325726,0.0397897474468,0.255775630474,0.472263276577,0.672516345978,0.313533484936,0.585223257542,1.82352864742,0.559659004211,0.103042908013,0.286870479584,0.185017734766,0.661824285984,1.76364898682,0.440436422825,0.117051295936,0.368783116341,0.229945406318,0.184849411249,0.231837645173,0.0886534675956,0.359374552965,2.04971790314,0.288529604673,0.0634412690997,0.534556269646,0.151604503393,0.54941701889,0.351543784142,0.506538271904,0.815188407898,-4.44732189178,0.788304507732,0.389441639185,0.428718477488,0.408016681671,0.759581685066,-0.384714961052,-0.595803260803,-0.519605755806,1.38353013992,-1.9296900034,0.760421812534,-0.278829663992,-0.856825232506,-0.541098892689,-0.467890173197,-0.525462031364,-0.454801172018,-0.696613967419,-0.483633995056,-0.336506307125,-0.456479072571,-0.306755810976,-0.270818561316,1.05961489677,-0.3147829175,0.675539016724,2.33444190025,0.422154009342,-0.153405308723,0.337557464838,-0.15471214056,-0.131232321262,-0.467954218388,-0.117845803499,-0.512682497501,-0.964778006077,-0.480413377285,-0.452235341072,-0.765281140804,-0.435935825109,2.19575333595,-0.101140193641,0.291663527489,0.0913476645947,-0.389935731888,-0.324774086475,0.298974335194,-0.244938343763,-0.0485018268228,-0.0738622173667,-0.814351022243,-0.0391739904881,-0.3015396595,-1.50455570221,-0.266409307718,0.978286087513,1.84318614006,0.926904976368,0.466050505638,0.769060015678,0.327421367168,-0.0339149162173,2.52395820618,-0.0273801907897,0.0241135153919,0.528940677643,0.43035402894,0.175484910607,0.283349961042,0.165085405111,0.268510609865,2.19091057777,0.208019167185,0.280067414045,0.231619790196,0.275367617607,-0.558636426926,-0.44410610199,-0.504646480083,-0.615577995777,-0.60349303484,-0.558901846409,-0.33663854003,-0.395554333925,-0.311110436916,-0.277029961348,-0.875363886356,-0.353156000376,-0.928681910038,4.08289957047,-0.887408018112,-0.384930729866,-0.455423057079,-0.412769407034,0.167857676744,-1.57178223133,0.0912680476904,0.16721098125,-2.03835272789,0.186380952597,1.36483538151,1.29689013958,1.36446404457,-0.430798053741,-1.16208803654,-0.429572612047,-0.634835064411,5.40716457367,-0.676083803177,-0.268567621708,-0.212692379951,-0.236306503415,-0.0266860127449,0.601919770241,0.885741651058,-1.07674765587,1.52001452446,0.25252661109,0.167210832238,0.559225022793,-0.997788190842,0.504818379879,0.679653406143,0.0605754591525,0.590927600861,1.55691659451,0.548883855343,-0.21823066473,-0.00671547651291,0.0758176743984,-0.651345014572,-0.457402199507,-0.64530903101,-0.528841733932,0.188341096044,-0.582198083401,-0.503489255905,-0.147768884897,-0.402107656002,1.80742299557,0.118015788496,-1.02831304073,1.74385249615,-0.117412008345,-1.01382827759,-0.204488962889,-0.495712637901,-0.0601268261671,0.12929725647,1.51858079433,0.114167056978,0.0646894201636,2.73768973351,0.105386175215,-0.235199719667,-0.911406517029,-0.268711715937,-0.0852897614241,-0.391838937998,-0.0691958889365,-0.33415850997,-1.44709587097,-0.264610111713,-0.0807451382279,-0.263404756784,-0.108815081418,2.08652043343,0.874205768108,1.58262228966,-0.39727178216,-0.698493599892,-0.136464938521,-0.0670466348529,-0.515808939934,-0.107079088688,0.531652033329,0.0332722440362,-1.89475512505,0.401895165443,0.447727024555,-1.05479538441,0.492242902517,-0.298285365105,-1.78790736198,0.169204562902,0.387362658978,0.121937654912,0.680320739746,1.9505712986,0.591060519218,-0.309532344341,0.86775124073,-0.602436959743,0.518623232841,-0.361429333687,0.613725364208,0.739766120911,0.49012106657,1.3187277317,0.55143904686,-0.659983932972,-0.0392055697739,0.223875626922,1.10497522354,0.144560456276,0.124973759055,1.83961904049,0.0776072144508,-0.180968374014,0.190544858575,-0.120698951185,-0.756978869438,-0.683351933956,1.6319937706,0.563483595848,-0.0104357255623,0.788787424564,-0.787197291851,-0.429128915071,1.39627289772,0.0963362380862,0.256841272116,0.0829815864563,-0.144333615899,-4.32409667969,0.061082713306,0.252690702677,-0.248298987746,0.173548325896,0.318186610937,-0.0145429894328,0.338923603296,-0.382085084915,-1.85775923729,-0.36317139864,-0.297416836023,-0.667340755463,-0.244168505073,0.570168316364,2.15244483948,0.377730309963,-0.713760674,-1.25337266922,-0.56670331955,-0.240530312061,-1.4459438324,-0.125634044409,0.316291809082,0.532679617405,0.190839514136,0.430554121733,2.49601221085,0.314250826836,0.0726475045085,0.402519643307,-0.00448330398649,1.34967005253,-0.0413939803839,-0.81652712822,1.59921967983,-0.200778320432,-0.968523263931,0.490447849035,-0.787752389908,-0.537045955658,-0.233916923404,-0.0454953797162,0.860048115253,-1.67358243465,0.111279048026,2.11572337151,0.149357482791,-0.015500286594,0.218673467636,0.216331258416,-0.109421528876,0.219948589802,-1.31318449974,-0.661558270454,-1.2671957016,-0.298595249653,-0.273465245962,-0.299569964409,0.00268831499852,0.0736655145884,-0.080071143806,0.0951541736722,3.36410808563,0.0992662981153,-0.0847134590149,0.0811739340425,-0.156989201903,-0.320923298597,-1.34970498085,-0.204368636012,0.721267640591,-1.26227331161,0.572585225105,0.78703981638,1.98732757568,0.846304535866,0.625387847424,0.962470591068,0.562783122063,0.368820816278,1.13123059273,0.392078787088,-0.939866900444,-0.989138305187,-0.736848711967,-0.383923083544,-0.73020195961,-0.373741865158,0.516639709473,1.65870475769,0.37402883172,0.452459692955,1.61644685268,0.455253183842,-0.011571386829,0.737789928913,0.434914410114,0.256320178509,2.23086881638,0.687142252922,-0.0873185023665,-0.105416819453,-0.172508850694,-0.145332604647,0.161815196276,-0.164562046528,-0.220989301801,3.77233719826,-0.278915852308,-0.0937541648746,-1.13023400307,-0.122191913426,0.447245359421,0.600247919559,-0.17552383244,1.60881757736,-0.365096986294,-0.307061731815,0.627098083496,0.365494996309,0.290961205959,0.012837478891,-0.716546595097,0.0220105871558,0.469331234694,2.08750152588,0.417624592781,0.0721089839935,1.05396544933,0.0127340937033,-0.475039035082,2.28646063805,-0.476719558239,-0.446297079325,2.29856657982,-0.367212980986,0.359935969114,-0.866481304169,0.279219210148,0.374185711145,-0.227677047253,0.718633472919,0.353799641132,0.955451965332,2.18564176559,0.283150225878,-0.295315593481,-0.126171201468,0.262737989426,0.636101782322,0.241070955992,0.480980485678,-4.33107328415,0.521767795086,0.269662797451,0.0801298469305,0.292819052935,-0.220392152667,2.10410523415,-0.41034078598,-0.41309222579,1.11911582947,-0.382792770863,-0.280601143837,1.420576334,-0.431233942509,-0.623419463634,0.234899163246,2.56884455681,-0.368472605944,-1.15429461002,1.55485212803,0.0527248121798,-0.31747892499,-0.556334793568,-0.344453155994,-0.5335547328,-0.345006912947,-0.298937141895,4.00669765472,-0.330696582794,-0.23640704155,-0.144236668944,-0.272404789925,-0.324489563704,-0.616351783276,-0.283603936434,-0.295009732246,-1.07259964943,-0.216726332903,-0.341643214226,-0.860767304897,-0.31205958128,-0.264509737492,-0.754488527775,-0.154958158731,-0.699334263802,4.09704446793,-0.929704487324,-0.316628217697,-0.595512390137,-0.240539908409,0.567252635956,1.82289087772,0.664424836636,-0.659916460514,0.668356597424,-0.797268331051,0.543297886848,0.642388999462,0.514817118645,-0.357165753841,-0.20039896667,0.897086083889,-1.15865540504,-1.19197034836,1.45760941505,-0.344562262297,-0.13372066617,0.678593158722,-0.567004561424,-0.401595592499,-0.479940861464,-0.460578590631,-0.313358157873,-0.430819511414,-0.410407692194,-0.288394153118,-0.385770231485,-1.08690583706,-1.46985948086,-1.01034557819,0.243142709136,-0.3835080266,0.34468626976,0.898589909077,1.80495023727,0.741764843464,-0.942099630833,-0.530333459377,-0.882027447224,-0.224471092224,-0.324871480465,-0.214633375406,-0.310860782862,-0.327208459377,-0.268888771534,0.0511835999787,0.308317154646,-0.00274758040905,0.334502518177,1.86981248856,0.269281148911,0.250945597887,0.236763492227,0.185220777988,0.972831904888,-0.805289983749,0.984791457653,0.867712676525,-2.40156936646,0.929350316525,0.386382818222,-0.688632011414,0.432531744242,-1.22341704369,-1.32120168209,-1.07218456268,-0.217078208923,-0.382893353701,-0.32955211401,-0.103220261633,0.404289990664,-0.132385835052,1.2633253336,0.798100650311,1.26057207584,0.351911336184,-0.087916135788,0.356241196394,0.673182964325,-0.561892032623,0.597832620144,0.0416373871267,-0.623664259911,0.024999499321,0.414236217737,2.00609636307,0.308679521084,0.326308906078,0.702738940716,0.294087558985,0.526084899902,0.797010540962,0.522105157375,-0.0952818244696,-2.97812128067,-0.116698168218,0.135962605476,-1.01001572609,0.159322410822,0.892272055149,1.48619627953,0.678318142891,1.08171355724,-0.77122592926,1.09348845482,-0.44743642211,-0.960295915604,-0.335164576769,-0.608974456787,0.00123865983915,0.770242214203,-1.02309560776,-0.202970445156,1.82797336578,-0.795870542526,-0.220542952418,0.644123971462,-0.113867260516,-0.296806812286,-0.0130242370069,-0.706427633762,3.99884700775,-0.806438624859,-0.288951963186,-0.603680729866,-0.205280333757,0.0128675159067,-0.0229228287935,-0.159702584147,0.222636207938,2.96109938622,0.245531857014,0.205774858594,0.296372145414,0.14784796536,-0.219772383571,0.353341162205,0.0742543712258,0.445617288351,1.81865262985,0.127550318837,-0.106968946755,1.04537773132,0.107814915478,-0.493976444006,-0.239339232445,-0.441340506077,-0.570035934448,-0.123096138239,-0.532696664333,-0.608611524105,-0.44304805994,-0.56839710474,-0.499996572733,-0.599181592464,-0.476507991552,-0.446471869946,-0.360812038183,-0.413956940174,-0.507755041122,-0.580031454563,-0.528837203979,-0.988833844662,-0.0402003079653,0.828194856644,-0.91754001379,0.218349054456,1.66297531128,-1.0061763525,-0.297855198383,0.950654447079,-0.411931455135,-0.487401664257,-0.401412010193,-0.67147064209,-0.2953992486,-0.671768188477,-0.357805043459,-0.591495633125,-0.273813903332,-0.160917833447,0.290218055248,-0.19128203392,-0.388106614351,-0.471960514784,-0.187920719385,-0.719520866871,-0.932226777077,-0.726232886314,-0.775679826736,-0.299634277821,-0.749868988991,0.208435893059,-1.49572229385,0.290064334869,0.873038887978,1.57144033909,0.841235220432,0.550037562847,2.23020362854,0.362413108349,-0.286781042814,-0.401464939117,-0.290937691927,-0.0306407473981,0.083228290081,-0.0228634700179,-0.812120258808,-1.66954612732,-0.664592206478,-0.209796339273,0.179059803486,-0.301626443863,0.00636480050161,1.97527563572,-0.0217330921441,-0.0994486138225,-0.812022864819,-0.0868314504623,-0.617265164852,-1.74466371536,-0.41403734684,0.0435579232872,-0.290941268206,0.0115730678663,-2.12591719627,0.402309715748,1.33306598663,-2.2971072197,0.334902793169,2.04964947701,-0.441631913185,0.195343568921,0.361889302731,0.296261906624,0.597269117832,0.355033278465,-0.155501499772,2.33643102646,-0.274350494146,0.406596720219,0.590579390526,0.395724475384,0.321520000696,0.521424472332,0.36795809865,0.361123025417,-4.82623624802,0.382761955261,0.249346017838,-0.0687875822186,0.298566281796,-0.00249459617771,0.792686283588,0.0550815351307,0.3991343081,2.16105675697,0.364554256201,0.228557735682,0.210770636797,0.304575264454,1.19319188595,0.621111810207,1.15561282635,0.364341884851,-1.78257703781,0.361880719662,0.322852671146,-0.452143907547,0.293968975544,-0.124848231673,-0.203629896045,-0.196232438087,-0.412277907133,-1.4608246088,-0.330070197582,-0.412338614464,-0.808606207371,-0.357740312815,1.09995269775,-0.437898248434,0.170151874423,0.842475473881,0.640433192253,0.657314360142,0.282717883587,0.461593776941,1.02823185921,0.291104495525,-0.0980801805854,0.325895696878,0.333078145981,-3.92638421059,0.516701161861,0.245323270559,0.377090960741,0.23206704855,0.342694669962,-1.27646958828,0.273015171289,-0.249821424484,-2.21417045593,-0.14775916934,-0.0252792425454,-0.222539529204,-0.0740880966187,-0.489098906517,-0.397991389036,-0.410420954227,-0.290616333485,-0.57747399807,-0.258291035891,-0.636890530586,-0.820968449116,-0.416681289673,1.00025463104,2.29712080956,1.11076450348,0.0526803508401,-2.18959951401,-0.0707276165485,-0.191402301192,-1.57818222046,-0.129888251424,-0.270122230053,-1.74613821507,-0.257138162851,-0.181594341993,-1.19632315636,-0.106066815555,0.380549520254,2.39074683189,0.321184396744,0.139486268163,0.548583507538,-0.0855625644326,0.227658465505,1.93830955029,0.316842466593,0.646921932697,0.166244521737,0.482621818781,-0.553284406662,-0.66006308794,-0.5147960186,-0.663849890232,-0.932695746422,-0.567742705345,-0.268582493067,-0.38963380456,-0.212945386767,0.175323903561,0.0143494103104,0.0917155966163,0.513275504112,1.80402219296,0.510217964649,-0.157119631767,0.627566754818,-0.304042518139,0.189965039492,-0.799471735954,0.250977873802,1.51559841633,0.715074241161,1.33576655388,0.595142543316,-0.507300317287,0.603193461895,-1.32486748695,0.508456647396,0.0819958224893,0.523784101009,1.3790473938,0.256236433983,0.659991979599,0.537673830986,0.717420816422,-1.41165459156,-0.217927277088,0.62966811657,-1.23674857616,-0.7425583601,1.71601438522,-1.05657625198,-0.107177108526,0.681641876698,-0.0356338061392,-0.117367841303,1.74490594864,-0.300402849913,-0.217039704323,1.38798224926,-0.194426015019,-0.216304332018,1.12635564804,0.0668685659766,1.03609859943,0.0669979527593,0.43890440464,-3.32012844086,0.444523841143,0.179425567389,0.689061999321,0.220004662871,0.0961010754108,-0.719388544559,0.22508084774,-0.549232423306,-1.8916207552,-0.615799665451,0.265023708344,-1.14054715633,0.333944231272,0.633696913719,2.69355559349,0.53871268034,-0.214938595891,-0.690253674984,-0.302499890327,-0.189919754863,-1.77219450474,-0.13278195262,-0.444316446781,-1.09428060055,-0.476871758699,0.0830249935389,-2.07287836075,0.174291908741,0.866554677486,1.72909736633,0.818685770035,1.28022921085,-0.454670161009,-1.33359861374,3.12983059883,-0.307300060987,-2.33873391151,1.02658307552,-0.141454875469,-1.033416152,0.232471197844,1.11351418495,0.180561736226,-0.0343230552971,2.52087187767,-0.129093587399,-0.471048563719,-0.861490547657,-0.390836566687,0.236595481634,0.9628226161,1.8557934761,-0.943228065968,-1.07584249973,1.62075042725,0.444747567177,0.126929119229,1.03497076035,-0.245519310236,-0.172445401549,-0.200602635741,-0.594144821167,-1.19879055023,-0.596667051315,-0.207798063755,-0.581715404987,-0.170155018568,0.638746500015,2.83437395096,0.551533639431,-0.72277879715,-1.39304089546,-0.669745624065,-0.385906845331,-0.0516658499837,-0.32497805357,-0.588691234589,-0.45662355423,-0.596085250378,-0.686586916447,-0.228260308504,-0.631323456764,-0.332566559315,-0.0754031762481,-0.297112941742,0.121102951467,-0.218018710613,0.231504753232,-0.398905038834,4.11101913452,-0.475995868444,-0.125659629703,0.306961387396,-0.110772930086,-0.315784931183,-0.636224448681,-0.216736480594,0.298738151789,2.50231218338,-0.0193794183433,0.0647331103683,0.0936973169446,0.0307241640985,0.139575347304,-0.655420362949,0.139676436782,1.42166912556,-2.08940219879,1.3608468771,0.167303413153,-0.469874948263,0.192401498556,0.407529771328,0.470180779696,-0.684120357037,0.607564389706,2.38520598412,0.111181803048,0.161699265242,0.219830170274,-0.354904770851,-0.148729771376,-0.449774622917,-0.242616757751,-0.856134772301,-1.19238317013,-0.854827284813,-0.0379177592695,-0.583678841591,-0.0176172573119,0.727506875992,-0.146523624659,-1.54172718525,1.78451454639,0.0246284864843,-0.782510221004,0.160934105515,-0.119849205017,-0.49637183547,-0.0839027911425,-0.181344136596,-0.0967629626393,0.444333910942,1.80723929405,0.310828387737,0.0998937040567,0.878436088562,0.0920138955116,0.52879267931,-0.340722173452,-0.258519858122,2.0806350708,-0.148963406682,-1.13730204105,0.523931324482,-0.132027462125,-0.16513492167,-0.31822013855,-0.527565360069,-0.391256898642,-0.440973371267,4.78174114227,-0.504328489304,-0.247350260615,-0.17059750855,-0.275849342346,-0.596161425114,-0.454589039087,-0.601523816586,-0.629931688309,-0.227292060852,-0.822597324848,-0.11123675853,-1.56879639626,-0.0205947868526,0.177392572165,0.00367258558981,0.028648564592,0.570861577988,2.03952336311,0.543893575668,0.264638453722,0.399208694696,0.202185556293,0.229962930083,-0.17078691721,0.681630432606,-0.598485708237,-1.14016747475,2.17245769501,-0.444139271975,-0.676489830017,1.54695856571,-0.228510424495,-0.95228523016,-0.230627581477,-0.216499105096,2.57512283325,-0.261863380671,0.365415364504,0.448580026627,0.258870214224,-0.0341361649334,-0.41929101944,-0.0455525144935,-0.513922274113,-1.3907045126,-0.387575596571,0.172466635704,-0.733812212944,0.10983787477,0.501769781113,0.621269583702,0.457677274942,0.35392332077,-4.02876377106,0.444810777903,0.120085380971,0.000217255321331,0.0773962065578,0.0323941595852,-0.0569051541388,-0.0779014974833,0.0718268975616,2.38962268829,0.20751529932,0.132285669446,0.231569737196,0.01194981765,0.820077121258,1.45478665829,0.751031816006,0.267099648714,-2.07537603378,0.35675817728,-0.336083590984,-1.31762444973,-0.360332429409,-0.0324900373816,0.0189010668546,0.0590036436915,0.0221300162375,-3.45204925537,-0.062387932092,0.171463340521,-0.101966373622,0.148078605533,0.147380188107,-1.26691627502,0.146302163601,1.31675708294,-2.38279175758,1.25979959965,0.317841112614,-0.409517586231,0.235997691751,-0.474656969309,1.64971959591,-0.389050990343,-1.38856840134,2.4417321682,-1.23424816132,-0.368493378162,-1.39731371403,-0.374463140965,0.365956246853,-0.199078068137,0.634865581989,0.785159766674,0.779297471046,0.979191601276,0.75198417902,-0.107290178537,0.633848428726,0.250505805016,-1.02785611153,0.211981400847,0.245926558971,1.96033382416,0.14726048708,0.332681447268,0.582573652267,0.282841801643,0.673805117607,-0.0356613062322,-0.558453857899,2.04174947739,-0.34126290679,-1.23396003246,0.706890046597,-0.179339572787,-0.973010122776,0.0136857489124,0.168068289757,-0.122887678444,0.633210361004,1.95070517063,0.586814343929,0.554563343525,0.150762587786,0.512282907963,-0.971372663975,-1.12498581409,1.30907166004,-1.84051609039,0.133307263255,1.58306515217,0.0703042894602,-0.868726909161,-0.365685015917,-0.257338792086,-0.910621345043,-0.132486194372,-0.612713932991,-0.00423394702375,-0.654705643654,-0.7107000947,-0.0386782586575,-0.649678170681,-0.892188131809,0.472092270851,0.954599678516,-0.983240604401,-0.250083744526,1.45633268356,-0.740266621113,-0.517456531525,0.588945865631,-0.457588255405,0.484073162079,0.525552511215,0.805036246777,1.62993502617,0.306325674057,0.290957957506,-0.0850021317601,0.200959324837,-0.15582254529,3.84641671181,-0.0346122458577,-0.875457525253,0.253536611795,-0.900311887264,-0.15717920661,-0.665290474892,-0.0829499065876,1.09802687168,1.86796665192,1.14952492714,0.235153481364,-2.35478019714,0.194283664227,-0.244993790984,-0.973206520081,-0.203576996922,0.94102960825,-0.92996776104,-0.304474234581,0.480564117432,-0.191643372178,-0.92542475462,1.65645778179,0.660104453564,0.689837872982,-0.884494721889,-1.82206606865,-0.808291614056,-0.424763977528,1.01253437996,-0.470919579268,0.327742993832,1.79716479778,0.350448846817,1.33678340912,0.680399894714,-0.319804310799,1.75735986233,-0.143895566463,-0.735502481461,0.736992835999,0.824666500092,-0.185617521405,0.492391437292,1.38596725464,0.439246982336,0.510951817036,1.1887755394,0.33153411746,-0.1298725456,-1.05918526649,0.125773340464,-0.83944439888,-1.0040153265,-0.871732890606,-0.496394783258,-0.896106362343,-0.673690617085,1.67247819901,1.25054109097,1.5095911026,0.181208565831,0.317710667849,0.150114744902,0.128762260079,2.26861667633,0.0710102394223,-0.0107491780072,0.212670147419,0.0361515879631,0.493967652321,0.529864013195,0.259316235781,-0.138290375471,2.56863999367,0.120604261756,0.156528308988,-0.17272220552,-0.0790211483836,0.610346496105,1.64933383465,0.514212012291,0.358671486378,-2.99344730377,0.383278638124,0.1217879951,-0.340190768242,0.151972472668,-0.630284428596,0.716199159622,-0.666399240494,-0.625920593739,-2.31039977074,-0.605869412422,0.25956839323,1.56059646606,0.169278815389,-0.48082780838,-0.430426567793,-0.449889361858,-0.417097687721,-0.641272783279,-0.338629364967,-0.534587681293,-0.543709456921,-0.458922088146,0.644531309605,0.688617348671,0.532863557339,0.132895648479,1.85044395924,0.0360776074231,0.136115401983,-0.731524527073,0.106126956642,-0.00480002630502,-0.107027590275,-0.0563655570149,-0.166587755084,4.42917156219,-0.132611572742,0.229677706957,0.118846401572,0.154469817877,-0.155486837029,-0.383078545332,-0.190038487315,-0.291981786489,-0.547800242901,-0.263636618853,0.893521428108,2.38617873192,0.82343930006,1.37233436108,0.428026378155,0.527506768703,1.81572020054,-2.10467982292,-0.620721101761,0.954890012741,0.338968008757,0.30725607276,1.21537292004,1.18383276463,0.68411231041,1.41657245159,-1.2375164032,-1.09510850906,-0.499731212854,-1.75380146503,-0.572821736336,-0.14986115694,-0.760281145573,-0.0786639600992,-0.652866125107,-1.33759462833,-0.554260611534,-0.589373469353,-0.217300400138,-0.555013954639,-0.0246062446386,0.401031941175,-0.10638064146,0.131616503,2.89585471153,0.130800515413,-0.0144343441352,0.383846461773,-0.0550629273057,-0.464815288782,-0.664154827595,-0.343979567289,0.501413166523,1.04909002781,0.358257174492,0.521953523159,1.61134064198,0.577489733696,0.66243904829,-0.970064878464,0.734857082367,0.659984409809,-3.60065484047,0.848930835724,0.579638779163,1.34959888458,0.498120933771,-0.511984586716,-0.215440899134,-0.515742003918,-0.471939861774,1.00883483887,-0.413403689861,-0.692424058914,-1.38226258755,-0.621964633465,-0.0387669727206,-0.800989091396,-0.015252080746,-0.636869192123,3.09653973579,-0.658039212227,-0.307219326496,-0.813609004021,-0.312318563461,0.444992989302,1.40694439411,0.501492977142,0.640490114689,-3.63737726212,0.629921913147,0.0807603225112,0.708674609661,0.108116790652,0.0491948798299,0.25175011158,0.00872504059225,-0.280531674623,1.23698651791,-0.772246897221,1.1922596693,0.824661433697,1.13343703747,-0.463485717773,-0.365882813931,-0.525348722935,0.313099205494,1.3185544014,0.459904789925,0.970562815666,1.02859389782,0.895269274712,-0.139156013727,0.829534351826,-0.208050951362,-0.506769061089,-1.00066614151,-0.487867176533,-0.558774888515,-0.784676015377,-0.516594529152,0.540562391281,1.45836615562,0.543338179588,0.633294343948,-2.99153256416,0.63650739193,-0.0648315101862,-1.39067864418,-0.00901783816516,-0.735021829605,-0.342262119055,-0.673178970814,-0.546072125435,-0.76540517807,-0.510639131069,-0.446911543608,-0.543621778488,-0.42386713624,0.306421756744,-0.223634332418,0.242373198271,0.528002500534,1.48884832859,0.393708497286,-0.0497556552291,1.30442845821,-0.0685831159353,0.824782371521,-0.0760906785727,0.827748060226,0.317129433155,-5.11986351013,0.3788587749,0.819653451443,0.166000127792,0.773574650288,0.536157429218,1.44684183598,0.500967621803,0.205739066005,0.955188393593,0.0917532965541,-0.625117897987,-0.32054618001,-0.436851292849,0.559167206287,1.02412843704,0.444865226746,1.57746076584,0.451746791601,0.177393823862,0.344335585833,-0.137919589877,0.0908094570041,0.208835333586,-0.895123302937,0.223926603794,0.16446891427,2.59099936485,0.0762202292681,0.0763009041548,1.00371789932,-0.0154602946714,-0.474415838718,-0.852682292461,-0.441705852747,-0.600016117096,-0.792940497398,-0.461805641651,-0.649150311947,-0.787777304649,-0.587960422039,-0.386729091406,-0.505814313889,-0.408431202173,-0.878738582134,-1.28798568249,-0.903197109699,-0.0967639759183,-0.460672110319,-0.072639323771,-0.364460587502,-0.66136097908,-0.382083833218,-0.317609012127,4.44805574417,-0.437358409166,-0.163424432278,-0.252161592245,-0.215787366033,-0.151429131627,0.182424783707,-0.173516750336,0.100688390434,-3.25229716301,0.145077362657,-0.240131378174,0.183043971658,-0.162254288793,0.15844142437,0.590492367744,1.1320451498,-1.14202129841,-2.00349617004,1.74021410942,0.18235078454,0.275371402502,1.20709300041,0.030350709334,0.56726872921,0.101644009352,0.154256477952,2.5657761097,-0.0950681716204,-0.159125640988,0.536203801632,-0.0475760512054,-0.267001330853,-0.700548052788,-0.202728331089,-0.596723198891,-0.813779532909,-0.559063196182,-0.186493322253,-0.24652184546,-0.164668783545,0.857429265976,2.3446958065,0.646227002144,0.218362912536,-0.836804330349,0.180879101157,-0.0607063509524,-0.218467667699,0.00792676676065,-0.52822715044,-0.46932759881,-0.382659286261,-0.395305544138,-0.512311279774,-0.386436581612,-0.659460961819,-0.590883970261,-0.649239122868,0.656897842884,2.44974350929,0.57432615757,0.316632002592,-1.64495790005,0.287199378014,0.444097489119,-0.796836555004,0.339017659426,-0.643855035305,-2.0081346035,-0.586130261421,-0.133665949106,2.25724864006,-0.141735091805,0.192186832428,1.96164309978,0.222239762545,0.957147419453,2.00712800026,0.867279291153,-0.603041231632,-0.0549848228693,-0.688788056374,-0.121461682022,-0.0401381254196,-0.0358064807951,-0.560825288296,-0.562621891499,-0.600240826607,-0.169493958354,4.41014194489,-0.310055196285,-0.413023769855,0.0561680905521,-0.430653810501,-0.683134555817,0.241740718484,1.46910727024,-0.586356818676,-0.197182953358,1.43132460117,-0.113159947097,-1.35892915726,-0.2416369766,-0.394765079021,-1.88055801392,-0.357015669346,-0.371660858393,3.36924386024,-0.484011232853,-0.166177690029,0.624071419239,-0.155010133982,-0.18602360785,-0.14610029757,-0.170704856515,-0.00473050307482,3.32985067368,-0.188284114003,-0.0472323223948,0.13927975297,-0.0703801810741,0.997990548611,1.25356638432,0.832801997662,-0.549102127552,-1.18639791012,-0.632664322853,0.525605916977,0.406113564968,0.412057369947,-0.278021782637,-0.405620157719,-0.873937487602,0.833104491234,1.42201566696,-1.88300490379,-0.253440827131,-0.170149847865,-1.25411105156,0.0302140582353,-0.380226135254,0.0296721775085,0.509443283081,2.4410071373,0.396316021681,0.425317108631,0.687832355499,0.460704952478,-0.320693701506,-0.335829079151,-0.342109590769,-0.128471300006,3.48958969116,-0.171489417553,-0.191719979048,0.176392763853,-0.168550908566,-0.0278225503862,0.0901746302843,-0.0509312041104,-0.607457458973,2.67104578018,-0.574091494083,-2.07532429695,-0.533343136311,-2.05752706528,0.102982960641,0.13955514133,0.0247263982892,0.520238697529,2.02946710587,0.461048990488,0.118583112955,0.337977707386,0.104635037482,-0.144824832678,-0.618492543697,-0.0952706560493,-0.867393612862,-0.55644518137,-0.747787833214,-0.449716001749,-0.0802873298526,-0.509134232998,-0.228858858347,1.83534014225,-0.240232184529,-0.151518762112,2.23829030991,-0.225264951587,-0.337473809719,-0.922371983528,-0.298560857773,-0.357521057129,-1.11386454105,-0.221447199583,-0.509386062622,-0.406093418598,-0.409226775169,-0.465559363365,-0.0991457179189,-0.429487735033,-0.170442327857,1.52440810204,-0.12678745389,0.332537978888,0.521101117134,0.270093202591,-0.0790388807654,1.38996732235,-0.147423103452,-0.260458260775,-0.450800418854,-0.192342206836,-0.560846984386,-0.664488792419,-0.481531143188,-0.564434707165,-0.708698630333,-0.47842425108,-0.869471848011,-0.234522596002,0.969540655613,-1.10560786724,-0.0609462484717,1.6706469059,-0.681432723999,1.0060492754,1.2405911684,-0.1400064677,-0.704607486725,0.118961893022,2.49719500542,-1.063762784,-0.72436606884,0.195345133543,-0.0454492680728,-0.416218936443,1.50580561161,-0.383906036615,-0.965486586094,1.35548782349,-0.312141388655,-1.07508230209,1.68742871284,-0.287734806538,-0.902044951916,-0.286879092455,-0.48454195261,0.10718189925,-0.409322023392,-1.99722027779,2.51327180862,-0.229481726885,-0.366147637367,0.274821400642,0.949464321136,0.326650261879,0.0166509952396,0.917493104935,-1.75701498985,-0.209540441632,0.658939242363,-0.0498608127236,-0.471469610929,0.402417600155,1.05468308926,0.263836145401,-0.0324351750314,2.62831664085,-0.208006829023,-0.226966455579,-0.780051589012,-0.254298716784,0.174135640264,-0.549504816532,0.0932143852115,0.00653243390843,2.21620321274,-0.010704391636,0.358493387699,0.764394462109,0.273365944624,-0.636525928974,-0.568743824959,-0.489185005426,-0.479453295469,-0.366819530725,-0.359159260988,-0.619435071945,-0.606162965298,-0.526857972145,-0.313025176525,-0.341895699501,-0.347840040922,-0.353660315275,4.50435304642,-0.469180822372,-0.277330189943,-0.367648839951,-0.284080564976