-1.31699645519,-2.08433437347,-1.16097056866,-1.46912455559,-2.69868946075,-1.63554334641,-0.701202213764,-1.24226510525,-1.0192912817,-0.838810324669,-1.33286941051,-0.07025513798,-1.44531166553,-2.88552498817,-0.851065576077,-0.430905163288,-1.01583302021,-0.0730775147676,-1.22589588165,-0.622127771378,-0.0181304886937,-1.77717387676,-2.09100294113,-0.292283594608,-0.254141122103,-1.13830912113,-0.740504264832,1.93400144577,4.91746902466,1.61594665051,-0.466978639364,-0.343556165695,0.216550186276,-1.8982077837,-4.28822660446,-1.73966884613,-0.423399060965,-0.903004109859,-0.17043595016,-1.23698759079,-2.42513585091,-0.98452013731,-0.712650597095,-1.38496744633,-0.713198840618,0.962071239948,1.32171881199,0.727379620075,-2.73106479645,-4.85985326767,-2.24534916878,2.15924072266,3.52199864388,1.23486638069,-1.82948923111,-1.53907644749,0.104757376015,1.20431375504,3.23555779457,2.05894374847,0.169238567352,-1.16614723206,-1.53936779499,-0.19072496891,0.832663714886,0.702268362045,-2.19518041611,-4.16564035416,-1.69504022598,2.6108083725,3.38585519791,0.713832437992,-2.30694675446,-6.29024744034,-2.47667741776,-0.0320548824966,1.38776755333,0.704865813255,1.91477930546,5.33550596237,1.84524691105,-1.40126156807,-2.22867274284,-1.25577521324,-2.44408082962,-2.84375452995,-1.34461200237,-1.4864025116,-1.45425188541,-0.462548404932,1.27650630474,1.16483318806,-0.792631328106,-0.187227770686,4.16229867935,-1.94541275501,-0.114732921124,2.17332553864,-0.388864696026,2.00836825371,2.65074729919,1.01198089123,2.41210150719,2.91061115265,0.92881155014,0.0953473970294,0.0347496755421,-0.288191258907,1.45148539543,1.58200633526,0.699817180634,1.92220270634,2.82189869881,1.53552806377,0.707026302814,1.63745713234,1.25278782845,-0.266027539968,-4.14069414139,-3.60046696663,0.0719158053398,-2.63419747353,-2.16163444519,0.0949876531959,0.452811181545,0.351085007191,3.12118911743,-0.0801519677043,-2.94873332977,4.51873111725,0.185692027211,-4.7636256218,1.74061584473,-0.152318775654,-1.57936692238,0.521797537804,1.96903455257,1.78610551357,0.849432587624,2.27433919907,2.28476548195,0.760627508163,1.35515522957,1.1067789793,-1.1816393137,-6.02926969528,-2.64736676216,-0.103403791785,1.50703203678,1.10977518559,1.50212907791,4.33195304871,1.631326437,-1.2919614315,-4.36099052429,-3.01392507553,-1.27891123295,0.0682461932302,1.08625411987,0.225288450718,0.571631669998,0.0751580372453,-0.471578150988,-2.64454317093,2.91055727005,1.65858197212,-4.59063911438,1.35674679279,1.45998823643,-1.22215592861,-1.69210219383,1.11953318119,1.60226583481,1.21410083771,1.22945249081,1.34319031239,1.13795125484,0.616650164127,0.912038981915,0.44482010603,-0.94267821312,-1.34741914272,-0.686296880245,-1.87363195419,-2.41946864128,-1.25588798523,-0.824650168419,-1.27904188633,-0.587875664234,-1.40860712528,-0.512268900871,0.748983979225,-2.09669733047,-3.45178174973,-0.828430950642,-0.608155727386,-1.56288611889,-0.395259171724,-0.827947616577,4.16767978668,3.66882371902,0.316823303699,2.94351911545,2.11447644234,1.42995274067,-0.181174278259,0.122855514288,-0.695513665676,0.00871298927814,1.17160058022,-2.2818877697,-1.95073568821,0.338430643082,-1.05436730385,-1.59139060974,-0.361066609621,-1.00166797638,-1.25057852268,-1.04466068745,-0.403615295887,-0.932412266731,-0.216732546687,-0.618735492229,-0.299222946167,0.635549783707,-1.8907378912,-2.24684309959,-0.833060622215,-2.32961773872,-3.14405035973,-1.46397387981,-0.899054706097,-1.6770298481,-0.920892417431,-3.4971241951,0.337199926376,2.73084712029,-5.18670463562,0.916662335396,4.55659818649,-1.86148416996,0.405407965183,1.60416996479,3.54899930954,-3.18588376045,0.189520686865,0.898968279362,-0.850447356701,-0.0386545285583,-1.74369060993,1.06740534306,0.436792850494,0.0144881643355,0.646659851074,0.0462997816503,1.01694869995,2.30701994896,1.23719131947,1.65598618984,3.47227978706,1.76008701324,0.337935894728,0.423326700926,0.33142721653,0.0280462875962,0.389176726341,0.258501768112,0.0320073626935,-0.146777674556,0.595120668411,0.774189174175,1.16483676434,0.434748977423,1.1901242733,2.38632798195,1.22309100628,0.632572054863,1.18622732162,0.638312458992,1.4332267046,2.39797544479,1.32467603683,2.32287883759,3.06248044968,1.40181183815,1.34301292896,1.38647842407,0.383357197046,0.851496696472,0.663400650024,-0.120199881494,0.917998552322,2.0415494442,0.659214019775,0.222138270736,0.759604096413,0.405815452337,-0.982974946499,-1.29795372486,-0.0922988429666,-1.39147746563,-2.16124558449,-0.388619184494,-0.764890670776,-0.831793725491,-0.188055157661,-1.98990738392,-4.37614345551,-2.70508265495,-1.02148962021,-0.123017594218,0.646850526333,1.98423027992,3.29767847061,1.8076082468,-1.70905733109,2.65175056458,-0.756726920605,-3.79298591614,4.61423969269,-0.783226549625,-1.79410982132,1.68718838692,-0.190949141979,3.58603811264,1.53698313236,-2.43752288818,-3.81191325188,1.27517044544,2.79645419121,0.739066004753,-1.53256344795,-0.455141067505,-0.168270364404,4.8692278862,-1.96611845493,-0.32845184207,-0.662627458572,-0.356977283955,0.494568288326,-3.65267801285,2.82573318481,-2.90144753456,-2.81413054466,4.16981935501,-3.86825418472,-1.06357884407,6.3257188797,-0.975057780743,-0.22320894897,1.21222198009,-2.3692419529,-2.08165931702,-0.622231721878,-3.43893718719,-2.63655400276,-0.713703811169,-1.58943033218,-1.42472970486,-0.237134516239,-1.51052188873,-2.72743058205,-1.65494155884,-2.62603497505,-3.59048461914,-1.72275269032,-1.39605545998,-1.64793038368,-0.575405418873,-1.12163639069,-1.89457297325,-1.20982420444,-2.46130776405,-3.16279983521,-1.56613957882,-1.52153968811,-1.56242346764,-0.560090780258,-1.36801707745,-0.953589439392,0.407195180655,-2.07488679886,-2.32910871506,0.120778732002,-0.0660311356187,-0.702608644962,-0.562134861946,-1.49111187458,0.528385996819,1.84981846809,-2.64934754372,3.59375047684,0.238801807165,-1.23841738701,2.44105839729,-1.11744225025,3.38356947899,5.9463391304,2.13194918633,-1.92415547371,-3.08870220184,-1.61984777451,-1.28062343597,-2.14721250534,-0.958302378654,1.96680951118,2.37126779556,0.818032860756,2.18404579163,3.33020401001,1.74792397022,0.935427188873,1.69259262085,0.986026108265,-0.115161173046,-0.25468531251,0.704668521881,-1.2226626873,-0.0906169861555,4.07982730865,-0.652099430561,0.296681195498,2.30219173431,-1.33899617195,-1.76010382175,-0.372207701206,-1.47148239613,-2.08189058304,-0.57796049118,-0.369407862425,-0.54716604948,-0.631315112114,-3.30792999268,0.732513427734,2.53760385513,-5.78984451294,1.40654921532,4.59162998199,-1.99538218975,0.520210146904,1.37274193764,-1.11139976978,-1.49413335323,-1.02728009224,-1.59818565845,-2.3718290329,-1.68024730682,-0.668034136295,-1.28221142292,-1.11201310158,-1.04686832428,-1.79123687744,-0.931524753571,-1.7574596405,-2.59394645691,-1.48822641373,-1.22825801373,-1.48627316952,-0.738990008831,1.24651384354,2.21655058861,1.22183537483,1.88727390766,2.83200025558,1.87169790268,0.923227727413,1.78944611549,1.16001939774,1.69945275784,1.93044400215,0.829083859921,-2.77592682838,-4.95247554779,-2.16511702538,0.0206316094846,0.924178242683,1.17220711708,1.62530851364,2.94069719315,1.66057538986,2.12895154953,3.74415373802,2.15675544739,0.847882986069,1.45148038864,0.723834514618,-0.881098508835,-1.31065452099,-0.952379405499,-1.84519410133,-2.8475253582,-1.32009148598,-1.39029705524,-1.43046712875,-0.814044952393,0.776931226254,1.608684659,0.955213844776,1.07377660275,2.09517812729,1.0254342556,0.453444510698,0.881516456604,0.269297748804,-0.463429898024,-1.87345981598,-0.328481197357,-1.27736020088,-2.69414329529,-0.66963493824,-0.468128442764,-0.627722740173,0.112516067922,-0.310064762831,-0.914440095425,-1.52106308937,-0.00800480414182,-0.615127146244,-1.0363599062,-0.365417450666,-0.679863870144,-0.252104669809,-1.00782108307,-1.94184446335,-1.1534267664,-1.29304111004,-2.57364988327,-2.18623995781,-0.512680768967,-0.998076915741,-0.964619278908,0.887717545033,-2.5804002285,2.08312821388,2.8612601757,-5.06808233261,2.29512953758,1.20601809025,-2.11331725121,0.501364886761,-2.78798270226,1.17413723469,0.66582429409,1.82231390476,2.80580806732,-2.01056289673,1.39063036442,-2.71203827858,-0.330689430237,1.16803658009,3.57864189148,0.651822686195,-4.00582695007,-2.82741641998,0.72801053524,2.03169393539,-0.832460641861,-1.26241111755,1.19734752178,1.84657931328,0.637232542038,1.9752676487,3.11087036133,1.49216115475,0.971186220646,1.81329631805,1.06765437126,1.67515659332,0.481492310762,-1.87682664394,4.03259897232,0.971843004227,-4.23434925079,0.549757301807,-1.04818761349,-0.556593894958