8.87084053132e-14,7.60823560186e-14,-1.5498602293e-14,1.03668104916e-13,8.62201409986e-14,2.19990312859e-14,1.18982433498e-13,9.49269485175e-14,1.03668091364e-13,1.05321492901e-13,1.02022753581e-13,2.52599726075e-14,1.21035573599e-13,9.28150920921e-14,2.31312348155e-14,9.3816034314e-14,9.44834420663e-14,1.14422292713e-13,7.76630889048e-14,8.04360782624e-14,-1.61619578398e-14,9.73201621829e-14,4.86704657154e-14,-3.52896321377e-14,1.189384691e-13,6.92446385062e-14,1.17301337372e-13,0.311129271984,0.421621590853,0.166793733835,0.426809728146,0.527405500412,0.208680272102,0.164190605283,0.143592089415,0.0328610539436,-0.348603338003,-0.447525173426,-0.107231743634,-0.484375089407,-0.679552137852,-0.28407150507,-0.0960776805878,-0.192991510034,-0.0190276335925,0.0284631941468,0.0817529931664,-0.0577458366752,0.0614388100803,0.221127167344,0.087097145617,-0.0939348787069,0.049151469022,-0.0347345769405,0.0119772255421,0.00452287495136,0.0298755932599,-0.416128337383,-0.245771899819,0.0488535091281,0.287531673908,0.228339955211,-0.0201665982604,0.039952237159,0.0552609525621,0.00416166754439,-0.544894695282,-0.266271978617,0.066416092217,0.339580714703,0.234257385135,-0.0455952696502,-0.065629966557,0.00022530570277,0.000448397448054,-0.249863639474,-0.0731462836266,-0.00092757953098,0.218459844589,0.154818728566,-0.0401973314583,1.65614849851e-13,1.21056986592e-13,2.59170262291e-14,2.00390648086e-13,2.07336182728e-13,9.09622515657e-14,-9.56406838898e-15,1.00681629375e-13,1.2932034187e-13,1.44252746683e-13,7.99602693628e-14,-1.74844015812e-14,1.82292982792e-13,1.56084211311e-13,4.08698682536e-14,1.01173376046e-14,7.85345502822e-14,7.67784002608e-14,1.05572289192e-13,2.61552356108e-14,-4.28217438722e-14,4.27913387775e-14,2.88265844029e-14,5.34991938716e-15,-1.30445228729e-13,-8.51693254767e-14,-3.38635200339e-14,1.67507151948e-14,9.73541044872e-14,9.63559337571e-14,2.43560241284e-14,7.26443102721e-14,6.87208130028e-14,-3.27278995734e-14,4.40162365107e-14,4.22988772101e-14,5.91760866112e-14,9.16011244721e-14,1.05342838131e-13,6.54440016718e-14,1.01408166803e-13,7.02067662903e-14,1.92927661016e-14,7.51401775544e-14,7.58530675879e-14,5.22424476997e-14,7.85097559338e-14,1.1956516506e-13,3.93559120568e-14,6.44554803411e-14,7.13928631382e-14,8.4032902029e-15,4.305800169e-14,7.15173769815e-14,0.231184348464,0.419200897217,0.187156766653,0.110250547528,0.434520184994,0.229889184237,0.00867760647088,0.148357346654,0.095693230629,0.167545795441,0.272497206926,-0.00816243886948,0.271765083075,0.44235303998,0.0714420229197,0.0947544798255,0.118630617857,-0.0951871201396,-0.362549722195,-0.508310675621,-0.130929619074,-0.416131973267,-0.699475467205,-0.307420700788,-0.127600774169,-0.268107205629,-0.0703523159027,-0.232737630606,0.0129247093573,0.121346563101,-0.508941948414,-0.0962138846517,0.0872830376029,-0.154717281461,-0.0572141036391,-0.0483531467617,-0.113974317908,-0.0123521219939,0.0459329411387,-0.463176965714,-0.116132296622,0.066544495523,-0.128907755017,0.0038947602734,0.0279649756849,-0.263211905956,-0.0518639534712,-0.0156982671469,-0.361604422331,-0.110180832446,0.0317117162049,-0.19887432456,-0.0537941902876,0.0813494697213,-0.296911478043,-0.38010814786,0.104690670967,-0.0200723018497,-0.362480342388,-0.107574403286,0.22489349544,-0.112245306373,-0.192597851157,0.0964645147324,0.293173640966,0.0761692002416,-0.31553119421,0.0102332253009,-0.0369742400944,-0.19127446413,0.0181970652193,0.107249066234,0.231060504913,0.319795191288,-0.154500976205,0.254196584225,0.484863311052,0.0361004434526,-0.114771686494,0.104787446558,0.0983977839351,-4.32953902967e-15,1.03673058365e-13,9.34537549343e-14,9.96678325808e-14,1.0569441779e-13,7.00489132303e-14,1.20179297828e-13,9.35124373769e-14,1.29714007208e-14,8.52340540405e-15,1.59587078795e-13,1.03327692539e-13,1.18548996574e-13,1.56608463719e-13,1.00390012872e-13,1.34452643246e-13,1.31053398385e-13,5.94011331009e-14,8.39724577579e-15,1.22129005043e-13,7.19297465015e-14,7.20703742995e-14,1.25064360452e-13,6.93588659813e-14,1.23786302931e-13,8.28324496667e-14,2.23491845419e-15,0.0821083635092,0.118297792971,0.0980815812945,0.141866847873,0.288500010967,0.242441758513,0.0945762768388,0.221687614918,0.187778383493,-0.187848985195,-0.433323830366,-0.299825280905,-0.40445998311,-0.623142540455,-0.478005051613,-0.293037295341,-0.48201328516,-0.250369489193,0.161707282066,0.288281172514,0.168346911669,0.268103390932,0.358911752701,0.22909194231,0.111488640308,0.199567869306,0.180465206504,0.379058927298,-0.495676159859,0.122555874288,0.49078899622,-0.87176990509,0.182763367891,0.265061229467,-0.428291082382,0.184945717454,0.375256538391,-0.422225564718,0.0917760804296,0.387148588896,-0.876474797726,0.277999132872,0.124789215624,-0.348686695099,0.240207538009,0.281646728516,-0.295267492533,-0.0123353125528,0.264210104942,-0.455972194672,0.0682060867548,0.0902607068419,-0.270684510469,0.173695236444,9.35078701752e-14,6.72263080707e-14,7.80923380974e-14,8.33558550417e-14,6.81265821209e-14,1.20431049573e-13,1.17834927471e-13,9.74480235004e-14,1.19918994439e-13,1.19941383214e-13,7.92216769616e-14,8.86130361796e-14,8.78696597363e-14,7.41157420267e-14,9.64220565371e-14,1.02143032259e-13,1.05790877902e-13,1.03526860478e-13,6.95097191611e-14,3.9279380936e-14,7.1517390534e-14,8.52964143002e-14,5.29255458903e-14,7.88912934545e-14,9.74480370529e-14,8.10501500441e-14,9.14708846861e-14,0.145881533623,0.18962495029,0.035107858479,-0.0892568081617,-0.469736874104,-0.330397993326,-0.054726138711,-0.0937522873282,0.132258012891,0.145519465208,0.176198020577,0.0665650367737,-0.0498753376305,-0.410627245903,-0.279277056456,-0.0103988619521,-0.0746264532208,0.124787397683,0.0576706528664,0.00761982938275,0.0189932081848,-0.109896704555,-0.218186318874,-0.0490840524435,-0.00849645026028,0.0185398701578,0.0314508154988,0.158076912165,-0.25099158287,-0.0434386692941,0.474849194288,0.250283539295,0.0768890678883,0.0476368293166,-0.294529676437,-0.076304063201,0.186711788177,-0.310916662216,-0.0591460391879,0.464529514313,0.315303683281,0.0420787632465,7.71131453803e-05,-0.278692096472,-0.0397968515754,0.00172670383472,-0.119960583746,-0.142880514264,0.292626351118,0.200272664428,0.103551447392,0.0448190011084,-0.0986971482635,-0.0426901467144,-0.00166753982194,0.0545067228377,0.0518345423043,-0.0312998332083,-0.121325828135,0.109141975641,0.0384555347264,-0.499093294144,0.200877219439,0.0153669919819,0.0939292237163,-0.0247549656779,-0.0274405516684,-0.0843037813902,0.101733423769,0.121021308005,-0.441417843103,0.229743942618,-0.000596038065851,-0.0238468404859,-0.0271883737296,-0.00333089986816,-0.0956379473209,0.0234733913094,0.0464970469475,-0.273521363735,0.124633274972,4.56319394289e-05,4.52784224763e-05,4.62405259896e-05,4.45598561782e-05,4.47647325927e-05,4.61759627797e-05,4.55796944152e-05,4.50162333436e-05,4.63062933704e-05,4.60369374196e-05,4.47520760645e-05,4.61577837996e-05,4.41068259533e-05,4.38302886323e-05,4.58418980998e-05,4.61732197437e-05,4.52763524663e-05,4.64570075565e-05,3.5929857404e-05,3.47489003616e-05,3.66474923794e-05,3.40365404554e-05,3.41550694429e-05,3.59679106623e-05,3.59812511306e-05,3.45478583768e-05,3.63673098036e-05,-5.14434686256e-13,-3.71558578176e-13,4.93656053264e-15,-4.60701735008e-13,-6.26227151732e-13,9.7040221182e-14,8.87019339815e-14,-1.45226373787e-13,5.29440098533e-13,-5.778726022e-13,-4.81087825827e-13,-2.40446226298e-13,-5.47665428632e-13,-7.79584188003e-13,-1.73443087692e-13,-1.20031168707e-13,-3.90686181323e-13,1.91981643798e-13,-3.49498424992e-13,-1.55761972873e-13,5.333086132e-14,-3.33842925093e-13,-4.6130688245e-13,1.22927926519e-13,5.10993597967e-14,-1.42119389174e-13,4.26473092952e-13,-0.185627862811,-0.406182020903,-0.272595822811,-0.434483110905,-0.603238046169,-0.400639683008,-0.175048828125,-0.265482455492,-0.104874864221,0.0730055496097,0.0583050511777,0.00564085645601,0.116349041462,0.0889140665531,0.0276929289103,0.104469589889,0.0550446361303,0.00505887437612,0.136400982738,0.372671425343,0.273679465055,0.32378757,0.51451677084,0.361248314381,0.103228539228,0.23562130332,0.127927407622,0.404302507639,0.325698643923,-0.0556238330901,0.261498719454,0.131176277995,-0.096630781889,0.0218524280936,-0.0215863678604,0.0225783288479,0.39007177949,0.267893612385,-0.0603042505682,0.295020848513,0.153776496649,-0.0924353972077,0.00212301174179,-0.0169405303895,-0.0010023615323,0.266564577818,0.171096384525,-0.0181733556092,0.155881002545,0.0720359757543,-0.0137886265293,0.0195179674774,0.00385644217022,-0.030652679503,-0.25678139925,-0.523815631866,-0.104755870998,0.0116703771055,-0.260784953833,0.0154995573685,0.105635039508,-0.0761964097619,0.029474331066,-0.184163317084,-0.507477462292,-0.0623842924833,-0.0175453945994,-0.208693936467,0.00135604001116,0.0731827914715,-0.0138379512355,0.0257841963321,-0.169461220503,-0.248422890902,-0.127415299416,0.0405230633914,-0.086506024003,0.027522450313,0.0524297840893,-0.0489346571267,0.0335391312838,1.27436947171e-13,1.13873740624e-13,1.26861723708e-13,1.17060630937e-13,1.26385474352e-13,1.20879299409e-13,1.27714150562e-13,1.25780299804e-13,1.06750491693e-13,1.02204350668e-13,1.04527633294e-13,9.3708366262e-14,1.05440938099e-13,1.26385474352e-13,1.1797274312e-13,1.03410003813e-13,1.33909010725e-13,1.34452616141e-13,6.71955980441e-14,9.12001797324e-14,7.51294913868e-14,8.8475606778e-14,1.041419487e-13,1.19490883659e-13,7.21066002046e-14,1.24532112053e-13,1.06410485892e-13,8.86099631441e-15,8.61050326092e-14,2.5723641831e-14,2.61756423286e-14,7.02915034663e-14,6.11378759034e-14,1.26158306891e-14,6.80006723673e-14,2.55140079528e-14,-7.12029702099e-15,7.82082257571e-14,5.16987575796e-14,3.65352076392e-14,7.93250285337e-14,6.89408450574e-14,9.03539785715e-15,7.22546818926e-14,3.59255065475e-14,-3.96864954636e-14,3.96242690352e-14,-2.06448166091e-15,-3.73460511038e-15,5.30025750665e-14,1.32582526636e-14,-3.89437458247e-14,2.54123826339e-14,-2.64053491935e-14,-0.0608684048057,-0.0725787058473,0.15705306828,-0.341056108475,-0.404465168715,-0.0414120964706,-0.084941804409,-0.0541205778718,0.131456807256,-0.295435756445,-0.267310619354,-0.276400655508,-0.218460664153,-0.206845104694,-0.199910625815,-0.182151317596,-0.16259534657,-0.245457753539,0.352671831846,0.341682195663,0.122423477471,0.539071977139,0.580273747444,0.256898581982,0.309845715761,0.225626647472,0.0628570690751,0.28022775054,0.0656111165881,0.0632110461593,0.163232237101,-0.545987546444,-0.148606419563,0.156042277813,0.160394787788,0.0335069857538,0.277150779963,0.0922649279237,0.0952637419105,0.175126641989,-0.631592750549,-0.146194308996,0.11354316026,0.243577182293,0.00091700424673,0.220403492451,0.0750342682004,0.127658486366,0.0186292026192,-0.253925919533,-0.171699270606,0.0745807439089,0.116552688181,-0.0244615804404,0.00113050953951,0.00136017100886,0.00170483568218,0.00201221951284,-0.00127677083947,-0.00356976967305,0.00134096050169,0.00116894824896,-0.00213011191227,0.00202023470774,0.00294094439596,0.00352117046714,0.00459241960198,0.00196313578635,0.00130468513817,0.00690778950229,0.00735444342718,0.00485187442973,0.00739360041916,0.00746072875336,0.00714820763096,0.00842525810003,0.00521416915581,0.00395091064274,0.0101310107857,0.00980965327471,0.00709981983528,0.00200989982113,-0.510851562023,-0.27164721489,0.103465050459,0.158171162009,0.12040053308,0.0385940596461,0.00890534371138,-0.0139535451308,0.10006172955,-0.511141777039,-0.307765215635,0.044348821044,0.246989428997,0.119928240776,-0.018451217562,0.0182574335486,-0.0161633808166,0.0390941239893,-0.272385567427,-0.228416234255,0.0389169156551,0.130829945207,0.0656575486064,-0.0194634031504,0.017176065594,0.00564443971962,0.301095426083,0.333016633987,0.259860992432,0.704475820065,0.648637592793,0.389911532402,0.459146678448,0.4297311306,0.202709272504,-0.154694616795,-0.133721858263,-0.087845556438,-0.331702202559,-0.298986792564,-0.161688283086,-0.236042827368,-0.0577815286815,0.0218191072345,-0.103344164789,-0.225513279438,-0.154383406043,-0.319408416748,-0.505722105503,-0.309676915407,-0.254014730453,-0.337391108274,-0.157934337854,-0.171066224575,0.346277713776,-0.272525578737,-0.0851730704308,0.38340818882,-0.508520841599,-0.0250820908695,0.235774502158,-0.0878158658743,-0.0992387235165,0.378510564566,-0.25740006566,-0.0506044402719,0.405482709408,-0.5655990839,0.0273169353604,0.143178656697,-0.0192998126149,-0.0504917018116,0.248102918267,-0.167092397809,-0.0418751165271,0.166545212269,-0.282014280558,0.00523196998984,0.111891053617,-0.0105503536761,-0.565458476543,0.0377349257469,0.150389805436,0.298210084438,0.0706196129322,-0.0316950269043,0.310765653849,-0.161849915981,-0.115230165422,-0.601198375225,0.133687093854,0.138188779354,0.383495330811,0.0221950579435,-0.0546921528876,0.231074661016,-0.178537845612,-0.0692162141204,-0.23229084909,0.0167647488415,0.00100088259205,0.189202800393,-0.00417634798214,0.0255765523762,0.0966586172581,-0.0262068547308,-0.0700645372272,0.262688457966,0.276704102755,0.0342974811792,0.607998013496,0.675720512867,0.288760453463,0.323743730783,0.310622870922,-0.0322231799364,-0.368573307991,-0.299889802933,-0.194347381592,-0.491203516722,-0.412859916687,-0.262062221766,-0.338118612766,-0.241687446833,-0.158044323325,0.0949060916901,0.0359495393932,0.153938144445,-0.125951305032,-0.247188448906,-0.0508255884051,0.0152894482017,-0.0658591389656,0.172833964229,-0.401542216539,-0.0900089144707,0.067460283637,0.570897459984,-0.0270208474249,-0.163956090808,-0.197071582079,0.106037072837,0.098281249404,-0.260076284409,0.0772090181708,0.165977239609,0.370022714138,-0.226430848241,-0.267633855343,-0.154328301549,0.167910754681,0.105332650244,-0.0307268761098,-0.00844512414187,-0.021744383499,0.214809760451,-0.0201256256551,0.0188993364573,-0.15893048048,0.0404019653797,0.00300726247951,-0.00250179483555,-0.000500411260873,-0.00289032701403,-0.000279375555692,0.000520167581271,-0.00265925307758,0.00418212311342,0.00607693754137,0.00136369536631,0.000569194147829,0.00295891426504,0.00102665240411,0.00165617268067,0.00266380724497,-0.000247743999353,0.00571316014975,0.00743285752833,0.00384721904993,0.000871661002748,0.00207344326191,0.000660280347802,-0.000106522697024,7.77400491643e-05,-0.00254212529399,0.00225934502669,0.00326444092207,9.38761731959e-05