-1.65901863575,-0.481951355934,0.0244825389236,-0.983496963978,-1.05504071712,0.183250203729,-0.126761078835,0.20039281249,-0.913892149925,-1.19406116009,-1.5195633173,-1.1994202137,-1.29791879654,-0.376271814108,-0.349199801683,-0.355435311794,-0.400376290083,-0.90736579895,-1.24469220638,-0.660111606121,-1.19406843185,-0.185964688659,0.0466650165617,-0.582328915596,0.0639684051275,-0.43175676465,-0.233172625303,0.300599634647,0.0777926594019,0.0919905751944,-0.781004905701,0.0261460375041,-0.33321622014,0.175140857697,-0.762017071247,-0.2861328125,-0.962117493153,-0.132183179259,-0.870622456074,-0.0665536150336,-0.0652078092098,0.207053586841,0.456185907125,0.227297961712,-0.862103641033,0.669825911522,0.257337033749,0.506804227829,-0.29208996892,-0.935930073261,-0.0371389314532,0.525798797607,-1.51879513264,1.39884650707,0.780142009258,0.961997628212,0.155269354582,0.649098336697,-0.166743323207,1.32237410545,1.40213239193,1.04715847969,0.846187710762,0.37527936697,0.0497903563082,0.795097827911,0.418621093035,0.0307080764323,0.372110635042,0.353525310755,-0.707496523857,-1.00990986824,-0.107481881976,-0.639265477657,-0.0386693961918,-0.474712818861,-0.181987017393,0.213416785002,0.444379210472,0.35684427619,0.288219004869,-1.55953299999,-0.637075543404,-0.164600238204,-2.3243021965,-1.38429272175,-0.589386582375,-0.815905094147,-0.64003276825,-0.619984388351,-0.0757313370705,-0.905037581921,-0.661597549915,-0.39060536027,-0.701607048512,-0.780451357365,-1.12842452526,-0.663323760033,-1.67886793613,-1.96157956123,-1.07779049873,-1.53619086742,-1.230022192,-0.331805109978,0.415105998516,0.225829035044,-0.646537125111,-0.374811291695,0.046061322093,-0.157336398959,-0.873701751232,-0.428915083408,1.35210597515,0.762370169163,-0.335317701101,0.475755780935,-0.776069521904,-0.015002656728,-0.930958271027,0.587888777256,0.641471207142,-0.411560773849,-0.147640168667,0.0295713823289,-1.12047469616,0.728498101234,-0.511715531349,-0.646364450455,-0.50979667902,-1.20002186298,-0.558932602406,-1.28934907913,-0.869940400124,-0.785631239414,-0.0981298834085,-1.19222342968,-0.753996253014,-1.08887422085,-1.28208971024,-0.847518920898,-0.988464176655,-1.61336874962,-1.31609332561,-1.34203100204,-1.04198527336,-0.964703321457,-1.44150137901,-0.549902975559,-0.499285072088,-1.27474749088,-0.777738451958,-0.0728297829628,0.247883677483,-1.17799580097,0.124908737838,-0.636222302914,0.0456983856857,-0.692519664764,-1.29553699493,-0.36503046751,-0.343530267477,-0.69394248724,0.230156615376,0.566063940525,-0.128552153707,0.0335119254887,0.0533164739609,-0.553839087486,-1.41075646877,0.394397735596,-0.906162559986,0.123190894723,0.503543674946,0.122915029526,-0.178258016706,0.206720903516,-0.559452295303,-1.09606516361,0.354480087757,0.997202217579,0.0174183640629,-0.405411481857,-0.229167476296,0.131648167968,-0.534516751766,0.807770371437,0.855234503746,-0.00548965204507,0.131208837032,-0.201519951224,0.222059801221,-0.555261671543,0.166485100985,0.448036730289,-0.637492537498,-0.106238871813,-0.408616513014,-0.122028656304,-0.263899087906,-0.5131098032,0.354807674885,-0.360094338655,-0.109061300755,0.577429056168,0.304402530193,0.650953710079,-0.228882730007,-0.54716283083,-0.0337070040405,0.39485642314,0.872976839542,-0.509252369404,0.653968811035,-0.0349811688066,-0.139436304569,0.000706710095983,-0.0822496563196,-1.03311097622,0.622811794281,-0.367477357388,0.36871907115,-0.438195317984,-0.840088307858,-0.570341467857,1.12659537792,-0.545261621475,0.0981981679797,-0.366110742092,0.275747776031,-0.954907238483,-0.0808268412948,-0.42815348506,-0.450718015432,0.0789301991463,0.112117126584,0.415524184704,-0.619444668293,-0.0310884676874,0.548283755779,0.0742013528943,0.649775505066,-0.191307991743,-0.531432032585,-0.230766683817,-0.808629095554,-0.740649461746,0.255030959845,-0.631632804871,-0.90349906683,-0.61114859581,-0.213450536132,0.332438528538,-0.342548280954,-0.129712745547,-0.721882522106,-0.310939878225,-0.841982364655,0.162708982825,0.0852887108922,-0.677725851536,-0.278523385525,-0.768508434296,-0.512474775314,-0.515436947346,0.397314876318,0.267082035542,0.119302742183,-0.196927666664,-0.518425107002,-0.867735981941,-0.247686490417,0.0926463529468,-0.470862358809,0.0826971307397,0.319927841425,-0.517655134201,-0.442684322596,-0.318144649267,-0.327838182449,-0.626930594444,-0.0815622508526,-0.364239245653,0.597940266132,-0.604838788509,-0.663984000683,-0.240372687578,0.389799714088,-0.323679327965,-0.111013300717,-0.585511624813,-0.393810719252,-0.67162322998,-0.923743963242,-0.371524661779,-0.874537944794,-0.208231091499,-0.356630593538,-0.70751363039,-0.338585585356,0.0518469959497,0.253255009651,-1.4529466629,-0.330979585648,-1.28539192677,-0.695149421692,-0.959020674229,0.451603502035,-0.181576922536,-0.498035788536,-1.25957846642,-0.55961149931,1.28407609463,-0.511885166168,-0.0691023617983,1.49023032188,0.574282705784,0.237965226173,-0.645741999149,-0.460693597794,-0.353465199471,-0.566850364208,-0.570504903793,-2.16144824028,-1.99343025684,-1.63451039791,-1.10911107063,-1.67617964745,-1.32258617878,0.439226537943,-0.114041998982,-0.00660995999351,0.41785544157,-0.181082993746,-0.996407389641,0.00542937684804,-0.783088207245,-0.5976806283,0.510527014732,-0.557685315609,-0.808416128159,-0.789757430553,-0.949036598206,-0.0624774582684,-0.849176466465,-0.60936486721,-0.56790971756,-0.58675712347,-0.22538484633,-0.509232640266,-0.737505793571,-0.432523161173,-0.499150216579,-1.49496114254,-1.40152692795,-1.08971679211,-0.691743969917,-1.63569819927,0.354696333408,-0.231059417129,0.128310218453,-0.190553560853,-0.107780851424,0.20221978426,-0.22235058248,0.191819980741,0.393742889166,0.0871743559837,-0.319533228874,0.0779861882329,-0.542728900909,0.232054620981,-0.81045717001,-0.903295874596,-0.24262855947,0.349600583315,-0.190079495311,-0.498500555754,-0.644827246666,0.0944850966334,-0.279961228371,0.180357471108,-0.483911603689,0.0584048293531,-0.0355479829013,-0.124736189842,-1.10403990746,-0.652183353901,-0.569824814796,-1.25599598885,-0.885419845581,-0.889800846577,0.313500672579,0.618413865566,-1.90298688412,-1.24449801445,-1.2546184063,-0.59190684557,-1.43246901035,-1.04093325138,0.304998368025,0.719280123711,-0.158578559756,0.248511254787,0.117326132953,-0.797441005707,-1.34331393242,-0.139574483037,-0.0575439743698,-0.137808769941,-1.66108047962,0.221228033304,0.193168178201,-0.0854075476527,0.720524072647,0.0418813638389,0.854913532734,0.909742355347,0.698694884777,-0.296309500933,1.26021611691,1.77072441578,-0.444724410772,1.23119664192,-0.302099555731,0.379517972469,1.5474126339,-0.147218599916,-0.629286944866,0.185840398073,0.4193161726,0.1245906353,0.0154245682061,-0.161335900426,0.175070524216,0.313852846622,0.790728330612,0.609035789967,0.436919510365,-0.816279709339,0.259076118469,-0.645966589451,0.821889519691,0.553332567215,0.0542679429054,0.264656633139,-0.390541553497,0.840474188328,1.41491806507,0.29239988327,0.346734046936,-0.323882937431,-0.317433655262,0.0879186987877,-0.309778213501,0.609542787075,0.563997745514,1.30828881264,0.167959392071,1.3376429081,0.205239489675,0.741088807583,0.346290975809,0.553326129913,0.0609604269266,1.19577348232,1.74262011051,0.0214937850833,-1.11377823353,-0.175314217806,0.841617822647,-0.707775235176,0.593940615654,-0.235111728311,-0.729461073875,0.607515931129,-0.38001871109,-0.0240284632891,-1.98214590549,0.414664119482,1.34989273548,0.330309540033,1.22923898697,0.618882536888,0.232684224844,-0.859140396118,-1.13889670372,0.26886126399,-0.767789900303,1.27334105968,0.658851802349,1.51765060425,-0.662092268467,-0.270656377077,0.544404506683,-0.18261629343,0.0118775023147,0.131781801581,-0.0402226559818,-0.870685219765,0.0803483128548,0.478755235672,0.140681609511,0.275780081749,0.511991202831,-0.376708269119,0.746068775654,-0.0770056694746,1.40476989746,-0.180823042989,0.369211018085,0.527259290218,-0.668521940708,0.124434567988,-0.0218280311674,0.701429069042,0.266864269972,0.930023610592,0.0207027215511,-0.39841991663,-0.582339167595,0.898060262203,-0.518167853355,-0.24055019021,0.4955740273,1.64372754097,-0.883671522141,-0.628429889679,0.301220268011,-0.440125077963,-0.713417291641,1.26150262356,1.29458022118,0.115299217403,-0.0113427108154,0.28425142169,0.868033468723,-0.375330746174,-0.521035611629,-1.0897936821,-0.120966047049,1.33792710304,-1.26295363903,0.260939002037,1.24773466587,0.564839243889,0.0614572279155,0.213249355555,-0.79014390707,-2.32727336884,-0.542884707451,1.03549909592,-0.266221612692,1.24890851974,0.17288184166,0.552090585232,-0.537173449993,-0.128277435899,0.0202509369701,0.815692067146,0.446323364973,0.297490537167,-0.793498516083,-0.671614408493,-0.354123741388,0.453721404076,-1.51497769356,-0.600921452045,-0.613170146942,0.421704083681,-0.374896794558,-0.206409886479,-0.237287864089,-0.0143138794228,0.246222287416,-0.739746809006,0.494456470013,-0.475369870663,-0.990274310112,-0.146455094218,-0.465836793184,0.347843825817,0.606851935387,-0.325301170349,0.953264355659,0.12139467895,1.41380095482,0.7296692729,-0.953840196133,0.977454304695,0.17527513206,0.493021249771,-0.15648393333,0.895506501198,0.333273112774,0.919017553329,-0.520622014999,-1.63908541203,0.615310668945,0.65804541111,-0.890182256699,1.09009122849,1.26692652702,-0.566484034061,-0.0922605022788,-0.852778077126,-0.11637146771,0.213772490621,0.853934466839,-0.478796780109,1.63820791245,-0.356657594442,1.16415214539,0.0700323060155,-1.13892483711,-0.216638818383,-0.0719001740217,0.477429121733,1.21821630001,0.754555642605,0.393853574991,0.174470290542,1.01776874065,0.0640492662787,0.0562159121037,0.887452542782,0.577686548233,-1.01208984852,1.11281895638,-0.200127035379,-0.830847203732,1.33953380585,0.783191144466,0.916709661484,1.19322395325,1.14444458485,0.102506436408,0.322337329388,0.174277558923,0.204299524426,0.170853719115,-0.829349339008,-0.296344935894,-0.175764456391,0.0784021764994,0.445330649614,1.27689647675,-0.678771197796,1.55552828312,-0.482739567757,0.598214030266,0.683988928795,0.573348641396,0.261080205441,0.384487509727,0.587148845196,0.0984456166625,0.547398209572,-0.00900696031749,-0.079165160656,0.307740300894,0.643051207066,0.242002695799,-1.29937720299,0.69252461195,-0.0545302256942,0.715693175793,-0.321940600872,0.646744132042,-0.0207044184208,-1.11851632595,-0.27286529541,-0.703987300396,0.121876075864,-0.0153337009251,0.806230723858,0.320127904415,-0.522823631763,-0.416818231344,1.60219538212,1.00633370876,0.41129809618,1.00013434887,1.02231168747,0.287155389786,0.988190829754,0.135122224689,-0.864405453205,0.561739683151,-0.198516055942,-0.522790849209,-1.08316349983,-1.93910098076,-0.029045464471,1.14568901062,-0.913545429707,-0.495367020369,0.558564305305,1.44629371166,0.114886537194,0.18500867486,-0.100892782211,1.25338697433,-0.409377992153,-0.101388037205,1.04818665981,0.17425866425,-0.668502092361,0.692913889885,-0.267256885767,0.262312352657,0.204767107964,0.0324945114553,0.947183251381,0.839167833328,0.555276572704,1.04534292221,-1.40141987801,1.17376601696,-0.622281372547,0.464731603861,0.169658005238,0.839894115925,0.951795995235,1.39452552795,-0.156692504883,-1.43250858784,-0.0821764543653,-0.0075743868947,-1.20607149601,0.839825034142,0.599315226078,-0.812205970287,1.26940143108,-0.263025820255,0.847178936005,-0.818105757236,0.0220704581589,-0.338388621807,0.609633147717,1.12960445881,-0.0564952529967,0.315273463726,0.889910697937,0.110630065203,1.65024852753,0.0575050376356,0.370462685823,0.554850637913,-0.436676174402,0.536393046379,0.617931127548,0.365790396929,-0.0521075986326,0.173647284508,0.0927819758654,0.419383078814,-0.675513267517,0.331635862589,-0.839364409447,0.198037087917,-0.0914046242833,1.25781917572,0.897899150848,0.484056651592,-0.00261435448192,0.832388460636,0.199568763375,-0.305214166641,1.04121959209,0.0136913638562,1.35027658939,0.378307253122,0.446714252234,0.776409268379,0.616957724094,0.722725570202,0.137304857373,0.194896638393,0.85280251503,-0.072849534452,-0.851566672325,-1.4033498764,-0.250442653894,0.507440209389,0.914506793022,0.61377286911,0.799649596214,-0.0898351296782,-0.420398205519,0.646032392979,0.797078311443,-1.18735468388,0.621160328388,0.663179218769,0.464426547289,1.16945695877,-0.0166288763285,-0.381164968014,0.760054349899,0.170071154833,1.50387001038,-0.671577036381,-0.2411031425,-1.08836114407,-1.24491524696,0.240995466709,0.605038225651,0.333610117435,-0.230994075537,0.409184455872,0.327921450138,-0.815488815308,-0.218250885606,-0.0758619904518,0.630376398563,-1.24661922455,1.02538335323,-0.22433423996,-0.931544005871,0.467126011848,0.227763712406,-1.96015512943,-0.820335447788,0.234794259071,1.23825025558,1.13943135738,1.1981292963,-0.0700767859817,0.384718954563,1.42119324207,-1.12506961823,0.265142947435,-0.343454867601,-1.23016452789,-0.841917335987,1.2718578577,-0.708180546761,1.25653958321,1.66052234173,1.30793094635,-0.356678307056,0.32225972414,0.962442219257,0.212344691157,0.214837133884,0.597466409206,1.84576046467,-0.359648287296,-0.88707280159,0.556060791016,-0.391237586737,0.305976718664,-0.0109777683392,0.972209632397,-0.0510314926505,-0.222412854433,0.900695502758,-1.33852517605,-0.617547929287,1.30314457417,0.441175252199,0.480135023594,0.449725419283,-0.316583544016,0.442933082581,-0.740523695946,0.154551923275,-0.711381435394,-0.583848595619,1.39373278618,0.14866912365,0.0396689064801,-1.32521939278,0.889471828938,-0.162938997149,-2.07361292839,-0.337650388479,0.715645968914,-0.147589594126,-0.54775762558,1.15944266319,0.942245483398,0.46296480298,0.495309770107,0.596623003483,0.301889210939,2.24232196808,-0.824429214001,-0.71796131134,-0.452763408422,-0.176397666335,-0.147607520223,-0.52353656292,0.592927515507,1.14264118671,0.685144543648,0.248746871948,0.741650879383,0.6457477808,0.878518819809,0.469458073378,-0.543263971806,-0.116500616074,1.09820389748,1.47728347778,2.09109377861,1.37130463123,1.37024998665,0.762163579464,-0.23626370728,0.0129902781919,0.800481021404,1.84259080887,0.51811671257,0.0206525158137,-1.33576977253,-0.47764736414,0.177139788866,0.303618192673,-0.0752227827907,1.10909307003,0.387462049723,0.602864325047,0.908157348633,0.305831640959,-0.143635854125,0.0904725193977,-0.762702345848,-0.414140790701,0.170198097825,1.38852250576,0.634226024151,0.418496400118,0.880023300648,-1.11385667324,0.262597322464,-0.291079998016,0.631066679955,0.468355685472,0.592286944389,0.124040015042,0.238504812121,-0.179545342922,0.177757337689,0.533914029598,-0.484954863787,0.38204228878,-0.497362434864,-0.105272121727,0.646212995052,0.847210228443,0.624754428864,0.566065013409,0.366292357445,0.105146452785,0.855478703976,-0.208924293518,-0.131647750735,0.429589956999,-0.206600546837,-0.557805836201,0.549578785896,0.865811169147,-0.137532740831,0.000446273217676,-0.30459934473,0.486413031816,1.05325114727,0.526849091053,0.309435427189,0.259364187717,0.84412252903,1.26544559002,0.794886171818,0.781561434269,0.163428798318,1.77108049393,1.01819121838,1.74825739861,0.79913187027,1.29926979542,0.905798733234,0.522048532963,0.561991691589,-0.224373221397,0.976386845112,0.481833457947,-0.691461801529,1.03901076317,0.352269440889,0.00306264404207,1.09039068222,0.229791998863,-0.997756898403,-1.11701726913,-0.528372049332,-0.538297355175,0.277076631784,-0.469928324223,0.684027075768,1.30131423473