-0.0291053373367,0.0304056573659,0.0842737555504,-1.23175942898,2.47166347504,-1.02926433086,-0.165555238724,0.338735878468,-0.310678064823,0.844087421894,0.156208083034,-0.625083267689,1.58505606651,0.105783239007,-2.46905779839,0.15903404355,0.274359375238,-0.848702192307,0.148868247867,0.374656230211,-0.117582939565,0.92416793108,2.12427616119,0.008798411116,0.297887384892,-0.549642503262,0.311598747969,0.821498811245,0.297403514385,1.10414958,1.22532868385,0.768838942051,0.279348909855,0.827612757683,0.385845512152,0.793509364128,0.035431843251,1.14603233337,0.599269330502,1.46754336357,0.235999405384,-0.326138406992,1.21591424942,0.673827588558,0.024740319699,0.172294959426,-1.83796846867,0.531989336014,-0.0450050532818,-1.83488154411,0.257078558207,0.137086629868,-1.48784863949,0.391537487507,-0.378937363625,0.0568455196917,0.152192130685,0.89936619997,2.01579785347,0.208215236664,0.454998463392,0.260513782501,-0.0686556845903,-0.164323568344,-0.602749586105,-0.897901654243,-0.00194533576723,-0.489399164915,-1.41622769833,-0.128553256392,-0.592758119106,-0.729158639908,0.104670993984,-0.406865626574,0.0970926433802,-0.38995975256,-1.96915197372,-0.250755727291,-0.0714714825153,-0.225343853235,-0.140379592776,0.0887251794338,0.498843610287,0.143097117543,0.409263461828,2.48768544197,0.178313553333,0.256762444973,0.184977650642,0.137405380607,0.0963133051991,0.262395530939,0.302746981382,-0.155649796128,2.88719153404,0.479475408792,0.107119321823,0.0964651480317,0.0905779972672,-0.155344501138,-0.951471269131,0.00373990111984,0.0269067119807,2.49706792831,-0.0581315271556,-0.0492032878101,-0.190074726939,-0.0344298891723,-0.0762341842055,0.208525821567,0.350439608097,0.0902334079146,2.35742044449,0.093972094357,0.420495271683,1.18900167942,-0.148647174239,0.311649441719,0.392535030842,0.169560566545,0.561127185822,2.68035316467,0.184391513467,0.129397556186,0.0953313112259,0.0442918390036,-0.466017633677,-0.697914958,-0.440666884184,-0.643581330776,-0.848656833172,-0.567019701004,-0.371618717909,-0.655850350857,-0.418056249619,0.648453712463,2.62147212029,0.257510006428,-0.0561509281397,0.0464657023549,-0.107067741454,0.0600657910109,-0.107248857617,0.00280575151555,0.0976013615727,0.54930216074,0.44136056304,-0.904615104198,2.30436086655,1.2697006464,0.0182879064232,0.139207616448,0.076176404953,0.0997797474265,-0.327774971724,0.172473847866,0.0443780571222,3.85357022285,-0.285336107016,-0.00604535778984,-0.137125328183,0.0911434516311,0.9627186656,-0.039913341403,-0.670562267303,2.61644029617,0.60397028923,-1.53372371197,0.417972624302,-0.612060546875,-0.419816076756,-0.486581236124,0.377583652735,-0.563414931297,-0.0861876681447,-0.624557495117,-0.0393370650709,-0.475325703621,-1.66942882538,-0.446876347065,0.632468998432,0.868364930153,1.05807375908,-0.898499310017,-0.733407199383,1.392837286,0.187039628625,0.728413701057,0.728780865669,-0.401038497686,-0.661663115025,0.146436020732,-0.805026710033,-2.15083241463,-0.519006967545,-0.0509434901178,-0.839349925518,-0.0550344735384,0.147921666503,0.129398196936,-0.00699230609462,-0.0992836132646,-0.357027798891,1.92628705502,-0.0272000655532,0.454534888268,1.0603723526,-0.00465485965833,-0.894102215767,0.062756434083,-0.477047979832,-1.98815429211,-0.480473160744,-0.179752022028,-0.052191991359,-0.220485746861,-0.126990243793,0.377993404865,0.094077244401,-0.00156014156528,2.78036642075,0.265222430229,0.202391371131,0.432214945555,-0.145476356149,0.586726307869,1.99925386906,0.458240300417,0.611202597618,-0.683786511421,0.452569454908,0.126969218254,-0.48512968421,0.0882227420807,0.404431730509,0.691132545471,0.429711729288,0.473866194487,2.00699353218,0.241443946958,0.585342943668,0.180172637105,0.447713732719,0.142240032554,0.221115097404,0.392818689346,0.432776272297,2.88653898239,0.268452346325,0.3057769835,0.201631680131,0.0232609063387,-1.18412458897,-0.461169272661,-1.15121769905,-0.585136771202,-0.221454486251,-0.605448901653,-0.398848801851,-0.692323923111,-0.395681411028,0.316869616508,0.420950889587,0.282157808542,0.308097720146,2.09444022179,0.137790560722,0.148685589433,0.151680082083,0.0631361380219,0.322293221951,2.51881575584,0.0297274179757,0.0425827465951,1.10674762726,0.0250530522317,0.368262350559,-0.000333892268827,0.574028909206,-0.73710668087,-1.81198847294,-0.0458779484034,0.847617208958,1.83324694633,-1.81552350521,0.119106143713,0.162608936429,-0.369737654924,-0.413505762815,1.28060853481,-0.475780874491,-0.627128362656,-0.15541395545,-0.449279874563,-0.453843772411,-1.26448321342,-0.544795393944,0.118396759033,-0.169773444533,0.204415723681,0.539405345917,1.57771813869,0.405115395784,0.350039660931,0.828268587589,0.213257223368,0.0660355240107,0.539291977882,0.548606455326,0.307170271873,2.32936215401,0.0418594442308,0.117994949222,0.233428046107,0.245173290372,0.360972195864,0.224697217345,0.19298106432,0.334883838892,3.40245819092,0.154608339071,0.0348889417946,-0.889959692955,0.457499533892,0.499267667532,1.05212986469,0.402003616095,0.579345881939,-2.96271777153,0.497711271048,0.103345744312,0.0760657861829,0.0290944688022,1.15812754631,0.934112071991,-0.790251195431,0.925358712673,-1.0951167345,-0.787966430187,0.46500942111,0.0931798517704,-0.690259099007,0.264500260353,-0.981303453445,0.205353036523,0.846107602119,0.26765230298,0.566684007645,-0.017109086737,2.24939632416,0.256614148617,-0.602456688881,-0.553679943085,-0.634360730648,-0.532045602798,-0.372475713491,-0.469298183918,-0.654771327972,-0.546965301037,-0.545981884003,-0.214085638523,0.12463324517,-0.208267703652,-0.821691393852,-1.73409295082,-0.715325713158,-0.0657421573997,0.213718250394,-0.213719457388,-0.225398406386,-0.138475805521,-0.231590494514,-0.292411774397,-1.94944941998,-0.108297653496,-0.0665696933866,-0.244898036122,-0.0760609582067,0.568400323391,0.333165049553,0.510210037231,0.197823807597,1.15307569504,0.20513124764,0.766360282898,1.15073525906,0.719810545444,-1.57511746883,0.0866644009948,-0.131134480238,2.7804453373,-0.893290996552,-0.43539968133,-0.481476634741,-0.602303802967,-0.151211485267,0.0218928009272,-0.0310931373388,0.288704097271,0.0631812810898,1.88474476337,-0.027997141704,0.784482955933,1.147829175,0.705762386322,0.597461342812,-1.08990061283,0.611254036427,0.704991817474,-1.46799147129,1.0736836195,0.650908172131,1.59363389015,0.582256376743,-0.143619224429,0.276842355728,-0.118455372751,0.320519059896,-0.0704034343362,0.199806123972,0.734853327274,1.8961366415,0.471542745829,-0.448547780514,-0.172939553857,-0.460066914558,-1.70292198658,0.135816290975,-0.5136256814,-0.844117343426,-0.336747676134,-0.670210063457,0.449862837791,1.13391506672,0.43715980649,0.78733342886,1.56292700768,0.543345212936,0.334148466587,0.315832614899,0.358783692122,-0.597890615463,0.280722290277,0.0443433225155,-2.19594097137,1.98835432529,0.0730326250196,-0.359047204256,-0.412643492222,0.153260916471,0.336279392242,-0.102848149836,0.282181054354,1.78927743435,1.10058760643,1.39842796326,0.538325786591,-0.268151968718,0.372627019882,0.951527297497,1.77469265461,0.266718715429,-0.595006883144,-1.4438751936,-0.244649365544,-0.671753048897,-0.311063826084,-0.360870301723,0.00565301021561,2.94277310371,-0.0468766130507,0.0952518805861,-1.39042568207,0.0989647507668,0.230515390635,0.455455422401,0.17083221674,-0.912370204926,2.2956597805,-1.26367068291,-0.543214142323,-0.209517031908,-0.562617003918,-0.0181809328496,-0.189438551664,-0.128671899438,0.550605237484,-0.599893808365,0.634947836399,0.553091287613,1.45282196999,0.431074261665,0.369487345219,0.412638068199,0.391238719225,1.60580122471,-0.114351734519,0.0514330454171,2.30104517937,0.102049209177,-0.570124924183,0.556765794754,-0.339325845242,0.194940254092,-0.582731962204,-1.2317609787,-0.46146646142,-0.291741937399,-1.22695589066,-0.313719213009,-0.514256417751,-0.796929478645,-0.499440580606,-0.036070458591,-0.64123904705,0.0392763055861,0.301590949297,2.23944664001,0.735465586185,-0.206149458885,0.559162020683,0.313853740692,0.11772287637,0.515011608601,0.182852059603,0.430728256702,2.29067564011,0.10320661217,0.349411249161,0.204197958112,0.395015537739,0.477263778448,0.410413235426,0.414599061012,0.722531616688,2.42431664467,0.416316539049,0.385436683893,0.406953155994,0.242304831743,-0.08125667274,-0.0313624739647,-0.0413602329791,0.418202131987,2.74186491966,0.00770026259124,0.276826381683,0.499641001225,0.240292117,0.108550041914,-0.0528836846352,0.195563003421,0.227381840348,3.02071690559,0.179209068418,0.152846321464,0.167340740561,0.187075838447,-0.220877051353,-0.527391791344,-0.246005877852,-0.645166218281,-1.06815719604,-0.538562953472,-0.418134331703,-0.574652433395,-0.290029734373,0.644284367561,1.23194730282,-2.54882454872,-0.0258774440736,1.1285995245,1.22431576252,-0.02865341492,0.193935871124,0.511838316917,0.592429578304,-0.276258796453,-0.308594942093,2.17468261719,-0.920514345169,-0.301102757454,0.61411523819,-0.253898113966,-0.467802226543,0.0914147719741,-0.259579777718,-0.15721078217,-0.143842473626,2.45313882828,0.494180589914,-0.120635449886,0.0614424049854,0.954917430878,-0.702618181705,-0.252067685127,0.786524772644,-1.52124726772,0.90992808342,1.24185037613,-0.61966663599,0.902721762657,-0.196750074625,-0.137745201588,-0.093570664525,-0.114934235811,0.417075544596,2.60662150383,0.16680675745,0.222705587745,0.51511579752,0.0632949545979,0.298305273056,1.43860089779,1.64166283607,-0.65595471859,-0.293704748154,0.645026504993,-0.429917961359,0.0279004462063,0.316868513823,-0.630580723286,-0.609310209751,-0.971938252449,-0.255644410849,-0.975548803806,-0.239159286022,-0.526513934135,-0.714728593826,-0.575496971607,0.118472233415,0.526895046234,0.18020914495,0.490319132805,1.63678658009,0.344309031963,0.223342493176,0.437815278769,0.213790103793,0.212784513831,0.884287238121,0.0710031464696,0.0919894874096,2.85754394531,-0.603484392166,-0.068630836904,-1.15390396118,-0.764025330544,-0.324456334114,-0.940093815327,-0.297639399767,-0.0633955448866,3.96435832977,-0.793644547462,0.0310228187591,0.261212438345,-0.141441017389,-0.141678079963,-0.829016506672,-0.438521146774,-0.655475139618,-0.944698750973,-0.28169542551,0.101548105478,-0.908033192158,-0.557324409485,0.377590686083,0.327560991049,0.28080919385,0.430147379637,2.30657958984,0.36136329174,0.455553591251,0.18375352025,0.483841121197,0.128777861595,0.325434625149,0.382794737816,0.397022098303,2.42466950417,0.337664455175,0.316705733538,0.514930009842,0.374812960625,-0.469737619162,-0.766760766506,-0.363754838705,-0.8100258708,-1.30208528042,-0.346916466951,-0.114925019443,-1.19344258308,-0.057210072875,0.0104716653004,-0.119560003281,-0.0430425293744,0.0150076495484,-0.418030321598,-0.940329432487,-0.112051703036,-1.42548406124,-1.07389891148,0.367909133434,-1.07329082489,-0.043844550848,0.82819211483,0.893121540546,-0.705906569958,0.800770044327,1.06007933617,0.448222100735,0.456311196089,1.44094014168,1.46946620941,-0.615907132626,-1.4351041317,1.14617860317,-0.084645062685,-0.00355578772724,0.60606110096,0.486315459013,-0.0187128391117,-0.0702182129025,2.08269000053,-0.661053180695,-0.714848101139,0.363220185041,-0.117708154023,-0.211440816522,0.154505595565,0.424031853676,0.109892040491,0.0696559175849,3.52145338058,-0.126527100801,0.0563129112124,-0.0669711381197,0.0663318261504,0.521262228489,0.734553933144,0.404991686344,0.442894697189,2.35565400124,0.188752144575,0.456170350313,-0.0495609603822,0.463792264462,2.37930893898,0.213593006134,-0.264880239964,1.26874113083,-0.787554681301,-1.04743611813,-0.366236358881,-0.583156824112,-0.00643328623846,-0.117258384824,-0.724831104279,-0.056742079556,0.171211019158,-2.09555411339,0.0687697678804,0.418268144131,2.0676214695,0.143608137965,0.424206376076,0.643279314041,0.470588088036,0.509653627872,1.87971806526,0.381486058235,0.305374830961,0.537677049637,0.376937836409,0.00388324889354,2.01264405251,0.393793076277,-0.950183689594,-1.13404381275,0.0544028319418,-0.591514885426,-0.267130196095,-0.190589010715,1.24138879776,0.0449629500508,-1.52792322636,1.4571018219,-0.584757089615,-1.06227731705,0.739268004894,-0.178945615888,-0.957819104195,0.103783831,0.107602231205,-0.00975581724197,-0.271743446589,3.37080407143,-0.616225004196,-0.0294025149196,0.0954158008099,0.103465005755,-0.510068356991,-0.512263417244,-0.516921460629,-0.762965619564,-0.545362770557,-0.714400589466,-0.478712588549,-0.458287358284,-0.549274802208,0.221304014325,-1.04945683479,-0.0670908764005,-0.117661401629,-1.76597630978,0.100702859461,0.0278503019363,-1.57339608669,0.267353534698,0.209438934922,0.0893120989203,0.329753369093,0.438879668713,2.50235080719,-0.197440460324,0.322079062462,0.59988629818,0.245138794184,0.235628679395,-0.458038002253,-0.00820704828948,-0.528533816338,0.0783440098166,0.939096093178,-0.297925412655,1.06103086472,1.66498506069,0.509378492832,0.936632871628,1.05305802822,-0.971533954144,-1.15231561661,1.41484177113,-0.742153406143,-0.310227096081,0.404707610607,-0.220373481512,0.910039424896,0.0820897147059,-0.941967368126,2.225730896,-0.943907141685,0.160974577069,-0.237149000168,0.173006087542,0.828966259956,0.589259684086,0.848431706429,-0.15427878499,1.36561977863,-0.0516705363989,0.526422917843,-0.329208016396,0.5480453372,0.110036224127,-0.496276944876,-0.523052334785,1.62715816498,-0.500853896141,-0.900273561478,0.860399484634,1.01861584187,-0.151420399547,0.586767911911,2.2673573494,0.0518901906908,-0.306362599134,-0.267052203417,0.079208150506,0.302405267954,-1.74371194839,-0.66757953167,0.976509511471,-0.348462939262,0.927161037922,0.577304601669,1.12868726254,1.21414542198,0.509695291519,-0.305451214314,0.360681265593,-0.768424093723,-0.573819994926,0.319691210985,-0.558492302895,-1.18158519268,-0.539033055305,0.170527204871,-0.694803118706,-1.00903809071,-0.591776788235,1.89036011696,-0.223497703671,-0.225442066789,1.68677592278,0.135211467743,-0.591588020325,1.74481630325,-0.239565223455,-0.310044527054,-0.223917365074,0.431472599506,-0.410943180323,3.101821661,-0.163902014494,0.478303611279,-0.678629636765,-0.0604019612074,-0.770216822624,0.248609259725,0.932929754257,-2.97414064407,-0.20133009553,2.82748699188,-0.989707827568,-0.0504299849272,0.400213718414,0.167181894183,-0.316931754351,-0.0326314382255,-0.663344144821,-0.465227723122,2.40839028358,-0.123546540737,-0.27370351553,-0.273298829794,-0.434569090605,-0.502664327621,-0.450852632523,-0.703881919384,-1.18895423412,-0.56442707777,-0.267184108496,-0.659445405006,-0.318863034248,0.068177446723,-0.238913223147,0.289623349905,0.449048638344,2.54142951965,0.0766532123089,0.319641530514,0.669568955898,0.377656131983,0.0132258394733,0.0876846238971,0.0887245759368,-0.104433998466,2.35062503815,-0.389576464891,-0.279472440481,-2.10960674286,-0.282111048698,0.0119832344353,0.0185751914978,0.155903831124,0.403086006641,2.90189981461,0.413490593433,0.575299978256,-0.155869305134,-0.0574649199843,0.0804673582315,-0.421026259661,0.0896732360125,-0.067027464509,3.92997789383,-0.504299461842,0.0231731645763,-0.101791642606,-0.00526442704722,0.185175687075,-1.18627727032,0.154397696257,-0.774385333061,3.54503583908,-0.728233218193,-0.00182698969729,-0.588281214237,0.034507278353,-0.617842137814,-0.533737659454,-0.657861351967,-0.426315516233,-0.20039114356,-0.449971735477,-0.582894742489,-0.436710953712,-0.539055049419,0.386850893497,1.96995460987,0.185044378042,-0.586124897003,-0.755463540554,0.918482780457,-0.528089463711,-0.72739136219,0.327218830585,0.171487003565,-1.52617537975,-1.22945666313,-0.0618126429617,-0.904704034328,-0.613356411457,-0.371608108282,-0.267186403275,0.0720261484385,-0.345048040152,-0.576887190342,-0.322631537914,-0.564341425896,-0.792097330093,-0.514131546021,-0.582123696804,-0.776863992214,-0.598066031933,1.40087747574,0.120302960277,0.202742516994,1.56456696987,0.385038226843,-1.78398239613,0.0326170362532,-0.166266143322,-1.13385474682,0.556348204613,0.44015032053,0.548762440681,0.897927939892,-1.55267190933,-1.50903749466,0.102332256734,-0.840088188648,-0.619326591492,-0.138548374176,2.64796090126,0.127316012979,-0.049333807081,-1.96521019936,-0.234913989902,-0.0389784947038,-0.9158629179,0.0292831901461,0.487758219242,0.292805016041,0.732676684856,0.320444405079,2.05409550667,0.909130871296,0.606943130493,0.234815523028,0.562666535378,0.863805651665,0.438500225544,0.535253286362,0.538810670376,1.83459222317,-0.226516470313,0.259130686522,-0.038631837815,0.259742885828,-0.328512042761,-0.381052285433,-0.44262829423,-0.556030809879,-2.29132628441,-0.134553700686,-0.461381047964,-0.653274357319,-0.467335700989,-0.0490273870528,-0.73880058527,-0.841924250126,1.31934463978,-0.274130582809,-0.487274646759,1.91095852852,0.323692530394,-0.447898834944,0.784964621067,-0.0968038439751,1.05024313927,1.62306785583,0.990758955479,-0.0473299063742,0.373783439398,-0.37424698472,0.51157784462,-0.637368142605,-0.639502167702,0.232127934694,-0.707566320896,-0.916783690453,-0.0767438262701,0.927578628063,2.36535835266,-0.410111546516,-0.503967583179,-0.597023665905,-0.0663549825549,-0.612905263901,-1.73415219784,-0.606413006783,-0.449101179838,-0.826861262321,-0.364669144154,0.0295765697956,-0.476674258709,-0.00475616799667,0.267327547073,3.08663868904,-0.497692108154,0.0449098311365,-0.0584453083575,0.0445145145059,-1.42642307281,-0.557546913624,0.36046782136,-2.97039365768,0.476125448942,0.968794822693,-0.0285902004689,0.444524526596,0.00264135422185,0.348748356104,0.374577045441,0.296832740307,0.536565363407,1.65146589279,0.420488864183,0.46098446846,0.291492372751,0.398436427116,-0.245264485478,-0.833077788353,-0.216489568353,0.257261842489,0.923387527466,0.222954958677,0.567198216915,1.56440865993,0.469421833754,0.551053881645,0.272304773331,0.604609429836,-0.0226323083043,2.03557705879,0.660226285458,0.298895925283,0.00912859663367,0.340441614389,0.488777071238,0.306763261557,-0.00609469972551,-0.00712340138853,0.54729861021,2.41629171371,0.174542024732,0.101947106421,0.290742337704,-0.585053682327,-1.10391664505,-0.53248488903,-0.47471421957,-0.482922047377,-0.459623456001,-0.617465853691,-0.495294630527,-0.611150324345,-0.800329148769,-0.732314646244,-0.0238324142992,-0.794535458088,-1.75613260269,-1.06813180447,-0.0670540183783,-0.987720251083,-0.219459503889,-0.0746229290962,-1.06954097748,0.728589177132,-1.03767979145,1.48792183399,0.671462535858,0.79955047369,0.725481987,0.44494715333,0.122986681759,-0.95870000124,0.160073816776,-0.275881528854,-1.51086366177,-0.266256481409,-0.00840365607291,-0.541626691818,0.106762163341,-0.591007947922,-0.523345291615,-0.579789936543,-0.338501095772,-0.994583189487,-0.174210473895,-0.646264016628,-0.361715972424,-0.725373506546,0.474898636341,1.62660849094,1.66176140308,0.0332124233246,-0.845239758492,0.4938544631,0.277386248112,-0.19245390594,0.0343744494021,0.136435925961,0.187237739563,0.158130168915,0.409671097994,2.4050526619,0.165963679552,0.120228178799,0.244906038046,0.136977046728,0.14205801487,-0.337901353836,0.741049468517,-1.03017675877,3.074436903,-0.920497000217,-0.357833325863,0.638140082359,-0.359218299389,0.089114844799,1.00614917278,0.141567364335,-0.225004702806,3.48644304276,-0.359809368849,-0.362773537636,-0.787614583969,-0.26420596242,-0.0692843049765,0.086492523551,-0.199641317129,-1.08752942085,2.54282999039,-0.368590503931,-0.108290024102,0.589124679565,0.0132645852864,0.538727343082,1.32518863678,0.408647328615,-0.0702140033245,-2.56477046013,0.0133618889377,0.298215657473,0.54772901535,0.190054610372,-0.370609760284,-1.76001298428,-0.418506503105,-0.379412949085,-1.44152915478,-0.428816884756,-0.564041674137,-0.796887934208,-0.480774194002,-0.124286241829,1.06177854538,0.434520274401,-1.34193146229,-1.96349382401,1.33452737331,-1.16340065002,-0.165543287992,-0.0341333411634,-0.106359422207,0.495049595833,-0.043033849448,0.0239427033812,-2.17635655403,-0.140718594193,-0.214768067002,-0.878866910934,-0.385537147522,0.189861759543,0.993882358074,-0.0846990048885,0.034020550549,2.48191332817,0.135106697679,-0.0442330166698,-0.0760886371136,0.168767422438,-0.109243668616,-0.465825170279,-0.0340089425445,-0.259455025196,4.28474807739,-0.496511608362,0.0635928064585,-0.0139152854681,0.105076387525,0.07856053859,0.462387859821,0.080036945641,0.653583288193,1.81022500992,0.511003196239,0.0702948048711,0.698986768723,-0.0147408507764,1.49024820328,0.875488817692,0.587256491184,0.487295895815,0.719643414021,-0.321661621332,0.362512171268,-0.174793586135,0.199557706714,-0.244091331959,-0.994773983955,-0.149943783879,0.27070081234,3.55032658577,-0.0715107619762,0.638483285904,1.06526398659,0.537134349346,0.128114297986,-1.14948511124,-0.0866397693753,1.33874428272,-0.613578557968,-1.23079454899,0.744800388813,1.82834172249,-0.178367674351,0.706709802151,-1.56463527679,-1.03200340271,-0.865668416023,-0.829376101494,-0.675447821617,-0.40083450079,0.48070064187,0.334323316813,0.275312691927,0.541776418686,0.0912268459797,0.653081536293,1.96337544918,0.251104533672,0.100434586406,-0.069715179503,0.230205819011,-1.37969684601,-1.97652256489,-0.865549087524,0.499823272228,0.781376898289,0.348752737045,0.441095769405,1.37031555176,0.218033060431,0.627618253231,0.390391379595,0.406602740288,0.0801646336913,2.16005301476,0.490116864443,0.885578691959,0.34129050374,0.462101101875,-0.885624587536,-1.1824887991,-0.70311665535,-0.0664616525173,-1.55905723572,-0.000799627625383,-0.182075411081,0.00140130042564,-0.230195268989,-1.11599183083,0.35374879837,-0.516912937164,1.49449241161,1.15730345249,-0.14048525691,1.07360649109,-0.0712373182178,0.17948423326,0.394805938005,0.557418048382,0.352176398039,0.466050684452,1.67229425907,0.34792137146,0.52666759491,0.520614385605,0.494865834713,-0.583380162716,-1.72076427937,-0.535448789597,-0.295091211796,-1.15351760387,-0.252926409245,-0.648932933807,-0.563399493694,-0.644829928875,-0.0510802492499,-0.347715675831,0.0478909276426,0.0880744159222,3.48608088493,-0.113694898784,-0.000890331109986,0.0262530390173,-0.0215239040554,0.0973867997527,-0.0074453833513,-0.214853718877,0.476684063673,1.87620484829,-2.81584072113,0.103237010539,0.240711987019,-0.451697349548,0.195991650224,0.359318435192,0.159325793386,0.667585194111,1.82063603401,0.437004506588,0.201174855232,0.524958789349,0.170117005706,-0.418809086084,-0.840700566769,-0.361482948065,-0.565158367157,-1.10492134094,-0.490411579609,-0.7044454813,-0.549662709236,-0.579690873623,-1.14131045341,-1.3965780735,0.174922972918,-0.619753837585,-0.746774077415,0.0541922412813,0.165688678622,-0.0248752590269,-0.236550137401,1.16145014763,1.4469769001,1.18306612968,0.327794998884,-2.0874607563,0.34541118145,-0.254478245974,-1.40597248077,-0.199241727591,0.86334002018,2.04712367058,0.505130708218,0.300629168749,-0.189442008734,0.209218531847,-0.0727971345186,-0.577248215675,-0.115915797651,0.215136379004,-0.0459856502712,0.221443593502,0.235482245684,2.39728879929,0.0376583263278,0.32747861743,0.277183115482,0.264483392239,-0.293279260397,-1.62783181667,-0.226178199053,-0.242124482989,2.16660952568,-0.19113625586,0.00700685661286,0.547105252743,-0.0295009464025,0.367979824543,0.566857218742,0.585056364536,-0.385281085968,-1.35579764843,1.47102820873,0.265442878008,0.476070761681,0.591023981571,0.881813943386,1.49277877808,0.642050623894,0.275672733784,0.925334870815,0.157582715154,0.134405806661,-1.14973711967,0.0793395414948,0.360494226217,1.21980011463,0.155614763498,0.887647151947,2.10966014862,-0.155480399728,0.0874213427305,-0.528768956661,0.0708901882172,-0.748003602028,0.918216884136,0.103261232376,0.00919608026743,-2.76141262054,0.212180018425,0.281659007072,0.0779395774007,-0.487759530544,-0.580960094929,-0.360670208931,-0.503481268883,-1.11178123951,-0.876582026482,-1.30250287056,-0.680410325527,-0.427402555943,-0.673772096634,0.30869358778,0.303153574467,0.391919821501,0.344650536776,1.41654217243,0.395137608051,0.460703521967,0.705893337727,0.32873955369,0.322312861681,0.567050516605,0.124660640955,0.467491239309,2.53709292412,0.218298837543,0.24479496479,0.216676056385,0.0750794261694,-0.524963796139,-0.484904170036,-0.491568803787,-0.49897941947,-1.21515083313,-0.500611066818,-0.376775115728,-0.307017505169,-0.381301224232,0.535517215729,-0.480768382549,-0.399280875921,1.51921510696,-1.89428246021,-1.13398587704,0.42652592063,0.507398366928,0.0625512003899,-0.000281280343188,-0.0677964240313,0.709714829922,-0.101778790355,-0.363536655903,2.50144386292,0.180613026023,0.528771460056,-0.288825273514,-0.375833958387,-0.610563635826,-0.486631900072,-0.287271946669,-1.64339923859,-0.0678717270494,0.498486787081,1.96700048447,0.241080060601,-0.716200351715,-0.0680450871587,-0.495050877333,-0.568251490593,-0.50091612339,-1.3665753603,-0.66318500042,0.0515529438853,-0.535701274872,0.135751649737,1.00023400784,0.147086828947,0.257205039263,2.12711501122,-0.369531661272,-0.564051449299,-1.81946766376,-0.719237864017,-0.797749340534,-0.72169649601,-0.676819086075,-0.690163731575,-0.0801487416029,-0.683748722076,-0.698955357075,-0.408460915089,-0.644583582878,0.117553919554,-0.385511994362,0.428725332022,0.036524195224,0.338307470083,-0.513790905476,1.2745821476,1.57019102573,-0.255837470293,-0.632831335068,-0.845393657684,-0.556500315666,-0.497145473957,-0.303971201181,-0.552124321461,-0.344106733799,-0.365258514881,-0.364777654409,0.469393193722,1.32889533043,0.709652662277,-0.163919851184,-1.21392214298,1.11110174656,-0.291199356318,-0.268327444792,0.466553717852,1.13280344009,0.742375969887,0.075989715755,0.683712184429,2.01025938988,-0.132797926664,0.289754837751,-0.0118479095399,0.012673552148,-0.580118775368,-0.417306482792,-0.638993561268,-0.241052538157,-1.2168507576,-0.262697726488,-0.574514329433,-1.76866364479,-0.516007602215,-0.540927112103,-0.680268883705,-0.537513375282,-0.935906708241,-1.14637088776,-0.690328001976,-0.525721132755,-0.698677897453,-0.318881571293,-0.492996454239,-0.0516734234989,0.555139064789,-0.453531771898,-0.79024708271,3.62613606453,-0.447855472565,-0.147349640727,0.101288475096,0.00638801930472,0.744304358959,0.680911064148,-0.937935352325,-0.902591824532,1.49151074886,-0.972899138927,-0.0575345717371,0.613188803196,0.37111312151,0.124835133553,-0.209618508816,0.282685160637,2.70550227165,0.185270830989,0.143528297544,-0.0413988977671,0.300394177437,-1.13743066788,-0.274191439152,-0.960749566555,-0.122608967125,0.262448459864,-0.174273952842,-1.02512395382,-0.0475866533816,-0.797290384769,0.232097014785,1.18051528931,0.162489429116,-0.729366242886,0.708960294724,-0.668063163757,-0.961354315281,-1.65727245808,-1.1680932045,0.339815229177,0.305138468742,0.285247802734,0.270928323269,2.56273508072,-0.24169075489,0.286425739527,0.0607009083033,0.13073989749,-0.57320946455,-0.570983529091,-0.55823636055,-0.75612527132,-1.18365800381,-0.727623462677,-0.350914359093,-1.1019064188,-0.370340198278,-0.0568904839456,-0.154809728265,-0.0163024701178,-0.120775021613,0.880323946476,-0.0262125488371,0.109453774989,2.59507465363,-0.0341315567493,0.619067728519,0.145211279392,0.179034531116,0.554575622082,2.26714372635,0.41776779294,-0.275524586439,0.698357820511,0.713544011116,0.636993288994,0.385658025742,0.594922780991,0.398997604847,1.91126048565,0.288966625929,0.471615552902,0.328585505486,0.494820982218,-0.551939070225,-2.09236550331,-0.393461436033,-0.414562165737,-0.355303496122,0.867711007595,0.0989383608103,1.84626114368,1.56528627872,-0.245177984238,-0.438036203384,-0.310490846634,-0.441237032413,-2.71653270721,-0.0172870885581,-0.155539631844,-0.118831157684,-0.214676484466,0.30404061079,0.46134069562,0.0587164610624,0.120158858597,1.23789453506,-1.66578197479,0.718394935131,0.932127952576,0.615855455399,-0.0478395745158,1.51155221462,-0.176128745079,-0.796445965767,-2.74886631966,-0.613861382008,0.404861658812,0.65936511755,0.422156393528,0.0245043486357,0.143310695887,0.0206896793097,-0.137691989541,3.65366005898,-0.571832537651,-0.0575604699552,-0.467877924442,-0.0142738558352,0.407210916281,1.69546234608,0.325199961662,-0.960318744183,-1.44585466385,-0.868514418602,-0.402432322502,-0.833201050758,-0.295690953732,0.316349118948,2.0984044075,0.24732363224,0.198687657714,-0.188386723399,0.399922519922,0.150974452496,-0.132164776325,0.300023406744,0.514484584332,-0.339654624462,0.347417503595,0.424232006073,-0.609758496284,0.651390850544,1.13336181641,1.67338132858,1.34487783909,0.197538197041,-0.55803334713,0.0159157644957,-0.599888026714,-2.72188854218,-0.183881685138,-0.118226356804,-0.102306306362,0.153453722596,-0.371498465538,-0.588571310043,1.98960494995,-1.32974183559,-0.246197640896,0.64097905159,-0.502186655998,-0.0525525547564,-0.118082679808,0.188955232501,-0.986342310905,0.0322146788239,-0.0413179993629,3.02830290794,0.266547828913,0.110510587692,-0.509324610233,0.0881546512246,-0.292969346046,-0.4980045259,-0.269533932209,-0.335194081068,-1.88256704807,-0.136398434639,-0.110693030059,-0.444894492626,-0.0517936833203,-0.892512261868,1.42646718025,-2.18853211403,0.040243756026,1.60974776745,0.84082531929,0.427044719458,-1.10588204861,0.794833064079,0.264379888773,-1.18889534473,-0.922021627426,0.605239748955,-1.70678794384,0.0531407892704,-0.594304203987,-0.96846061945,0.323682188988,-0.397477537394,-0.711390316486,0.20661598444,0.251826614141,-1.60746181011,2.35600233078,-0.32395067811,-0.659335196018,0.697226822376,0.226975098252,-0.549832701683,0.300752133131,0.0991761535406,2.99130439758,0.282571166754,0.00653249537572,-1.0773460865,0.106330193579,-0.25630787015,-0.0686152502894,0.0355213023722,-0.423141330481,3.2073340416,-1.10119915009,0.26387566328,0.15611076355,-0.100228451192,0.681118488312,1.6220651865,0.648825347424,1.2411301136,-2.80678510666,1.19244253635,0.494807302952,0.174385532737,0.430517613888,-0.225299403071,-0.639799833298,-0.136839404702,-0.597610533237,-1.95709562302,-0.397417277098,-0.0809122994542,-0.439924567938,-0.0748237967491,0.153138235211,0.920798897743,0.347021490335,0.14482665062,-2.88172268867,-0.321209311485,0.132759809494,1.39010155201,0.313440054655,-0.633933722973,-0.582447707653,-0.00951329059899,-0.911746740341,1.72788143158,1.18156433105,-0.258650720119,0.489219218493,0.705763041973,0.348309993744,-0.23024456203,0.255538254976,3.1000854969,-0.986346244812,0.297750502825,0.603554069996,0.0870942547917,-0.192077413201,-0.111394181848,-0.576273739338,-0.116167411208,0.108996756375,3.3062543869,-0.459207385778,-0.0046229287982,0.0741843655705,-0.0949198827147,0.30897128582,0.347638815641,0.312806218863,0.661391794682,2.36177301407,0.468433439732,0.251815676689,0.0377061925828,0.259646981955,-0.266464710236,0.609485566616,0.378067731857,-0.598215937614,-1.52780151367,2.00745749474,-0.596215963364,-0.680492341518,0.381999641657,0.00589259015396,-0.637614250183,0.316691428423,-0.0464278683066,-2.13052892685,1.24848496914,-0.14118643105,-0.746458649635,0.285372883081,0.519667565823,1.52768719196,0.326534241438,0.661360144615,0.592765390873,0.59988373518,-0.238735035062,-0.0745586156845,-0.200849890709,-0.200648322701,0.296283721924,0.239129826427,-0.692530930042,3.09193658829,-0.726721942425,0.105740658939,0.0794631317258,0.14544095099,1.0926053524,1.45940434933,1.05351853371,0.304567694664,-1.33354520798,0.44069609046,0.497688055038,0.0887611955404,0.34267604351,0.0366731695831,0.0502200685441,0.0425047501922,-0.148050934076,3.47527432442,-0.339152991772,-0.1680418998,-0.329881221056,-0.0508616119623,-0.258221924305,-1.18834650517,-0.108868792653,-1.30043578148,3.88169050217,-1.12760078907,-0.216424897313,-0.795054078102,-0.169084846973,0.174939528108,-0.0946170315146,0.217935815454,0.47125017643,-0.51890540123,0.348715275526,0.407745659351,2.32718873024,0.197975307703,0.737332522869,0.425593227148,0.0652971640229,0.673116385937,2.48869752884,0.468469917774,0.237001493573,0.346294373274,0.588457882404,-0.453821986914,-0.0284953340888,-0.29266217351,-0.365502625704,-0.591164469719,-1.60523986816,-0.888754546642,-0.119944453239,-0.854952096939,0.580846428871,0.857503950596,-0.0352325886488,0.294138073921,2.3228032589,0.0765331536531,-0.0133317708969,0.380381196737,0.289988815784,0.445491820574,-0.381198734045,0.215812578797,1.71173417568,-0.328066766262,0.0507250614464,0.622450709343,0.496147811413,0.209630966187,0.141178533435,-0.0324392840266,0.0944002345204,0.258851885796,3.50360298157,-0.481216192245,0.0296805780381,-0.208977475762,-0.0629809424281,-0.349654972553,-0.796066343784,-0.255755960941,-0.589374125004,-2.11697101593,-0.237451285124,-0.186284840107,-0.34756192565,-0.205151975155,0.413329273462,1.28265964985,0.341142237186,-0.373633503914,-2.19841456413,-0.341561406851,0.212950050831,0.738513708115,0.182175710797,-0.688707590103,-1.4782782793,0.352848112583,-0.156751558185,-1.27982270718,0.0211799703538,0.337706625462,-1.23449194431,-0.679579734802,-0.905898094177,-0.994336366653,-0.688766479492,1.21284627914,1.02928924561,1.05262029171,0.822570919991,0.323371320963,0.703737020493,0.219220548868,-0.00164098723326,0.00342161208391,2.26267361641,-0.109471157193,-0.111534133554,0.384187996387,-0.064375936985,0.0837428793311,0.68637406826,0.661317765713,0.547262251377,0.229517400265,1.69968771935,0.759882390499,0.550957679749,0.310203701258,0.410829752684,0.447233229876,0.960743486881,0.193747416139,-0.500871837139,1.46006858349,-0.508463442326,-1.39194750786,-1.78421413898,-1.55152344704,-0.244874790311,-0.364407837391,-0.966821312904,1.78203845024,0.105426423252,-1.41925871372,1.12078642845,-0.39818239212,0.138708069921,0.111474610865,-0.294755935669,0.0815116986632,-0.152419656515,4.22009992599,-0.411514252424,-0.136731430888,-0.245826780796,-0.0633353814483,0.553809285164,-1.5679974556,0.572312235832,0.297867268324,-0.355139017105,0.214779570699,1.02480590343,1.64897429943,0.867201268673,-0.0258666742593,0.111775897443,-0.150767058134,0.329964131117,2.7991707325,0.0336190536618,0.196996584535,0.234222218394,0.194431275129,0.362565815449,0.479265779257,0.352461069822,0.492967277765,2.30082559586,0.3118250072,0.382660508156,-0.141180291772,0.525614023209,0.279941469431,-0.0665493309498,0.301885545254,0.541162967682,3.17855024338,-0.166363313794,0.217782050371,0.144992396235,0.238938495517,0.383178502321,2.74187850952,-0.00554123707116,-0.648903846741,0.541244983673,0.427893251181,-0.0109034301713,-0.00743890739977,0.178078427911,0.245038345456,0.0239136107266,0.368413418531,1.93799471855,1.30158042908,1.61399161816,0.484542578459,-0.0985702425241,0.464674800634,0.569350004196,0.655405461788,-0.185707077384,-0.0793065428734,2.31880688667,0.16333219409,-0.0988220945001,-0.378391742706,0.0149026094005,0.223070651293,0.870015084743,-0.336081445217,0.244063571095,1.34975552559,-1.00068974495,-0.822098851204,-2.0914375782,-1.02011811733,-0.320770680904,-0.613081455231,0.523808181286,-0.245264232159,2.61762046814,0.636673390865,0.022051371634,0.692761421204,0.294348657131,-0.00844157673419,-0.537044465542,1.88958835602,-1.85529494286,0.870643436909,2.8963830471,-0.189494147897,-1.11287236214,-0.0667928382754,-0.129571154714,-0.0898066461086,-0.104979790747,-0.426089286804,-1.99021625519,-0.344610512257,-0.0444245934486,-0.258732825518,0.0117222499102,0.16857162118,0.324807316065,0.0840770974755,0.507312059402,2.36144924164,0.40414249897,0.120646126568,0.327401965857,0.0723141878843,-0.0731584131718,0.395688980818,-0.205856218934,0.754914164543,2.73026108742,-0.725603163242,-0.360570758581,-1.06535351276,-0.216067016125,0.0677284896374,0.787930011749,1.42916178703,-0.0526643097401,-0.79000467062,1.47389364243,-0.124991163611,-0.13081254065,-0.203046113253,0.595506668091,0.674903810024,-0.735308587551,0.567593693733,-0.987889230251,-1.17398965359,-0.555771172047,-1.13832044601,-0.18115721643,-0.132511690259,-0.467014878988,-0.0561414361,0.0196143761277,-2.94829273224,0.650631546974,0.210282504559,-0.331859409809,0.123544454575,-0.0547492131591,-0.20068039,-0.0162573195994,-0.251379996538,3.2198381424,-0.313334017992,-0.00498142512515,-0.134707614779,0.051172554493,0.55894702673,-0.660148262978,0.297565162182,-0.444816082716,3.43136930466,-0.717730164528,-0.0866954475641,-0.0535025894642,0.153905615211,0.200110033154,2.16562199593,1.12102532387,-0.308554321527,-0.218581333756,-0.0762517675757,-0.561555147171,-1.95176458359,-0.148201286793,-0.282052367926,-0.503535330296,-0.105280213058,-0.678087055683,-0.988278687,-0.529326200485,-0.339621603489,-0.205384001136,-0.207908838987,0.359105616808,0.565568089485,0.279938399792,0.356649339199,2.38256382942,0.172282397747,0.0586432181299,0.00897800829262,0.0382930077612,0.238519832492,-0.523527085781,0.278341025114,0.338966429234,3.18483448029,0.235244885087,0.219030529261,-0.690679132938,0.214208185673,0.419551819563,0.28039124608,0.166846811771,0.364830583334,2.90717387199,0.192106425762,0.146930858493,0.218249201775,0.32974666357,-0.250092566013,-0.676133871078,0.507919490337,0.5014783144,-1.98441255093,1.3382601738,-0.39826887846,-0.956785023212,0.376959562302,0.566536426544,0.492980360985,0.62041926384,0.687394976616,1.24190795422,0.665516257286,0.212723255157,1.20692229271,0.114782087505,1.74508965015,0.55942261219,-0.158899009228,1.21817660332,-1.05938887596,-0.816668152809,0.91220241785,-0.173550873995,-0.630806148052,1.0613681078,1.64242994785,0.951813459396,-0.117988921702,0.780571699142,0.0266227424145,0.577788829803,0.551174461842,0.537856638432,-0.893222153187,-0.674877583981,1.66786623001,-0.349565148354,-1.08635950089,1.18463158607,-0.362766504288,-0.40357118845,2.24905514717,1.14417111874,0.902206838131,0.958996474743,0.721868574619,-0.857177853584,0.807934165001,0.511539876461,0.261393725872,0.586212337017,0.0583859048784,-0.737785279751,0.454234391451,-0.676486313343,1.04823851585,1.23835337162,-0.138392314315,0.820810198784,0.683790206909,0.45998775959,-0.486901372671,-0.154451936483,1.20658385754,2.76163268089,-1.88895905018,0.313451290131,-0.937147438526,-0.203339725733,0.174123495817,0.436822295189,-0.300630480051,-0.518694221973,2.77853512764,-0.699323058128,-0.0190106853843,-0.261017143726,0.078830987215,0.612958788872,1.41317605972,0.59434568882,0.470066547394,-2.597864151,-0.019178936258,0.0108852768317,-0.47785577178,-0.371709346771,1.11060595512,-0.704707145691,-0.286044567823,1.12930822372,-1.18291187286,0.226112768054,0.124442853034,-0.56967830658,-0.251932144165,0.216260537505,0.115587539971,0.183541357517,0.884830594063,-3.02072477341,0.88565403223,0.332340300083,0.231522843242,0.25629350543,0.0445095971227,0.294992506504,0.202290013433,0.031664673239,2.67256855965,0.673794150352,-0.0662767589092,0.100274905562,0.113383710384,-0.209134012461,0.197118222713,-0.277983874083,-0.140814840794,-0.954919397831,-0.0690848529339,-0.684408843517,-2.00758075714,-0.598408102989,0.193355068564,-0.134596377611,-1.17591285706,-0.0219724122435,-0.0552812814713,3.03460121155,0.516224443913,-0.612894535065,-0.636938273907,-0.00991283077747,-0.642961740494,0.375313341618,3.97554469109,-1.08988177776,-0.748217284679,-0.108095243573,-0.649949967861,0.334942728281,-0.75251865387,-0.967158854008,-0.662425339222,-0.620064258575,0.489667594433,-0.694214046001,-0.603295743465,-0.614612877369,-0.540048420429,-0.198936626315,-0.994233548641,-0.240248143673,0.0371204502881,-3.12020230293,0.0434367954731,-0.149494856596,-0.327569484711,-0.147276937962,0.463593244553,0.1972463727,0.404512405396,0.445193499327,2.62023973465,0.0156324952841,0.432613641024,0.385210752487,0.295465290546,0.222725316882,-0.0319280587137,0.491211175919,2.42055082321,1.0152374506,2.09371256828,0.362574338913,0.0231014378369,0.535003066063,0.0662258863449,0.101981140673,0.293023884296,1.03599822521,-0.0769908279181,2.21505260468,-0.237335532904,0.0360815674067,0.681549608707,-0.469009369612,-0.389123141766,0.0170255135745,0.763413131237,0.480737179518,-0.993115723133,1.98913145065,0.628170013428,0.0274891052395,0.706521213055,0.438374072313,1.04751825333,0.269942313433,1.80527126789,0.518216431141,0.598390161991,-0.0273465830833,0.647888064384,-0.0356967933476,-1.00405824184,0.065814614296,-0.571544408798,3.48808121681,-0.947293996811,-0.103950887918,-0.376961529255,0.153724864125,0.500060498714,-0.448720932007,-0.794696629047,1.08196282387,-1.55562984943,-0.421791851521,0.279091596603,-0.661579191685,-0.872177362442,0.967545688152,0.915603518486,0.804652452469,-1.30193471909,0.043410167098,1.19051575661,0.50321906805,0.657555580139,0.593511104584,0.185199767351,0.514132201672,-0.853066802025,-0.532596290112,-0.792198061943,2.20141649246,0.0716520324349,-0.30475705862,0.385078728199,0.837289631367,2.31373715401,0.488501250744,-0.00148452527355,0.0666238591075,0.175305739045,0.0675069764256,0.414461553097,-0.0328437238932,-0.448975861073,-0.643736898899,-0.363802701235,-0.733594298363,-0.548954844475,-0.715662479401,-0.357782959938,-0.666205763817,-0.245782986283,0.13066123426,0.550757408142,0.476402282715,-1.7715805769,-1.58846259117,1.72748196125,-0.475743621588,0.327022582293,0.669966578484,0.436275929213,0.238107398152,0.465431511402,0.566248118877,2.36503005028,0.215061917901,0.486732423306,-0.377317875624,0.558254063129,0.42710351944,0.536867260933,0.357723623514,0.609253525734,2.06556248665,0.300079315901,0.232513353229,0.0696478262544,0.221777513623,-0.813019692898,-0.211006253958,0.93496632576,-0.108353435993,-2.33920240402,-0.309139490128,0.512648522854,0.0210739038885,-0.590239584446,0.290276616812,-0.33533129096,0.0602145940065,-0.489373296499,3.09153699875,-1.14854431152,-0.330842167139,0.400719404221,0.285247713327,0.070760011673,-0.729945719242,0.129834517837,-0.551573634148,-2.22800159454,-0.348256886005,0.0608857236803,-0.562954187393,0.115439236164,0.670821905136,1.19052839279,0.623965919018,0.31409406662,0.818976938725,0.891682684422,0.491806209087,0.0842302069068,0.347624659538,0.0646993815899,-1.43478679657,0.547042608261,0.62131357193,2.99285721779,0.0850957110524,0.0479844622314,-0.275965034962,0.178247720003,-0.486754238605,-0.374251186848,-0.432273626328,-0.295581966639,-1.27932024002,-0.123399026692,-0.552700638771,-0.326706677675,-0.630824863911,-0.302321195602,-0.766364097595,0.396877408028,0.132821887732,-2.61758756638,0.12618920207,0.298770129681,-0.467417657375,-0.460515648127,0.23204985261,0.407786607742,0.369162201881,-0.854597568512,-1.3784211874,1.76096856594,-0.325702100992,-0.44631460309,0.636461079121,0.285673946142,0.190836697817,-0.114068880677,-0.872933804989,-1.34869837761,-0.80714070797,0.0914871543646,1.17760193348,0.190785959363,0.29458925128,0.424469858408,0.312419772148,0.39997497201,2.11661267281,0.152873337269,0.347330480814,0.430610984564,0.320237725973,-0.820855975151,-0.0030974263791,0.182056516409,0.749746263027,-2.19917321205,0.749186217785,0.76763933897,-1.00574302673,-0.0502642244101,0.0918435752392,1.36466348171,0.151732176542,0.406145870686,2.06796264648,0.30513805151,0.181817427278,-0.360454797745,0.141777038574,0.358151167631,-0.0112924966961,-0.254684776068,0.55244833231,2.09628748894,0.462995916605,-0.524705648422,0.609434068203,0.907842755318,0.0137878907844,0.00441957963631,-0.0870668888092,-0.274499803782,2.77252173424,-1.71497452259,-0.0965281501412,-0.331216216087,-0.106893010437,0.33679792285,0.195711895823,0.540946304798,-0.103912219405,-0.788779914379,0.999154925346,0.6966406703,0.950288295746,1.02595865726,0.242411971092,0.787793874741,0.221991300583,0.779436886311,-2.57821512222,0.143427118659,-0.0429069586098,-0.583604097366,-0.498644500971,-0.420353025198,0.944076359272,0.544599056244,1.09762430191,1.49585103989,-0.142560854554,0.877568602562,-0.195208832622,0.422612905502,-1.00878679752,-1.59832763672,-0.859762847424,-0.491990327835,1.85664749146,-0.217659905553,-0.0228795818985,1.1240029335,0.50522595644,1.09272778034,-0.836192548275,-0.798268377781,-0.269187122583,1.40780174732,1.96421813965,0.30987277627,-0.238868817687,-0.101953595877,0.179527461529,0.279189795256,0.218972578645,0.398683637381,2.02830219269,0.205446362495,0.196288913488,0.343495070934,0.15205989778,-0.175538346171,-0.257991880178,-0.112347967923,-0.213348224759,-2.92436027527,0.134332850575,-0.259537220001,0.143081143498,-0.11836707592,-0.176768153906,1.13215565681,-0.139494612813,0.100685484707,-3.45885801315,0.0939694941044,-0.353258401155,1.17976140976,-0.328621566296,-0.00856042932719,0.0583430640399,0.36832511425,1.142816782,1.54675471783,0.237210467458,0.272705703974,1.09372961521,0.386405527592,0.0156739708036,-0.213812917471,0.125474125147,-0.00827135611326,4.00204324722,-0.421957314014,0.147733151913,-0.08594609797,0.174396246672,-0.315221816301,-0.979963719845,-0.287117898464,-0.244455114007,-1.36552798748,-0.159723937511,-0.356394827366,-1.31939125061,-0.264796197414,0.295481592417,1.35987913609,0.49915382266,1.54185903072,-1.04833912849,-0.314548105001,0.426733493805,-0.363762140274,-0.238049685955,0.329581856728,-0.0920995473862,0.419687330723,0.41521769762,-0.374392926693,0.570467114449,0.656903862953,2.08248114586,1.05884647369,0.0837990194559,-0.62343275547,0.161181941628,-0.212398216128,4.41260051727,-0.441695064306,0.0411611236632,-0.0816311463714,0.0492242798209,-0.0607733018696,-0.440125733614,0.0286977719516,-0.0799568369985,4.14600276947,-0.172417491674,0.252744704485,0.0427780859172,0.426165014505,0.0497058145702,-0.484914392233,0.194125071168,-0.550941050053,4.80089473724,-0.644095599651,-0.109571665525,-0.583512365818,0.0534584261477,0.0870033800602,-1.00460088253,0.782463312149,-0.574989676476,0.147962272167,1.86986482143,0.240195825696,0.802118062973,0.408067941666,0.0431302115321,-0.0705238953233,-0.099304638803,1.31405186653,-2.40299916267,0.742780983448,0.139531284571,-0.721958756447,0.149633675814,0.666344046593,-1.37257540226,0.4329456985,0.509605169296,2.01583814621,0.436164647341,0.199032872915,-0.818427801132,0.176221996546,-0.531426429749,-0.701019048691,-0.284094184637,-0.0936194509268,-2.12414360046,0.722746551037,0.548158884048,1.89648520947,0.814580082893,0.819900155067,1.57992577553,0.492493450642,0.799045622349,-1.79116737843,0.37361562252,0.45721334219,-0.142728313804,0.362337976694,0.673115670681,-0.267296105623,-0.0318355634809,1.90435755253,-0.216177225113,0.0247756652534,1.22723639011,-0.092070735991,-0.129454493523,-0.394346535206,0.0657760202885,0.15959712863,-2.36038899422,0.0446584969759,2.77962732315,-0.133162677288,0.0150768691674,0.073950946331,-0.487418115139,-0.430456548929,-0.635794699192,-0.673152446747,-0.704946935177,-0.77368491888,1.05172991753,2.27723121643,1.1222063303,0.551156103611,-0.143082693219,0.370765775442,1.86108779907,1.75167274475,1.65835106373,0.568531811237,0.0212835296988,0.289955824614,0.223067432642,0.41170412302,0.249795302749,0.370971053839,2.4402012825,0.188389003277,0.22316724062,-0.140079304576,0.181062012911,0.175070911646,0.28117108345,0.189327463508,0.484349608421,2.29209375381,0.190362796187,0.222834333777,0.126065716147,0.29187643528,0.0252302773297,-0.508258402348,0.729438722134,-0.0895936861634,-1.89161896706,1.486500144,0.0106684127823,-0.277601629496,0.646744191647,-0.144675418735,-0.742207825184,-0.0692812800407,-0.71278744936,-1.42106628418,-0.537186086178,-0.232701376081,-0.760284245014,-0.138687968254,-0.126626059413,-1.23946797848,-1.50392401218,1.5156481266,-0.344553530216,-1.09933209419,1.09294760227,0.851749062538,0.303299695253,0.370334595442,-0.0522886775434,0.28632235527,0.188164681196,-3.45137190819,0.339844554663,0.17334420979,0.292390197515,0.0621591471136,0.672607183456,0.683698654175,0.71223115921,0.570253074169,2.01715254784,0.39775249362,0.371224880219,-0.155906528234,0.363632291555,0.00542561523616,1.76068866253,-0.430214613676,-0.0750422775745,-1.5185072422,-1.06525063515,-0.45975112915,-0.352866023779,0.371749401093,0.563201963902,1.0757740736,0.493957906961,-0.134422644973,-0.0235399696976,0.0298896506429,-0.16811068356,-0.218006059527,-0.262422829866,0.435234367847,0.461360752583,0.426410526037,0.395922631025,1.64186954498,0.0792925432324,0.429633557796,-0.0393504239619,0.33954423666,-0.302903175354,-0.699789702892,-0.397999018431,0.286662071943,2.86912703514,-0.748906552792,0.148585781455,0.262615740299,-0.365457504988,-0.611865818501,-0.301100313663,0.575681447983,-1.82939076424,0.459065020084,1.58233606815,0.0209398120642,-0.247964918613,-0.0265530496836,0.239759504795,-0.317200422287,-0.432757556438,0.193010181189,1.20353102684,-0.648443341255,0.817581832409,1.58744049072,0.085994809866,-0.827605724335,-0.633805274963,0.532566845417,-1.16037166119,-1.3645824194,1.56728541851,0.143369540572,0.729754686356,0.75571000576,-0.579830825329,-0.698417365551,-0.645702123642,-0.539271831512,-0.0679251551628,-0.605175614357,-0.649607777596,-0.907232820988,-0.424799621105,0.501843392849,0.0733679383993,0.568479239941,1.70982861519,2.31295585632,1.87878715992,0.33796158433,0.174633800983,0.674997031689,-0.361058354378,-1.00025618076,-0.277312755585,-0.615727007389,3.34846162796,-0.8273203969,-0.328046649694,-0.106591716409,-0.362361043692,0.206364274025,1.06568408012,-0.431927859783,0.293551921844,-2.427339077,-0.447875142097,-0.280746251345,0.809872627258,0.919586062431,0.439591109753,0.352031558752,-0.074853643775,0.142791777849,2.52154660225,0.16822694242,-0.0347701311111,0.475737899542,0.251888990402,0.627779126167,0.469604611397,0.500350058079,0.874439477921,1.75650560856,0.452273488045,0.479321777821,0.39053851366,0.372538626194,0.364159196615,-0.182803928852,0.490832179785,0.464724898338,0.963192760944,0.448536843061,1.06411981583,1.70672774315,0.733061373234,-0.571568191051,-0.468402326107,-0.515910983086,-0.644189715385,-0.72060829401,-0.513247072697,-0.631148159504,-0.445183217525,-0.566114902496,0.136878624558,-0.124460294843,0.23113052547,-0.217144921422,3.39778733253,-0.415328651667,-0.0713785067201,-0.670157909393,0.125949382782,-0.0108843678609,0.575246930122,-0.0387601330876,-0.936184585094,2.45735883713,-0.878773450851,0.57798153162,-0.195958644152,0.253099292517,-0.51182281971,0.0407691001892,0.124708257616,-0.926344335079,-0.378531605005,2.12112164497,-0.715073406696,-0.0773247852921,0.0862613096833,-0.589483380318,-0.656634449959,-0.101041153073,-0.130512237549,0.267882317305,0.638201713562,-0.190916925669,0.185046464205,2.50047850609,1.45497536659,-0.206348925829,-0.244416475296,2.07434773445,-0.161574989557,0.0166761465371,-0.293519556522,-0.193740516901,-0.200865998864,-0.438265323639,-0.114823698997,-0.262422084808,-1.51712989807,-1.14506840706,-0.268630921841,-0.469473421574,-0.360753595829,-0.267321676016,0.57684135437,0.640810847282,0.362019151449,0.559810936451,1.92321753502,0.592646241188,0.381900727749,0.753295958042,0.353463590145,0.172528803349,0.169117316604,0.16190931201,0.162838891149,2.90180301666,-0.00115371216089,0.22186589241,0.0355349220335,0.134553983808,-0.291081100702,-1.31709122658,-0.757588863373,0.135717347264,3.26765036583,-0.211812481284,0.351217329502,0.813610255718,-0.00328811164945,-0.381666839123,-0.0610956177115,0.320874094963,0.330949604511,2.72838592529,0.23683783412,0.313988655806,0.454583108425,-0.107501558959,1.24927020073,0.297377765179,-0.54739010334,0.143015041947,1.36788034439,1.05689048767,0.299610257149,-0.528435409069,1.12349009514,0.00856586638838,0.700538694859,0.559637784958,0.848088383675,1.51106750965,-0.998530089855,-0.466181159019,-1.82849383354,-0.591315090656,0.183461308479,0.382073611021,0.287731349468,0.280018270016,2.40732288361,-0.0388299562037,0.0783422067761,0.683828115463,-0.0719123929739,0.265847623348,1.32680821419,0.773979365826,1.78626430035,-0.0367988161743,-0.121067032218,0.797689676285,-0.124161243439,0.313658386469,0.225938946009,0.19249369204,0.265131860971,0.583151519299,2.79878616333,0.203386500478,0.377520889044,0.589055597782,0.243674769998,0.696463346481,2.03740954399,0.942919313908,0.650993108749,-0.710553228855,0.373972177505,0.171232789755,-0.0869568735361,0.0486225448549,0.643225073814,1.47680199146,0.370173215866,0.535230398178,1.65357196331,0.424489617348,-0.363721489906,-0.291377961636,-0.139819249511,0.692283570766,2.61410832405,0.469589233398,-0.538836538792,0.235074073076,-0.395632892847,0.0602428652346,-0.611589491367,0.123161762953,-0.132245868444,0.819270133972,0.7403408885,0.277885347605,2.47268438339,0.0471572205424,0.0557271279395,-0.032578650862,-0.159434556961,1.06876945496,0.868062973022,0.881285429001,1.17249178886,1.328733325,0.0972865000367,0.208982139826,0.0704537034035,0.638695716858,0.557027161121,1.99876379967,0.411366999149,-0.523442745209,-0.73772841692,1.09437894821,-0.174040645361,-0.602026164532,0.0516139157116,0.280267059803,1.00760376453,0.282198727131,0.259172439575,2.22728681564,0.0806152895093,0.237954989076,-0.010201186873,0.217945292592,-0.591213345528,-0.668348312378,-0.543741881847,-0.469305127859,-0.60658633709,-0.371646404266,-0.812196075916,-0.340827912092,-0.721467673779,0.460582852364,0.690880298615,-0.157328978181,1.52023923397,-0.0870820954442,-0.341211944818,0.573006749153,1.22149288654,0.486409813166,-0.183679625392,-1.21464264393,-0.692938804626,2.02697777748,0.990529894829,-1.14323782921,1.30403888226,-0.0723474100232,-0.222351446748,0.0967434197664,-0.437209069729,0.292224615812,-0.119235731661,3.55304861069,-1.03170633316,-0.0119436560199,0.0550266094506,0.0234998408705,-0.412902593613,-0.803555488586,-0.449724376202,-0.174459010363,-0.946907639503,-0.0591167882085,-0.231812164187,-0.893604397774,-0.338610738516,0.0212277285755,0.300280809402,1.00785338879,-0.345963299274,0.305568933487,2.24833488464,-0.011294901371,0.287059694529,0.176973849535,0.366999030113,0.227638825774,0.286616772413,0.220729738474,3.0963716507,-0.0835416316986,0.377154737711,0.155877038836,0.300767809153,0.692639112473,0.982609093189,0.462181150913,0.00319774914533,1.74739217758,0.215038388968,0.549205183983,0.929735541344,0.520652890205,0.374938905239,0.22533480823,0.403121858835,0.342100203037,1.92498266697,0.0834502801299,0.236181989312,0.352060973644,0.211882665753,-0.0932107493281,-0.366560101509,-0.188149496913,-0.0444431714714,-0.668560385704,-0.41802418232,-0.467701137066,-0.611895024776,-1.15826261044,0.443555980921,0.431098163128,0.0717602446675,1.956366539,-2.20840907097,0.984948754311,0.602197468281,0.0901291668415,-0.0212107319385,-1.03964555264,-1.15913403034,-0.0586327537894,-1.44168078899,0.430362164974,2.56507825851,-0.118391595781,-0.189101561904,1.32159936428,0.183294966817,-0.386894494295,0.077817723155,0.100708842278,2.3586666584,0.12417922169,0.313049852848,0.105656296015,0.255397319794,-0.243932366371,-0.599488675594,0.45097887516,2.70236897469,0.844852387905,-0.127863630652,0.784236729145,-0.270487219095,0.355127900839,0.450648874044,0.642506301403,0.451094418764,0.605447649956,2.07155847549,0.139231264591,0.239456698298,0.35703471303,0.210435464978,1.20756924152,1.4406003952,0.444052278996,-0.0061104837805,-0.469902843237,-0.256330013275,-0.608548223972,-0.143928796053,-0.468592256308,0.130335777998,2.37677097321,0.575966417789,-0.505199253559,-1.76102352142,0.200049594045,-0.247227311134,-0.23531909287,0.131634488702,-1.44864499569,-1.68052613735,-0.406318992376,-0.627970814705,-0.335667312145,-0.121133260429,-0.302874058485,-0.123590193689,-0.233176022768,0.135846063495,-0.174631178379,0.0779906064272,-1.19821572304,-1.76140606403,-1.30698287487,0.0502739623189,0.164349228144,0.185696840286,-1.30616235733,-0.838575482368,0.69421350956,-0.990206360817,-1.43203055859,1.14883172512,0.507031440735,0.928379297256,-0.151962772012,0.140277087688,-0.922638058662,-0.463876366615,-0.298563808203,2.40851473808,1.47383677959,0.259523689747,-0.871881186962,-0.622108578682,1.5877635479,-0.706884384155,-0.597020983696,0.96383023262,-1.04707741737,-0.169890910387,2.00949239731,-0.256072193384,-0.325099974871,-0.0176894981414,0.108253665268,0.267047792673,-0.028353465721,-1.13432979584,0.78740298748,0.254690557718,2.66895651817,0.433449685574,0.173879474401,0.14724303782,-0.0663040429354,0.633699715137,2.75077199936,0.297926872969,-0.0826764628291,0.300801098347,0.140111878514,-0.609963595867,-0.800626218319,-0.499309659004,-0.337841957808,-1.38054955006,-0.222776994109,-0.728967189789,-0.712021827698,-0.597539126873,0.523301661015,1.46159815788,0.494269758463,0.807794928551,0.36455604434,0.84296810627,1.05231463909,0.0956730991602,1.04682683945,-0.397690176964,-0.682405412197,-0.216576039791,-0.248233303428,-0.217560201883,-0.357501119375,-0.938921451569,-0.77894371748,-0.932462096214,-0.25275400281,-0.471063822508,-0.224606662989,-0.845562458038,2.6792743206,-1.36255908012,-0.0345224589109,0.126027464867,-0.24806509912,-0.029096307233,-0.781637907028,-0.147657170892,0.652304708958,2.92833995819,-1.73017334938,0.281952351332,0.169350415468,-0.377518355846,0.274676769972,0.247661203146,0.20364035666,0.284620970488,2.52874279022,-0.0711705833673,0.0739461481571,0.0769114494324,0.154042765498,0.656720995903,1.76564884186,0.271684408188,0.863101899624,-1.41197371483,-0.313182532787,0.163484483957,-0.686321079731,-0.371740847826,-0.387219786644,-0.679538607597,-0.43375313282,-0.962450563908,-1.53766989708,-1.00328195095,-0.442640990019,-0.579079389572,-0.357356697321,0.566235363483,-0.13900642097,-0.777082085609,-0.407478302717,-2.00966858864,-0.335727244616,-0.65393280983,-0.35219502449,0.844676196575,-0.130001485348,-1.35865914822,-0.156815558672,0.871701002121,-2.11392903328,0.591331064701,0.276471883059,0.585359871387,0.195499703288,0.529186427593,0.598930716515,0.476922661066,-0.199064657092,0.437868565321,-0.264476984739,1.14942228794,1.23386991024,0.829648137093,-0.214244648814,-0.16627292335,0.863980829716,-1.2220621109,-2.40298652649,2.04840016365,-0.00974624976516,0.52867358923,0.84739869833,-0.714668571949,-0.376933157444,0.108789265156,1.23062503338,1.38961327076,-0.399584114552,1.05832338333,0.991128206253,0.22222790122,0.323853582144,-0.538645148277,-0.619738817215,0.907594621181,-1.72987818718,-0.945107340813,0.416618585587,0.77661973238,0.263019680977,0.49770128727,0.394217312336,0.0637861192226,-0.52217644453,2.44965958595,-0.982033312321,0.0602697096765,0.0927018225193,0.309084743261,-0.486777216196,-0.357750087976,-0.392866134644,-0.855039775372,-0.6939868927,-1.11652314663,-0.553773105145,-0.274061024189,-0.43937471509,-0.28051507473,-0.709245085716,-0.152334988117,-0.859712719917,-1.38904583454,-0.92425429821,-0.147488772869,-0.647364139557,-0.114246286452,0.614620089531,-0.567187488079,-0.0905705541372,2.23813033104,0.0996205732226,-0.374732941389,-0.00693108513951,-0.0817192494869,0.116493068635,-0.00129766680766,-0.450988084078,0.821959376335,-0.0964970141649,-1.91275513172,0.934362530708,0.595463097095,0.929424762726,1.13963377476,1.35986495018,0.649021744728,-0.60485380888,1.08023691177,0.553159534931,0.105172343552,0.433056503534,0.280625998974,0.159893080592,-0.057350628078,-0.37193056941,-0.0435862950981,-0.27502989769,3.99678254128,-0.415216445923,-0.214376479387,-0.0256206709892,-0.0817791298032,0.10358311981,0.19594912231,-0.216137558222,-0.584685564041,3.23245286942,-0.8275000453,-0.111190795898,-0.258614480495,-0.0210050325841,0.591391026974,0.806435644627,0.222523376346,-0.0921096503735,0.397174030542,2.46678876877,0.520624518394,0.440285354853,0.519500553608,-1.14265799522,-0.151695743203,-0.41693636775,-1.77582800388,0.345128506422,0.631194710732,-0.440972507,-0.118740312755,-0.516158938408,-0.153350532055,-0.206136658788,-0.0411827713251,0.00461630662903,3.45077228546,-0.235020250082,-0.0556418225169,-0.304885387421,4.59780967503e-05,0.557506918907,0.510183513165,0.428037106991,0.471886456013,2.19371628761,0.103960834444,0.323260724545,0.32856798172,0.334035098553,-0.304644942284,-1.34930717945,-0.0505176223814,0.0652201771736,1.50170755386,-0.114149749279,0.481917887926,1.30749547482,0.408878415823,-0.439261972904,-0.793596386909,-0.414428532124,-0.678616046906,-1.52799868584,-0.591430485249,-0.340705871582,-0.549728929996,-0.263107478619,0.3730699718,-0.686477184296,-0.0541807748377,1.22276139259,1.57112419605,-0.929641544819,0.782185137272,0.996292710304,0.365624159575,0.611331880093,0.686093270779,0.571906089783,-0.163866534829,1.11610555649,0.917825460434,0.868422210217,0.61688888073,0.266838341951,0.330045878887,-0.037326913327,0.443412095308,0.292472779751,2.33649873734,0.0922044962645,0.207810223103,0.484098047018,0.256096959114,-0.122597999871,0.0356137566268,-0.0261730607599,0.0588298179209,2.16625261307,-0.0493940487504,-0.859058856964,-1.07330775261,-0.844943463802,-0.182989746332,0.625850498676,-0.294992357492,0.449558854103,-0.471844404936,-1.56062066555,-0.428918033838,-1.86830449104,0.952017068863,0.263342767954,0.406687498093,0.410450309515,0.346623748541,1.98441886902,0.17648935318,0.372111409903,0.429093301296,0.295396059752,0.174693405628,0.683163106441,0.197698324919,0.358007580042,2.24663567543,0.192823633552,0.194261550903,0.0899220854044,0.22635602951,0.368523418903,0.338438332081,0.261560618877,0.535309791565,2.31950688362,0.270982831717,0.350731790066,0.466517060995,0.324738174677,0.671164870262,-0.239242345095,0.127794802189,1.46205198765,1.28230595589,-0.474618047476,-0.76831561327,-0.32303828001,-0.147798001766,0.917585611343,0.0636816471815,0.139959380031,1.18329560757,-0.326938778162,-0.519401550293,1.88677382469,0.968535065651,0.293144613504,-0.313356250525,-0.412409245968,-0.285890460014,-0.48564556241,-1.68687295914,-0.29231852293,-0.356204897165,-0.629108190536,-0.426850348711,0.0276724677533,-0.388184815645,0.0423606410623,-0.317805588245,3.93663835526,-0.700031459332,-0.175538271666,-0.183592528105,0.0268693044782,0.696255862713,-0.42034804821,-0.391672194004,0.0456668399274,3.68641519547,-0.233866855502,-0.287862062454,-0.157726600766,0.437690198421,0.0788528844714,1.92505288124,-0.0824030861259,0.000908922636881,1.20118188858,0.0508942939341,0.305857717991,-0.286720484495,0.347660660744,0.381374269724,0.441741019487,0.561959266663,0.369994521141,2.40787911415,-0.0195161551237,-0.11772248894,-0.0607136264443,-0.0607702732086,0.513345777988,0.0489591322839,-0.119541376829,1.30747711658,-0.090513728559,-0.433978676796,1.30647444725,0.823330402374,0.37586197257,0.0297484062612,-0.868416965008,-0.0454660430551,-0.232809469104,6.0963139534,-0.415756344795,0.00263168103993,-0.960055530071,0.097762465477,-1.03579449654,-0.751709938049,0.255389451981,1.41541934013,1.75272190571,-0.282662421465,-0.378379136324,-0.863266527653,0.170608356595,0.073096588254,-0.899265646935,1.30536925793,0.128642559052,1.93281364441,1.12192904949,0.821301221848,0.321909189224,-0.497357398272,0.0137364389375,-0.230272203684,0.0290685463697,0.0999350771308,3.63655543327,-0.260457903147,0.0814948454499,-0.029255785048,0.125742286444,-0.130648568273,-0.594921112061,-0.188000187278,-0.550809025764,2.83847546577,-0.417812973261,-0.263510167599,-0.181529581547,-0.559815406799,-1.24036478996,1.28064107895,1.48884654045,-0.646035134792,0.272839546204,0.152418926358,0.66624301672,-0.317517787218,-0.481100589037,0.115538597107,0.0488758385181,0.0667217299342,-0.733277916908,2.78541493416,-0.907950401306,0.0376135520637,-0.0320993289351,-0.0619931705296,-0.322502046824,-0.221066623926,-0.0869987905025,-1.57118618488,-1.08194077015,-1.5592238903,0.152557000518,-0.171204134822,0.161279559135,-0.707294523716,-2.26896476746,-0.943415343761,0.620282411575,0.118601486087,-0.20833094418,1.15507745743,1.7312309742,-0.00897224713117,-0.265571385622,-0.545663356781,0.526291429996,-0.123256191611,2.31309914589,0.6720687747,0.19793304801,0.559473395348,0.157432302833,-0.215180829167,-0.440226405859,-0.177285030484,0.0392317436635,3.21614408493,-0.643792450428,-0.136060327291,-0.272947371006,-0.229482501745,0.271845221519,0.159068241715,-0.0031503434293,-0.859955489635,2.94057869911,-0.96945732832,0.126759648323,0.306172966957,-0.0944486260414,0.511447370052,1.67495274544,0.401919335127,0.367392003536,1.50852191448,-0.0129920309409,0.218344658613,-0.132810294628,0.32711109519,0.502927362919,1.7020149231,1.50756132603,0.0796692296863,-0.403148531914,0.480935901403,0.182161554694,0.116043865681,0.228040799499,1.06781411171,0.561777055264,-0.503040730953,0.739512562752,2.38245844841,0.0989287719131,-0.363940894604,0.11322671175,0.207337915897,0.145112857223,-0.471385151148,0.0565769076347,0.54100638628,2.09672784805,0.394399821758,0.0434389449656,-0.587725639343,0.177132844925,0.390546947718,0.771128952503,0.329334408045,1.30384516716,0.881474137306,0.511445343494,1.05488657951,-0.815120100975,1.03747737408,-0.791246950626,0.0982435196638,-0.47947114706,0.885232627392,1.9736341238,0.731976568699,0.538811147213,0.962607741356,0.539956748486,-0.628864586353,-1.15094923973,-0.513731002808,-0.22068041563,-0.711283504963,-0.22682480514,-0.339552402496,-0.251513659954,-0.350365310907,-0.691933393478,-0.329588830471,-0.773318946362,-0.306205034256,0.00135487143416,-0.321284025908,-0.780158519745,-0.250124633312,-0.719919502735,0.625809431076,0.46794334054,-0.118228144944,0.943233191967,2.10288667679,-0.269179016352,0.14348718524,-0.160304114223,-0.307885527611,-0.116494834423,-0.818129658699,-0.195016592741,-0.955029666424,4.17706775665,-1.09372663498,-0.134889096022,-0.848096191883,-0.144758239388,-0.391051322222,-0.761680603027,-0.666967749596,-0.235144108534,-0.904671132565,-0.249636307359,-0.260607212782,-0.50705575943,-0.0836978703737,-0.418974518776,-0.133306145668,-0.496170789003,1.10016596317,-0.395959079266,-1.9851449728,-0.337811410427,-0.480361163616,-0.723314166069,-0.117892920971,-0.20466992259,-0.0944429114461,0.012593831867,-3.47863554955,0.183980584145,0.0642187669873,0.270040333271,-0.00255877291784,-0.4206777215,-0.27587673068,-0.435439318419,-1.08939087391,-0.696902513504,-0.771103084087,-0.646687328815,-0.274803489447,-0.588511228561,0.042047213763,-0.361050009727,0.059482652694,-0.429056018591,-2.92597150803,-0.237832769752,-0.0401864387095,-0.326251626015,-0.0163128264248,1.15442836285,-0.695683717728,0.0415964014828,3.63692903519,0.447143733501,-1.83504188061,0.289791375399,-0.972591280937,-0.217482805252,0.669926404953,0.365746021271,0.636038601398,0.27125415206,-2.25410366058,0.835365593433,0.622740328312,0.891069829464,0.419230461121,0.603983163834,0.246451973915,-0.0888480693102,-0.0322874039412,2.370916605,0.328514546156,-0.0218797698617,0.979206085205,0.481321841478,-0.222526669502,-0.323745131493,-0.774344146252,1.45996272564,-0.305981576443,-1.50983381271,0.14492957294,-0.250071436167,-0.835817098618,-0.190594434738,-0.550137579441,-0.778257250786,0.0111190108582,-0.735709905624,-0.899501085281,-0.0651686117053,-0.013614455238,-1.05878376961,1.10153388977,0.548409819603,0.634484946728,0.993688344955,1.73504936695,0.161792680621,0.73080188036,-0.0349052995443,0.674297213554,0.498454123735,0.879074394703,0.454988956451,0.607104539871,-3.25795578957,0.624430894852,0.248300731182,-0.164797827601,0.0286920592189,-0.0949520841241,0.722495496273,1.32740581036,-0.377572596073,-0.144381761551,1.90746724606,-0.0820428654552,-0.49768614769,-0.278230339289,-0.286457031965,1.08806800842,0.828679740429,-0.521600484848,1.16127157211,0.84166353941,-0.107818074524,-0.807391405106,0.166046142578,0.348052114248,-0.300081789494,-0.0488889068365,-1.67069530487,-1.14490044117,0.199760645628,-0.547046065331,-1.10666441917,0.0734062716365,0.808471560478,-0.742040455341,-0.945399880409,1.33843314648,-1.38735187054,-0.583425581455,-0.300401508808,0.580716311932,0.27464812994,1.99609696865,0.81329780817,0.595852911472,0.753524839878,-0.578888654709,-0.222270905972,0.467636704445,0.0192572306842,-0.0980423018336,0.153476074338,-0.0494210980833,0.153602689505,0.503910660744,2.70599222183,0.00629043206573,0.138049989939,0.180150434375,0.0419132299721,0.089623644948,1.56456208229,0.0119140204042,0.0923789218068,-2.31216311455,0.107332058251,-0.151079520583,0.10356978327,-0.0744560658932,0.167857468128,0.244906708598,0.190832838416,0.479307413101,2.53466415405,0.186595141888,0.207968190312,0.26795399189,0.21082316339,-0.636813640594,-0.618587970734,-0.490654796362,-0.493166059256,-0.451480150223,-0.673556804657,-0.390612870455,-0.485572338104,-0.578045248985,-0.432428568602,-0.620875179768,-0.643369138241,-0.74348115921,-0.969161510468,-1.05006027222,-0.442255169153,-0.695582211018,-0.63739579916,0.290152847767,0.244882330298,0.0851788595319,0.625414073467,2.14503407478,0.100175701082,0.367413133383,0.389343738556,0.358457326889,-0.18425399065,-0.592666924,-0.0518038123846,-0.0493519715965,0.822201788425,0.242329388857,0.567092895508,1.80676341057,0.655539512634,-0.156591013074,-0.927169680595,-0.320549994707,-0.33415928483,-2.42033791542,-0.268231928349,0.10268586129,-0.434436798096,0.110978387296,-0.0575991161168,0.0959687680006,0.240935698152,-0.839563548565,1.65123915672,1.54944896698,0.0731250345707,0.0385646298528,0.51765358448,0.413179636002,0.206572845578,-0.875796079636,0.30561631918,-3.18303871155,-0.357957988977,-0.571843624115,-0.0719711333513,0.752010047436,0.202778369188,-0.222241565585,0.626965939999,-0.124306105077,2.14369654655,-0.0262363292277,0.273163586855,0.640238106251,-0.628739178181,-0.130336433649,-0.580538928509,-0.737949311733,-0.634314417839,-0.478527903557,-0.592762947083,-0.625621259212,-0.44862306118,-0.140169069171,0.443918228149,0.595655024052,0.398128986359,0.486638307571,1.76282727718,0.428376883268,0.610110223293,0.589275479317,0.412445008755,-0.0100168222561,-0.876210033894,0.0378059186041,0.756941854954,2.58850669861,0.701022863388,0.151056662202,-0.517504155636,0.0333148278296,-0.141754552722,-1.2894525528,-0.15706525743,-0.0356992520392,3.09172844887,-0.488295406103,-0.117625720799,0.430233746767,-0.119149751961,-0.947387039661,-1.20002269745,-0.219651252031,-1.38430297375,1.64950668812,0.304280251265,-0.466302037239,0.82342684269,0.652308881283,-0.0857544913888,0.437520861626,0.384839475155,-0.230348318815,1.52998566628,-0.682423889637,0.648496985435,1.38405787945,-0.0946126282215,0.468273669481,-1.66928040981,0.42448720336,0.697484374046,1.13234257698,0.609693527222,0.677290201187,0.569634974003,0.640674710274,0.275028795004,-1.53899633884,0.344173878431,0.804572463036,1.487434268,0.678962469101,0.287518411875,1.01549839973,0.296392828226,-0.513663828373,0.127846777439,0.684175431728,0.0234414041042,2.35463237762,0.430039435625,0.15650716424,0.350285232067,0.575159847736,-0.327358603477,-0.883143186569,0.071611225605,0.00453831953928,2.24641275406,0.399173289537,0.412632972002,0.653248488903,0.381289899349,0.495988607407,0.0483955405653,0.674206078053,-0.0428020879626,1.50979757309,-0.137925803661,0.854957699776,1.35890758038,0.765149056911,-0.389410018921,-0.550608098507,-2.40266418457,1.12811815739,1.14223325253,-1.73674511909,0.945466995239,0.409008443356,-0.537146925926,-0.128680631518,0.202366232872,0.197889521718,-0.800146758556,-1.76698255539,-0.630645155907,0.685136735439,0.942462384701,-0.088462755084