0.826433300972,0.420329421759,-0.623823523521,-0.348239034414,-1.68041813374,-0.820254504681,-0.668050765991,-0.310234665871,0.862196445465,-0.620056271553,-1.43207454681,-0.846193432808,1.00921475887,1.36464297771,-1.57752931118,0.29221779108,0.574870347977,-0.669225156307,0.544572174549,1.11296260357,0.557229220867,0.125701144338,2.09359264374,-0.0572067536414,-0.168647602201,-0.86428296566,-0.068819180131,-0.143699392676,0.490475356579,1.45889008045,-0.224752277136,-0.827441692352,1.10570383072,0.365794956684,1.69161510468,0.707254707813,-0.297247737646,-0.228806838393,-0.33579275012,-0.511843979359,3.62090921402,-0.564749777317,-0.265537619591,-0.474835366011,-0.216652810574,0.236318305135,0.59456050396,0.210781186819,0.151241794229,3.08115077019,-0.00108860386536,0.244316846132,0.101931862533,0.193730741739,0.0189720783383,0.289516687393,0.0489248856902,0.757745265961,2.70080924034,0.311956018209,0.130140736699,-0.0318732559681,0.147915750742,-1.13845086098,-1.24854707718,-1.07562756538,0.00124406628311,0.599906146526,0.0406178310513,-0.154619261622,-0.0748585835099,-0.0308958850801,-0.256483286619,-1.17070543766,-0.202603965998,-0.476686418056,2.64822888374,-0.636434733868,0.000877872458659,-0.633011758327,0.00500806653872,-0.0282416660339,-0.597938001156,-0.0589508004487,-0.472145736217,3.08742403984,-0.570313692093,-0.106576569378,-0.689121842384,-0.084719158709,0.137501209974,-0.397465348244,0.0868232324719,-0.123635418713,-2.45005869865,-0.145569518209,-0.107635945082,-0.0753150954843,-0.0671763718128,0.138992667198,0.208668798208,0.111836731434,-0.0107891177759,2.79432034492,-0.101492546499,-0.755414545536,-0.970145583153,-0.72589224577,0.418137460947,1.07494938374,0.316548764706,0.465974420309,1.50103962421,0.374610632658,0.178787186742,0.0228547360748,0.0646676421165,0.49111944437,1.68588256836,0.256294369698,0.170266449451,-1.63955128193,1.08928513527,-0.523857951164,-1.14847886562,-0.0984280928969,-0.555512845516,0.274213701487,1.12140929699,-1.28404426575,-1.74626195431,1.84802091122,-0.335825800896,0.583381772041,0.867269396782,0.416588634253,-0.0326877757907,0.426049292088,0.692427098751,1.86501276493,0.454634279013,0.208617240191,-1.51274120808,0.566097676754,-0.670243144035,-1.22008252144,-0.629955470562,-1.04766047001,1.11752665043,0.621708571911,-0.684326291084,1.08201730251,0.300992041826,0.0304023381323,-0.388836145401,-0.268846452236,-0.225602850318,2.05099511147,0.132243782282,0.252145946026,0.842263221741,0.0653967857361,0.2084223032,0.240833207965,0.191794931889,0.154478803277,2.29091095924,0.134006306529,0.324160069227,0.731397509575,0.326189279556,0.369436055422,0.356919676065,0.256690770388,0.303268283606,2.09806132317,0.102763943374,0.12543387711,-0.0744223073125,0.160744309425,-0.761384487152,-0.451670408249,-0.460704833269,-0.248188629746,-1.05772280693,-0.633404552937,-1.01020991802,-0.620280385017,-0.247033432126,0.323256134987,0.388587683439,0.228251412511,0.577811717987,1.81863284111,0.457642018795,0.387119501829,0.639328241348,0.248448640108,0.61656498909,2.69650316238,0.000805375690106,-0.574306666851,0.014235730283,-0.614573001862,-0.235447943211,-0.849686682224,0.0366685763001,-0.245275974274,-1.10218799114,-0.3402543962,-0.48192819953,-0.922699868679,-0.445026427507,0.178946360946,1.76602220535,0.200253903866,0.363343060017,0.149335861206,0.334274321795,0.363364398479,2.14061975479,0.295542746782,0.222060218453,0.409657359123,0.268659353256,0.784741401672,0.728439390659,0.228829488158,0.584578633308,1.88040161133,0.406035721302,-0.167098164558,0.430162072182,0.67080873251,0.159663394094,0.105565540493,0.196129903197,-0.1486184448,3.77465653419,-0.34759747982,0.00200024130754,-0.525428473949,0.0503100119531,0.447363138199,0.771564602852,0.928099870682,-0.285144627094,0.670375108719,1.02079093456,0.247003912926,-0.247914850712,0.386310249567,-0.127221405506,-0.879318594933,-0.165378659964,-0.759207844734,-1.96582996845,-0.658587753773,-0.256218671799,-0.329297959805,-0.268311649561,-0.36659014225,-1.54202187061,-0.30961638689,0.140940308571,2.28718781471,0.10474562645,0.211835309863,-0.912688612938,0.179584220052,-0.196077138186,0.221028342843,0.156862258911,0.904419004917,2.59006881714,-0.0228746663779,0.351919293404,-0.0345302149653,-8.99954386568e-08,0.315748214722,0.0951064825058,0.280451655388,0.684592843056,1.61330628395,0.658974587917,0.191123172641,0.504759788513,0.195550397038,-0.803202807903,-0.863478541374,-0.794038534164,-0.361360639334,-1.1486467123,-0.300752639771,0.00853361934423,0.398775160313,-0.0101890917867,-0.476339608431,-0.323674470186,-0.532914459705,-0.417784363031,-0.758715689182,-0.0513790696859,-0.513935029507,-0.1561332196,-0.54437816143,-0.285743236542,-0.286770761013,-0.234970957041,-0.658251285553,-0.612035870552,-0.655009925365,-0.400923550129,-0.517453253269,-0.36658141017,0.579219698906,1.02606463432,0.255858004093,0.701798081398,2.00780963898,0.190433472395,0.0918066054583,0.24954919517,0.0323289893568,1.12927627563,0.634461522102,0.227279946208,2.04822254181,-0.808845579624,-0.499370276928,0.644319653511,0.359522879124,0.0932457670569,0.0870670974255,-0.356023669243,0.382502317429,1.74732446671,1.82012188435,1.82197701931,0.430950433016,-0.146852314472,0.24743129313,0.0547447949648,0.200429260731,-0.000572929682676,0.180105820298,2.8816742897,0.417317330837,-0.0154911763966,0.0816299766302,0.24780651927,0.242113798857,0.0993961617351,-0.0947716981173,-0.921255469322,1.39190173149,0.623356819153,0.421882301569,0.66549295187,1.18631613255,0.504973649979,0.270680367947,0.450625270605,0.336940824986,1.69991767406,0.46656319499,0.357041746378,0.425634950399,0.270083159208,0.467980623245,1.80087554455,0.631610751152,-0.957245230675,-0.492535084486,-0.879047095776,-0.782231807709,-1.08196043968,-0.954169631004,0.128225803375,0.0428235307336,0.121187858284,0.0161928702146,-3.0754570961,0.201836422086,0.0400773435831,-0.0682350918651,0.097186550498,-0.211891397834,0.489679992199,1.71754980087,-0.745650947094,-0.907525777817,1.05249869823,-0.243898645043,0.108516313136,1.46451294422,-0.578645825386,-0.590820014477,0.518631577492,-1.32705950737,0.296038091183,1.64621841908,-0.486394226551,-0.627205193043,0.279460281134,0.824435412884,0.056535102427,-0.0609885156155,0.85467338562,-0.341008663177,-0.149238288403,1.29990494251,0.229087129235,0.129832088947,-1.32211732864,-0.970569849014,-1.03989744186,-0.374240577221,-1.18001055717,-0.21582762897,0.850426614285,2.15358638763,0.499432057142,-0.0932004079223,0.0840649232268,-0.0337465591729,0.4085714221,-0.934554159641,0.309916198254,0.632625937462,2.204205513,0.49782204628,0.523228406906,0.0598250254989,0.107339002192,0.331048578024,2.65511798859,0.290780484676,0.0950573757291,0.326709836721,0.171233803034,0.270878762007,-0.300046443939,0.418360769749,0.200045630336,0.93155425787,0.432490319014,0.756143391132,1.3692688942,0.694872498512,-0.033311355859,0.0308400224894,0.790892243385,-0.415500611067,1.43372309208,1.06666076183,0.432280361652,0.730726599693,0.228762760758,-0.492384135723,0.0753897204995,-0.42903187871,-0.706668555737,-0.724453151226,-0.417651414871,-0.476580381393,-1.00840568542,-0.498342245817,-0.420548766851,-0.414646089077,-0.467155694962,-1.06542921066,2.20696783066,-1.08133661747,-0.369843274355,-0.423633873463,-0.430789202452,-0.712988376617,-0.668062567711,1.14617264271,-0.93497222662,-1.6261408329,1.53633677959,0.446989804506,0.708146929741,0.517250239849,0.423970252275,0.453728854656,0.344865143299,0.0285894237459,2.29889583588,0.028620723635,0.44436481595,0.190421536565,0.32491222024,0.405161112547,-0.505852520466,0.42338642478,0.376860439777,3.19076395035,0.255854964256,0.040378022939,-0.556932926178,0.0936550945044,0.0483410619199,0.110843427479,0.0843455120921,0.187089204788,-0.804547846317,0.147265583277,0.590774595737,1.81831800938,0.442933142185,0.105350263417,0.0130983153358,0.0939100012183,0.0470738485456,3.65555095673,-0.0607712492347,0.178082764149,0.150964364409,0.214452639222,-0.633853793144,-0.346825808287,-0.668695271015,-0.149307087064,-2.41956830025,-0.0514917969704,-0.64729642868,-0.149649232626,-0.696102440357,-0.715545535088,-0.53812122345,-0.703073322773,-1.05697286129,-0.970510005951,-0.840635180473,-0.547669053078,-0.842536449432,-0.463407933712,-0.0200627557933,0.726105630398,0.743141949177,0.606435418129,1.40863335133,0.396385669708,0.928329229355,0.259394109249,-0.0560537166893,-0.243526637554,0.0845701918006,-0.192846104503,0.552476644516,2.00469756126,0.332197844982,0.700914800167,1.03817296028,0.584891617298,-0.189054220915,-0.631080806255,-0.148429021239,-0.317762851715,-1.5216742754,-0.280434846878,-0.180196449161,-0.353838264942,-0.191067442298,0.307649224997,-0.0842448323965,0.201398029923,0.136696383357,2.41540908813,0.0528058893979,0.649127662182,0.181714057922,0.550213336945,-0.295410126448,-0.284055322409,0.929469048977,-1.10216903687,-0.580585122108,2.44219136238,-0.32533878088,-0.116922996938,0.204297930002,-0.657337367535,-0.583061933517,-0.594385445118,-0.621716558933,-0.856536924839,-0.505733430386,-0.322551637888,-0.616981208324,-0.294335395098,-0.10886014998,-0.524107992649,0.0595695972443,0.249348863959,2.99680137634,0.142780452967,-0.0177712440491,-0.58664047718,0.00773848546669,0.0690435990691,-0.864843130112,0.0314321741462,0.18730764091,2.88905858994,0.261721491814,0.310034364462,-1.6040532589,0.229198947549,0.578097879887,-0.45361238718,-0.681684672832,1.6142539978,-2.01322031021,-0.512221992016,0.119160465896,1.24848115444,0.924687862396,-0.246625006199,0.341636300087,-0.288567870855,-1.17508077621,0.77800899744,0.265681236982,-2.54294991493,-0.210280686617,0.606658875942,-0.155800804496,0.684405326843,0.631849229336,-0.293277561665,2.09283971786,0.473458111286,0.129151776433,0.0303782522678,0.115511775017,0.360746413469,0.794119894505,0.34649553895,0.339879870415,1.96853291988,0.300973117352,0.128313571215,-0.332291632891,0.184009671211,0.182581707835,-0.0924053043127,0.132980033755,-0.208733990788,4.0996465683,-0.365098655224,0.0519282482564,-0.739544868469,0.0293225403875,-0.0288375765085,-0.800094604492,0.183643519878,-0.246414333582,1.08155751228,1.13731253147,0.779194414616,1.35244822502,-1.2448631525,-0.334154397249,-0.937263846397,-0.63221603632,0.296758979559,-1.92689585686,-1.17276108265,-0.328606516123,-0.956028044224,-0.585156440735,0.0061462437734,0.177400052547,-0.0147370994091,-0.269464313984,3.46390342712,-0.412428051233,-0.0241298284382,-0.440618395805,-0.0756703466177,0.454968363047,0.290621370077,0.42793276906,0.326322108507,1.7399200201,0.270772814751,0.289554655552,0.237664714456,0.1946618855,-0.515425801277,-0.249756589532,-0.540031552315,-0.40908190608,3.51149702072,-0.721654415131,-0.244109556079,-0.804678142071,-0.277483046055,-0.224906742573,0.224503949285,-0.327506929636,-1.34730398655,-0.593510091305,-1.31602406502,-0.436356753111,0.195384949446,-0.523099839687,-0.506345152855,-0.536965847015,-0.421292632818,-0.375751465559,-0.681434571743,-0.252694994211,-0.483549684286,-0.55490642786,-0.438984125853,0.167034819722,0.546251773834,0.198561504483,0.902564942837,1.75766420364,0.395231485367,0.154183611274,-0.153858974576,0.267010241747,-0.245652318001,-0.54624658823,-0.260042339563,-0.631326019764,-0.850966989994,-0.509822964668,-0.384947866201,-0.687900960445,-0.342455893755,0.0712110102177,-0.609169185162,0.12556733191,-0.572388291359,4.58643627167,-0.749109506607,-0.0333948135376,-0.930510401726,-0.0304870977998,0.664509773254,0.937302052975,0.529389202595,0.202467575669,1.38622879982,0.166958004236,-0.000730953761376,-0.837552607059,-0.0197353418916,0.29404053092,0.278195440769,-0.263641297817,-0.439734965563,2.14898324013,-1.24143493176,0.161785274744,0.820996642113,-0.100348912179,0.441355317831,1.17150092125,0.374457478523,0.156553283334,1.4882529974,0.158728808165,0.14845213294,0.507430970669,0.0663259997964,-0.460023581982,-0.642134547234,-0.40608716011,-0.4214643538,-0.971181690693,-0.356959372759,-0.484766244888,-0.140313386917,-0.377895891666,0.550127208233,2.11780357361,1.01493704319,-0.313884079456,-0.533620655537,0.118008710444,0.239660024643,-0.228175073862,0.325992614031,-0.611718952656,-1.15727102757,0.277418911457,-0.433432012796,-1.46363317966,1.06553995609,0.571642279625,0.901656210423,0.883760035038,0.506756424904,0.857104420662,-0.620262920856,-0.301283836365,1.66989898682,1.23645555973,-0.474483788013,0.0196054372936,0.715950489044,0.476768732071,-0.00143294746522,0.397837758064,0.139177292585,2.09190297127,0.226649880409,-0.932754814625,1.30401837826,-1.09169280529,0.294629514217,1.95589959621,0.191358476877,-0.410340607166,-1.28772306442,-0.343881070614,-0.510669827461,-0.727355003357,-0.479062139988,0.914325535297,0.422644883394,-0.1563616395,0.40612629056,2.3559691906,-0.508229196072,-0.267800360918,0.70996761322,-0.0774731040001,0.1618809551,0.222992449999,2.54337906837,-0.112916484475,-0.542519629002,-0.0519806742668,-0.218210861087,-0.165818929672,-0.00433342531323,0.618827402592,1.28030073643,0.627787590027,-0.0705981478095,1.03749155998,-0.119840554893,0.58912396431,1.47122240067,0.662212908268,0.376070410013,0.494682401419,-0.176331117749,0.12033932656,2.9265127182,0.505948901176,0.141880452633,0.0415771976113,0.265058517456,2.76201224327,0.301351666451,-0.206450387836,0.013299821876,-0.640306413174,0.1800378263,0.0926088541746,0.154028743505,0.241259619594,0.385200858116,0.315915644169,0.339768111706,0.269116431475,2.44096827507,0.0865760818124,0.323967754841,0.0994181931019,0.271707177162,0.0272507555783,-0.718303620815,-0.0482412986457,0.736353158951,-1.32897830009,0.834639906883,0.876542448997,1.27504122257,0.823921978474,-0.35160368681,-1.61824929714,-0.379045784473,-1.3301538229,2.35045337677,-1.39427042007,-0.485190331936,-1.29570019245,-0.510311126709,-0.500239193439,-0.394809484482,0.0738884210587,-1.13646936417,0.0974881574512,1.90984380245,-0.107791826129,-0.22862970829,1.63026452065,-0.239777550101,0.327892512083,0.0536346323788,-0.33111178875,0.572851777077,-0.151490047574,-2.43414616585,-0.545388996601,-0.708913624287,0.502008020878,0.202038899064,0.380246281624,0.35171443224,2.05978679657,0.43211582303,0.379299789667,0.0275936163962,0.191454231739,-0.102076508105,0.476177304983,0.204473808408,0.664732277393,3.36548829079,0.496725708246,0.0357890538871,0.77754420042,0.233531743288,-0.398126929998,-0.783210813999,-0.311204612255,-0.825698077679,-0.913867473602,-0.697245419025,-0.230669125915,-0.567401826382,-0.220375984907,1.09431695938,-1.3289591074,-0.332908600569,0.795735120773,-0.978578567505,0.379264265299,1.00979661942,-1.34568047523,-0.419142842293,-0.00397875811905,0.131483957171,-1.57874953747,-0.543450176716,0.861674547195,1.45505750179,-0.0626442730427,-0.0120759904385,0.948088943958,-0.413440406322,1.25332355499,-0.387331575155,1.19812440872,-0.793460071087,0.928004264832,-0.0812415480614,-2.16866445541,0.127887949347,-0.536895155907,-1.77062225342,-0.475842297077,-0.322872847319,2.17542505264,-0.454450517893,0.010233156383,0.0370355844498,0.0374379977584,-0.833340406418,-0.521245658398,-0.317451834679,-0.607317388058,-0.463829427958,-0.300697892904,-0.877064049244,-0.619286596775,-0.132877141237,0.695166766644,1.39119493961,0.559110045433,0.309140950441,-0.743226528168,0.371150165796,0.665968537331,-0.193549871445,0.617061793804,-0.927568614483,-1.07164204121,-0.77435874939,-0.369288861752,-1.22377038002,-0.293963015079,-0.189579695463,-0.234943538904,-0.165898025036,-0.214246094227,-0.0541301928461,-0.223700255156,0.208587631583,2.96257638931,-0.0595142841339,0.277987420559,0.316784530878,0.148616969585,0.0797438323498,0.817090570927,-0.0327591560781,0.281561762094,3.09468793869,-0.061342343688,0.113611519337,-0.0142997493967,0.062779687345,0.201416924596,0.797963142395,0.108196929097,0.194030061364,2.27804350853,0.202927961946,0.127076521516,-0.220720127225,0.0332658104599,0.336143672466,0.348034143448,0.183390915394,0.154276371002,2.41246914864,0.134042456746,0.178991749883,0.0275436453521,0.0702575519681,0.920991837978,0.2491196841,0.216339498758,1.27795183659,1.20006453991,0.383508861065,0.8175111413,0.397919565439,0.732614696026,-0.272836625576,-0.766008853912,0.416216343641,-1.64638924599,-0.00786561146379,2.60074710846,-0.395928293467,-0.315153717995,1.55710661411,-0.407236427069,-0.037947639823,-0.460651814938,0.656588196754,-1.79173266888,0.73497235775,1.40361511707,0.274095147848,1.41680288315,1.2231297493,0.541097521782,-1.12408232689,1.69768941402,-0.126564130187,-2.2936065197,0.110001504421,-0.148529052734,-0.402521371841,0.138843029737,0.636311948299,0.142475426197,0.106413803995,2.62086129189,0.157292291522,-0.218592613935,-0.294969320297,-0.114576265216,0.0708039775491,-0.985059201717,0.0772684589028,-0.238080084324,-1.69734215736,-0.228195443749,1.38412392139,1.63156652451,1.28583478928,1.31582891941,0.208787530661,-1.07142841816,0.914531946182,-0.745550394058,-0.823148429394,0.894024074078,-0.314253211021,-1.03708159924,-0.175360187888,0.184653818607,0.847491025925,-0.85190731287,-0.26234254241,1.0954310894,-0.0993171706796,0.625208258629,1.16884851456,0.439158499241,0.556651711464,0.508938372135,0.41757646203,2.197026968,0.344248086214,0.214920222759,0.113634549081,0.198987945914,0.446882247925,-0.177128791809,0.394645273685,0.385900855064,2.50758910179,0.290687888861,0.475190103054,-0.0590720362961,0.445648044348,-0.0950258374214,0.107325389981,0.194032415748,-0.560173332691,-0.984604179859,1.76407623291,-0.173804193735,-0.568594455719,0.136012002826,-0.152229607105,0.337809503078,-0.22347214818,0.160984218121,3.16533660889,-0.0558309704065,-0.131916671991,0.164034202695,-0.224209532142,0.138869434595,-0.595560848713,-0.254927784204,1.25912678242,-2.3453438282,1.19792449474,0.0625798776746,-0.913531422615,-0.091917835176,0.277041465044,0.143721476197,0.259530007839,0.404144912958,2.79901576042,0.212955415249,0.107953496277,0.201673179865,-0.0205069258809,-0.415453642607,-0.776523768902,-0.354419797659,-0.325220167637,-1.45610117912,-0.126345127821,-0.0708559900522,0.0960170999169,-0.0612915605307,-0.0799625515938,0.000172921310877,-0.14047190547,0.10551635921,2.95408821106,-0.0757171437144,0.106983840466,-0.0713743120432,0.0625333636999,0.0523483380675,0.208697229624,0.0701061412692,-0.287934184074,4.97958230972,-0.369997173548,-0.10549749434,-0.56382137537,-0.142642900348,1.22296357155,1.95219695568,0.816820204258,-0.258682370186,-0.941135346889,-0.177363723516,-0.299715191126,-0.723260521889,-0.380776971579,0.488857656717,2.67960119247,0.314068287611,-0.230383291841,-0.169223546982,-0.165301665664,0.138148739934,-0.0806071087718,0.0822094231844,0.26947170496,0.407101720572,0.135534420609,0.270835518837,2.77311253548,0.186296388507,0.389607012272,0.0608531869948,0.386967658997,0.259694337845,-0.189374133945,0.579792201519,-0.312957108021,-0.614242255688,0.562537848949,-0.0624743103981,0.0460502654314,2.51360559464,0.62912684679,0.0758980363607,0.619912385941,1.24385225773,-1.0611333847,1.29441940784,0.493674367666,0.0455124005675,0.431865900755,2.00245523453,0.649800002575,-0.234592869878,0.558488070965,0.0850662142038,-0.533576726913,0.187062889338,-0.98837608099,0.2774772048,-0.230928018689,0.407406389713,1.21036064625,0.00641958229244,1.42502427101,-0.00996399950236,0.908935904503,0.586736559868,-0.259548842907,0.613247156143,-0.493314355612,0.665119349957,1.10640847683,0.75852316618,1.04964733124,0.607637524605,0.429195195436,0.557063519955,-0.0977257415652,-0.948117375374,-0.280255138874,2.24129128456,-1.16647279263,0.270738214254,-0.364267706871,-0.755953550339,-0.236170396209,1.2912620306,1.91081738472,1.20028853416,-0.291060268879,0.258656293154,-0.128368034959,-0.624396562576,-1.39203214645,-0.556897163391,0.0767697021365,-0.923545897007,-0.446003466845,-1.44316709042,-1.28256833553,1.29738354683,-0.372704684734,0.618116140366,0.0527889691293,-0.212225049734,-0.56176418066,-0.205507785082,-0.24716822803,-1.5321007967,-0.263477325439,0.470503866673,1.65506708622,0.45607021451,-0.54132181406,-0.793926239014,-0.547659754753,-0.551151692867,-0.437835812569,-0.569169580936,-0.207687184215,-0.196800291538,-0.240945458412,-0.403980433941,-0.622505247593,-0.334461778402,-0.614525556564,-1.17621243,-0.570650458336,-0.380364865065,-0.547062516212,-0.303549587727,0.132580757141,1.0757869482,0.315734297037,0.567483723164,1.87869167328,-0.167575210333,0.676048696041,-0.065148845315,-0.252526521683,0.487404435873,0.532783031464,0.418525367975,0.340112835169,1.48838603497,0.381797909737,0.205355405807,0.706451356411,0.163303419948,-0.0167437829077,-0.0677207410336,-0.0441846624017,-0.78764629364,-1.52708184719,-0.756704390049,-0.0964577794075,-0.0856146961451,-0.0531355626881,0.646682024002,-0.0342876389623,0.165107518435,0.87597733736,-2.70985674858,-0.498964250088,0.674639880657,0.624503970146,0.362107813358,-0.342317700386,-0.271430283785,0.144756183028,1.60269927979,-0.208433523774,-0.487622737885,1.86690485477,-0.496595561504,-1.42390143871,0.329846203327,0.604948878288,0.213800013065,0.0918822586536,2.00820446014,-0.072007894516,0.234495058656,0.183873787522,0.234348148108,-0.225004225969,1.89449989796,-0.306437462568,-0.339940518141,0.656109511852,-0.0201834309846,-0.108960434794,1.55942833424,-0.184919327497,0.120534002781,0.598693490028,0.079626776278,0.739947795868,1.49217748642,0.629514157772,0.000724538520444,0.742920637131,-0.138942569494,0.164313197136,0.55800151825,0.678295552731,-0.345618277788,-3.19336390495,1.30478847027,0.00227102614008,0.456050604582,0.323285698891,0.657791495323,1.18837213516,0.620663404465,1.05766928196,-2.15518546104,0.228014096618,0.697717547417,-0.0115419924259,-0.245252475142,0.247974067926,0.668936908245,0.155411466956,0.748185276985,1.51115894318,0.594721794128,0.217937991023,0.461842536926,0.202322021127,0.706713199615,-0.856041014194,0.646229565144,0.606050670147,-2.02698779106,0.708009004593,1.54854846001,1.38929903507,1.64677143097,0.267290711403,-0.107561893761,0.195298880339,-0.199080199003,4.77498626709,-0.269827485085,0.0893252938986,-0.389633655548,0.0393486618996,0.744008898735,1.60600113869,0.649567842484,0.248684257269,-1.33983612061,0.373908549547,-0.293681174517,-1.4928907156,-0.276540845633,-0.976017475128,-2.07001662254,-0.992268919945,-0.325676232576,0.647578895092,-0.352366983891,-0.455315113068,0.479096591473,-0.364614069462,0.397571116686,-0.442682594061,0.248466476798,1.90992319584,1.64367437363,1.51171243191,0.277455091476,-0.31987503171,0.501020371914,0.0865600407124,0.0808685719967,-0.0285763982683,-0.300709545612,4.21769523621,-0.387055635452,-0.0630397871137,-0.345599770546,-0.18742851913,0.0621077418327,-0.0762031897902,0.0626933276653,-0.235669374466,4.13454818726,-0.124143563211,0.272055387497,-0.457167565823,0.253310263157,-0.501443207264,-0.268189758062,-0.370457857847,-0.0191107653081,2.60817742348,0.211442291737,0.0877409055829,0.101107724011,0.076695330441,0.156817659736,0.107288509607,0.0507602505386,-0.137613102794,3.86502718925,-0.342296302319,0.0470933653414,-0.596137166023,-0.0162616427988,0.783964693546,0.914317071438,1.8492410183,0.0561148896813,-0.450153917074,0.272819817066,-0.379365682602,-0.923274219036,-0.311092406511,-0.788222193718,-2.22965121269,-0.633859872818,0.449129611254,-0.348248273134,0.438616096973,0.66762894392,1.51440513134,0.588469147682,0.136248469353,-0.190731406212,0.845951378345,0.944744586945,1.82408392429,1.16932308674,0.526476919651,-0.311728715897,0.102723494172,0.270096898079,0.607588112354,0.27774772048,0.352259844542,2.57222604752,0.204995170236,0.0754758417606,-0.321297287941,-0.0157739333808,-0.000406425213441,-0.892253041267,0.669239461422,-0.278073340654,0.0761680975556,2.72273516655,0.197958141565,-0.831070899963,-0.246116861701,-0.133762359619,1.99968278408,-0.522885084152,-0.619103431702,-0.249415948987,-0.566682994366,0.0252560600638,-0.304001808167,0.122329868376,0.12105204165,0.567622721195,0.114466793835,0.0127756427974,3.01501059532,-0.0706492066383,0.126329496503,0.338645040989,0.03604670614,-0.143444523215,0.514151155949,0.492650002241,0.634219586849,2.5003964901,0.117617279291,0.44939365983,-0.068606428802,0.131190046668,0.33571344614,0.319933563471,0.296202868223,0.412619203329,2.03548550606,0.254061639309,0.289561182261,0.314312845469,0.241634353995,-0.356763184071,-0.328193843365,0.53627294302,-1.9479470253,-0.271242588758,2.2204656601,-0.56459492445,-0.179125130177,0.678946495056,-0.942663252354,-0.578658938408,-0.53251439333,-0.615524232388,-0.387710005045,-0.631419718266,-0.88732278347,-0.634835779667,-0.733335852623,0.657107532024,0.484308093786,0.62268859148,0.662243783474,2.91433930397,0.570527076721,0.703332304955,-0.0348314419389,0.663894474506,-0.00221958104521,0.0861081331968,-0.370974391699,-0.741241931915,1.63747215271,1.62132608891,0.197604775429,-0.415982693434,1.01900959015,-0.451680094004,-0.880519270897,-0.363697469234,-0.23485545814,-1.37624824047,-0.030887901783,0.767141222954,1.51169252396,0.616409778595,-0.106773078442,-0.253647625446,1.03052997589,-1.06275618076,-0.232380181551,2.0735013485,-0.334282249212,-0.200752839446,0.759276986122,1.07438063622,-0.025975311175,-0.260217100382,1.25546193123,-1.12623715401,-0.975381731987,0.70041590929,0.258919864893,-0.786980390549,0.27703666687,-0.457422375679,-0.281941145658,0.985439658165,0.651128649712,-0.213119029999,1.40962946415,1.70466113091,0.119916036725,0.429962813854,0.311533689499,0.409095615149,0.487014174461,2.56112718582,0.302824258804,0.24781692028,0.377749890089,0.259024739265,0.417826503515,0.533269762993,0.23497363925,0.916392207146,1.70244693756,0.631490111351,0.44291138649,-0.11500389874,0.136931419373,-0.568284869194,-0.291806101799,-0.544793367386,-0.228481993079,-0.347847521305,-0.207277938724,-0.640498757362,-0.541505932808,-0.600390672684,0.298263221979,-0.383712053299,0.288719028234,0.375507116318,2.36297535896,0.291126400232,0.36451280117,0.52503657341,0.221414580941,0.782562673092,0.935771942139,1.80785405636,-0.198893085122,-0.693500339985,0.245632588863,0.326139509678,-0.133963242173,0.382865816355,0.514121711254,-0.124921873212,-0.330801337957,1.37573373318,-1.58111667633,-0.58983117342,1.31711256504,0.689583301544,0.230948880315,-0.72891575098,0.169986963272,1.63782012463,-1.51215958595,-1.45043575764,1.78949677944,-0.41698589921,0.411582499743,1.14225113392,0.516872167587,0.370017588139,0.442250967026,1.20632529259,1.52917706966,0.246985405684,0.180259764194,-0.0283132307231,0.699631035328,0.00269573787227,-0.275025159121,0.0421353466809,-0.284823358059,3.35293078423,-0.350254356861,-0.184871673584,-0.626833856106,-0.20491361618,-0.688564300537,-0.178083866835,-0.0249073784798,-0.98530036211,1.87818408012,0.0641056224704,-1.3142336607,-0.88811814785,-0.354645013809,-0.17961832881,-0.566566050053,-0.0707676261663,-0.370193243027,-1.58200883865,-0.40478760004,-0.129139244556,-0.2562469244,-0.0642008557916,0.69396597147,1.6347258091,0.616292417049,0.582377076149,-0.540907919407,0.578409194946,-0.116061754525,-0.478830486536,-0.111158005893,0.549501180649,0.472602367401,0.492806851864,0.370407998562,1.65657711029,0.36541390419,0.382638245821,0.177885860205,0.298476189375,0.50795519352,-0.219702854753,0.439636856318,0.0367237068713,2.72541761398,0.0425090193748,0.341581463814,0.220308750868,0.332217901945,0.0312611572444,0.00139115995262,0.04897441715,0.246203377843,2.92775130272,0.173104226589,0.11941755563,0.229265034199,0.0471294261515,0.142788767815,-0.207159474492,0.157669812441,-0.256454944611,-1.00237321854,-0.181718125939,-0.23361338675,2.92765617371,-0.300767719746,1.37804913521,-0.491148859262,-0.0903133749962,1.27246499062,1.23779284954,0.0405190363526,-0.313076406717,-0.553072154522,0.691050112247,0.205506235361,0.755441784859,-0.204171672463,0.378762304783,2.33145093918,0.913631618023,0.146498754621,0.343760639429,0.528029382229,-0.15256370604,-0.647809505463,-0.182042330503,-0.555625259876,-0.464644581079,-0.514617979527,0.511479616165,2.6536052227,0.330916047096,0.472182005644,1.13678884506,0.205740302801,-0.949772775173,2.09895801544,-0.963818430901,0.196833148599,0.598495900631,0.21882545948,0.526304841042,0.662158310413,0.437492340803,0.441229075193,1.71661937237,0.348580479622,0.197997137904,0.0663271695375,0.222703501582,-0.274823009968,-0.611002266407,-0.209814459085,-0.621234416962,-1.77241635323,-0.857046186924,0.249609097838,1.80285346508,0.354492455721,1.55861413479,1.30193006992,1.25846469402,-0.106174752116,-1.01669406891,0.0296895168722,0.124990321696,-0.794943988323,0.149752184749,0.47317302227,0.364654362202,0.32916110754,0.868712902069,1.98096978664,0.52167648077,0.123350709677,0.107851453125,0.35856077075,-0.719043314457,-0.0449366830289,0.93702852726,-1.02929580212,-0.787225306034,1.87998151779,-0.785743415356,0.159822687507,0.750639736652,0.523106515408,0.185216903687,0.337938994169,-0.19131578505,-0.212260246277,0.00178917543963,1.32477664948,1.48224782944,1.07676434517,0.114396564662,-0.257300198078,0.0019389744848,-0.395513862371,4.11647367477,-0.581582903862,-0.0162967517972,-0.362543195486,-0.111743979156,0.237797021866,0.522964298725,0.335966318846,0.598854959011,2.13165593147,0.36196115613,0.44605332613,0.282791167498,0.449672609568,0.300158590078,-0.722603797913,0.41791382432,0.423234730959,2.45612382889,0.26556506753,0.053379226476,-0.674241244793,0.07486423105,-0.309532254934,-0.256300926208,-0.314412653446,0.246069148183,-1.88547885418,0.117561757565,0.929710745811,1.53378808498,0.787586867809,0.685513556004,1.87546992302,0.632847249508,-0.308231472969,0.640914082527,-0.325161397457,0.770368337631,1.01751852036,0.662685930729,-0.98842716217,-0.473991125822,1.06973075867,-0.888869404793,-0.653753697872,1.74228405952,-0.219644576311,0.0949449986219,-0.169377222657,0.145087793469,0.791412234306,0.0150162363425,-1.01844120026,-2.0325627327,-0.794470250607,0.245614543557,1.3474701643,0.143968015909,-0.434597909451,-0.345231473446,-0.373042166233,-0.631174147129,0.0615098513663,-0.607674896717,-0.608685016632,-0.573656022549,-0.614128947258,0.545550704002,-0.333285182714,0.585058391094,1.36820197105,0.989836037159,1.49428069592,0.739392399788,-0.363916754723,0.392652839422,0.478710174561,-1.8368242979,0.505276024342,0.671863675117,1.21275305748,0.566298305988,0.558309316635,0.729400336742,0.486967653036,0.126837968826,0.151198610663,0.212738677859,0.923414647579,2.36960744858,0.77397197485,0.807184875011,0.187280029058,0.0284614618868,0.0840567648411,0.287758976221,0.80107820034,-0.867635667324,0.423555731773,0.928382813931,0.664404213428,1.24034059048,0.618380069733,-0.442547649145,-0.611753702164,-0.586131334305,-0.711673021317,-0.512430548668,-0.604914784431,-0.374062538147,-0.545222699642,-0.368159264326,-0.114309392869,-0.231693044305,-0.196049779654,0.211634486914,-3.42303395271,0.234421804547,-0.0925250574946,-0.213280931115,-0.0294459592551,0.178458735347,0.415147036314,0.0637838169932,-0.309849500656,1.78829884529,-0.251195907593,0.821787118912,1.05699896812,0.659165501595,0.0172091424465,-1.36960637569,-0.0752371549606,-0.485716849566,0.676336228848,-0.437580764294,0.705147504807,2.17004823685,0.552530050278,-0.39034563303,-0.747347295284,-0.299087494612,-0.1783028543,3.36623549461,-0.302148550749,0.0869233459234,0.269129425287,0.0770051926374,-0.181675389409,-0.838021278381,-0.173257887363,0.249286293983,-0.62524330616,0.215716570616,0.485095053911,2.10240268707,0.574126243591,0.659622073174,1.69160759449,0.669415593147,-0.0105309542269,0.0327975042164,-0.0320129059255,0.711846113205,0.375682622194,0.621517241001,0.081279873848,0.044637594372,0.0386347994208,-0.0189792830497,3.7170624733,-0.242444112897,0.126013830304,-0.438107460737,0.10118598491,0.758254110813,-0.457026988268,0.897849082947,1.47133743763,0.890384614468,1.39822864532,0.730514347553,-0.319073706865,0.775419294834,-0.328724265099,-0.656396090984,-0.309967160225,-0.256147176027,-1.07920944691,-0.259129375219,-0.333354771137,-0.437056720257,-0.323594719172,0.112274795771,0.329882115126,2.51282477379,0.0640084370971,-0.823884189129,-0.115326806903,0.18584652245,-0.495329141617,0.289185225964,-0.557132601738,-0.0215439423919,0.565321445465,-1.91185832024,-0.310717999935,2.26838970184,-0.367995142937,-0.0276499800384,0.459120362997,0.755369067192,-0.701559484005,0.737878024578,0.577110052109,1.61321496964,0.54558044672,0.249225392938,0.618416070938,0.201372265816,-0.511655330658,-0.551345229149,-0.430329144001,-0.577086091042,-0.649999558926,-0.471440196037,-0.514833748341,-0.638752937317,-0.563859581947,0.155154600739,0.979387879372,0.0942439734936,0.415626674891,-3.97140932083,0.508758664131,0.00833386555314,0.594609200954,0.0346379205585,-0.836308956146,-0.0559091120958,1.30859386921,-0.984246969223,-0.819944858551,1.48178112507,-0.191850095987,-0.0901784449816,0.76416695118,-0.0303511880338,-1.14964866638,-0.03299369663,0.254152566195,2.73401212692,0.110712535679,-0.215733394027,-1.1756875515,0.0620926134288,-0.517140626907,-0.815812945366,-0.420777529478,0.48238581419,-1.53277444839,0.507852733135,0.517539680004,1.35444736481,0.506186187267,0.103907294571,0.378244906664,0.04878109321,0.0876997038722,3.13005852699,-0.0606837719679,-0.00940827373415,-0.341662228107,-0.101519279182,0.380499094725,-0.723218619823,0.112233370543,1.18666172028,1.92007362843,-0.887629330158,-1.77735352516,0.913788676262,0.181614205241,-0.113373368979,-0.184655606747,-0.0802640542388,-0.38465565443,-3.84229874611,-0.0833320468664,0.144411876798,0.251049309969,0.16735906899,0.509783565998,0.199189484119,0.429805397987,0.998371362686,1.38107120991,0.782373070717,0.657002985477,0.988965213299,0.635956406593,-0.0428470186889,-0.47268730402,-0.023938016966,-0.216650605202,-1.86993229389,-0.257250875235,-0.0583573058248,-0.0776183456182,-0.0170902963728,-0.43085065484,0.31986233592,-0.449921160936,-0.0302026886493,-2.28044867516,0.0752050951123,-0.197372674942,0.0592649206519,-0.275920420885,-0.223773315549,1.82207858562,1.40690481663,0.0955455824733,-1.16188836098,-1.46781861782,-0.0436074212193,0.177093148232,-0.0859722718596,-0.233307734132,-0.28392329812,-0.990506708622,-0.573782026768,-0.440024465322,-0.481970697641,-0.373226732016,-0.529359638691,-1.11844360828,0.312222182751,0.32491093874,-0.178119570017,-2.44303131104,0.503915786743,0.697064101696,-1.11697232723,-0.0844282656908,0.699416458607,-0.0765121728182,-0.922835826874,-0.00871612783521,-0.211223244667,-0.316836744547,-0.0695500746369,-0.817501783371,-0.699919998646,-0.970706343651,-0.899686217308,0.604492545128,1.07758724689,-0.824440836906,-1.58723902702,0.194379523396,0.958091616631,-0.474500417709,-0.919891178608,0.0593978539109,0.601043760777,0.0132187623531,-1.07126641273,-1.88584887981,-1.02126634121,-0.091094955802,1.17090463638,-0.0952744185925,-0.34990388155,-0.246165320277,-0.308492183685,-0.597720086575,-0.762319684029,-0.566817045212,-0.447065025568,-0.376994490623,-0.422376662493,0.455927163363,0.359332710505,0.342327058315,0.631609976292,1.91444778442,0.622087061405,0.384403854609,0.397552073002,0.349268913269,1.17299723625,0.662263691425,0.974012553692,0.313778936863,-1.7422952652,0.00375535991043,-0.0193111151457,-1.64880609512,-1.17888212204,-0.407180547714,0.4132181108,-1.03116559982,1.07903432846,-1.15425598621,-1.78915524483,0.173382788897,0.374687999487,-1.35832369328,0.422817528248,1.76993608475,0.318360954523,-0.0179449319839,-0.314496994019,0.0189163610339,-0.804465174675,-1.56304037571,-0.679773151875,0.0836764425039,-0.021112235263,0.0766919031739,0.360899031162,-0.750566542149,0.00902407057583,2.95838356018,-0.0109848482534,-0.202486127615,-0.250079244375,0.0613452121615,-0.574534595013,-0.298227608204,-1.97190964222,0.137476429343,0.00785619579256,-0.836081266403,-0.0199386645108,-0.599926173687,0.228172183037,-0.569498062134,-0.0843672379851,-0.51373565197,-0.0901880040765,-0.642474532127,-1.3686850071,-0.503927350044,0.623411178589,1.02517855167,0.368264496326,0.653573870659,1.46472811699,0.41802829504,0.326718002558,-0.231145814061,0.379938483238,-0.496198266745,-0.0469421595335,0.802460491657,-0.223406597972,0.240416020155,0.509218871593,0.597268104553,0.411739587784,1.40277457237,0.330296039581,0.445586651564,0.250991255045,0.426693767309,2.91780519485,0.169122099876,0.220663025975,0.0723823532462,0.30770149827,-0.817339003086,-2.00809001923,-0.763775110245,0.223888069391,0.454885214567,0.120097495615,0.142990514636,1.43406403065,0.0641718804836,-1.0436861515,-0.813896358013,0.966745734215,-0.729842245579,-0.989836513996,1.11523270607,-0.951180160046,-0.933916330338,0.69197922945,1.0225533247,0.104384914041,-0.194558978081,0.951135218143,-1.12876617908,-0.167153537273,0.55890673399,1.2123374939,-0.105651699007,-0.906699478626,-1.33778369427,-0.724319577217,0.0260046198964,-0.795844614506,0.0936478227377,0.0727192014456,-0.245429873466,0.0416681319475,0.495874255896,0.281031727791,0.403993189335,0.0565520301461,2.30472278595,-0.037727098912,0.497545778751,0.0944759994745,0.451374411583,0.28635841608,0.196023434401,0.222794681787,0.089310862124,2.91156291962,-0.0245755482465,0.318768888712,0.165559217334,0.12717923522,0.117412216961,0.415891289711,0.092651501298,-0.130305066705,3.22604393959,-0.0874097049236,-0.0802242681384,-0.526901304722,-0.151257991791,-0.689427614212,-1.24736011028,-1.60437726974,0.0358749814332,0.134950608015,-0.287603735924,1.44756031036,1.49030864239,1.0013449192,-0.232866749167,0.0687727853656,0.135230839252,2.10264921188,-0.207514941692,-1.95799338818,0.843838810921,-0.194080755115,-0.574566066265,0.0103346761316,-0.872818291187,0.329204291105,2.3700671196,0.257510960102,-0.23222823441,0.678981781006,-0.803278326988,0.403790801764,0.428865373135,-0.250479876995,0.319945335388,0.0141799673438,3.25939321518,-0.138983651996,-0.171495229006,-0.330747336149,-0.0657532066107,0.315521299839,0.387052774429,0.172379955649,0.370933622122,2.4185860157,0.130363792181,0.335777372122,0.219598248601,0.302443474531,0.810100674629,-0.839989960194,-0.235792845488,2.04111647606,-0.0326765850186,-0.932742416859,0.793728113174,-0.679743111134,-0.715631484985,0.343216150999,0.0689661577344,0.306589305401,0.131728008389,2.78373217583,0.0507088415325,0.383082866669,0.0974102318287,0.416745752096,0.643798470497,1.89826869965,0.553945839405,0.378908634186,-0.596502780914,0.219863265753,0.0831529721618,-0.468063175678,0.237998276949,-0.573707640171,-0.694163620472,-0.548834085464,-0.57617610693,-0.762438356876,-0.439256995916,-0.472791850567,-0.392744392157,-0.458053588867,1.10397291183,0.441849321127,-0.569495201111,2.06217813492,-1.82879650593,-1.33474993706,0.727475583553,0.504226565361,-0.0939709246159,1.48322629929,0.0288752503693,-0.76030933857,1.12449491024,-0.895553410053,-0.877172887325,1.10337269306,0.103813648224,-0.424391210079,0.334316790104,-0.0557643957436,0.293492227793,0.57440584898,2.08174753189,0.389239788055,0.326340764761,0.416079312563,0.334146678448,-0.171934813261,-1.05420780182,-0.897622585297,1.0555574894,-0.00111726834439,-1.2847597599,0.755869030952,2.10503840446,0.687373280525,0.0833916217089,0.280349463224,-0.180307120085,0.588500082493,2.08466410637,0.00411450210959,0.302372574806,0.721580803394,-0.0393495075405,0.126782432199,-0.340284645557,0.145968362689,-0.335706621408,2.94513511658,-0.415861517191,-0.0641892254353,0.821396827698,-0.0148526625708,-0.152502462268,-0.731537997723,-0.205776765943,-0.631199061871,-1.64959859848,-0.671547293663,-0.202283486724,-0.56250333786,-0.161318868399,0.0905266180634,-1.31503069401,0.151965528727,-1.25707054138,3.54783320427,-1.19465684891,0.0225849747658,-1.22983336449,0.0489005707204,0.59200245142,0.67937040329,0.651133954525,0.505807459354,2.10004281998,0.284183561802,0.16498324275,0.593267083168,0.193190544844,0.468430101871,0.47311398387,0.50416457653,0.340758770704,2.14971780777,0.283302903175,0.305404514074,0.0274411570281,0.2768189013,-0.484032809734,-0.115765482187,0.629433214664,-0.542804300785,-1.87385678291,1.16921699047,0.417075693607,0.896444261074,1.22753059864,0.102837003767,0.692607939243,0.12097107619,0.735928952694,2.28887820244,0.866464912891,0.377929389477,0.41540646553,0.395671963692,-0.572683095932,-0.963479101658,0.637684702873,-0.241684034467,-0.651278674603,0.697548866272,0.706175982952,0.942023038864,0.558800935745,0.185713648796,0.576908528805,-0.078167848289,1.02799677849,1.98174357414,-0.3186160326,0.899345993996,0.228623524308,-0.127747923136,1.12144243717,1.19154429436,0.96637994051,0.0512211732566,-1.52341651917,0.369609475136,-0.141922414303,-0.413576751947,0.000987981329672,0.256908744574,1.48316264153,-0.293165713549,1.23021304607,-0.62908822298,-0.84614855051,-0.0556025952101,-1.57770895958,0.0469475649297,0.346235156059,-0.0188032835722,0.244009897113,1.29169201851,-0.265610933304,-0.858324468136,0.902496874332,1.67661857605,-0.000523623311892,0.426266252995,0.0753536447883,0.482338488102,0.267981916666,3.04711222649,0.0944563522935,0.400086671114,0.468484818935,0.44994482398,0.520164251328,0.0494229979813,0.459399372339,0.408152103424,2.32427334785,0.419667363167,0.565399050713,-0.143335402012,0.438690036535,-0.706821143627,-0.585636019707,0.264987140894,-1.60022878647,-0.824849426746,1.90487253666,-0.327618509531,-0.0371931232512,0.298059880733,-0.818563818932,-0.637872755527,-0.749275624752,-0.477664172649,-0.532285273075,-0.879021644592,-0.359810441732,-0.519472658634,-0.509520351887,0.413084745407,0.050120588392,0.26789700985,0.110351540148,3.87962913513,0.186046659946,0.564909219742,0.000752924417611,0.437806248665,0.103332854807,0.24354404211,0.209423482418,-0.318186819553,0.478060990572,-0.256970226765,0.658004760742,1.98032569885,0.874510467052,0.00805331859738,-0.173602551222,-0.0334187373519,-0.206846013665,3.70263290405,-0.115938983858,-0.138673439622,-0.0675760805607,-0.14822730422,-0.253534972668,0.571408987045,-0.295531749725,-0.369621783495,3.07895183563,-0.451474547386,0.350012302399,-1.10261785984,0.410195291042,-0.974464893341,-0.686936080456,0.539897501469,-0.735365211964,-2.05326938629,1.20263886452,0.883786141872,1.44462764263,-0.193102881312,-0.398862689734,-0.404117822647,-0.462835431099,-0.621396124363,-0.794465243816,-0.535792291164,-0.338074684143,-0.463178664446,-0.309340596199,0.278821736574,0.243503347039,0.261448442936,0.198385745287,2.2672727108,0.26765948534,0.133250504732,0.204489409924,0.148597970605,0.0140261743218,-0.456672877073,-0.0853738710284,0.135632246733,3.02919125557,0.0353363379836,0.350149124861,0.478506475687,0.260847777128,0.046255081892,0.903850734234,0.965551197529,0.310802549124,1.53898870945,-1.27570915222,0.180827409029,1.04458701611,1.08363485336,-0.331399559975,-0.666111886501,0.24874907732,0.769806265831,-2.0984082222,-0.639961004257,0.449329525232,0.256265282631,-0.735684990883,0.251605451107,0.897501051426,0.137651756406,0.751583099365,1.55873596668,0.485413581133,0.234765425324,0.620786964893,0.150081336498,-0.104142174125,-0.585557281971,-0.104799300432,-0.136731147766,3.45378684998,-0.166873082519,-0.192534118891,-0.208076432347,-0.202745124698,-0.208527892828,-1.09450757504,-0.208198040724,-0.362941980362,-1.67866802216,-0.316524356604,0.850356936455,2.34939813614,0.815665185452,1.70802509785,0.239084765315,-0.350579321384,1.10045993328,0.510615646839,-0.785509705544,0.0686717033386,-0.523026943207,0.116295203567,0.484415829182,1.91548573971,0.455002516508,0.36685025692,-1.03770089149,0.337659716606,0.145782932639,1.54769337177,0.121293894947,-0.0676078498363,0.681757867336,-0.194358751178,0.248026058078,1.96729266644,0.118304505944,0.263189524412,0.327553838491,0.228914439678,1.59038281441,0.417466700077,-0.766288638115,1.8371026516,-1.2759335041,-1.7714766264,1.22999608517,0.352123677731,-0.49728500843,0.697299540043,2.05321097374,0.73896664381,0.127627447248,0.568762660027,0.0223861783743,0.569582462311,0.248411491513,0.568610548973,0.0616679601371,-0.0166207589209,0.747654736042,0.611940920353,1.73097264767,0.734986424446,0.389051049948,0.2512396276,0.540889799595,0.209954157472,0.537583589554,0.261022359133,0.301148891449,2.3238670826,0.260262459517,0.14610093832,0.0344382934272,0.0696740299463,0.062738597393,-0.0686485618353,0.0336132384837,0.733852803707,1.96257889271,0.643333017826,0.418217748404,0.165229976177,0.198444828391,-0.204116761684,-1.09308671951,-0.152072787285,-0.0446018055081,-2.16093111038,0.0392875261605,0.230121925473,0.811505675316,0.172774747014,0.367858856916,-0.224896356463,-0.0510803759098,0.992139577866,-1.28008925915,0.893242657185,0.595747828484,0.918395280838,0.569900274277,-0.0527862086892,-0.704183638096,0.418927043676,1.75996935368,-0.00908688642085,-0.876508116722,1.70270049572,0.638160467148,0.502835035324,0.500384390354,0.256849825382,0.18822799623,0.810511887074,2.80011868477,0.705602288246,0.30108755827,0.349845230579,0.0611871629953,-0.884105682373,-0.26340264082,1.32990086079,-1.72355508804,-0.236772760749,1.9127818346,-0.0676297992468,-0.00714364461601,0.117031171918,-0.759971261024,-0.588844954967,-0.565155565739,-0.263722717762,-0.47906473279,-0.185693264008,-0.348839849234,-0.448531717062,-0.266134470701,0.636120140553,1.47768843174,0.600569009781,0.112532220781,1.498721838,0.174694120884,0.405324786901,-0.155698552728,0.300480604172,0.185467213392,0.136708498001,0.282655179501,0.52544182539,3.17392063141,0.2422170192,0.248012080789,-0.322082310915,0.243826165795,-0.0179783292115,-0.457180380821,0.00912442430854,0.474900990725,2.94522762299,0.270815253258,0.490298509598,0.811243236065,0.316863626242,0.061738114804,-0.25765568018,-0.0366417467594,1.34322285652,-1.54651236534,-0.0939789637923,0.607176542282,-0.906245946884,-0.213985472918,1.68502759933,1.84985077381,-0.22182226181,-1.89389765263,-0.418248713017,-0.179291412234,0.0869341492653,-0.425587564707,0.228164479136,0.454089075327,-0.156293183565,0.279898911715,-0.441501408815,1.00943493843,-0.35890635848,0.373591542244,1.81340420246,0.203256562352,0.286528497934,0.282589286566,0.294910818338,0.318624466658,1.92969429493,0.277763307095,0.208628714085,0.202951863408,0.214964434505,0.279115587473,-0.162928447127,0.23843640089,-0.144317492843,-1.53049910069,-0.117753267288,-0.867982625961,-0.456718742847,-0.944586634636,-0.84858828783,-0.111771225929,-0.739854574203,0.104693695903,-0.335266560316,0.0542406029999,-0.821731686592,0.230607122183,-0.737197220325,0.206278219819,0.238864734769,0.224188372493,0.187633752823,2.90882992744,0.169035047293,0.140921860933,0.175063222647,0.132544726133,-0.737820506096,-0.853541970253,-0.78408229351,-0.518438279629,-0.643622636795,-0.5064625144,-0.217647820711,-0.682591557503,-0.172276854515,0.133682549,-0.4651453197,0.0957493558526,-0.449011415243,-2.73104453087,-0.394803822041,-0.210538685322,-0.12269025296,-0.267934560776,0.611471116543,-0.382863461971,-0.331173717976,2.53461837769,-0.170682519674,-1.68173611164,-0.0525512211025,0.26263999939,0.227191731334,0.212594032288,-0.59408813715,0.17684841156,1.02974426746,-1.88144230843,1.0342772007,-0.0239528641105,-0.620390474796,-0.0687461346388,-0.250308662653,-0.519208133221,-0.24128575623,-0.413795769215,-1.41147124767,-0.30293571949,-0.112798579037,-0.372109174728,-0.0784263536334,-0.599072515965,-0.629518568516,-0.493672519922,-0.66861230135,-0.390503495932,-0.623710393906,-0.370256990194,-0.447088301182,-0.397681355476,0.272486418486,0.221763446927,0.153507992625,0.176942273974,2.5493581295,0.197292611003,0.0147691462189,0.291860073805,-0.0533374547958,0.0845743343234,0.493751168251,0.178000196815,0.92393475771,2.17482757568,0.89096057415,0.0825995132327,0.161186024547,0.0374841876328,-0.297937124968,-0.633381187916,-0.245491623878,-0.444480836391,-1.00233352184,-0.40143185854,-0.224633947015,-0.762382924557,-0.152895897627,0.16474057734,-0.613920807838,0.204164892435,-0.702874302864,-1.62431037426,-0.636810839176,0.162369549274,-0.354527056217,0.10677434504,0.0154110202566,-0.679053843021,-0.000572954537347,-0.613072156906,-1.58024799824,-0.452717423439,0.0221904944628,-0.141835346818,-0.0108829336241,0.748018920422,0.656223893166,-0.659890174866,0.854823172092,-2.61873960495,0.480638563633,-0.963322818279,0.487181782722,0.7864138484,0.338922053576,0.736582636833,0.171610802412,0.236507788301,1.66107070446,0.267972648144,0.393571585417,0.616508126259,0.262826949358,-0.146059885621,-1.10912418365,-0.0590475387871,-0.602283775806,-1.36090052128,-0.428531497717,-0.170592218637,-0.316432595253,-0.153373733163,0.380303829908,0.300097107887,0.634256839752,1.06000983715,1.23097264767,0.213546916842,0.845181584358,-0.0787661522627,0.65903699398,0.0407871156931,-0.0634613111615,-0.738669276237,0.569751858711,1.79792749882,-2.00224518776,0.00340187898837,-0.27598130703,-0.895547389984,-0.46770092845,1.11427259445,0.271785080433,-1.22271382809,-1.73283243179,0.806297421455,1.61551845074,-0.189554527402,-0.458751648664,0.307075202465,-0.212520599365,-1.67903232574,1.7873506546,0.127135723829,-2.53251338005,1.00480318069,0.397411376238,-0.211424797773,0.36775135994,0.251309752464,0.569124102592,0.179278805852,3.09162163734,-0.024740671739,0.2148450315,0.109236240387,0.217566385865,0.69446259737,1.43465411663,-0.226122424006,-0.552476167679,-0.28270727396,-0.123563207686,-0.0127004524693,-1.3208745718,-1.47691917419,-0.211093351245,-0.395057827234,-0.231367245317,0.312715649605,2.69651842117,0.112207576632,0.314200997353,0.715825974941,0.204255014658,0.531813263893,1.71502232552,0.585258841515,-0.190354466438,0.868354678154,-0.463124126196,0.279093891382,1.02935099602,0.339985787868,-0.448056340218,0.332597643137,1.20826423168,-0.53874707222,-1.77525365353,1.29961109161,0.0974012240767,0.683709084988,0.532801926136,0.467951864004,1.50011658669,0.438899487257,0.438553363085,1.22062516212,0.469812572002,-0.049735698849,-1.44581413269,-0.023298619315,0.0781248211861,-0.00017490805476,-0.0397318638861,0.363240778446,2.05866098404,0.300812721252,0.411417394876,0.680117309093,0.359568029642,-1.32188975811,-0.960505545139,-0.103501558304,-0.176678776741,1.73630940914,0.551668405533,0.512136876583,1.03382825851,0.495424032211,-1.42167961597,0.589787483215,0.582303881645,1.56410598755,1.34450995922,-0.491057813168,1.09593248367,-0.0845870748162,-0.273720949888,-1.46819388866,0.206685483456,0.0381413698196,-0.552045345306,0.629563033581,0.24092566967,-1.49209010601,-0.230949342251,0.0171698648483,0.438706099987,2.76365113258,-0.171691343188,-0.174165785313,-0.749710202217,-0.261829942465,0.179666236043,0.114867053926,0.144913107157,0.403677642345,-1.48722541332,0.418834000826,0.373348891735,-1.52951729298,0.335116565228,0.320492476225,-1.21341979504,0.233950063586,0.026795482263,0.819935083389,0.0576484948397,-0.32353490591,-2.19874072075,-0.417844414711,-0.11416400969,-0.26695600152,-0.165850237012,0.298780471087,0.671139836311,0.222446069121,0.469092696905,1.93453323841,0.198899939656,0.167126148939,-0.064909093082,0.132461696863,-0.00440192362294,0.451254576445,-0.17271001637,1.87445640564,-0.281291097403,-1.91804933548,0.442260473967,-0.031414616853,-1.12890195847,-0.953831315041,-1.28872716427,-0.857958137989,0.529366135597,-0.437706172466,0.627817332745,1.1985656023,0.546658277512,1.10852468014,1.12752342224,0.597448766232,1.05674898624,0.557486832142,0.939582049847,0.621413290501,0.613058567047,0.914699018002,0.591679871082,-0.261658221483,-0.0146626140922,-0.180201232433,-0.224697142839,0.346007436514,-0.337682962418,-1.23229241371,-0.638161122799,-1.12193918228,0.204660758376,0.429592043161,0.295314282179,-1.46169936657,1.7884362936,0.488748073578,0.919652760029,0.436694741249,-0.0783591270447,1.90274333954,1.59630250931,-0.0607441924512,0.281026422977,-0.823220729828,-0.476701706648,-1.04232883453,-0.885993659496,-0.0569304935634,-0.249221548438,1.32190930843,0.13163895905,-1.50940525532,-0.815277338028,1.42975521088,0.818020403385,-1.21797287464,-0.0791425332427,0.400265932083,0.99966776371,-0.610401749611,0.813758313656,1.24326813221,-1.22495055199,-0.357435107231,-0.558948159218,-0.461766600609,1.83043265343,0.266609847546,-0.45450013876,0.806189835072,-0.974338531494,-0.354891359806,1.37654578686,0.0847890153527,-0.226405188441,0.0745403319597,-0.411265552044,-1.00162446499,1.91124641895,-0.107642807066,-0.42903855443,1.07561051846,0.526964247227,-0.0919336751103,0.382583379745,-0.753574728966,-0.035400994122,-0.358844310045,-0.440301239491,-0.00585614144802,0.578036725521,0.457548171282,2.12595796585,0.472096800804,0.505292534828,0.465080618858,0.395886689425,1.62351000309,0.309454441071,0.207650259137,0.489778071642,0.173515692353,-0.175371468067,0.889142513275,-0.264242768288,-0.611556649208,-2.42111229897,-0.502461731434,-0.231859177351,0.321857154369,-0.188274726272,0.311549693346,0.374204367399,0.286751061678,-0.00970616284758,4.01138925552,-0.129899725318,0.00562254944816,-0.636707007885,-0.00707103544846,0.625689327717,-0.0370738729835,0.550748050213,0.585347831249,1.54015803337,0.589550316334,0.356398493052,-0.173629820347,0.343799352646,0.439823210239,-1.10989117622,0.239708557725,1.66167867184,-0.992850065231,1.49681305885,0.0217781662941,0.148704886436,0.0759672820568,-0.264664649963,0.767000734806,0.274008244276,1.01432919502,2.31907987595,0.191365420818,0.453583210707,0.262140512466,0.334409981966,-0.331135392189,-0.449690937996,0.056262858212,1.03202593327,0.633031845093,-0.433162093163,1.2119576931,1.10399019718,-0.274238705635,0.545200407505,0.789587557316,0.575222015381,0.556991100311,1.86534321308,0.423949897289,0.255690455437,0.0348222479224,0.288966298103,0.242973655462,0.461762994528,0.220819979906,0.349228203297,0.187581509352,0.15679076314,0.319168746471,1.13700985909,0.384302735329,0.0271669514477,-0.383517831564,0.0388573594391,-0.255541205406,4.00561714172,-0.371140927076,-0.114192143083,-0.766868233681,-0.101251572371,0.576622664928,0.0308085605502,0.393562436104,-0.0281153041869,1.01018607616,0.0209913104773,0.446147978306,1.41992521286,0.277089059353,0.482383549213,-0.330036878586,-1.63535535336,0.478379756212,-0.389307498932,-0.54972332716,0.281089454889,-0.548308968544,-1.60858952999,-1.24654352665,-0.980887651443,-1.21298599243,-0.514999985695,-1.28141224384,-0.322825103998,0.443894356489,0.66869443655,0.349221527576,0.437558859587,0.863045036793,0.347526520491,0.42784717679,1.80544161797,0.317367136478,0.0038617181126,-0.114758051932,-0.0669678449631,1.47996675968,-0.397305905819,-1.13349926472,-0.0714472308755,-2.2116689682,-0.101027652621,-0.760409891605,0.0827135443687,0.188791930676,1.03325533867,0.767130792141,-0.0272695198655,-0.903790295124,1.39436042309,0.254804998636,1.07822847366,1.13219642639,-0.0369392260909,0.712557792664,0.290472984314,-0.11070022732,1.20371973515,-1.47055232525,-1.04283130169,0.540553987026,-0.197553962469,-0.433515161276,-0.46689081192,-0.540719747543,-0.344024568796,-0.754893779755,-0.711600959301,-0.55720937252,-0.635047495365,-0.515763878822,-0.528222024441,-0.343398332596,0.330644100904,0.829387664795,-0.852650463581,-1.56178033352,1.34702682495,0.0341697148979,0.286114752293,0.667519390583,0.989960253239,-0.235453426838,0.194540575147,1.46764576435,0.576192140579,-0.744583129883,-0.741704165936,0.964418172836,0.561478674412,0.42299503088,1.16618251801,0.220736712217,-0.0344247445464,2.23704409599,-0.104181028903,0.194735214114,-0.0993053242564,0.142848059535,-0.164607107639,-0.541486501694,-0.111778199673,0.634226679802,1.80240917206,0.545998990536,0.449203282595,1.49680304527,0.331004083157,0.540195703506,1.99999845028,0.479933708906,0.138626083732,-0.771406412125,0.233387067914,-0.180156737566,-0.0903124958277,-0.0218616463244,-0.0951554775238,-0.095476783812,-0.0475683473051,-0.0624274611473,-3.05409550667,-0.089703425765,-0.0363226719201,0.114865846932,0.000944634841289,0.107677780092,0.106658436358,0.38676610589,0.217430636287,2.23417711258,0.187657997012,0.37321165204,0.0785435214639,0.0867859944701,-0.1256916821,-1.48780953884,-0.999455153942,1.23191690445,-1.76197528839,0.388763785362,0.619298100471,1.33378791809,0.560581028461,-0.0874828621745,-0.259912371635,-0.111440651119,1.06805253029,2.5543282032,0.877025485039,0.119038529694,0.468335479498,0.0701252445579,0.234543398023,0.182293251157,0.195514008403,0.0217078980058,2.2751326561,-0.00890832766891,0.29897287488,-0.0643410384655,0.194482073188,-0.120061479509,-0.753004848957,-0.0418654419482,0.349535912275,-2.74087309837,0.311367332935,0.664632081985,1.11203682423,0.62626093626,1.23405265808,0.149645075202,-0.0797506421804,0.060442045331,1.40046679974,0.140930831432,-0.467547357082,0.647927045822,0.798974096775,-0.0206976234913,-1.13119709492,-0.409137398005,0.562292039394,1.76100718975,-0.0518768206239,0.324820995331,1.03474545479,0.78935956955,0.288147956133,0.501355290413,0.38082882762,0.338478177786,2.65433430672,0.204204365611,0.261674940586,0.196721836925,0.277116507292,-0.383800089359,-0.818543195724,-0.352017462254,-0.644826173782,-0.777050316334,-0.573486566544,-0.332163721323,-0.402327984571,-0.23672349751,0.345128029585,0.301700353622,0.391773045063,-0.0524150729179,-2.15471386909,0.151434198022,-0.517483353615,-1.20127153397,-0.282836794853,0.568714082241,0.386150121689,0.562011837959,0.451888024807,1.66429889202,0.448357313871,0.331471294165,0.293116182089,0.423891186714,-0.451311141253,0.913891673088,1.90668737888,-0.356596440077,-1.44144976139,0.189767748117,0.174350425601,-0.0759215578437,-1.2531003952,0.358303248882,-0.122152402997,-0.180500611663,-1.97420108318,0.408342540264,1.33854424953,1.57280528545,-0.451813906431,-1.11361169815,-0.411442697048,-0.818784892559,-0.142051160336,-0.572343170643,-0.572330772877,-0.22956071794,-0.539356887341,-0.477669000626,-0.412686794996,0.253479093313,0.692224383354,0.213829576969,0.462286442518,2.05062317848,0.25504386425,0.155003100634,-0.118025906384,0.150663092732,-0.739119410515,-1.61880552769,-0.752112388611,-0.0496576279402,-0.644877970219,-0.19298607111,-0.280813932419,-0.905621230602,-0.0849119499326,0.328901946545,1.21983349323,0.280946284533,-0.298420608044,-0.311559468508,-0.421046078205,0.646899163723,2.2003467083,0.510050177574,-0.751066923141,-1.35656607151,-0.672293961048,-0.802746117115,2.35138773918,-0.689659833908,-0.281615287066,-0.509181797504,-0.319089859724,0.645862281322,2.17417502403,0.562900543213,0.0963716953993,-0.166364654899,0.157781943679,0.289999961853,0.117282286286,0.269324928522,0.135528877378,0.381360173225,0.178098812699,0.0510407872498,3.1265027523,0.0019463901408,0.164361566305,-0.282001614571,0.0938863381743,0.247242465615,0.972853243351,0.0730711296201,1.01975989342,0.984262406826,0.874793946743,0.410919547081,0.930354714394,0.333402007818,0.279354870319,0.67078268528,0.315669596195,0.319526255131,1.48260915279,0.22642454505,0.710641562939,0.361717432737,0.649691998959,0.122782073915,-0.217875510454,0.0606705471873,-0.0701756253839,4.40486335754,-0.0566535927355,0.128918111324,-0.268286496401,0.0350631400943,0.514674067497,1.02078580856,0.440764695406,0.443537861109,1.52608680725,0.294374167919,-0.00186486379243,-1.12537992001,-0.00727761769667,1.0220927,-0.232946902514,-1.18977999687,-0.176165655255,-1.32910645008,0.321372330189,-1.25019085407,0.228775456548,0.495983541012,-0.893100142479,0.969139754772,0.983902335167,1.26234591007,0.752063333988,0.461388319731,0.818718910217,0.111298680305,0.318908542395,0.0049644629471,0.488138198853,-0.449825078249,0.454924583435,0.894440352917,-0.145079448819,-0.437476694584,-0.460853546858,-2.48387336731,-1.05725204945,-0.702060043812,-0.212925493717,-0.695526778698,0.0632494315505,1.50120258331,-0.489280849695,0.409808903933,1.5197302103,-0.863213419914,-0.938652217388,-0.731300473213,-0.22338975966,-0.418918907642,-0.228818297386,-0.55881857872,0.233764305711,-0.470985233784,0.388622373343,0.563989400864,0.199131593108,0.413922399282,2.0215139389,0.39719119668,0.0870123952627,0.310508906841,0.00854040496051,-0.639796614647,-0.604648947716,-0.610960662365,-0.457486867905,-0.417646497488,-0.502622008324,-0.46081250906,-0.579767823219,-0.439243555069,-0.286898374557,-0.636376023293,-0.19077321887,-0.585561454296,-1.20938801765,-0.574513316154,-0.276530593634,-0.437108814716,-0.333143144846,0.582393348217,0.0222355425358,0.163423016667,1.01425588131,2.17583107948,-0.523499846458,-0.36465960741,-0.246162161231,0.15531386435,-0.629061996937,1.36378753185,0.349058061838,1.45266008377,-0.0769931524992,-0.961632072926,0.796311378479,-0.352295041084,-0.022493802011,1.04300022125,0.104041397572,-0.215941011906,1.84677886963,-1.72391998768,-0.929391562939,0.569404304028,0.555201530457,0.0624341927469,-0.394688159227,0.441279888153,1.34330356121,-0.56829482317,-0.842779517174,1.12637710571,-0.604357123375,-0.387246102095,0.733850181103,0.155619546771,-0.894748866558,0.691959142685,-0.25581651926,0.380842149258,2.37938523293,0.00180015340447,0.125429421663,-0.435762643814,0.126567080617,-0.560443639755,0.119330570102,-0.517953038216,-1.58047449589,-0.545657813549,0.179784074426,-0.566065311432,0.189435124397,0.303095430136,0.843445241451,0.364383906126,0.21043407917,1.8669346571,0.146843403578,0.16368457675,-0.152918383479,0.154687449336,-0.644005000591,-0.970962166786,-1.19361400604,0.483737140894,-0.677053749561,-1.0984839201,-0.108784772456,-0.10798831284,-0.241979286075,2.50682759285,1.6146030426,0.975695371628,0.381528198719,-0.675828337669,-0.397551745176,-0.0821991339326,-0.804858386517,-0.800165593624,-0.37645354867,-1.14075791836,-0.273392438889,-0.575699150562,-1.18578791618,-0.616394281387,-0.529325842857,-0.325859516859,-0.547468245029,0.278997033834,0.112761393189,0.217977270484,0.248014897108,2.34217381477,0.344451248646,0.606432318687,0.402873247862,0.471507072449,-0.97198343277,0.485658198595,0.319064855576,-2.37265586853,0.21798761189,1.53548657894,-0.584507882595,0.371209084988,0.212142944336,0.751501321793,2.01266264915,0.752170622349,0.0457080602646,-0.885458409786,0.103318147361,0.0305322632194,0.20522159338,-0.0392477288842,-0.572919011116,-1.26538538933,-0.54005408287,0.479718923569,-1.23074352741,0.45992577076,0.302470654249,0.797955453396,0.244918778539,0.391452014446,-0.363765448332,-0.38158890605,1.73083281517,-2.0240149498,0.421222835779,0.0593871288002,-0.353911101818,-0.0602891556919,-0.371069520712,-0.912006258965,-0.403245717287,-0.617455422878,3.45444774628,-0.647861897945,0.127396851778,-0.220143973827,0.141215533018,-0.215713813901,0.257152169943,-0.241060435772,-0.358738332987,3.49441862106,-0.329805135727,-0.0696439966559,-0.147227749228,-0.128299504519,0.218416467309,0.193289726973,0.212617352605,0.540605306625,2.03095650673,0.304620653391,0.225223913789,0.418937981129,0.2306791991,0.289064586163,-0.0101401237771,0.21123033762,1.49280822277,1.43072104454,1.49099612236,0.352724462748,-0.0857104063034,0.258272558451,-1.2245850563,-0.485876768827,-1.16566085815,0.148753747344,-1.13603389263,0.124092809856,0.792318224907,0.890295624733,0.786118447781,0.625948250294,0.279636412859,0.0581846423447,2.12316131592,-0.389037638903,-0.543980538845,0.239272102714,0.244087204337,0.02646384947,0.208260908723,0.635645270348,0.267666518688,0.33943477273,1.98428654671,0.419846951962,0.420926570892,0.410386383533,0.48579582572,-0.605718314648,-0.739479660988,-0.644932091236,-0.528101146221,-0.551230251789,-0.538460314274,-0.310788691044,-1.22306263447,-0.177976533771,0.337681055069,0.600228369236,0.329404592514,0.416880816221,2.57145309448,0.286739468575,0.112396143377,0.151643514633,-0.00683720363304,0.0941523164511,-0.0946519449353,0.0419888347387,-0.0140823293477,-3.32509708405,-0.0795395225286,-0.026813481003,-0.160556897521,0.101586706936,0.252055317163,-0.34168368578,0.447425216436,-0.194390892982,0.849784195423,1.16811084747,-0.366749793291,0.794795453548,0.888978481293,0.436043798923,-0.851113855839,0.430225938559,1.60491299629,-2.90737366676,1.33683216572,-0.220610201359,0.313145667315,-0.0852357149124,0.366827279329,-0.198942810297,0.315093845129,-0.311809062958,-0.231921285391,-0.371458470821,0.424479573965,1.6495462656,1.23197615147,-0.44536036253,-0.552307248116,-0.446221411228,-0.426343619823,-1.28221201897,-0.382560104132,-0.308209836483,-0.449597358704,-0.285958200693,0.649819374084,1.27672684193,0.653732061386,0.0513375364244,-1.55860090256,-0.0114580737427,-0.639907538891,-0.979559898376,-0.614382863045,0.199199125171,1.56462931633,0.337230265141,0.195139557123,0.98907405138,0.0780137181282,0.459500819445,-0.531236767769,0.621835052967,0.679688572884,1.82804048061,0.634868502617,-0.737537443638,-1.92565667629,-0.700461864471,-0.227997392416,-0.103159978986,-0.23160533607,0.405577778816,0.157508581877,0.204633414745,0.862572968006,2.04296326637,1.52476012707,0.229427933693,0.081867903471,0.727191030979,0.284309118986,0.279294013977,0.208693340421,-1.31569910049,-1.61334168911,-1.17400729656,-0.417325735092,-0.279397159815,-0.303421288729,1.65028500557,-0.151419013739,-0.542353332043,1.02860987186,-1.29649710655,-0.680317878723,-0.0986138805747,1.07310438156,0.534603059292,0.478342175484,1.07092726231,0.404544204473,0.614620625973,1.30461275578,0.503885865211,0.049221817404,0.0478072091937,-0.0415495596826,-0.238176435232,-0.115109585226,-0.00249587395228,1.42115473747,1.10949134827,-0.495099633932,0.854167163372,-0.301573723555,-0.00217917980626,-0.0297012683004,-0.823424398899,-0.298480838537,1.63336324692,-1.28870975971,-1.22650492191,-0.24463583529,-0.655264854431,-0.0955680459738,0.369632035494,1.83511221409,0.415659487247,-0.155806005001,0.130616277456,-0.15430355072,1.14828598499,0.707045733929,1.02963101864,-0.406944990158,-0.640802800655,-0.338881969452,-1.00347840786,-0.843888759613,-0.798285365105,-0.608518064022,-0.655611157417,-0.692808449268,0.292804539204,0.377593457699,0.353833705187,0.841802537441,1.68924605846,0.809049189091,0.484508007765,0.185682356358,0.38933584094,0.25698825717,1.18030035496,0.45683529973,-0.250068247318,1.61400687695,1.6115295887,0.0536346063018,0.0741483494639,-0.296366691589,1.19295620918,1.45206296444,1.21509706974,0.586492776871,-1.26292812824,0.436538755894,0.467726439238,-1.18711137772,0.487274706364,0.25442007184,0.174295097589,-0.0137945851311,1.11558532715,0.919616699219,-0.807578921318,1.2995121479,-0.824588596821,0.13762794435,-0.417311906815,-0.769367098808,-0.310457020998,-0.661890506744,-0.671751320362,-0.544101595879,-0.335112303495,-0.74397778511,-0.295208364725,1.04969465733,1.76282000542,0.993318378925,0.277869224548,-1.53661108017,0.324261754751,-0.626081645489,-1.2553832531,-0.653704345226,-0.257144480944,-0.620145738125,-0.242694348097,0.116061545908,1.86686313152,0.247613355517,0.381611794233,1.47010040283,0.380453646183,1.33326661587,1.03216409683,0.405845701694,1.39789950848,-1.57023119926,-0.339950412512,0.69516479969,-0.516355514526,-0.717751145363,0.488333463669,1.23447656631,0.493181824684,0.364756792784,-0.11389888078,0.450884222984,-0.39730733633,-2.97883462906,-0.71022695303,0.582728803158,1.19462227821,0.423224508762,0.232552275062,-1.96080219746,0.163064986467,-0.26028329134,-0.704292714596,-0.267367959023,0.107973210514,1.01401376724,0.116095200181,0.0222640037537,2.69479584694,-0.0138317178935,-0.184622660279,-0.828346848488,-0.203095301986,0.170129492879,-0.527305603027,0.164833307266,0.378624081612,1.59841072559,0.291177123785,0.450692951679,1.37548410892,0.367582440376,-0.0256478376687,-0.547155678272,-0.149214297533,-0.628320515156,-1.50805127621,-0.663180589676,0.0128934560344,0.729492664337,0.135740220547,0.0245072059333,-0.66924059391,0.164028510451,0.156144872308,3.40467715263,0.0393565110862,0.445387035608,0.735401451588,0.507108807564,-1.05498862267,-1.88225924969,-1.06390035152,-0.650234222412,2.8090364933,-0.71531355381,-0.330298811197,0.583067059517,-0.314934819937,-0.0642877444625,-0.736340224743,0.051723189652,-0.557963013649,-2.06281328201,-0.501924157143,0.0349361486733,-0.402149289846,0.0596711821854,0.816020846367,1.09593820572,0.80297011137,0.288685441017,-1.85170686245,0.360661834478,0.44383713603,-0.560788869858,0.306931108236,1.24021816254,1.10260975361,-0.161139622331,1.03084182739,1.72391235828,-0.0311255399138,-0.935791015625,-0.368602246046,0.057897631079,0.0270192138851,-0.0749780163169,0.0372787751257,0.528768181801,-3.77109670639,0.719862520695,0.19763186574,1.09340977669,0.310529530048,0.289102256298,-0.223426997662,0.215218558908,0.296284914017,-0.17102253437,0.333333730698,0.839006662369,1.89813673496,0.735819995403,0.525207638741,1.37038683891,0.10538700968,-0.329709231853,-2.31949305534,0.985507309437,-0.503742277622,-0.122154861689,0.739007472992,-0.676600813866,0.332484275103,-0.557645738125,-1.05139183998,-0.977250814438,-1.00517916679,0.132666051388,-0.180774658918,0.156993821263,2.54465293884,-0.34831649065,-0.420881927013,1.79700267315,-0.59548842907,-0.413315951824,-0.311257570982,-0.447021692991,-0.28432148695,-0.228098869324,-0.591741859913,-0.167797252536,0.234717145562,-2.28362512589,0.449841082096,-0.298429727554,-0.542264044285,-0.208135142922,0.486894458532,1.54858028889,0.459970653057,0.959671139717,-0.438100278378,0.975558996201,0.172880247235,-0.214876055717,0.10669478029,-0.357218921185,0.680554032326,-0.44357702136,-0.645287632942,1.31692910194,-0.617042005062,-0.903331935406,-1.91424131393,-0.870537996292,-0.224353969097,-0.238461300731,-0.127862095833,-0.265143066645,4.06476688385,-0.384569436312,-0.138415068388,-0.554115355015,-0.0979073643684,-0.193756118417,-1.24268603325,0.278816431761,0.241890400648,-1.43418204784,0.667769610882,0.0228411667049,-1.2346804142,0.44425034523,0.283819705248,0.405500769615,0.203791350126,0.205768346786,2.61586117744,0.0831993669271,0.00824949517846,0.0531257800758,-0.0426264479756,0.172903060913,-0.132598370314,-0.389127969742,0.809160232544,0.800014197826,0.866901874542,0.769478678703,1.24633181095,0.756935894489,0.468841642141,-0.940182030201,0.621620416641,0.774102807045,0.527020514011,0.736995458603,0.562915861607,0.918272137642,0.545283973217,-0.891461610794,-0.442546665668,-0.6168166399,-0.308743953705,-0.4471988976,-0.356714755297,-0.510654449463,-0.637640357018,-0.537225842476,0.268316447735,-0.363635838032,0.221644774079,0.333032757044,2.43380665779,0.174319118261,-0.384068638086,-1.53622233868,-0.305416792631,0.716834068298,-0.0123405456543,0.467988312244,-0.629113912582,0.693524718285,-0.282996088266,1.10770118237,1.81578207016,0.777609884739,-0.133914276958,0.213821336627,0.587196111679,-1.70510780811,-0.0769074931741,2.44336748123,0.239693552256,0.204313978553,0.0255612786859,0.129907652736,0.499101191759,0.0525757260621,0.00928068719804,3.89919710159,-0.110825955868,-0.0371219851077,-0.493703365326,-0.0275813415647