-0.646773636341,-0.385096430779,-0.596492111683,-0.417022526264,-0.241128697991,-0.379284322262,-0.510417699814,-0.314430892467,-0.469516485929,-0.452374339104,-0.322053700686,-0.415933310986,-0.395166814327,-0.256714850664,-0.374783754349,-0.452964961529,-0.370831698179,-0.411932557821,-0.591827213764,-0.399894893169,-0.527262032032,-0.439231187105,-0.223879307508,-0.418578058481,-0.503533363342,-0.354332119226,-0.455151170492,-0.524495005608,-0.288683116436,-0.483015716076,-0.354809850454,-0.140136554837,-0.328595876694,-0.504093647003,-0.285691022873,-0.463464558125,0.634629070759,0.436412453651,0.58774715662,0.446160078049,0.271255522966,0.423273354769,0.501142442226,0.322560071945,0.469083547592,-0.553772926331,-0.362830132246,-0.499913394451,-0.390093803406,-0.173948988318,-0.361260801554,-0.482080817223,-0.309628397226,-0.451494276524,-0.406508088112,-0.5899964571,-0.385910123587,-0.527244210243,-0.52475643158,-0.538486242294,-0.510989367962,-0.616199314594,-0.44342559576,-0.543105721474,-0.344600141048,-0.507709801197,-0.40260386467,-0.21525362134,-0.386647462845,-0.485857456923,-0.316898971796,-0.465259164572,-1.32515108585,0.2487706393,0.700019299984,-0.905272245407,0.446028888226,0.556352257729,-1.32766103745,0.195987015963,0.709904670715,0.645833492279,0.42194890976,0.598307847977,0.452896475792,0.267810583115,0.435417205095,0.528277218342,0.340738236904,0.499651134014,-0.52517914772,-0.419545203447,-0.496823877096,-0.423303306103,-0.32637566328,-0.412525832653,-0.419110506773,-0.344011873007,-0.387037098408,-0.559391736984,-0.416189819574,-0.497285723686,-0.41643422842,-0.250068038702,-0.388377815485,-0.525844633579,-0.40832850337,-0.461299806833,0.707227945328,0.409239798784,0.628447830677,0.445942640305,0.217713221908,0.410965502262,0.547335624695,0.304219782352,0.50274091959,-0.558041453362,-0.333583474159,-0.534418463707,-0.405361056328,-0.221385806799,-0.387189298868,-0.498877346516,-0.310929477215,-0.476502209902,-0.616344094276,-0.359264194965,-0.555864453316,-0.416499704123,-0.197739675641,-0.36798530817,-0.528797030449,-0.350602418184,-0.489289402962,0.611346185207,0.410165905952,0.593209564686,0.445835202932,0.261266350746,0.422303557396,0.57957559824,0.390594154596,0.570892691612,0.848649382591,0.675018131733,0.799097776413,0.773763477802,0.394997835159,0.49979275465,-1.27100467682,0.680227398872,0.486145347357,0.487701386213,0.302659630775,0.446342796087,0.404654890299,0.231136411428,0.399498850107,0.523573160172,0.347268521786,0.481664896011,-1.11848020554,-0.291353166103,-1.01483201981,-0.653909385204,-0.54078400135,-0.655157446861,1.09421932697,0.642825424671,1.03103673458,-0.558647811413,-0.421684712172,-0.49247866869,-0.423303902149,-0.215828835964,-0.392811357975,-0.463258236647,-0.411602467299,-0.436514258385,-0.498399585485,-0.459245592356,-0.437784284353,-0.537800729275,-0.403995782137,-0.52751904726,-0.328887164593,-0.483328849077,-0.286246657372,1.6472812891,0.696927666664,1.55070197582,-0.889103531837,-0.761022269726,-0.907117426395,-0.827160418034,-0.553466141224,-0.729875147343,0.849237203598,0.729286074638,0.745555639267,0.611169397831,0.397344589233,0.765319705009,0.61013764143,0.739026427269,0.311280876398,0.54076474905,0.340982168913,0.506336450577,0.430398821831,0.254986464977,0.410275280476,0.503633141518,0.331253707409,0.462255269289,-0.570890069008,-0.399397432804,-0.511364936829,-0.500994682312,-0.286435335875,-0.468083530664,-0.500616848469,-0.326670587063,-0.462733179331,0.497548609972,0.348044604063,0.462600320578,0.434995114803,0.264500826597,0.402241528034,0.564682543278,0.392919540405,0.526722967625,-0.601562321186,-0.331669956446,-0.559633076191,-0.378833204508,-0.106633730233,-0.334816962481,-0.572313547134,-0.345616549253,-0.538438975811,0.759030580521,0.795354008675,-0.874727725983,0.55890005827,0.592139542103,0.654249250889,0.778803646564,0.802294015884,-1.36585891247,0.716426968575,0.465233147144,0.667663633823,0.447577446699,0.263038575649,0.42660972476,0.575214743614,0.338832587004,0.535643458366,0.642184972763,0.353839725256,0.608352124691,0.525384306908,0.263144701719,0.505572795868,0.650200307369,0.334489971399,0.607766509056,0.692704200745,0.402871549129,0.661237239838,0.394725561142,0.209477216005,0.377900868654,0.541869580746,0.313936799765,0.512102246284,0.558824062347,0.292994827032,0.520471036434,0.552180290222,0.277546226978,0.511525273323,0.68034029007,0.45571655035,0.608991682529,-0.542070508003,-0.353038579226,-0.507231116295,-0.379600971937,-0.198640584946,-0.365789681673,-0.47062766552,-0.309219956398,-0.427210301161,0.794863045216,0.517375588417,0.726591527462,0.580451667309,0.301233798265,0.5547914505,0.716764032841,0.404965847731,0.691865503788,-0.529646217823,-0.352255612612,-0.477496385574,-0.339529514313,-0.202656909823,-0.317375332117,-0.492574989796,-0.346482515335,-0.458903551102,-0.588101387024,-0.329210221767,-0.540222406387,-0.357852518559,-0.0980029553175,-0.348903566599,-0.527755737305,-0.283028274775,-0.48519974947,-0.49200540781,-0.354455441236,-0.461995750666,-0.377482622862,-0.242315635085,-0.356598854065,-0.489948451519,-0.336499899626,-0.441582113504,0.577848374844,0.729758501053,0.478163450956,0.666254997253,0.560097455978,0.651521801949,0.805977344513,0.767440676689,0.713961243629,-0.564095497131,-0.347622841597,-0.518403232098,-0.370060771704,-0.198178961873,-0.338211774826,-0.466996043921,-0.314850717783,-0.436049729586,0.606782913208,0.381141990423,0.55540060997,0.431855559349,0.25066781044,0.40166002512,0.584921717644,0.369675755501,0.550995707512,-1.29167449474,-0.747376680374,-1.2114866972,-0.606770396233,-0.390706062317,-0.575419843197,1.11751759052,0.746868371964,1.00251233578,1.28460431099,0.787346661091,1.17722785473,-0.656943500042,-0.277582138777,-0.599284052849,-1.04427742958,-0.530523180962,-0.909119784832,-1.07461929321,0.772758185863,-1.32499206066,0.664118885994,0.592220664024,0.605240523815,-1.13322377205,0.456126153469,-1.09381663799,0.581275641918,0.375831246376,0.531338632107,0.485088795424,0.276314675808,0.45896974206,0.5616787076,0.394278794527,0.538534283638,0.573652982712,0.427528142929,0.50418227911,0.483718603849,0.309619128704,0.446192532778,0.589783012867,0.469464689493,0.520437657833,-0.569922685623,-0.307377010584,-0.521587669849,-0.455298870802,-0.21831381321,-0.433218419552,-0.593116462231,-0.327244848013,-0.543108463287,-0.948946297169,0.0893282070756,-0.892025828362,0.81934261322,0.578751087189,0.750414907932,1.01902675629,0.606350183487,0.957798659801,-0.641709148884,-0.41772004962,-0.592237710953,-0.434093445539,-0.222097352147,-0.392086803913,-0.600368022919,-0.390865504742,-0.566959023476,-2.45309352875,-0.764393746853,-2.26750063896,0.513063132763,0.171316877007,0.510824263096,0.407827973366,0.211143642664,0.303561240435,0.6487672925,0.375718086958,0.606017410755,0.480157285929,0.279097169638,0.466393977404,0.533634483814,0.342147141695,0.510380327702,0.529091656208,0.357141256332,0.501173257828,0.443764418364,0.292191267014,0.431107223034,0.50805157423,0.35738709569,0.481436729431,-0.507774829865,-0.430502921343,-0.467673718929,-0.525330781937,-0.453906029463,-0.497742563486,-0.402789950371,-0.442424297333,-0.363977700472,-0.542348980904,-0.391726046801,-0.484026283026,-0.470209479332,-0.19972859323,-0.443235039711,-0.55546194315,-0.401839673519,-0.493761241436,0.0360326617956,0.0257026739419,0.0329163521528,0.0324581451714,0.0236837621778,0.0309156961739,0.0394908674061,0.0302702691406,0.0390438884497,-0.481173247099,-0.442842364311,-0.412094563246,-0.480549097061,-0.290336161852,-0.477049827576,-0.411002963781,-0.409680694342,-0.359573096037,-0.458134561777,-0.280033737421,-0.423141002655,-0.339063376188,-0.19631074369,-0.320686370134,-0.441446393728,-0.29577922821,-0.411118239164,-1.31951594353,0.0267660226673,1.25252079964,-0.653540849686,-0.230356544256,0.42186486721,-1.48763215542,0.250163763762,1.19126868248,0.569258987904,0.322285830975,0.518613696098,0.505382239819,0.271035164595,0.48210054636,0.609188616276,0.379985541105,0.572559535503,0.655675053596,-0.478879153728,-1.99779713154,0.313612937927,0.0857226401567,-0.949636280537,0.547076642513,0.179513156414,-2.03549289703,-0.545448184013,-0.332964718342,-0.500297725201,-0.358781129122,-0.137380719185,-0.334297448397,-0.483650296926,-0.292493492365,-0.450963795185,-0.642883360386,-0.368233859539,-0.578686177731,-0.360313653946,-0.0817575007677,-0.325900495052,-0.519978940487,-0.31570199132,-0.483267992735,0.657770991325,0.331110775471,0.626831531525,0.48691239953,0.222394630313,0.457676798105,0.664933204651,0.40111887455,0.637513399124,-0.535062372684,-0.326666355133,-0.489671707153,-0.377575486898,-0.210353508592,-0.369197100401,-0.467443525791,-0.305720537901,-0.427172124386,0.635256171227,0.632869124413,0.589965522289,0.695936560631,0.331329107285,0.673197031021,0.644102215767,0.548449635506,0.595288395882,-1.636089921,0.265210717916,0.293234676123,0.303790181875,0.21517701447,0.261033952236,-2.06524348259,0.281873971224,0.31386744976,-0.526685774326,-0.350414603949,-0.491485238075,-0.403637081385,-0.247495830059,-0.368682056665,-0.439556896687,-0.316307365894,-0.399026989937,-0.681107342243,-0.464442104101,-0.622406601906,-0.464485913515,-0.160491257906,-0.439020037651,-0.515872776508,-0.399280518293,-0.492064893246,-0.612617433071,-0.24625018239,-0.538832724094,-0.839966595173,-0.325502485037,-0.799326658249,1.22037661076,0.773210227489,1.12637150288,0.656230390072,0.525303959846,0.58701723814,0.499848872423,0.48122754693,0.462705820799,0.465429455042,0.481618851423,0.420141011477,-0.516560912132,-0.287635356188,-0.476215779781,-0.376558631659,-0.135995432734,-0.354770898819,-0.543429553509,-0.293590992689,-0.502238333225,-0.507852435112,-0.355785936117,-0.465846925974,-0.417048543692,-0.292068481445,-0.394033163786,-0.497931629419,-0.388439059258,-0.470888376236,1.27132034302,0.683742165565,1.21389567852,-0.635105133057,-0.383481472731,-0.622414469719,-1.16757321358,-0.489585489035,-1.0355733633,0.702325105667,0.454922616482,0.637963116169,0.428253740072,0.267712891102,0.374225854874,-2.1943693161,0.292644679546,0.265315949917,0.53295058012,0.324737250805,0.505557179451,0.442234158516,0.244513303041,0.404466927052,0.550223350525,0.361438274384,0.524370729923,-0.529100716114,-0.37136939168,-0.487816661596,-0.414535522461,-0.267466127872,-0.401855945587,-0.487557172775,-0.348398059607,-0.440614044666,-0.849459707737,-0.297118574381,-0.807390272617,0.833113849163,0.686055958271,0.782993376255,-0.365563094616,0.172085508704,-0.307774364948,0.67235070467,-1.33311915398,0.6832010746,0.931149125099,-1.08318793774,0.91672372818,0.633262813091,-1.34338390827,0.615996301174,-0.489835232496,-0.371844738722,-0.45679333806,-0.409736275673,-0.280888587236,-0.396354824305,-0.451100438833,-0.336301654577,-0.428870767355,-0.54866874218,-0.415177971125,-0.506920158863,-0.436596304178,-0.321075230837,-0.408561348915,-0.441187828779,-0.376442700624,-0.40987443924,-0.492671281099,-0.330261230469,-0.442580848932,-0.343870490789,-0.178993567824,-0.334323972464,-0.495729804039,-0.359073728323,-0.454986184835,-1.02797818184,-0.301906496286,-0.96339738369,-0.733490467072,-0.312519103289,-0.661280810833,1.05271708965,0.841661572456,0.993946671486,-1.04957473278,-0.360579669476,-0.987466931343,-0.646761596203,-0.461696535349,-0.632633030415,1.1132889986,0.784827530384,1.07437264919,-0.940816819668,-0.298921108246,-0.893483519554,-0.547914862633,-0.540647566319,-0.526720941067,1.05901730061,0.571992874146,1.03204119205,0.93991702795,0.495824754238,0.875373005867,-0.470276921988,-0.169920057058,-0.413225769997,-1.38912034035,-0.688671350479,-1.32071113586,0.54786002636,0.419750869274,0.514843523502,0.457880854607,0.324738830328,0.440860837698,0.522481501102,0.397278785706,0.491387635469,0.599576354027,0.362416148186,0.558330178261,0.522023916245,0.245040729642,0.500193238258,0.461300939322,0.192837670445,0.440487086773,-0.62368786335,-0.385869532824,-0.593248486519,-0.400141149759,-0.246314287186,-0.382339894772,-0.497487396002,-0.323820412159,-0.442930757999,0.513944387436,0.314510911703,0.481652081013,0.475529104471,0.257872134447,0.444763928652,0.542352676392,0.38050866127,0.49263894558,-0.518564522266,-0.293047457933,-0.487084776163,-0.408209264278,-0.209155276418,-0.393017619848,-0.518479168415,-0.28913295269,-0.482624560595,-0.47213190794,-0.459411412477,-0.396586865187,-0.545471489429,-0.626022875309,-0.544769823551,-0.320220708847,-0.462774932384,-0.311768651009,0.602054357529,0.415667206049,0.549422264099,0.468296080828,0.289910942316,0.441522300243,0.579174041748,0.415526211262,0.544730782509,0.588369369507,0.398790419102,0.560755848885,0.455136179924,0.265620559454,0.441905409098,0.516953468323,0.35907047987,0.493297308683,-0.0240112449974,0.991155385971,-0.108529664576,0.404865860939,1.36198079586,0.3441632092,0.111181356013,1.2186422348,0.0789308845997,0.498906672001,0.336027681828,0.466690510511,0.39938980341,0.238660156727,0.373201131821,0.488872736692,0.332731634378,0.465459465981,-0.481632739305,-0.358805716038,-0.438147813082,-0.405412375927,-0.279041647911,-0.384659677744,-0.448228001595,-0.352976948023,-0.410564273596,0.808539092541,0.618941664696,0.826542139053,0.874752879143,0.346166074276,0.571121692657,-0.40770560503,0.733890593052,0.465829282999,0.573751270771,0.401415169239,0.524116873741,0.51426422596,0.318503886461,0.475234806538,0.631926298141,0.481897264719,0.585346758366,0.846465706825,0.7462413311,0.613413393497,0.696600079536,0.379107058048,0.913194417953,0.74670290947,0.879231274128,-0.190543755889,-0.497896373272,-0.347115188837,-0.452074289322,-0.375818699598,-0.226839125156,-0.363053172827,-0.525195240974,-0.346230894327,-0.485311061144,-0.603100478649,-0.377662152052,-0.551207005978,-0.41310608387,-0.191534370184,-0.405338317156,-0.579297542572,-0.457158207893,-0.529986977577,-0.557505249977,-0.378519326448,-0.506173193455,-0.426325172186,-0.276245355606,-0.399516135454,-0.513474404812,-0.354955852032,-0.466281652451,0.587663531303,0.519305765629,0.545723199844,0.419843941927,0.31919169426,0.376421689987,0.48932120204,0.404895663261,0.452450722456,1.06450629234,-0.365444689989,-1.24500346184,0.711405456066,-0.0372769683599,-0.635106623173,1.0462924242,-0.359729796648,-1.03360426426,0.532728612423,0.480922967196,0.503944039345,0.491247415543,0.426647156477,0.469791829586,0.476237267256,0.416682183743,0.446091234684,1.18269109726,0.956766724586,1.06696867943,-0.812980532646,-0.39287930727,-0.731464028358,-1.05131268501,-0.487918436527,-0.967212915421,-0.787446081638,1.27469027042,-1.11240112782,-0.427104383707,0.709590137005,-0.369475245476,-0.961258232594,1.26676619053,-0.91330820322,0.959608495235,-0.501236438751,-1.42890429497,0.807541906834,-0.329540640116,-0.598936796188,0.976686656475,-0.510359168053,-1.26018595695,-1.19360589981,-0.637105047703,-1.1239515543,-0.461328297853,-0.265089511871,-0.471600323915,1.19538116455,0.60277146101,1.12816476822,-0.553052067757,-0.320962041616,-0.520366430283,-0.35797855258,-0.147788316011,-0.3339664042,-0.492270231247,-0.327079415321,-0.440839499235,-0.478827267885,-0.455031603575,-0.414747834206,-0.436338573694,-0.282175511122,-0.415499031544,-0.406452327967,-0.453296542168,-0.361436456442,-0.489791840315,-0.316390901804,-0.454452127218,-0.403295755386,-0.228795915842,-0.377109736204,-0.448247253895,-0.258421093225,-0.408613830805,0.67911440134,0.385503649712,0.618790566921,0.4139739573,0.226140633225,0.390930563211,0.666391909122,0.389830350876,0.606793940067,-0.545282900333,-0.357802718878,-0.49701499939,-0.450665473938,-0.245488107204,-0.41540530324,-0.465714871883,-0.288491934538,-0.418564379215,-0.560764253139,-0.308158695698,-0.523018419743,-0.34845083952,-0.069718465209,-0.304017752409,-0.548297047615,-0.308697640896,-0.512753009796,0.619237184525,0.452828019857,0.555280923843,0.451051235199,0.299681276083,0.435649007559,0.555915772915,0.420209288597,0.510890007019,0.555743634701,0.344838678837,0.531392276287,0.424324929714,0.223382934928,0.402610689402,0.518600046635,0.329968005419,0.496911555529,-0.130357891321,-0.169621556997,-0.0453440025449,0.422890633345,0.0434659346938,0.348829507828,1.49571955204,0.777659475803,1.36260581017,-0.242135837674,-0.361803114414,-0.166720837355,-0.279593616724,-0.739802062511,-0.283208280802,2.51756358147,1.08156585693,2.32175016403,0.601983129978,0.420521438122,0.574768900871,0.564993798733,0.360850006342,0.546256899834,0.654758393764,0.485109239817,0.631667733192,-0.671595394611,-0.421951055527,-0.580180764198,-0.413020968437,-0.235282346606,-0.395429730415,-0.524444878101,-0.382043153048,-0.463027119637,-0.48248231411,-0.310688495636,-0.464894860983,-0.350802928209,-0.155469834805,-0.341494053602,-0.526876568794,-0.313119292259,-0.491970509291,-0.634362339973,-0.441724151373,-0.552431285381,-0.395404815674,-0.280066072941,-0.35932174325,-0.469041734934,-0.401288121939,-0.429046303034,1.22851872444,0.763286828995,1.1717236042,-0.361052304506,-0.245179980993,-0.349745303392,-0.860242903233,-0.558567941189,-0.800459563732,-0.517618715763,-0.386273533106,-0.487118452787,-0.404766947031,-0.280008018017,-0.363365203142,-0.50790822506,-0.361000418663,-0.477711379528,-0.608659863472,-0.345265299082,-0.540799200535,-0.372578650713,-0.181655585766,-0.343823373318,-0.58705842495,-0.371277719736,-0.530239343643,-0.830270111561,-0.251843631268,-0.750118374825,-0.853836655617,-0.308083057404,-0.800010204315,1.38710308075,0.75918674469,1.28707826138,-0.489967018366,-0.327922940254,-0.433470219374,-0.478977620602,-0.278897643089,-0.42162129283,-0.526095628738,-0.389369875193,-0.486337780952,-0.55430585146,-0.39359909296,-0.507730901241,-0.417150437832,-0.205316007137,-0.39025464654,-0.515139639378,-0.332411795855,-0.479197978973,0.567235708237,0.39485129714,0.530190885067,0.466523438692,0.310798853636,0.435424298048,0.5676856637,0.444649219513,0.522089123726,-0.579603075981,-0.3349134624,-0.519493758678,-0.382088273764,-0.167218238115,-0.385475575924,-0.535545527935,-0.336795389652,-0.490902483463,-1.016954422,-0.71880120039,1.13812696934,-0.426729142666,-0.467378288507,0.858865499496,-0.880176126957,-0.67306804657,1.05666637421,-0.50508671999,-0.439118474722,-0.442297816277,-0.407698869705,-0.339637219906,-0.399148464203,-0.523230552673,-0.434631437063,-0.473367869854,-0.708574533463,-0.334064543247,-0.66548615694,-1.06299173832,-0.671886742115,-0.970141351223,1.35241699219,0.758073210716,1.25132226944,-0.505038499832,-0.341233789921,-0.472139567137,-0.411842703819,-0.248273491859,-0.373779803514,-0.510870456696,-0.326226174831,-0.460345745087,-1.02971208096,-1.0650177002,-0.858935832977,-0.771213948727,-0.661137163639,-0.70128428936,1.30351996422,0.769756197929,1.23806869984,-0.878851056099,0.727139651775,0.53927731514,0.877892374992,0.388682842255,0.601662933826,0.756868898869,0.696243822575,0.746485471725,-0.51679366827,-0.319362789392,-0.480594485998,-0.354057282209,-0.114706486464,-0.338349878788,-0.533266544342,-0.351174175739,-0.48449665308,-1.35745322704,-0.0487588569522,0.638957440853,-0.804258227348,0.0180408712476,0.331154465675,-1.30278229713,-0.0308474581689,0.636056184769,-0.595191895962,-0.428079992533,-0.550059914589,-0.391324341297,-0.224685713649,-0.370957046747,-0.502581417561,-0.377679735422,-0.448298186064,-0.510237574577,-0.337180644274,-0.458680450916,-0.383909285069,-0.198385700583,-0.366569757462,-0.57445782423,-0.364545196295,-0.536809146404,-1.87178134918,0.304767847061,-1.88887608051,0.259992271662,-0.0631663203239,0.363389760256,-1.93013989925,0.362988084555,-1.85163283348,0.476001262665,0.276977658272,0.436873167753,0.350670367479,0.194602146745,0.327190458775,0.487060785294,0.28168079257,0.455432653427,0.897519886494,1.04797530174,-0.439851433039,0.806332707405,0.514543056488,1.123513937,0.909171164036,0.937183380127,0.548114418983,-1.24739539623,-0.40794762969,0.968081116676,-0.807323217392,-0.324477136135,0.590651512146,-1.31263458729,-0.62698328495,1.07707858086,0.921117961407,0.653311789036,0.847523927689,0.720349609852,0.345346391201,0.672699272633,0.781086683273,0.468432247639,0.718256533146,1.16418993473,0.835592150688,1.08846604824,-0.783551335335,-0.329500466585,-0.752138257027,-0.71652930975,-0.537418007851,-0.640335202217,1.09900569916,0.663510859013,1.04506778717,-0.49658074975,-0.132838994265,-0.477489978075,-1.04403948784,-0.528996169567,-0.934146940708,0.56404042244,0.362280577421,0.51114743948,0.494615614414,0.313150972128,0.47701728344,0.615526199341,0.453323870897,0.559753775597,0.849483847618,0.489864736795,0.800629854202,0.614886701107,0.257607370615,0.57972741127,0.591908931732,0.298728525639,0.55349868536,-0.599902451038,-0.422989338636,-0.567987561226,-0.445113420486,-0.282262057066,-0.409401357174,-0.516407370567,-0.36665686965,-0.486568570137,-0.577679753304,-0.33119314909,-0.534867107868,-0.374759405851,-0.17393861711,-0.346314430237,-0.555768847466,-0.316095799208,-0.513673305511,1.54428446293,0.926358401775,1.44538414478,-0.246963635087,0.173853158951,-0.233129546046,-0.934994757175,-0.642327368259,-0.866130709648,-0.964710056782,-0.271901577711,-0.865459620953,-0.588818311691,-0.262652367353,-0.574471354485,0.993816256523,0.781529247761,0.943693995476,0.958227336407,0.621863424778,0.898568689823,-0.392333507538,0.00552611472085,-0.335297584534,-1.14612424374,-0.373110920191,-1.05714225769,1.36056602001,0.83128708601,1.23511075974,-0.723696410656,-0.545554220676,-0.663616001606,-1.21113348007,-0.444299280643,-1.0576415062,0.972141861916,-0.497067183256,-0.895183324814,0.5494094491,-0.161188617349,-0.36126345396,1.02095007896,-0.514641880989,-0.732769191265,0.581492245197,0.491613119841,0.529238283634,0.477725476027,0.373636692762,0.452679604292,0.510102689266,0.458626121283,0.464462310076,-0.570114970207,-0.348401218653,-0.515401959419,-0.31874987483,-0.147659480572,-0.313417673111,-0.506030440331,-0.310710668564,-0.46478998661,1.8603913784,0.610915839672,1.76103365421,-0.217075332999,-0.612025260925,-0.152996122837,-0.359563827515,-1.41308748722,-0.410277336836,-0.507489383221,-0.372795641422,-0.471627771854,-0.397434234619,-0.273391902447,-0.387496858835,-0.395977169275,-0.327175825834,-0.365792453289,0.666561722755,-0.697917222977,-1.42563021183,0.45260733366,-0.284749448299,-0.806344151497,0.434149712324,0.179758355021,-1.88718414307,-0.578747987747,-0.429738044739,-0.512709379196,-0.377426207066,-0.208174780011,-0.353377223015,-0.483029603958,-0.329336225986,-0.43174675107,1.08887255192,-0.932674765587,-0.436089068651,0.71072614193,-0.522359073162,-0.309564471245,0.983014822006,-0.891292333603,-0.233949765563,0.580505311489,0.366794079542,0.547259926796,0.474884212017,0.263395607471,0.448810368776,0.534853160381,0.342543333769,0.499008595943,-0.766360640526,-0.311286717653,-0.740157365799,-1.0492784977,-0.53666549921,-0.921900689602,1.27044212818,0.718087434769,1.14098596573,-0.913392841816,0.793017148972,-1.00450205803,0.659860670567,1.01146173477,0.702270805836,-0.79124557972,0.631442666054,-0.849575519562,0.546138525009,0.439825743437,0.515542984009,0.44438713789,0.321113198996,0.425772368908,0.460831284523,0.355233192444,0.405145764351,-0.570201516151,-0.35468262434,-0.537801146507,-0.359836637974,-0.112823352218,-0.34667557478,-0.528789401054,-0.347563177347,-0.49788916111,-0.553366005421,-0.410730689764,-0.512062430382,-0.424512475729,-0.220532506704,-0.393242746592,-0.48428568244,-0.397155672312,-0.441745132208,0.732659995556,0.301823347807,0.772650659084,0.389809757471,0.371972888708,0.430839240551,0.645416378975,0.5305544734,0.640789270401,-1.48084354401,-0.687291622162,-1.34459364414,-0.46446582675,-0.31822758913,-0.424763172865,1.04540550709,0.590703368187,1.01179528236,-0.608568191528,-0.373751670122,-0.531237304211,-0.384937226772,-0.154163852334,-0.35997697711,-0.526313841343,-0.348814994097,-0.458603739738,-0.539649546146,-0.340035885572,-0.488778948784,-0.38896343112,-0.147330105305,-0.38446444273,-0.530777156353,-0.351757496595,-0.503900170326,-0.534133315086,-0.340075492859,-0.504104077816,-0.375912219286,-0.156809806824,-0.357824087143,-0.48272767663,-0.316094815731,-0.439141184092,-0.942622542381,-0.584905207157,-0.706035673618,0.599333941936,0.377038538456,0.591186463833,0.762796342373,0.486240357161,0.729385912418,-0.576404631138,-0.383853763342,-0.535339355469,-0.416352540255,-0.251757144928,-0.397700786591,-0.477212518454,-0.298199534416,-0.439779430628,-0.566125631332,-0.363547474146,-0.51726526022,-0.379536509514,-0.220147848129,-0.356989622116,-0.470742762089,-0.324827522039,-0.424742311239,0.796889364719,0.633506298065,0.749429106712,0.611984491348,0.424261391163,0.618127703667,0.651446223259,0.496392756701,0.607430160046,-0.601176917553,-0.39877346158,-0.542770326138,-0.410027563572,-0.21519677341,-0.374931156635,-0.515212655067,-0.35333481431,-0.474634408951,-0.896289348602,-0.469936192036,-0.820418834686,-0.546822786331,-0.260215818882,-0.539402425289,1.11623227596,0.75515204668,1.07795989513,0.0312358122319,0.340513974428,0.201082035899,0.114773645997,0.342242121696,0.291446775198,-0.343383163214,0.309339672327,0.135441824794,-0.816739857197,-0.169545993209,-0.720840632915,-0.49761646986,-0.0329038091004,-0.458499282598,1.3429749012,0.809350073338,1.27310681343,-0.534121930599,-0.358105123043,-0.509152710438,-0.396137535572,-0.220986440778,-0.384216308594,-0.470362693071,-0.331304162741,-0.452912271023,-0.511482954025,-0.344812244177,-0.478229999542,-0.348233968019,-0.194655895233,-0.348168641329,-0.503353953362,-0.313077062368,-0.471351891756,-0.870561420918,-0.456523537636,-0.827488422394,-0.779758751392,-0.799792468548,-0.639462709427,1.63035285473,0.796033024788,1.51238262653,-0.523974657059,-0.3511030972,-0.476645469666,-0.371601760387,-0.150309130549,-0.352806538343,-0.494650095701,-0.335962802172,-0.444926708937,-0.599435687065,-0.449848711491,-0.558846414089,-0.445064008236,-0.249921500683,-0.419075280428,-0.527552127838,-0.467832863331,-0.486566990614,0.620060265064,0.382906019688,0.569449007511,0.490087985992,0.287568539381,0.462271124125,0.541073858738,0.338338404894,0.50132137537,-0.87140250206,-0.840975880623,1.30156433582,-0.31372526288,-0.377001941204,0.908545851707,-0.785471796989,-0.771950483322,1.15917658806,-0.653676688671,-0.366164177656,-0.634333312511,-0.414312034845,-0.193965837359,-0.405699461699,-0.540989339352,-0.267347693443,-0.505925536156,-0.568353533745,-0.361204564571,-0.512803077698,-0.383487999439,-0.176304936409,-0.348825186491,-0.472205042839,-0.318546354771,-0.42818287015,0.531938612461,0.283220738173,0.499485254288,0.422294735909,0.197892010212,0.394323289394,0.510287642479,0.271021813154,0.479561775923,0.0416901670396,0.0282788015902,0.039765227586,0.0396440438926,0.0292171351612,0.0380875654519,0.0448458082974,0.034809101373,0.0416094139218,0.608099520206,0.484495073557,0.563097536564,0.243910640478,0.205944702029,0.22950553894,-1.97825276852,0.25136834383,-2.05346894264,1.22343099117,0.766699314117,1.11468803883,-0.924903571606,-0.41286227107,-0.859266638756,-1.07228338718,-0.65835416317,-0.93254750967,2.2932240963,0.662872970104,2.13824510574,0.111779391766,-0.412620097399,0.0323731787503,-0.252567201853,-0.415797561407,-0.211486682296,-0.686170816422,-0.323879063129,-0.654276311398,-0.406415730715,-0.149211987853,-0.388149648905,-0.56185323,-0.248332366347,-0.543006956577,-0.541305720806,-0.360796302557,-0.493739157915,-0.395572781563,-0.180155187845,-0.374621242285,-0.478470921516,-0.397688150406,-0.433005928993,0.660222053528,0.450961261988,0.59699255228,0.447157591581,0.24640083313,0.416535258293,0.548058509827,0.354602187872,0.50491052866,0.697550535202,0.413325488567,0.642010748386,0.52800989151,0.278866946697,0.502028822899,0.556901097298,0.35506901145,0.518401324749,0.497622311115,0.479805976152,0.446112304926,0.473120361567,0.47999510169,0.442391067743,0.439720004797,0.464374810457,0.418826729059,1.25076413155,0.621685445309,1.19041538239,-0.39935567975,-0.38655140996,-0.366552591324,-1.44040060043,-0.927965521812,-1.27311003208,-1.58622074127,-0.438182801008,-1.44447445869,-0.867001056671,-0.309034377337,-0.805322766304,1.40397584438,0.646707296371,1.29741799831,-0.615005195141,-0.324223846197,-0.568898200989,-0.431998938322,-0.204740926623,-0.427361398935,-0.51942384243,-0.283188581467,-0.477668255568,-0.537420392036,-0.339713960886,-0.490604221821,-0.385345816612,-0.212371811271,-0.368445515633,-0.48178294301,-0.322383701801,-0.452730923891,-0.772675275803,-0.837692201138,1.11654949188,-0.380980908871,-0.26903834939,0.771469891071,-0.816251218319,-0.733637452126,1.01223659515,0.712945044041,0.364334046841,0.669612705708,0.502939760685,0.24338619411,0.480581671,0.594444692135,0.331309318542,0.542791604996,0.68105006218,0.368028074503,0.630241751671,0.501719713211,0.235850855708,0.463812232018,0.57989525795,0.304187625647,0.544245183468,0.575609862804,0.477132558823,0.521313309669,0.486554980278,0.410252064466,0.436954259872,0.497055262327,0.453382104635,0.472201824188,0.461621999741,0.471324980259,0.419225603342,0.494601845741,0.543893516064,0.474934190512,0.495874613523,0.549195289612,0.467576146126,-0.720157802105,-0.0281060561538,-0.638856053352,0.996546566486,0.731305480003,0.906414926052,-0.681667625904,-0.0320071205497,-0.614639163017,-1.97347784042,-0.728279829025,-1.92381870747,-0.172953501344,-0.656561076641,-0.150674328208,0.870874226093,0.867475092411,0.79960745573,-0.913454771042,-0.534905612469,-0.803579568863,-0.559420287609,-0.0606710277498,-0.524666786194,1.15165567398,1.01910305023,1.08686935902,0.698052763939,0.828468561172,-0.663469314575,0.687186300755,0.444629728794,0.890596687794,0.900348246098,0.665281236172,0.784694075584,0.701147079468,0.446317255497,0.661283135414,0.496428966522,0.280725747347,0.463111609221,0.543930232525,0.313735991716,0.502511739731,0.283234834671,0.723536670208,0.62464594841,0.770321667194,0.363280773163,0.501909315586,-1.57679772377,0.554203808308,0.472401946783,-0.576562047005,-0.319420367479,-0.520507276058,-0.402565479279,-0.21917656064,-0.394371211529,-0.532274544239,-0.313703715801,-0.50754147768,-0.587839782238,-0.331274300814,-0.538853287697,-0.379046022892,-0.192734763026,-0.382365882397,-0.55762642622,-0.313845783472,-0.520742595196,0.666523814201,0.379507422447,0.634377777576,0.436600983143,0.205028697848,0.42431178689,0.517185926437,0.264500260353,0.484770894051,0.582730948925,0.385367244482,0.548120617867,0.474920332432,0.323333948851,0.450004667044,0.572516918182,0.423935800791,0.546727836132,0.495797246695,0.337364882231,0.46911534667,0.405003100634,0.266871601343,0.372962355614,0.507801055908,0.339216440916,0.472379893064,0.515588283539,0.395344018936,0.463350057602,0.428264260292,0.302343338728,0.399094551802,0.481506496668,0.3623495996,0.452732115984,1.05732929707,-0.77034330368,-0.936076700687,0.654775321484,-0.434673935175,-0.420106261969,0.982397735119,-0.530911803246,-0.950765371323,-1.12310647964,-0.539283335209,-1.04689764977,-0.62128418684,-0.489298075438,-0.549927592278,1.24929976463,0.53889387846,1.1656910181,0.984393656254,-0.635631203651,-0.69658100605,0.661865890026,-0.340590894222,-0.269341677427,0.960433483124,-0.616177618504,-0.70398414135,1.25496077538,-0.747171938419,1.2912555933,0.808499872684,0.340247035027,0.787145197392,1.15076088905,-0.497187703848,1.18287229538,0.72020149231,0.48913949728,0.678792357445,0.620387792587,0.394175767899,0.580191016197,0.726014554501,0.533132493496,0.69370663166,0.681446909904,0.921803474426,-0.897625207901,0.858269274235,0.559808671474,1.07711327076,0.937351882458,0.909014463425,0.695255160332,-0.578081965446,-0.389296919107,-0.514722287655,-0.445467323065,-0.252131044865,-0.416612446308,-0.552981436253,-0.37979310751,-0.482591062784,0.715930223465,0.617878675461,0.577931880951,0.518727600574,0.373333960772,0.518794476986,0.65659403801,0.550470530987,0.582370936871,-0.592557966709,-0.662142038345,0.967729866505,-0.427210330963,-0.270473241806,0.780841350555,-0.690816819668,-0.532775640488,0.918917536736,-0.5152323246,-0.359273284674,-0.474213778973,-0.35334199667,-0.197746396065,-0.330438047647,-0.498460948467,-0.316437542439,-0.475077033043,0.537755727768,0.436065167189,0.497353762388,0.447109401226,0.338879823685,0.424412578344,0.501908123493,0.424419075251,0.448688447475,0.848232984543,0.792526066303,0.817162156105,0.877467989922,0.395558148623,0.720650196075,0.666999876499,0.69178467989,0.694420576096,1.20754384995,0.653091132641,1.12787127495,-0.647596955299,-0.334714591503,-0.603390932083,-0.599591553211,-0.281259506941,-0.556378901005,-0.536873281002,-0.338019162416,-0.502707839012,-0.365890949965,-0.108873426914,-0.32619407773,-0.505145430565,-0.369203805923,-0.466986328363,0.294867575169,0.889417588711,0.704677224159,-0.854707300663,0.603849291801,0.554002225399,-0.95785087347,0.720096707344,0.588929891586,-0.513257026672,-0.357056081295,-0.478715002537,-0.388007849455,-0.248729899526,-0.373509824276,-0.464767366648,-0.327439844608,-0.437662869692,-0.540764808655,-0.366127073765,-0.484078764915,-0.358230829239,-0.211664751172,-0.331143110991,-0.425651371479,-0.298425346613,-0.386345952749,-1.32181084156,0.991161704063,0.74005573988,1.21616721153,0.604552090168,0.752760350704,-0.703603327274,1.10670137405,0.813017845154,-0.669803738594,-0.885338485241,1.19465315342,-1.49390172958,-0.637177228928,0.625027656555,-0.359026879072,-0.712695658207,1.29924714565,-0.594759166241,-0.34978312254,-0.558042407036,-0.397935330868,-0.205329164863,-0.387922257185,-0.52068734169,-0.280757039785,-0.489457607269,0.44808408618,0.277689903975,0.420738518238,0.325291275978,0.202493995428,0.30930018425,0.409389615059,0.269226968288,0.376164734364,-0.353451788425,-0.53620994091,-0.299089223146,-0.534329116344,-0.509176433086,-0.482233911753,-0.353502780199,-0.564383924007,-0.345742762089,0.668982386589,0.444530338049,0.621144294739,0.516707062721,0.309245586395,0.485506743193,0.56125074625,0.34891423583,0.526506185532,0.433635890484,0.24696958065,0.404989570379,0.386747211218,0.222296908498,0.366848289967,0.545093238354,0.323318213224,0.492908865213,0.560414552689,0.329674392939,0.521709024906,0.484778493643,0.293994665146,0.464097946882,0.515651345253,0.380951702595,0.460483044386,0.785547375679,0.547014176846,0.703333556652,0.396453380585,0.226136863232,0.352518707514,-1.44548785686,-0.91331166029,-1.41973006725,0.79342353344,0.573108375072,0.754308640957,0.524710536003,0.3927090168,0.669462740421,0.500988304615,0.530419111252,-1.49411952496,0.680008530617,0.437845110893,0.659084200859,0.487515032291,0.256382286549,0.499906480312,0.718609452248,0.442300677299,0.690078675747,0.515078306198,0.556780874729,0.452641367912,0.694214046001,0.337358802557,0.66649800539,0.75984531641,0.292949020863,0.707967758179,-0.532903730869,-0.352676302195,-0.494367271662,-0.373853027821,-0.146496132016,-0.348565489054,-0.529430031776,-0.343132525682,-0.485873311758,-1.76735413074,0.320547014475,-1.70737564564,0.416110634804,0.319166749716,0.372381865978,0.647366583347,0.462665438652,0.613924145699,0.560917675495,0.200166210532,0.515475392342,0.76265412569,0.377883315086,0.721226751804,1.11249566078,0.615506231785,1.02681303024,0.515676021576,0.307881504297,0.483539074659,0.416790395975,0.224600240588,0.40264159441,0.530850827694,0.356647998095,0.483177512884,-0.550348639488,-0.350908070803,-0.478865146637,-0.389273613691,-0.20259359479,-0.359773099422,-0.475558459759,-0.305894315243,-0.430307418108,-0.304140329361,-0.234967768192,-0.277767717838,-0.137781143188,-0.218264788389,-0.191162019968,-0.208609342575,-0.166337475181,-0.105919122696,0.604612410069,0.358319282532,0.564802527428,0.433348417282,0.251943349838,0.422588020563,0.558626234531,0.364614725113,0.506358325481,-0.508585333824,-0.278524696827,-0.47178375721,-0.372534632683,-0.185854718089,-0.342180460691,-0.522507548332,-0.281481266022,-0.482849895954,0.578587114811,0.329303115606,0.542584002018,0.454085469246,0.258445650339,0.431703001261,0.567211389542,0.34931576252,0.532137274742,-0.571218073368,-0.319383114576,-0.523883461952,-0.386536419392,-0.190997511148,-0.356407493353,-0.503921508789,-0.322486519814,-0.461374700069,0.558031260967,0.395687073469,0.519527673721,0.45299166441,0.299377202988,0.425912499428,0.510100901127,0.358031004667,0.492391884327,-0.548775315285,-0.354772716761,-0.482718020678,-0.3844614923,-0.176256000996,-0.365797400475,-0.518884778023,-0.348130196333,-0.497647285461,0.806198775768,0.585147678852,0.762947022915,0.736824333668,0.515881359577,0.654211223125,-0.891869366169,0.55523276329,-1.62946224213,0.610112011433,0.330460578203,0.560672044754,0.461162060499,0.230453640223,0.436152607203,0.503960490227,0.261880487204,0.470223397017,-0.483800143003,-0.357819825411,-0.440664798021,-0.417351543903,-0.302064150572,-0.386451661587,-0.440354973078,-0.339426159859,-0.406279861927,0.574883401394,0.311204612255,0.541919767857,0.462535977364,0.264359951019,0.431086629629,0.546240866184,0.344400763512,0.494055271149,-0.808342754841,-0.33959954977,-0.738842248917,-0.475217193365,-0.213182717562,-0.441238343716,1.19075393677,0.819566488266,1.15687870979,-0.492714494467,-0.322379559278,-0.465598940849,-0.390540122986,-0.231637448072,-0.364874094725,-0.482172727585,-0.305818676949,-0.458598941565,-1.52939116955,0.785052835941,0.710215866566,0.226056858897,0.610984444618,0.513796687126,-1.55766201019,0.749184250832,0.701684951782,-0.558390259743,-0.377070963383,-0.504045724869,-0.41596019268,-0.250718295574,-0.3733972013,-0.531980931759,-0.329457581043,-0.476988583803,-0.50166708231,-0.427400559187,-0.469720840454,-0.479449003935,-0.30164796114,-0.447614490986,-0.522373259068,-0.4661039114,-0.516592800617,1.08702039719,0.579961776733,0.994335770607,0.747960209846,0.316060125828,0.66340482235,0.592748939991,0.550690829754,0.563087880611,0.542577505112,0.419128984213,0.509968876839,0.495330989361,0.430351674557,0.461797446012,0.467116206884,0.363330453634,0.42374292016,-0.708706498146,-0.456928789616,-0.615059733391,-0.934856772423,-0.461415708065,-0.860158443451,1.32049262524,0.783872485161,1.24321615696,0.712010622025,0.528639495373,0.649986386299,0.542106389999,0.241149872541,0.548761487007,0.642975270748,0.476781874895,0.590082526207,0.691788733006,0.664314568043,0.64106553793,0.585220754147,0.445756345987,0.553381919861,0.645415484905,0.550221264362,0.571219027042,-0.496295690536,-0.338693916798,-0.457751452923,-0.384893447161,-0.238820135593,-0.363853543997,-0.50881177187,-0.342106699944,-0.457299441099,-0.569061994553,-0.332540690899,-0.53819167614,-0.366962105036,-0.113344758749,-0.344584792852,-0.542270123959,-0.332598030567,-0.501814007759,0.464706420898,0.354052126408,0.43824660778,0.453026205301,0.314441025257,0.428853362799,0.49299287796,0.378617346287,0.450719147921,-0.686001241207,-0.352102816105,-0.623944818974,-0.424340963364,-0.036151137203,-0.3876093328,-0.5827075243,-0.341037243605,-0.55226033926,-0.856423676014,-0.00484719779342,-0.840559482574,0.980321586132,1.16738247871,0.936852753162,-0.718231916428,-0.00417594891042,-0.694760560989,-0.692664563656,-0.383502930403,-0.612876176834,-0.485592961311,-0.122308731079,-0.450156748295,-0.625679373741,-0.346339344978,-0.560500562191,-0.579698085785,-0.329231232405,-0.569050431252,-0.386080741882,-0.198238506913,-0.371353030205,-0.470850408077,-0.271209508181,-0.44676309824,-0.526721477509,-0.418971627951,-0.496517449617,-0.44002237916,-0.31825363636,-0.416263788939,-0.517793357372,-0.381873428822,-0.493166595697,-0.570162832737,-0.3370398283,-0.537756919861,-0.414230704308,-0.215800493956,-0.394637674093,-0.575786173344,-0.335504442453,-0.525090932846,-0.528826296329,-0.342328518629,-0.463524967432,-0.374132186174,-0.182144224644,-0.354435771704,-0.498826801777,-0.368198871613,-0.457520246506,-1.09101366997,-0.349285423756,-0.674072086811,0.59377849102,0.46425229311,0.587186932564,1.18657588959,0.479962587357,1.13761770725,0.5442070961,0.351725965738,0.49598172307,0.473491996527,0.286448478699,0.438939392567,0.578699111938,0.462047815323,0.544799864292,-1.22417366505,-0.686121284962,-1.09302198887,-0.299640834332,-0.203157201409,-0.281438231468,1.06587898731,0.683060348034,0.989545762539,1.50970709324,1.06677138805,1.34639120102,-0.710611283779,-0.385872125626,-0.598726391792,-1.38740026951,-0.831290364265,-1.18700218201,0.298246562481,0.533218383789,-1.39144563675,0.384894192219,0.777259886265,-0.506895661354,0.406762301922,0.556829333305,-1.45858216286,0.431863993406,0.344417870045,0.403487175703,0.371564596891,0.27249622345,0.339214354753,0.397224843502,0.340709865093,0.358822971582,-0.512083172798,-0.317443817854,-0.479386270046,-0.375128030777,-0.232071816921,-0.349239915609,-0.479287683964,-0.291772663593,-0.452270656824,-0.579444468021,-0.424319207668,-0.509646177292,-0.332906574011,-0.343442171812,-0.321711778641,-0.508535563946,-0.422408431768,-0.44508254528,-0.510493338108,-0.320856809616,-0.477026164532,-0.351413756609,-0.161045446992,-0.335670769215,-0.484161645174,-0.35358992219,-0.452561169863,0.571830809116,0.403127610683,0.53161740303,0.450415164232,0.281397819519,0.421062976122,0.571906208992,0.449998319149,0.506937563419,-0.453451097012,-0.333220034838,-0.411003619432,-0.395055949688,-0.260930269957,-0.379791975021,-0.466827601194,-0.302471071482,-0.421738386154,-0.295003712177,-0.0551329888403,-0.238426789641,0.649726092815,0.339861810207,0.584685862064,1.47493934631,0.60912245512,1.38299536705,-1.31518268585,-0.683481276035,1.09065568447,-0.606333315372,-0.27891638875,0.548954904079,-1.28590011597,-0.499023646116,1.05666220188,-0.855240464211,-0.4761711061,1.172924757,-0.443826049566,-0.258149504662,1.0989689827,-0.948634088039,-0.573907196522,1.2297372818,-0.542723357677,-0.33710360527,-0.501405835152,-0.410442709923,-0.245079904795,-0.394076317549,-0.499933362007,-0.355689406395,-0.470688581467,-1.22817254066,-0.947697460651,0.855811417103,-0.763118028641,-0.318943709135,0.53250092268,-1.34948551655,-0.457480669022,0.774252593517,-0.51110804081,-0.361708968878,-0.455701202154,-0.385553449392,-0.229374006391,-0.360352933407,-0.498410671949,-0.348212301731,-0.460778057575,-0.53790307045,-0.38599640131,-0.496698588133,-0.4088935256,-0.273970574141,-0.37718424201,-0.433205157518,-0.317501723766,-0.407889872789,-0.775210916996,-0.679427623749,0.948166668415,-0.52620947361,-0.282991707325,0.729932188988,-0.756988883018,-0.670766592026,0.920416891575,-0.551703453064,-0.410884141922,-0.493702530861,-0.404752403498,-0.279864162207,-0.373503178358,-0.456791877747,-0.357937008142,-0.416539222002,0.815653204918,0.494877845049,0.757555365562,0.792393028736,0.396261841059,0.736569106579,0.658137857914,0.603163480759,0.577228069305,-0.629397749901,-0.492709726095,-0.581497132778,-0.385435253382,-0.250910073519,-0.356588304043,-0.480532288551,-0.32565587759,-0.442515641451,1.0128633976,-0.706036448479,-1.51180529594,0.701353549957,-0.538411915302,-0.573148131371,0.891695439816,-0.483889132738,-1.11270356178,-0.605062961578,-0.344273298979,-0.549989998341,-0.399350643158,-0.188869193196,-0.369016289711,-0.514300823212,-0.270586282015,-0.472117990255,0.483625352383,0.316377073526,0.448778569698,0.421615153551,0.244007751346,0.397517293692,0.528161466122,0.338997334242,0.477157145739,0.591025471687,0.344951838255,0.550726354122,0.465597093105,0.231271207333,0.449219822884,0.522548377514,0.297626256943,0.4973718822,-0.529160678387,-0.398995012045,-0.485529184341,-0.428930401802,-0.308390498161,-0.398381084204,-0.476282268763,-0.36446917057,-0.433184444904,1.07959067822,0.58043807745,1.01674878597,-0.397318929434,-0.0704313740134,-0.415786594152,-1.13566350937,-0.648679554462,-0.984177947044,-2.1988670826,0.220355331898,0.5917750597,-0.961539208889,-0.0461857505143,0.348436653614,-1.50840568542,-0.813935577869,0.733924627304,0.760526657104,0.591479003429,0.723673343658,0.688156366348,0.502933323383,0.642783224583,0.55832606554,0.486109018326,0.505511701107,-1.1164547205,-0.52424031496,-0.996737241745,-0.494790762663,-0.357853353024,-0.458449959755,1.22047972679,0.498608648777,1.15674710274,-0.568403840065,-0.331880450249,-0.515768349171,-0.411479204893,-0.242009416223,-0.379684329033,-0.472647577524,-0.302381694317,-0.440270334482,0.613084793091,0.38297700882,0.586071908474,0.504133880138,0.292911559343,0.496364355087,0.59840720892,0.392716795206,0.561019420624,-0.745260894299,-0.388230353594,-0.678247511387,-0.935845732689,-0.576062083244,-0.853168010712,1.28966283798,0.62916457653,1.19429278374,0.585425496101,0.332458406687,0.543326616287,0.474573373795,0.240204647183,0.443987250328,0.603719830513,0.367731064558,0.565537273884,-0.517225086689,-0.376157820225,-0.487267881632,-0.39984062314,-0.261799603701,-0.384303092957,-0.432708770037,-0.307002574205,-0.408074080944,0.702230513096,0.363281697035,0.639308571815,0.61648017168,0.278584778309,0.589412629604,0.77442663908,0.538155138493,0.725639343262,-0.537948548794,-0.35792401433,-0.503132998943,-0.414942294359,-0.25295701623,-0.395437061787,-0.521815419197,-0.340618044138,-0.471153587103,0.456054061651,0.110496997833,-2.22424674034,0.332472264767,0.317684292793,-0.848809301853,0.519200265408,0.345385849476,-2.03251361847,-0.520471930504,-0.336108207703,-0.474034488201,-0.341954231262,-0.102976031601,-0.326937645674,-0.503024995327,-0.30823135376,-0.47888314724,-0.517091333866,-0.303026080132,-0.472435951233,-0.314556092024,-0.14542581141,-0.294769108295,-0.433560669422,-0.284947127104,-0.41139754653,0.567853629589,0.297036468983,0.530112564564,0.476862460375,0.253628879786,0.44883826375,0.626608371735,0.383354038,0.573664188385,-0.281965434551,-0.0745952129364,2.33664894104,-0.271609038115,-1.22681069374,-0.118888624012,-0.313771903515,-0.159055709839,2.14623379707,-0.534796416759,-0.362127482891,-0.49009975791,-0.388385981321,-0.206707805395,-0.35857886076,-0.499256253242,-0.346645891666,-0.468639969826,0.491507619619,0.305281639099,0.463364034891,0.382964283228,0.216174855828,0.368251234293,0.437440663576,0.275949448347,0.417285859585,2.69936037064,0.119130373001,2.48022890091,0.193758562207,-0.873687505722,0.110862091184,-0.344884306192,-0.409569084644,-0.270002871752,0.455017060041,0.302758097649,0.417852938175,0.427787691355,0.27966055274,0.391798019409,0.490084677935,0.333495020866,0.449767231941,-0.557374119759,-0.355571389198,-0.510867476463,-0.427967965603,-0.207028403878,-0.411048442125,-0.533393621445,-0.356566041708,-0.502981901169,-0.540956258774,-0.316233634949,-0.491029024124,-0.397396922112,-0.161994710565,-0.350066632032,-0.551809370518,-0.325193285942,-0.505950272083,-0.51790112257,-0.305346935987,-0.495002448559,-0.36170783639,-0.158852934837,-0.338586628437,-0.514542937279,-0.306648463011,-0.484877109528,0.664744734764,0.462024629116,0.602464079857,0.478003263474,0.301472514868,0.451764494181,0.566724836826,0.350723356009,0.517980575562,0.672559261322,0.485943317413,0.619122028351,0.467160344124,0.277640610933,0.443818092346,0.51607644558,0.364802092314,0.481886833906,-0.536563038826,-0.452192276716,-0.470019608736,-0.485236257315,-0.339329749346,-0.443515449762,-0.576352059841,-0.432917803526,-0.51913279295,-0.535156488419,-0.375380963087,-0.496449589729,-0.466450512409,-0.296833515167,-0.423787921667,-0.559691488743,-0.402776986361,-0.514668107033,-0.959432303905,-0.40712377429,1.1652109623,-0.377913832664,-0.262743830681,1.05313003063,-0.847549378872,-0.319058984518,1.18006134033,0.659177720547,0.463473200798,0.610127687454,0.506708681583,0.292956769466,0.485210955143,0.496655881405,0.329210460186,0.482256352901,-0.530652880669,-0.317584216595,-0.484912246466,-0.373632073402,-0.203600928187,-0.358066141605,-0.510976195335,-0.31463649869,-0.481625109911,-1.01779723167,-0.169137433171,-0.944467067719,-0.94131821394,-0.501469671726,-0.877907931805,1.4444026947,0.796018123627,1.34019088745,0.553973078728,0.321082949638,0.52600902319,0.437605768442,0.230692520738,0.417060405016,0.524578511715,0.338041245937,0.489991337061,0.534907460213,0.346356272697,0.501079678535,0.474525660276,0.287011772394,0.448462754488,0.644531548023,0.416310369968,0.607967913151,-0.58949393034,-0.294808298349,-0.53902977705,-0.334381312132,-0.0608332715929,-0.321234107018,-0.48676019907,-0.263292253017,-0.457970410585,0.669779002666,0.758982896805,-0.805043458939,0.604015529156,0.368747860193,0.977145910263,0.611099898815,0.718205094337,-0.060687340796,-0.577303946018,-0.330939799547,-0.538994550705,-0.378679156303,-0.11045987159,-0.351143538952,-0.59969997406,-0.345314562321,-0.552289843559,0.908790528774,0.366086155176,0.876670718193,0.4949221313,-0.0255096238106,0.486133277416,0.806779801846,0.409870266914,0.803817212582,0.571052908897,0.33789730072,0.551017642021,0.483194380999,0.266325175762,0.464064478874,0.594144225121,0.37499755621,0.558568000793,-0.553701400757,-0.380507647991,-0.507534384727,-0.409361511469,-0.215545117855,-0.382308810949,-0.531432688236,-0.341731071472,-0.503022015095,0.569802761078,0.348801016808,0.527339696884,0.440035372972,0.257932662964,0.432006657124,0.598320066929,0.371664047241,0.541720032692,-0.524686634541,-0.452423870564,-0.467507243156,-0.416950285435,-0.269455045462,-0.381879091263,-0.465639650822,-0.39088472724,-0.428341776133,0.89311170578,0.61581414938,0.868174016476,0.841438293457,0.583245933056,0.717717826366,-0.408967167139,0.570221066475,0.253772675991,0.487000226974,0.430891245604,0.458029419184,0.501623213291,0.412750631571,0.474466443062,0.531391859055,0.43297535181,0.485710889101,-0.516414225101,-0.334546625614,-0.463720887899,-0.384373754263,-0.197065547109,-0.346543610096,-0.491297245026,-0.316279053688,-0.435601592064,-0.602349281311,-0.349920779467,-0.539462327957,-0.405322819948,-0.146341592073,-0.359401345253,-0.551775276661,-0.319485008717,-0.503910064697,1.15168464184,0.694426000118,1.06100833416,0.898729801178,0.525210499763,0.921587884426,0.569546580315,-0.13317091763,0.337657660246,-0.524633526802,-0.421295523643,-0.464522480965,-0.427230447531,-0.288607060909,-0.416828244925,-0.589734494686,-0.459476113319,-0.517071306705,-0.87962692976,-0.607367098331,-0.778797090054,0.0819409042597,-0.0358539894223,0.0689534842968,1.55684769154,0.768901050091,1.40278553963,1.4100728035,0.695045650005,1.30546200275,-0.735292494297,-0.44982367754,-0.694700300694,-0.958381712437,-0.372791409492,-0.890402674675,0.603484749794,0.417820781469,0.56454539299,0.467284560204,0.298930764198,0.443768829107,0.509981036186,0.442849963903,0.478869944811,-0.540933847427,-0.352325946093,-0.481035023928,-0.442178070545,-0.163858383894,-0.423024386168,-0.555702149868,-0.396727800369,-0.495301157236,0.439144253731,0.256296724081,0.416715919971,0.320203095675,0.168127030134,0.300014019012,0.429641336203,0.259280711412,0.407227903605,-0.546219706535,-0.368006706238,-0.500485181808,-0.39778599143,-0.236689135432,-0.381567418575,-0.450356662273,-0.321681261063,-0.417834997177,1.14019429684,0.748699784279,1.08162343502,-0.559204697609,-0.177536278963,-0.545270264149,-0.830989181995,-0.320367246866,-0.733227431774,-0.521319329739,-0.312872856855,-0.491111844778,-0.385819762945,-0.158849105239,-0.370723634958,-0.527884542942,-0.330627590418,-0.494323730469,0.651840627193,0.500725388527,0.586339473724,0.483388632536,0.302148282528,0.462178438902,0.522083640099,0.380341768265,0.46749022603,-0.539402902126,-0.369379937649,-0.505885601044,-0.398596405983,-0.218449056149,-0.367751836777,-0.486554294825,-0.313501775265,-0.442060709,0.663573920727,0.417823582888,0.622621536255,0.484595865011,0.250350296497,0.452766209841,0.571524083614,0.303517132998,0.533700227737,-0.48024019599,-0.436995506287,-0.434898585081,-0.423827201128,-0.339292556047,-0.375278830528,-0.497174233198,-0.395856618881,-0.451394379139,2.08107018471,0.527414500713,1.90062177181,0.0104854609817,-0.466759949923,0.0263645444065,-0.0546286553144,-0.265470176935,-0.0594388470054,-0.580622911453,-0.384255707264,-0.523764014244,-0.440452963114,-0.243377834558,-0.405857205391,-0.455202311277,-0.300170212984,-0.410493135452,0.598074316978,0.40487498045,0.560979902744,0.472476661205,0.328167825937,0.450173676014,0.536719560623,0.395310729742,0.500886440277,-0.696167171001,1.24241483212,-0.862991452217,-0.213016375899,0.994259774685,-0.281722307205,-0.749742627144,1.15369963646,-0.853752851486,-0.551562070847,-0.422922194004,-0.503367960453,-0.45789667964,-0.294169008732,-0.416261732578,-0.498256474733,-0.451170235872,-0.434049755335,1.15880668163,-0.685298621655,-1.16933190823,0.963319540024,-0.322459310293,-0.423154562712,1.11877429485,-0.536402702332,-0.94102704525,-0.711775779724,0.521328091621,0.414884835482,-0.971250414848,0.359227836132,0.281946003437,-0.746439635754,0.567421138287,0.334394574165,-0.544314444065,-0.378192424774,-0.520665049553,-0.373384982347,-0.231943875551,-0.349529385567,-0.442723333836,-0.318021595478,-0.419500917196,0.383483082056,0.596241414547,0.404357999563,0.663980662823,0.614693284035,0.602084696293,0.415693342686,0.673631966114,0.356108725071,-1.31134617329,-0.509464323521,-1.2103395462,-0.665265858173,-0.57447463274,-0.578650832176,1.10772788525,0.61721855402,1.06569170952,0.640630960464,0.41525131464,0.626160860062,0.436760187149,0.243482962251,0.42169842124,0.537188112736,0.345485091209,0.503916084766,-0.497364670038,-0.811871170998,1.45533013344,-0.894939124584,-0.567499041557,0.761497080326,-0.157936960459,-0.593187570572,1.11892747879,-0.594537198544,-0.335848420858,-0.538357377052,-0.400335758924,-0.169253006577,-0.384072124958,-0.565258741379,-0.322922348976,-0.530874252319,-1.2469047308,-0.551730930805,-1.17372655869,-0.657428324223,-0.521743714809,-0.584427177906,1.27124035358,0.550392150879,1.18228685856,-0.552610874176,-0.389698535204,-0.515686869621,-0.386464655399,-0.236171022058,-0.36120313406,-0.488038092852,-0.33629783988,-0.43928861618,1.4671241045,0.606300115585,1.41252052784,-0.1606875211,-0.541162312031,-0.182664141059,-0.637495934963,-0.359691143036,-0.567470192909,0.60862493515,0.382423639297,0.557701647282,0.444644510746,0.268756598234,0.423131167889,0.603128910065,0.404451340437,0.577013731003,-0.559585511684,-0.335016012192,-0.52206414938,-0.399216383696,-0.149804159999,-0.360391050577,-0.579892337322,-0.348793953657,-0.523969173431,0.73352855444,0.897153615952,0.535617351532,0.852985084057,0.693465709686,0.916838109493,0.295847117901,0.916276216507,0.228795051575,0.650858283043,0.467983603477,0.590776145458,0.511765956879,0.325759798288,0.483775764704,0.696876823902,0.489785969257,0.65613335371,-0.533413887024,-0.336749464273,-0.493874907494,-0.350560098886,-0.196890160441,-0.324343651533,-0.444056421518,-0.278159320354,-0.416567742825,0.539212405682,0.311367601156,0.484116762877,0.532345592976,0.295633792877,0.492950111628,0.622944951057,0.446855694056,0.574015676975,1.27735888958,0.697878360748,1.17758989334,-0.494410693645,-0.462650179863,-0.483827620745,-1.01087653637,-0.627126514912,-0.866158604622,-0.54528260231,-0.316465973854,-0.512894451618,-0.431170552969,-0.246356487274,-0.403285384178,-0.500909090042,-0.300195425749,-0.469433933496,-0.540526330471,-0.306801110506,-0.503793537617,-0.343289852142,-0.160691663623,-0.333855092525,-0.587517261505,-0.353368699551,-0.534222781658,-0.875548183918,-0.34927302599,-0.823201417923,-0.674630343914,-0.526109814644,-0.660538375378,1.32641196251,0.695714533329,1.25494527817,-0.538319289684,-0.305921107531,-0.496123611927,-0.328956633806,-0.0906836092472,-0.303719699383,-0.50580149889,-0.280062228441,-0.479907631874,1.40823972225,0.553902089596,1.35894465446,0.171657800674,0.178877785802,0.162912338972,-0.627104222775,-0.362968087196,-0.522425711155,-0.560148477554,-0.358720004559,-0.506538689137,-0.37382504344,-0.193030178547,-0.336046785116,-0.509906828403,-0.331818938255,-0.446790486574,0.632309913635,0.44751599431,0.595252990723,0.461308538914,0.255744755268,0.444658756256,0.520000636578,0.372324407101,0.488487899303,1.151466012,0.69681596756,1.05456745625,-0.958477973938,-0.481125682592,-0.923627376556,-0.627088546753,-0.378334850073,-0.54283863306,-0.616503357887,-0.436633914709,-0.544611513615,-0.441765278578,-0.243260458112,-0.395111054182,-0.528423190117,-0.345230847597,-0.493182629347,1.18378603458,0.75657749176,1.12760090828,-0.748628675938,-0.355248779058,-0.753080666065,-1.14252722263,-0.663469851017,-0.938430011272,-0.486858844757,-0.341214984655,-0.446126967669,-0.399904638529,-0.260701149702,-0.388048648834,-0.529826819897,-0.383344709873,-0.499326884747,-0.554733097553,-0.346868395805,-0.532778978348,-0.424096375704,-0.227019131184,-0.400349497795,-0.564760506153,-0.316844254732,-0.542188167572,0.547305583954,0.366170614958,0.503900408745,0.481023132801,0.27761554718,0.45742186904,0.576588094234,0.399112194777,0.527491092682,-0.519433677197,-0.339576721191,-0.467951804399,-0.344794631004,-0.148291885853,-0.306865483522,-0.468585789204,-0.300824165344,-0.410426586866,-0.886186957359,-0.481550097466,-0.774852514267,-0.725066721439,-0.423024564981,-0.666115760803,1.15894770622,0.777237892151,1.09213829041,-0.495895862579,-0.290695637465,-0.467432409525,-0.36205932498,-0.150728240609,-0.346110224724,-0.474284857512,-0.317438483238,-0.45589786768,0.609766662121,0.402671724558,0.562887489796,0.469755500555,0.299524098635,0.445883929729,0.556415200233,0.389780372381,0.518634736538,-0.785073459148,-0.626280367374,1.10514605045,-0.395038515329,-0.345228731632,0.867378115654,-0.585341334343,-0.515492081642,1.02755725384,0.62565112114,0.43588116765,0.580987274647,0.471653074026,0.27701151371,0.450672626495,0.567739129066,0.463432043791,0.520473539829,1.41885614395,0.859996199608,1.36592102051,-0.305009841919,-0.367296725512,-0.270716875792,-0.2918009758,-0.682504832745,-0.240074113011,-1.06128334999,-0.806918680668,-0.966772556305,-0.784702658653,-0.274048775434,-0.719485759735,1.3296097517,0.91770273447,1.22449314594,0.611342430115,0.347921431065,0.572017788887,0.455633699894,0.259769231081,0.416720420122,0.532057762146,0.330415606499,0.494622141123,1.14890348911,0.56632322073,1.07690751553,-0.331747561693,-0.364593803883,-0.296576559544,-1.23433947563,-0.709277391434,-1.12104737759,-0.525817394257,-0.303024441004,-0.470641434193,-0.471074789762,-0.248396679759,-0.440501391888,-0.596078395844,-0.357831507921,-0.566340863705,0.647491037846,0.372337013483,0.587659180164,0.479310959578,0.332510620356,0.460297971964,0.727702379227,0.484326481819,0.681973934174,-0.553530156612,-0.324861943722,-0.499978810549,-0.33434215188,-0.0687537193298,-0.315589517355,-0.51290333271,-0.325012892485,-0.499755531549,-0.568133592606,-0.386101514101,-0.524317502975,-0.411303222179,-0.197104513645,-0.382355242968,-0.542944431305,-0.390895664692,-0.510109484196,0.981993079185,0.600275456905,0.924368917942,0.610754072666,0.406820178032,0.589512944221,-0.936792910099,0.303587645292,-1.2001414299,0.528003692627,0.383142799139,0.474349051714,0.382879257202,0.249532788992,0.362558662891,0.509650290012,0.379402011633,0.468866020441,0.37599080801,0.244050487876,0.347297072411,0.282524228096,0.157039374113,0.263434886932,0.361770123243,0.219824180007,0.336389541626,-0.574715018272,-0.395226061344,-0.51588922739,-0.463963061571,-0.199585810304,-0.449318557978,-0.660777509212,-0.379783958197,-0.605096280575,1.27031815052,0.851578891277,1.15444564819,-0.739755213261,-0.529042422771,-0.654143631458,-1.64088189602,-0.498125404119,-1.53587269783,-0.965737104416,-0.291885674,-0.888443589211,-0.761853218079,-0.346622347832,-0.71406441927,1.09334146976,0.699842989445,1.02270233631,-1.49554812908,-0.667752742767,-1.33023262024,0.249298140407,0.271956712008,0.210205927491,0.77608782053,0.418247759342,0.705835521221,-0.563506662846,-0.419572412968,-0.498163580894,-0.345626175404,-0.216911658645,-0.32444986701,-0.432203501463,-0.336832523346,-0.41084960103,-0.600512266159,-0.410195916891,-0.553503096104,-0.419592320919,-0.250631719828,-0.390004843473,-0.517453193665,-0.320064485073,-0.475538939238,-0.819884955883,0.804431796074,0.591669380665,0.757198035717,0.35369682312,0.504016041756,0.614085316658,0.486908823252,0.639426648617,1.23074710369,0.721511542797,1.0990267992,-1.02576506138,-0.498909324408,-0.937532067299,-0.566706478596,-0.313283205032,-0.534250319004,-0.596264362335,-0.379434525967,-0.571943283081,-0.422719717026,-0.265973329544,-0.403543412685,-0.5534542799,-0.335696548223,-0.525013923645,-0.461034119129,-0.359519839287,-0.409093767405,-0.334099471569,-0.194005727768,-0.30746358633,-0.450071841478,-0.323687881231,-0.391489028931,-0.492347955704,-0.359686464071,-0.461949408054,-0.410790920258,-0.210627600551,-0.396496474743,-0.527812898159,-0.333988428116,-0.487911105156,-0.530729353428,-0.36397254467,-0.48632723093,-0.410286813974,-0.188463240862,-0.389418721199,-0.522336542606,-0.369379132986,-0.455045253038,-0.545898020267,-0.385069608688,-0.486460387707,-0.429210841656,-0.341496646404,-0.423900097609,-0.492022067308,-0.396746665239,-0.450437754393,0.632369101048,0.394093424082,0.595324337482,0.524250805378,0.321668833494,0.48265182972,0.599625349045,0.431350946426,0.575656592846,0.739504694939,0.548025548458,0.635794818401,0.561712086201,0.378259569407,0.699765563011,0.527971148491,0.630751013756,-1.45785582066,-1.05045282841,-0.469800651073,-0.976677954197,-0.778155624866,-0.4524063766,-0.671404600143,1.37080085278,0.699596166611,1.24488520622,-1.27966368198,-0.826378107071,-1.15885210037,-0.550340592861,-0.367198586464,-0.472451329231,1.27466416359,0.733557283878,1.17128837109,-0.530304908752,-0.327957242727,-0.504750072956,-0.369263589382,-0.245114341378,-0.34667339921,-0.502422392368,-0.343625485897,-0.438607394695,0.514347612858,0.387999325991,0.469990104437,0.483694434166,0.332999140024,0.453952223063,0.53192704916,0.409885346889,0.507816255093,-0.521846294403,-0.41491034627,-0.480073601007,-0.395573914051,-0.283742129803,-0.369811654091,-0.433508783579,-0.33744379878,-0.39735892415,1.24042189121,-0.754145979881,-0.981304466724,0.850573956966,-0.286277532578,-0.262881219387,1.25871729851,-0.830952823162,-0.744683265686,0.710530996323,0.50896447897,0.638225972652,0.599218428135,0.413060694933,0.553117513657,0.626150906086,0.477018535137,0.55794775486,0.580458343029,0.394613653421,0.524314165115,0.458637177944,0.294837594032,0.428111642599,0.505383968353,0.341316848993,0.459100902081,1.60987305641,-0.335851579905,-0.999741733074,0.59977799654,-0.214706495404,-0.175257220864,1.40449082851,-0.118079982698,-0.834322869778,0.416468709707,0.746894717216,0.507724285126,0.764593064785,0.366574108601,0.655638456345,0.832060873508,0.61768245697,0.811686873436,-0.958092331886,0.809293806553,0.495454490185,0.698421895504,0.470699727535,0.481143206358,0.683689415455,0.788504958153,0.672220766544,-0.537358641624,-0.363540500402,-0.477308750153,-0.38531807065,-0.224980160594,-0.363264471292,-0.444763332605,-0.328047662973,-0.424659490585,0.530484199524,0.364176213741,0.495292574167,0.485798507929,0.309106618166,0.452359884977,0.558490633965,0.370593905449,0.515829861164,0.581898629665,0.350735992193,0.54999756813,0.474874019623,0.256160080433,0.451591461897,0.574387133121,0.349154323339,0.537922263145,1.13821148872,0.611082732677,1.04658520222,-0.770447075367,-0.409824281931,-0.713387608528,-0.857360124588,-0.64383918047,-0.7749761343,-0.571695923805,-0.322664737701,-0.53104865551,-0.370974302292,-0.0313232243061,-0.348735064268,-0.56259149313,-0.328353941441,-0.542237102985,-0.608948171139,-0.352582484484,-0.563046872616,-0.375852525234,-0.106580205262,-0.347769856453,-0.471100449562,-0.296647638083,-0.435527414083,0.434213727713,0.352921515703,0.372373729944,0.429560571909,0.465127944946,0.375433087349,0.561835408211,0.418993890285,0.511382579803,0.266090542078,0.19723276794,0.258391827345,0.237330123782,0.174056321383,0.226458191872,0.255984723568,0.220736250281,0.234898686409,-0.567711353302,-0.369811296463,-0.542759120464,-0.454692006111,-0.279425323009,-0.437877655029,-0.500451266766,-0.331013202667,-0.44753319025,1.1304847002,0.738082408905,1.04421019554,-0.401051700115,-0.365361183882,-0.379555702209,-1.47894597054,-1.02858912945,-1.29687654972,0.632579684258,0.323457121849,0.592168867588,0.486649513245,0.231538906693,0.465995550156,0.70539188385,0.424492746592,0.657222270966,-0.53149753809,-0.289474874735,-0.474965721369,-0.45767390728,-0.225278615952,-0.436687350273,-0.608073532581,-0.360288023949,-0.571257948875,1.03162932396,0.54079246521,0.949335336685,0.825210809708,0.29753613472,0.824204266071,0.513258218765,0.597436487675,0.298743844032,-0.823961853981,1.3298573494,-1.03187668324,-0.206739827991,1.46173322201,-0.231502830982,-0.776557803154,1.15571832657,-0.913328588009,-0.616181850433,-0.364921033382,-0.574542880058,-0.388608127832,-0.166190624237,-0.351485818624,-0.590330123901,-0.321392893791,-0.537498056889,-0.685016691685,-0.400836676359,-0.647229552269,-0.43355640769,-0.222533941269,-0.402878344059,-0.603297591209,-0.391308307648,-0.536021232605,0.825707376003,0.50028949976,0.76139485836,0.573595225811,0.230767190456,0.566361963749,0.692285597324,0.358860135078,0.646057248116,0.852711677551,0.565044820309,0.809901952744,0.665875613689,0.383042633533,0.635979294777,0.718037605286,0.594562411308,0.688443422318,-0.626205503941,-0.537186205387,-0.54728281498,-0.49430975318,-0.315877646208,-0.486167907715,-0.560188353062,-0.48866263032,-0.500246226788,-0.662747621536,0.638630449772,0.391981601715,0.764841020107,0.558270156384,0.494956016541,0.754878461361,0.633256852627,0.734996378422,1.39114272594,0.817806243896,1.27765738964,-1.1136251688,-0.516793847084,-1.0645108223,-0.65124297142,-0.233329921961,-0.557054340839,-0.529801428318,-0.308561205864,-0.493733078241,-0.39625954628,-0.214739874005,-0.36549076438,-0.45671865344,-0.287986606359,-0.417983233929,-0.515293002129,-0.676612913609,1.03678679466,-0.517818748951,-0.137749508023,0.820620000362,-0.416920095682,-0.561582028866,0.973422646523,-0.862425029278,-0.60351473093,1.04007506371,-0.509877622128,-0.249736562371,0.696985661983,-0.833531558514,-0.434081166983,0.947461724281,-0.564465999603,-0.332970947027,-0.508547723293,-0.377370148897,-0.0971417948604,-0.360756784678,-0.554364442825,-0.319370150566,-0.49826335907,-1.11718571186,0.297388106585,-1.38330066204,0.34309104085,0.288902461529,0.298805713654,-1.56850743294,0.358401954174,0.240527585149,0.541960179806,0.341418534517,0.520045280457,0.455439954996,0.291781872511,0.432898432016,0.534914791584,0.358563065529,0.512276053429,-1.03071069717,-0.423444598913,-0.917160630226,-0.639362573624,-0.302093923092,-0.647844672203,1.08936178684,0.56358319521,1.00359940529,0.623566567898,0.449897497892,0.572503626347,0.512249708176,0.320956110954,0.485327273607,0.564171254635,0.37056094408,0.518154859543,-0.312535971403,-0.804533779621,1.10822021961,-1.0351151228,-0.621232807636,0.992792189121,-0.189457029104,-0.666667461395,1.20068085194,-0.493945777416,-0.317606031895,-0.451976001263,-0.381203919649,-0.195630863309,-0.365734666586,-0.489396125078,-0.288015127182,-0.429007798433,0.588676810265,0.402008861303,0.564721405506,0.480221033096,0.305314272642,0.481147676706,0.621631801128,0.43126603961,0.600926876068,-0.506366729736,-0.344142764807,-0.485594570637,-0.381410449743,-0.214933469892,-0.355672955513,-0.409107714891,-0.255889445543,-0.379531979561,0.585226118565,0.432690620422,0.535111963749,0.49442717433,0.354422152042,0.4422134161,0.493957608938,0.384538710117,0.454246222973,-0.50598025322,-0.448171585798,-0.455413728952,-0.417049080133,-0.356921046972,-0.391224712133,-0.480902343988,-0.468411445618,-0.449945867062,-0.664171457291,-0.45535159111,-0.607122123241,-0.432005673647,-0.242478355765,-0.401218980551,-0.635934710503,-0.464635401964,-0.599491834641,0.491268754005,0.491311043501,0.462316334248,0.455050140619,0.389175623655,0.43121239543,0.459765553474,0.443273693323,0.422415852547,-0.549329638481,-0.343154758215,-0.507156312466,-0.379075825214,-0.185674861073,-0.352935671806,-0.512199699879,-0.345456570387,-0.468733847141,0.697075903416,0.465725272894,0.635139703751,0.549342036247,0.294469535351,0.519034266472,0.628446578979,0.382035017014,0.593528628349,0.495237082243,0.342361301184,0.462108910084,0.416943788528,0.306078851223,0.41165459156,0.540872395039,0.409324467182,0.521504640579,-0.532069861889,-0.291848361492,-0.491024971008,-0.37108540535,-0.152515485883,-0.351629972458,-0.514922320843,-0.293100774288,-0.466792315245,-0.559387326241,0.185877233744,0.237583532929,0.109786622226,0.201496019959,0.24699395895,0.186630755663,0.289632409811,0.281255215406,1.15211427212,-0.974635660648,-0.496364891529,0.683376789093,-0.554181575775,-0.202817186713,1.0059428215,-0.90646058321,-0.274089068174,0.591479837894,0.37066334486,0.559095263481,0.478456437588,0.273187488317,0.455758988857,0.621548056602,0.405758023262,0.585020065308,-0.676893889904,-0.633948504925,-0.654110074043,-0.718140721321,-0.115471467376,-0.670737147331,1.20692622662,1.11627614498,1.13285934925,-1.38465321064,0.767622828484,-1.43547654152,0.676170229912,1.07334804535,0.575956404209,-1.49443864822,0.620377004147,-1.52274692059,-0.493288308382,-0.373772472143,-0.467578351498,-0.337205797434,-0.21722817421,-0.323682785034,-0.482403457165,-0.353317588568,-0.455055058002,1.26494848728,1.02974140644,1.19425547123,-0.837460458279,-0.240075185895,-0.766973316669,-0.533224105835,-0.305895388126,-0.472672820091,-0.461304247379,-0.315855234861,-0.436086326838,-0.388833761215,-0.253786444664,-0.369470238686,-0.456481188536,-0.329685896635,-0.419249564409,0.639896035194,0.431581765413,0.594429790974,0.489014804363,0.286601930857,0.453326374292,0.501944541931,0.308632791042,0.464880973101,0.624280691147,0.41790959239,0.604082643986,0.247374132276,0.102560132742,0.223060369492,-1.86101830006,-0.987144351006,-2.41294264793,2.22451901436,-0.0924455523491,-0.151412978768,-0.248475074768,-1.2469650507,-0.247517704964,2.05560159683,-0.10688675195,-0.160391718149,0.442362606525,0.332624733448,0.425215363503,0.413727015257,0.269740641117,0.399162918329,0.428025603294,0.32024794817,0.406174898148,-0.682212293148,-0.658478617668,1.09067165852,-0.742973327637,-0.222814202309,0.729228436947,-0.381012529135,-0.576108813286,1.03486764431,0.443583011627,0.399588793516,0.38904312253,0.436746299267,0.394261419773,0.410768121481,0.519481241703,0.416442781687,0.469502687454,1.02865183353,-0.668246507645,-1.55223429203,0.726490676403,-0.516757249832,-0.621881723404,0.92650604248,-0.607805430889,-1.36775374413,0.602995872498,0.352787286043,0.563653349876,0.501198351383,0.24932949245,0.478750824928,0.644036769867,0.407239496708,0.599800348282,-1.89255189896,0.338988333941,-1.75844466686,0.43393021822,0.319358885288,0.410372197628,0.579173505306,0.433407962322,0.552064597607,0.502015531063,0.366532742977,0.480409353971,0.456844210625,0.307274162769,0.436974108219,0.46855404973,0.348343908787,0.427104234695,0.487877875566,0.287499159575,0.451938867569,0.411132186651,0.240939319134,0.396766722202,0.558420240879,0.383031874895,0.514302074909,0.679542481899,0.470747858286,0.653944611549,0.528381407261,0.337963610888,0.501688122749,0.615475773811,0.430057555437,0.566531121731,0.777247965336,0.489763408899,0.726465642452,0.717706620693,0.37858530879,0.67815798521,0.748865783215,0.521964251995,0.68883484602,-0.602032959461,-0.36164945364,-0.551611661911,-0.350751966238,-0.121445015073,-0.332118749619,-0.46967536211,-0.316764563322,-0.429772973061,-0.545767188072,-0.407498896122,-0.488617837429,-0.389929682016,-0.190196469426,-0.354004949331,-0.487542718649,-0.389865368605,-0.441332608461,1.20797562599,-0.617560386658,-0.66512209177,0.836959123611,-0.226149007678,-0.278393536806,1.18482291698,-0.558738827705,-0.670981943607,-0.551986277103,-0.393063694239,-0.516158461571,-0.48549297452,-0.300982803106,-0.44560778141,-0.483952015638,-0.358157217503,-0.448525846004,0.638642668724,0.408983141184,0.593676626682,0.487166017294,0.251964837313,0.477994114161,0.573003709316,0.400094419718,0.531388223171,-0.816422522068,-0.613538622856,1.22514092922,-0.315836310387,-0.224817246199,1.11676084995,-0.564646959305,-0.394028574228,1.06955397129,0.548481762409,0.355515897274,0.505213618279,0.438604533672,0.261560022831,0.417947113514,0.533850252628,0.375488013029,0.519181907177,-1.29014658928,-0.453026622534,-1.21627295017,-0.231692180037,-0.11038608104,-0.207744568586,0.906191945076,0.482897520065,0.883731663227,0.610317647457,0.441304206848,0.576751112938,0.500437855721,0.323090821505,0.470788568258,0.487041085958,0.407363057137,0.429259330034,-0.694866001606,-0.521856069565,-0.612320482731,-0.494760900736,-0.356362432241,-0.462382942438,-0.588684380054,-0.460752993822,-0.521609246731,-0.584086894989,-0.34487837553,-0.536382079124,-0.402370303869,-0.186952009797,-0.379510909319,-0.465263724327,-0.273808509111,-0.414378762245,-0.493037760258,-0.299933552742,-0.464316964149,-0.404158592224,-0.159905001521,-0.388101458549,-0.561794281006,-0.329940319061,-0.516712903976,1.04370701313,-0.596080899239,-1.9240115881,0.695807039738,-0.551939487457,-0.639045000076,1.0541113615,-0.695014715195,-1.69439339638,0.377833992243,0.952896952629,0.552337169647,0.87863689661,0.338616847992,0.731290280819,0.744161427021,0.556721150875,0.745288431644,1.22018241882,0.80181825161,1.16671323776,0.0726425796747,-0.0188681799918,0.0701299384236,-1.07287883759,-0.481824606657,-0.91070908308,-0.547655820847,-0.36785492301,-0.48783916235,-0.426471441984,-0.174308553338,-0.397624760866,-0.504227638245,-0.306803226471,-0.452423810959,-1.36693418026,0.468097507954,0.390713095665,0.444616407156,0.300790667534,0.378034234047,0.40024921298,0.287298828363,-1.95513689518,1.47537457943,0.820800483227,1.34467709064,-0.848648369312,-0.668239891529,-0.78744918108,-1.04644072056,-0.500571787357,-0.966378331184,-0.540089607239,-0.436607658863,-0.496923059225,-0.415373802185,-0.304097890854,-0.38600179553,-0.426919877529,-0.366397827864,-0.392283409834,0.620321929455,0.396832019091,0.596795320511,0.479858338833,0.306470304728,0.462742954493,0.665405929089,0.415485560894,0.623670458794,-0.822181165218,1.0158135891,-0.891254782677,-0.0712935179472,0.927897274494,-0.131922870874,-0.789847135544,1.05962455273,-0.840404570103,-0.523479938507,-0.292235046625,-0.483511686325,-0.40155506134,-0.209876954556,-0.384235411882,-0.493366003036,-0.322384089231,-0.449397057295,-0.525737345219,-0.313858062029,-0.486225575209,-0.423097103834,-0.211784318089,-0.403695911169,-0.480349719524,-0.298467367887,-0.444558858871,-0.606476247311,-0.363459616899,-0.53416210413,-0.986233890057,-0.401537418365,-0.9405554533,1.35665082932,0.931165993214,1.2678937912,-1.05555033684,-0.627704918385,-0.995933055878,-0.486189544201,-0.514222621918,-0.467443853617,1.01369321346,0.600383102894,0.937642216682,0.652077913284,0.455244362354,0.608086287975,0.441559642553,0.282650262117,0.416207194328,0.540449678898,0.389290779829,0.517678678036,-0.477708488703,-0.369533240795,-0.437739938498,-0.394792467356,-0.28352701664,-0.366698384285,-0.452155172825,-0.365010619164,-0.430478453636,-1.25146722794,-1.09109687805,-1.16657829285,0.242972299457,0.126289382577,0.197724089026,1.2268102169,0.81802123785,1.16203606129,-0.545262873173,-0.355312794447,-0.510136604309,-0.398401409388,-0.231487154961,-0.370645225048,-0.487774252892,-0.318886697292,-0.453797191381,0.648408472538,0.443249821663,0.611141562462,0.462481945753,0.280588746071,0.437166154385,0.444100171328,0.303923070431,0.413542091846,-0.784656941891,1.14699137211,-0.953074872494,-0.271657973528,0.858250439167,-0.342989265919,-0.817605316639,1.17283499241,-0.834201514721,0.758026182652,0.993943929672,-0.613605260849,0.641128540039,0.480229645967,1.08831715584,0.693807244301,0.897916197777,-0.867658495903,-0.545151174068,-0.294231414795,-0.493272125721,-0.315628021955,-0.133993864059,-0.307547777891,-0.522652566433,-0.309022039175,-0.475065052509,-0.520349264145,-0.372527122498,-0.497023999691,-0.428058952093,-0.19768859446,-0.407788693905,-0.482104688883,-0.398013025522,-0.440364152193,-0.52857786417,-0.399588882923,-0.490573108196,-0.463505148888,-0.248869732022,-0.419777333736,-0.570871829987,-0.419628500938,-0.504200220108,0.641738295555,0.414245694876,0.595211684704,0.498261034489,0.272788017988,0.4577447474,0.534529447556,0.348608583212,0.487738579512,1.20949935913,0.550811827183,1.15225887299,-0.336216270924,-0.475132226944,-0.352488517761,-0.98649096489,-0.445462703705,-0.968115508556,0.759730935097,0.554969787598,0.864409029484,0.756775975227,0.164809554815,0.51537156105,0.483212441206,0.614453852177,0.658322811127,-1.10409724712,-0.337370455265,-1.07736134529,-0.625051736832,1.12535786629,-0.620582818985,-1.26563608646,-0.42303660512,-1.18092405796,-0.580840170383,-0.325410038233,-0.537535250187,-0.391835570335,-0.183978363872,-0.376850217581,-0.491194278002,-0.290436506271,-0.439105391502,0.616635560989,0.371103614569,0.571333706379,0.410372108221,0.210224032402,0.378521829844,0.537129461765,0.327804505825,0.517727792263,0.760335862637,0.508572280407,0.723555028439,0.590455532074,0.336691945791,0.570632755756,0.663283824921,0.416582942009,0.638548791409,-1.40839958191,-0.832553744316,-1.36892700195,-0.13740375638,0.248739659786,-0.268788814545,0.994373261929,0.68693870306,0.931130468845,0.665407240391,0.478219628334,0.601980626583,0.617639660835,0.411186128855,0.574586033821,0.75139695406,0.562370717525,0.684544146061,-0.577130496502,-0.362691491842,-0.519605875015,-0.369866937399,-0.194801226258,-0.356170088053,-0.505156457424,-0.347246706486,-0.472790360451,-0.578416407108,-0.366464585066,-0.533113896847,-0.423440754414,-0.19053170085,-0.408105969429,-0.562410056591,-0.387884199619,-0.50547516346,-1.36506199837,-0.533686339855,-1.17131817341,-0.595158219337,-0.090867869556,-0.640697300434,1.15638518333,0.726261734962,1.07319748402,-0.606648087502,-0.336586803198,-0.574665784836,-0.417055100203,-0.194960981607,-0.388933449984,-0.490044504404,-0.268063008785,-0.45655310154,1.36642694473,0.764927983284,1.26098072529,-1.08793270588,-0.515582859516,-1.01113843918,-0.642907440662,-0.256182134151,-0.554958760738,-0.523154079914,-0.350190460682,-0.495770722628,-0.394728153944,-0.244893193245,-0.376731842756,-0.515190243721,-0.353042453527,-0.497492194176,0.595598518848,-1.50594997406,0.526344835758,0.173348844051,-1.09447801113,0.218331977725,0.610179126263,-1.59088408947,0.560872972012,1.65902662277,0.80745524168,1.50918745995,0.410949856043,-0.192134693265,0.388802111149,-0.271650373936,-0.102851331234,-0.149098157883,-0.514779031277,-0.448404341936,-0.478879064322,-0.375181168318,-0.283104389906,-0.359369814396,-0.420222461224,-0.360360920429,-0.393366008997,0.581093192101,0.340644329786,0.551143527031,0.418284237385,0.20683991909,0.387596517801,0.565863490105,0.319452166557,0.531468689442,-0.48357668519,-0.493021547794,-0.459508508444,-0.491143763065,-0.463893264532,-0.490275621414,-0.422835737467,-0.515374004841,-0.383435338736,0.839898467064,0.670762240887,0.734616279602,0.747270941734,0.402558237314,0.83698874712,0.570580303669,0.86123418808,0.0608609355986,-0.554345548153,-0.316447794437,-0.474560141563,-0.399554491043,-0.17070299387,-0.371893912554,-0.528098642826,-0.301651239395,-0.479476749897,1.29000985622,0.708242237568,1.17967641354,-0.756098389626,-0.435026824474,-0.722752034664,-1.13751888275,-0.539957940578,-0.993532061577,-0.773312389851,-0.665262758732,1.12507796288,-0.345045804977,-0.409374475479,0.830634891987,-0.733390212059,-0.478986173868,1.12316632271,0.73938280344,0.483200132847,0.688550770283,0.440731227398,0.241611719131,0.431562572718,0.63518923521,0.448517769575,0.608560740948,0.409336388111,0.262294411659,0.394276618958,0.339026302099,0.201575219631,0.31809040904,0.445455551147,0.291740566492,0.413327246904,0.513479888439,0.320302248001,0.486633747816,0.436922699213,0.271929711103,0.405452251434,0.55209851265,0.383614569902,0.509496688843,-0.914888799191,0.450394958258,-0.785336196423,0.710646748543,0.394929200411,0.637437045574,0.799348413944,0.663113534451,0.739107728004,-0.557069778442,-0.335286855698,-0.500706493855,-0.399326235056,-0.175274714828,-0.361988723278,-0.520827233791,-0.328301280737,-0.4844147861,1.33518230915,0.638537824154,1.2324103117,-0.995913565159,-0.451551377773,-0.90674841404,-0.806183338165,-0.227307021618,-0.743417620659,0.907229363918,0.688959360123,0.857719838619,0.730118155479,0.433410853148,0.663319766521,-1.04616546631,0.791712760925,-1.6272367239,0.674336433411,0.382728666067,0.616931557655,0.375897943974,0.229114815593,0.361892580986,0.531626880169,0.292620837688,0.482950925827,-0.469218730927,-0.303749769926,-0.427593946457,-0.36864694953,-0.237951859832,-0.348964571953,-0.409938633442,-0.273232460022,-0.368172377348,-1.59352040291,-0.366416424513,0.981869220734,-0.65724003315,-0.530424773693,0.655731499195,-1.44357073307,-0.465112030506,0.931706428528,-0.654702842236,-0.267854303122,-0.606563806534,-0.481654196978,0.0188010372221,-0.435164302588,-0.57091575861,-0.347727328539,-0.54189991951,0.554981648922,0.375755697489,0.524337053299,0.44308796525,0.291210442781,0.424118429422,0.478918343782,0.327477276325,0.458442807198,1.20958971977,0.782093763351,1.12993371487,-0.481682151556,-0.217455163598,-0.411189317703,-1.47802889347,-0.85126978159,-1.29986798763,-0.495102405548,-0.356314897537,-0.453815460205,-0.410537064075,-0.281752586365,-0.380493998528,-0.438655436039,-0.330382496119,-0.396968185902,0.677039921284,0.498860269785,0.614787220955,0.504057824612,0.359430044889,0.478339642286,0.62646907568,0.471811324358,0.580200791359,-0.730896055698,-0.353634744883,-0.662748634815,-0.757787108421,-0.425347775221,-0.678082585335,1.1268299818,0.628972411156,1.04465651512,0.658075809479,0.431821942329,0.596886813641,0.507148981094,0.327701598406,0.476543754339,0.517312586308,0.364215612411,0.466354429722,0.49203941226,0.4890871346,0.453711956739,0.507303237915,0.418585479259,0.48886230588,0.542827904224,0.49970304966,0.498378038406,0.535251140594,0.470513790846,0.48073810339,0.558393895626,0.465190827847,0.504610478878,0.419544547796,0.384346038103,0.365856528282,0.885773837566,0.599310815334,0.796936511993,0.690585076809,0.40728956461,0.656980931759,0.725299537182,0.436935007572,0.639300882816,1.08507335186,0.59616112709,1.02663624287,-0.369833648205,-0.0254934560508,-0.352665692568,-1.23829185963,-0.740083932877,-1.08676981926,-0.338051915169,-0.958241760731,0.504151463509,0.652051329613,-1.25773799419,0.587238967419,0.44325709343,-0.834962427616,-0.189707815647,1.2383081913,0.618785738945,1.13333189487,-0.545695364475,-0.168956518173,-0.507237315178,-1.03682458401,-0.571980476379,-0.916975021362,0.852081477642,0.477473258972,0.79108184576,0.489619284868,0.202804222703,0.465287238359,0.638319671154,0.328448325396,0.567846417427,-0.559339046478,-0.3670578897,-0.500819146633,-0.392535805702,-0.194094926119,-0.358122199774,-0.550513923168,-0.399523615837,-0.498230934143,0.545339465141,0.401384651661,0.527833580971,0.504501461983,0.309127777815,0.482935398817,0.471809029579,0.298392832279,0.436509549618,0.630055606365,0.42141699791,0.610916495323,0.543694376945,0.262222498655,0.521630108356,0.648252904415,0.364792346954,0.603003025055,0.750894606113,0.273818910122,0.743735432625,0.398105800152,0.337538272142,0.387165129185,0.887958645821,0.284822434187,0.849655270576,-0.859444737434,-0.32650655508,-0.787688314915,-0.771297693253,-0.627349972725,-0.666142523289,1.41041696072,0.506905794144,1.28005993366,0.806854248047,0.491276413202,0.731575191021,0.607325255871,0.374604612589,0.610407590866,0.738434672356,0.534772872925,0.674702942371,0.488134622574,0.336020022631,0.446268707514,0.399494737387,0.240325450897,0.383373945951,0.527533710003,0.390200704336,0.491447627544,-0.538329780102,-0.295112073421,-0.494684547186,-0.384448319674,-0.161646515131,-0.367323219776,-0.552846550941,-0.296305269003,-0.489859104156,-0.614337265491,-0.365688741207,-0.57787322998,-0.436718076468,-0.243913754821,-0.412520885468,-0.54571980238,-0.346552282572,-0.510205507278,0.642755627632,0.402675539255,0.59057110548,0.445990055799,0.228964984417,0.429560154676,0.48808375001,0.255122631788,0.444880574942,-0.55797791481,-0.304134935141,-0.521493554115,-0.367642700672,-0.122866503894,-0.331252962351,-0.562540888786,-0.327533900738,-0.510092973709,1.28472518921,0.488738447428,1.22867584229,-0.359353333712,-0.379073262215,-0.387893527746,-0.786064088345,-0.32633626461,-0.753986299038,0.538186132908,0.282790541649,0.515204966068,0.4089448452,0.212746664882,0.384161263704,0.535576999187,0.330635488033,0.50125849247,0.637020170689,0.42619395256,0.596624314785,0.426067948341,0.23786047101,0.409551590681,0.524095594883,0.360842853785,0.488784402609,-0.552889943123,-0.408940374851,-0.52609115839,-0.454761385918,-0.278337687254,-0.422223418951,-0.457525014877,-0.325090944767,-0.432596594095,0.553770303726,0.439583718777,0.505300939083,0.44778239727,0.311316221952,0.436611562967,0.47594410181,0.336006999016,0.447495937347,0.618050038815,0.360336780548,0.568810999393,0.470472455025,0.231894657016,0.429575681686,0.594368040562,0.344933956861,0.536708414555,0.611463844776,0.659853935242,0.562089443207,0.561744511127,0.385726243258,0.51474237442,0.727295517921,0.492097824812,0.658718168736,-0.603521764278,-0.368730962276,-0.567513465881,-0.422452777624,-0.237556293607,-0.40908357501,-0.538704872131,-0.344401627779,-0.516167283058,0.537721335888,0.337459385395,0.496814310551,0.421216249466,0.255906969309,0.410278558731,0.514362573624,0.363700062037,0.464916616678,-0.530447542667,-0.330420285463,-0.478933572769,-0.355033606291,-0.177215903997,-0.328969687223,-0.521129727364,-0.321824043989,-0.464752167463,0.62153929472,0.511526942253,0.591465711594,0.717711567879,0.362388342619,0.481832444668,-0.976775944233,0.616943120956,0.457142978907,0.707010805607,0.496026992798,0.667386233807,0.491891920567,0.302826583385,0.466802030802,0.601409554482,0.402974665165,0.560521125793,-0.527799606323,-0.405568778515,-0.48161303997,-0.40841203928,-0.252423942089,-0.372646540403,-0.429873943329,-0.301959335804,-0.401688814163,0.529960691929,0.443863213062,0.480269640684,0.520496964455,0.438532978296,0.466565072536,0.570969462395,0.516375780106,0.516906201839,-0.482870161533,-0.458169311285,-0.444930434227,-0.456638991833,-0.382500082254,-0.422379046679,-0.467345744371,-0.521955251694,-0.443004727364,-0.545075833797,-0.350027620792,-0.497857153416,-0.405626058578,-0.189660206437,-0.361911535263,-0.494327008724,-0.343298912048,-0.454759120941,0.868136525154,0.513203084469,0.799650251865,0.354341357946,0.204850062728,0.348529428244,-1.78773903847,-0.455175578594,-1.66958427429,-0.672957897186,-0.413030087948,-0.626793682575,-0.522110939026,-0.290139466524,-0.504566371441,-0.616295814514,-0.414093822241,-0.559199392796,0.631230592728,0.406741768122,0.597414433956,0.386459439993,0.235402703285,0.393748641014,0.502973437309,0.3443608284,0.501679897308,0.613297700882,0.416630685329,0.574913561344,0.459270507097,0.274755090475,0.429481208324,0.5176897645,0.361290425062,0.473664939404,0.73594635725,0.491268694401,0.667489528656,0.540841698647,0.325093150139,0.491754978895,0.563639342785,0.384616374969,0.532169699669,1.35473930836,0.808362066746,1.22238314152,-0.89346987009,-0.375179827213,-0.807946205139,-0.71732801199,-0.540902793407,-0.64131706953,-1.61016952991,-0.917262971401,-1.54122328758,0.564268767834,0.210325077176,0.555680334568,0.321824759245,0.527769386768,0.291485369205,0.551967322826,0.299356251955,0.497614502907,0.510966181755,0.271817207336,0.47607806325,0.658641695976,0.414829909801,0.617672145367,0.46706572175,0.316299498081,0.461205005646,0.358867824078,0.237930476665,0.345734506845,0.419853359461,0.302380681038,0.398969084024,-0.508953392506,-0.336964696646,-0.465240508318,-0.392050713301,-0.241470038891,-0.374487578869,-0.49762147665,-0.340067833662,-0.469590872526,0.3967448771,0.24083301425,0.371348321438,0.298761218786,0.15852227807,0.28973069787,0.356278270483,0.228169053793,0.335240453482,-0.625031411648,-0.489765316248,-0.539203822613,-0.459903180599,-0.283507913351,-0.455622375011,1.45328533649,1.1768642664,1.35021972656,-0.543065011501,-0.289427280426,-0.488795846701,-0.368804603815,-0.126396298409,-0.349994808435,-0.478630870581,-0.334779322147,-0.424242794514,0.599053323269,0.41251924634,0.573948681355,0.56630718708,0.331624239683,0.529442727566,0.671504318714,0.496193349361,0.635424613953,0.47494572401,0.619458377361,0.385882139206,0.441604882479,0.670721113682,0.392078220844,0.370118409395,0.546487152576,0.293620467186,0.717348754406,0.331534922123,0.684442698956,0.60163384676,0.251446932554,0.569069087505,0.780794203281,0.457097530365,0.729318320751,0.626541018486,0.424128174782,0.59405708313,0.457859307528,0.29885661602,0.450181394815,0.569266557693,0.421733766794,0.522541165352,1.30123782158,0.694738566875,1.22931909561,-0.297709465027,-0.442159831524,-0.321278840303,-1.27038705349,-0.830738008022,-1.13481497765,-0.622485995293,-0.334142148495,-0.575656235218,-0.347437918186,-0.0855558812618,-0.324160337448,-0.466579854488,-0.268603622913,-0.411111831665,-0.500756561756,-0.355082035065,-0.457557052374,-0.409348219633,-0.29638171196,-0.369927346706,-0.517818927765,-0.36157387495,-0.458740353584,-1.27065861225,-0.708408355713,-1.1708445549,-0.220295503736,-0.243219465017,-0.270172894001,1.13081097603,0.921456694603,0.968222498894,0.599188029766,0.314085274935,0.562536358833,0.503007113934,0.23517587781,0.480811029673,0.665155887604,0.404002457857,0.621749699116,-0.511326372623,-0.381995052099,-0.481942266226,-0.358117610216,-0.103106632829,-0.338235318661,-0.567059159279,-0.381665974855,-0.518755912781,-1.14595198631,-0.541003108025,-1.07950341702,-0.799126088619,-0.451661586761,-0.744554340839,1.20652318001,0.605690598488,1.12933886051,-0.473445594311,-0.350900501013,-0.427178263664,-0.421720713377,-0.242654338479,-0.399324715137,-0.465490818024,-0.324221044779,-0.417007535696,0.542525351048,0.387500196695,0.520381391048,0.4138918221,0.27231413126,0.381731241941,0.484771221876,0.325960308313,0.458774805069,-0.614321768284,-0.396304011345,-0.545910716057,-0.435786187649,-0.264260232449,-0.391580879688,-0.550236225128,-0.350062400103,-0.500836789608,0.565374732018,0.381504654884,0.513492643833,0.437657207251,0.289663672447,0.421063452959,0.525856733322,0.417649179697,0.487492203712,0.556468129158,0.410917550325,0.528484165668,0.432327121496,0.286339521408,0.413565278053,0.509968221188,0.367885023355,0.464332789183,-0.55646032095,-0.385741025209,-0.519968032837,-0.420842140913,-0.276097029448,-0.393318146467,-0.495477795601,-0.357326209545,-0.476519405842,-1.5157443285,-0.472566455603,0.845879793167,-0.836082339287,-0.303622454405,0.495564669371,-1.43198084831,-0.455416917801,0.749598443508,-0.514698147774,-0.304193198681,-0.486282974482,-0.416866183281,-0.177955329418,-0.3723782897,-0.524041354656,-0.288763016462,-0.485516190529,-0.520146608353,-0.364375889301,-0.468575924635,-0.425824344158,-0.276671767235,-0.387412935495,-0.477931499481,-0.370024770498,-0.44106093049,-0.7068785429,-0.160993620753,-0.63614076376,0.956734716892,0.884652197361,0.86043292284,-0.527677178383,0.0257773064077,-0.494971960783,1.2113648653,0.732015609741,1.14291119576,-0.709371685982,-0.320719838142,-0.710649132729,-1.30652356148,-0.504806995392,-1.16123962402,1.37839460373,0.496962398291,1.30226993561,-0.461296021938,-0.910128712654,-0.395455926657,-0.349916517735,-1.79713654518,-0.265876352787,-0.451960355043,-0.44410559535,-0.392282873392,-0.498947918415,-0.423557698727,-0.469572156668,-0.448585569859,-0.452579915524,-0.408471167088,-0.568926155567,-0.368299275637,-0.526454865932,-0.390133321285,-0.214485421777,-0.364858657122,-0.504098296165,-0.321004986763,-0.46820217371,0.548383772373,0.672684013844,0.524741351604,0.558214128017,0.287262231112,0.49132463336,0.370870232582,0.589444756508,0.371556341648,1.04657304287,-0.799761652946,-1.03095066547,0.687449395657,-0.19460195303,-0.455628424883,0.937496244907,-0.717309892178,-1.08032500744,0.925022125244,-0.233033627272,-1.34249937534,0.596785187721,-0.488080084324,-0.413398265839,0.933766782284,-0.473680049181,-1.25394320488,0.629829883575,0.386817783117,0.581972122192,0.52222776413,0.281428426504,0.510109126568,0.679086506367,0.441030979156,0.624177098274,-0.55030721426,-0.352072507143,-0.498904138803,-0.381090700626,-0.214137390256,-0.34563049674,-0.414547562599,-0.268225073814,-0.362007975578,0.67652207613,0.492874741554,0.611626088619,0.577198207378,0.393600076437,0.555839002132,0.627886176109,0.5186419487,0.556414663792,1.00413525105,-0.481600940228,-0.892479658127,0.640620648861,0.0412280410528,-0.500389516354,0.8437743783,-0.489550799131,-0.72351360321,0.566762268543,0.463391453028,0.493232607841,0.498299658298,0.452786237001,0.44624876976,0.575344502926,0.470090270042,0.519903302193,-1.52644896507,0.592238783836,-1.53591501713,0.613268971443,0.420630395412,0.584225952625,0.81417876482,0.593257248402,0.793905138969,-0.519626498222,-0.293523848057,-0.469962269068,-0.343543887138,-0.124677747488,-0.316613733768,-0.508774936199,-0.307660788298,-0.484994322062,-0.545205175877,-0.39163812995,-0.518324196339,-0.349388986826,-0.191001221538,-0.325399935246,-0.528595864773,-0.344974756241,-0.49241361022,-0.56849861145,-0.335148990154,-0.498124361038,-0.393579512835,-0.154709219933,-0.34516748786,-0.546851813793,-0.35760307312,-0.487310945988,-0.475758165121,-0.353530853987,-0.452858328819,-0.410338431597,-0.278064757586,-0.394576281309,-0.498286664486,-0.368226796389,-0.4687705338,-0.51983499527,-0.364965498447,-0.475037485361,-0.405101507902,-0.228226110339,-0.385110288858,-0.520066201687,-0.395136624575,-0.462315142155,-0.55451720953,-0.352082818747,-0.503795981407,-0.401028066874,-0.228466302156,-0.378785163164,-0.494459152222,-0.327826231718,-0.446782559156,-0.58252197504,-0.295419514179,-0.520932197571,-0.397901207209,-0.0771433338523,-0.371254891157,-0.506900966167,-0.349231213331,-0.46749663353,0.635478615761,0.371991187334,0.578938186169,0.442806363106,0.272402822971,0.437517732382,0.568769097328,0.362120300531,0.53243124485,-1.06168353558,-0.728003203869,-0.906665503979,-0.765903711319,-0.476868778467,-0.715679705143,1.46870172024,0.820007920265,1.36994206905,0.71296608448,0.437832087278,0.676885724068,0.604698896408,0.310515582561,0.571082830429,0.667931199074,0.372251272202,0.618965744972,0.784113287926,0.511292099953,0.740282654762,0.595418930054,0.36283069849,0.572702169418,0.721720993519,0.474440038204,0.676908969879,0.458022117615,0.331302344799,0.439459472895,0.372276484966,0.243721351027,0.368259966373,0.464629799128,0.354413568974,0.445656239986,0.580115914345,-1.80257451534,0.59167277813,0.431645005941,-0.889241278172,0.45399454236,0.541896402836,-1.19581639767,0.545442461967,-0.534204125404,-0.367478966713,-0.486324369907,-0.363390058279,-0.211064115167,-0.341589778662,-0.451375693083,-0.315326333046,-0.404505074024,-0.552816748619,-0.409150987864,-0.494876980782,-0.376814901829,-0.242168933153,-0.349884808064,-0.523231804371,-0.370597183704,-0.482137799263,0.873657345772,0.484634459019,0.768182873726,0.653517127037,0.362641632557,0.687359988689,0.750213861465,0.631039977074,0.597599089146,-0.510672271252,-0.338268816471,-0.465871781111,-0.411239743233,-0.249955952168,-0.378412991762,-0.540189087391,-0.382935583591,-0.49413818121,-0.755606114864,-0.0885861217976,-0.72077357769,-0.593726158142,-0.126947790384,-0.534764528275,1.13898181915,0.933987021446,1.07681286335,-0.48940590024,-0.468786150217,-0.455904573202,-0.471008419991,-0.442944347858,-0.449820369482,-0.491979777813,-0.433013677597,-0.459878206253,-1.44931817055,-0.975897312164,-1.43393146992,-0.102687105536,-0.599665701389,0.0204704869539,0.946675360203,0.501604676247,0.825782120228,0.559580981731,0.341256350279,0.535640954971,0.442715078592,0.25131842494,0.428539425135,0.529671728611,0.315862447023,0.489785611629,0.578265309334,0.451707094908,0.535910725594,0.478531122208,0.337629109621,0.450306892395,0.494492143393,0.367991030216,0.455515384674,-0.55942851305,-0.357968449593,-0.523195266724,-0.393545895815,-0.217499017715,-0.370359063148,-0.4827696383,-0.282263875008,-0.453065574169,-0.517435193062,-0.385480105877,-0.478761225939,-0.459480673075,-0.291161447763,-0.420320391655,-0.478503704071,-0.337416857481,-0.455505907536,0.765328228474,0.508621275425,0.729887783527,0.572265446186,0.348271906376,0.540755689144,0.681480526924,0.469670802355,0.642359614372,-0.591845452785,-0.399864196777,-0.538893043995,-0.443000853062,-0.211029917002,-0.419200837612,-0.545129835606,-0.301226586103,-0.489885032177,1.69931483269,0.78386425972,1.57347261906,-0.47098082304,-0.700886130333,-0.425202608109,-0.447976201773,-0.256980717182,-0.372040718794,0.830720424652,0.602293908596,0.761386454105,0.612778842449,0.324307590723,0.574971675873,0.66497439146,0.384143322706,0.617492198944,-0.537122011185,-0.31004101038,-0.492636889219,-0.413476288319,-0.22264058888,-0.386898726225,-0.466604441404,-0.256740242243,-0.428078174591,-0.601803541183,-0.330316543579,-0.541279613972,-0.307221084833,-0.202780544758,-0.289530843496,-0.503647446632,-0.311246931553,-0.443880677223,0.539139986038,0.358429908752,0.496430754662,0.44299313426,0.248334556818,0.408634454012,0.522041857243,0.345870494843,0.464854866266,0.745499849319,0.420080691576,0.693365633488,0.510135769844,0.233563646674,0.493208825588,0.612816035748,0.338241308928,0.595227897167,1.12616181374,-0.530780375004,-1.41059958935,0.55535697937,-0.344345033169,-0.581251323223,1.05693602562,-0.488470345736,-1.35423600674,-0.560522973537,-0.396113425493,-0.547822535038,-0.402209341526,-0.255028486252,-0.382954180241,-0.463245987892,-0.304218620062,-0.452107071877,0.609583973885,0.426299661398,0.566926300526,0.443119972944,0.250812530518,0.429810702801,0.573059916496,0.356083780527,0.530244171619,-0.953163862228,-0.771910846233,1.16652810574,-0.424186348915,-0.455301880836,1.01211631298,-0.835423469543,-0.735165834427,1.04157304764,0.580595314503,0.356912523508,0.531054973602,0.47230476141,0.265595763922,0.455551564693,0.529940903187,0.332061618567,0.494438767433,0.524821519852,0.375760197639,0.498255044222,0.467054992914,0.298096299171,0.422938257456,0.532192587852,0.407023578882,0.491692841053,-0.609706282616,-0.34075948596,-0.568008840084,-0.377283036709,-0.0920846611261,-0.322674363852,-0.60853523016,-0.39012208581,-0.593780934811,1.35886847973,0.825821936131,1.23228597641,-1.02071225643,-0.463171601295,-0.933697342873,-0.946733951569,-0.423358798027,-0.875171244144,-0.594786405563,-0.350133806467,-0.559324622154,-0.42860981822,-0.217346474528,-0.431682527065,-0.496682584286,-0.305013567209,-0.458015203476,-0.561100840569,-0.354306399822,-0.521559596062,-0.428284853697,-0.240695774555,-0.397889375687,-0.491972416639,-0.290816426277,-0.451767802238,0.598291099072,0.424824863672,0.561534166336,0.452861487865,0.300461381674,0.457998991013,0.482945382595,0.325813293457,0.466038256884,-1.81399405003,-0.445294946432,1.00312542915,-0.625269114971,-0.698993802071,0.737511456013,-1.76099097729,-0.621934056282,1.0455801487,0.670950889587,0.380403667688,0.614654242992,0.503633499146,0.283507823944,0.484465926886,0.681209623814,0.481534004211,0.649819850922,-0.488298863173,-0.366310060024,-0.480943977833,-0.364598274231,-0.12482766062,-0.349391132593,-0.528981864452,-0.411904513836,-0.486363828182,-0.513451814651,-0.342546701431,-0.478006720543,-0.343640655279,-0.198287039995,-0.316462099552,-0.473318427801,-0.317026257515,-0.457302957773,-0.524826109409,-0.484852612019,-0.781954169273,0.947088837624,0.548694431782,0.870623290539,-0.706784188747,-0.321672201157,-0.721805334091,0.584118783474,0.294897079468,0.538455426693,0.498547881842,0.226409941912,0.473466992378,0.705556094646,0.428029030561,0.662761747837,0.545582592487,0.514511585236,0.46594452858,0.530924022198,0.441906481981,0.502189040184,0.496345371008,0.505168914795,0.430381059647,0.603988647461,0.294927537441,0.573033928871,0.500389814377,0.233342707157,0.472319960594,0.719611465931,0.397032141685,0.672319531441,-0.519778490067,-0.377976924181,-0.487654954195,-0.366738438606,-0.223777517676,-0.343110173941,-0.449813604355,-0.324271857738,-0.419919133186,0.668837547302,-1.46763193607,0.673085927963,