0.468498319387,-0.256942093372,-0.65791451931,-0.838040530682,-2.35056734085,-1.70592081547,-0.943651616573,-1.58354508877,-0.565970182419,0.600467443466,1.19899213314,0.786381661892,1.2559081316,2.55696344376,1.62196314335,0.867332875729,1.59570848942,0.855685770512,-1.14272856712,-1.43387937546,-0.566385149956,-1.52040863037,-1.96616959572,-0.897796571255,-0.684689342976,-0.9692953825,-0.39935490489,0.807552695274,-0.0517558269203,-0.855972111225,2.53605222702,2.12645339966,0.235850840807,1.67091822624,1.71400392056,0.678164839745,-1.59897661209,-2.22823667526,-1.41433608532,-1.03778600693,-1.25565123558,-0.555158913136,0.209415301681,0.376798063517,0.160580575466,-1.20462942123,-1.85662913322,-1.13464784622,-1.58591961861,-2.10133576393,-1.1552618742,-0.732508480549,-0.83356487751,-0.263594150543,-0.0993782430887,-1.37314510345,-1.17471981049,2.35870456696,1.34163022041,-0.201804637909,2.12544035912,1.40774571896,-0.100721381605,0.716775000095,-1.48698592186,0.355465710163,1.8512365818,-2.34500455856,-0.172960937023,1.51517438889,-0.988438785076,-0.557856976986,0.621816396713,1.38788163662,1.19108831882,1.08141386509,1.96806824207,1.39228701591,0.508135795593,0.675710976124,0.41268324852,-0.947434067726,-1.37830710411,-0.793201565742,-1.19803202152,-1.7206556797,-1.26485848427,-0.511131882668,-0.879134058952,-0.534846425056,0.653861761093,-0.39208111167,-1.48133122921,1.15291237831,-1.11199831963,-2.37342405319,0.616501748562,-1.01250338554,-1.42997050285,1.22683846951,1.51484680176,0.465630888939,1.46371221542,2.34438729286,1.12846362591,0.628749847412,1.13667023182,0.54831302166,0.767591059208,1.44380140305,0.878169178963,1.30153393745,1.93495953083,0.977294385433,0.804931163788,0.985457062721,0.266910403967,1.12437772751,1.64278388023,0.687950789928,1.94649636745,2.88126134872,1.28169178963,1.01802539825,1.49026930332,0.60779440403,0.867134034634,1.59561645985,0.894505023956,1.69906163216,2.45944714546,1.22402501106,1.04082036018,1.21985292435,0.420192360878,1.11519706249,1.48598861694,0.630598783493,1.33461689949,2.28828287125,1.198584795,0.527743399143,1.08600962162,0.524402618408,-1.00326490402,-1.37436652184,-0.866108298302,-1.17112755775,-1.61580741405,-1.08613944054,-0.483951508999,-0.933739244938,-0.516331851482,-1.21732866764,-1.28834760189,0.105220526457,-1.00597679615,-2.29123806953,-1.23471772671,0.0887023210526,-1.14856791496,-1.52027785778,1.09033870697,1.68734478951,0.941182613373,1.68716645241,2.50556063652,1.32300949097,0.77841091156,1.14477717876,0.587577283382,0.857880353928,1.43346214294,0.785690009594,1.33526718616,2.09609127045,1.06547427177,0.6878464818,1.13458013535,0.5577070117,-1.23759925365,-2.28009986877,-0.953445672989,1.98530316353,1.37458562851,-0.762496709824,-0.930000424385,0.292776852846,1.20984733105,0.96602588892,1.54280269146,0.709517717361,1.48850631714,2.23128962517,1.0297511816,0.741557121277,0.992603480816,0.4150390625,0.975741505623,1.52796566486,0.765405654907,1.38340044022,2.23598647118,0.905969679356,0.519425809383,0.945422947407,0.244391217828,0.913185298443,1.27678227425,0.549583017826,1.21671581268,1.85953867435,0.917904555798,0.560180544853,0.934680342674,0.419217258692,1.92234361172,-1.29346299171,-0.490581840277,1.43279325962,0.979257524014,-1.2254370451,-0.367782741785,1.60447824001,-0.444558441639,-0.81532895565,-1.58696365356,-0.866293907166,-1.41259002686,-2.13800621033,-1.07351911068,-0.785811305046,-0.981777131557,-0.378204554319,0.573226332664,0.758432805538,0.0997387468815,0.924493789673,1.00756335258,0.190267026424,0.601482927799,0.702397882938,0.281475514174,-0.885889530182,-1.26297843456,-0.371188998222,-1.38282179832,-1.89843726158,-0.546787321568,-1.04464888573,-1.41753363609,-0.503769814968,0.986015617847,1.42984271049,0.629331469536,1.37564325333,2.47848033905,1.46095216274,0.577898442745,1.30269181728,0.936087489128,0.0788529366255,1.40500211716,1.37112057209,1.26357102394,2.07912015915,1.24821710587,1.12743151188,1.00880086422,-0.318452477455,0.233761057258,0.907268047333,-1.38462412357,0.157668739557,2.02177596092,-2.22306895256,-0.163082286716,1.47355663776,-1.30934655666,0.829862713814,1.27544057369,0.676087975502,1.52199232578,2.11134719849,0.856222093105,0.78865134716,1.12682235241,0.491288721561,-0.534307956696,-1.20501935482,-0.759587466717,-1.25210773945,-1.97552323341,-1.07175946236,-0.782617092133,-1.0407255888,-0.445889651775,-0.727290630341,-1.13654386997,-0.566435158253,-1.1138035059,-1.85112845898,-0.949750900269,-0.587965965271,-1.07623565197,-0.565160214901,1.26102232933,1.36122119427,0.45776322484,1.62061798573,1.7628916502,0.422714799643,0.667585790157,0.746219336987,0.162541553378,0.98216766119,1.14278566837,0.329835861921,1.45523047447,2.10978126526,1.05281162262,0.686334073544,1.23098897934,0.732453525066,0.871997058392,1.39087808132,0.677664458752,1.46291339397,2.17669343948,0.990847945213,0.802178680897,1.10559606552,0.452330082655,1.04206252098,1.51774287224,0.809977710247,1.23083055019,1.97762823105,1.18505752087,0.470585942268,0.86962133646,0.57398802042,0.361105144024,1.46047067642,1.12246251106,1.2992862463,2.09681248665,1.10622751713,1.04093766212,1.10134983063,0.194525614381,0.844581007957,1.5825201273,0.846422612667,1.38519024849,2.62758374214,1.42403292656,0.855562388897,1.35301232338,0.727615714073,1.16271209717,1.67279922962,0.895701706409,1.55567395687,2.16217684746,1.3170337677,0.859771668911,1.17685353756,0.647751271725,0.68846487999,1.53191971779,0.995359003544,1.36502718925,2.23683738708,1.25839197636,0.900957942009,1.13259971142,0.430118262768,-0.991015434265,-1.40683078766,-0.716806411743,-1.35135519505,-1.95509016514,-1.13467776775,-0.575162470341,-0.870664417744,-0.536136209965,-0.882261872292,-1.33964979649,-0.81604039669,-1.16373205185,-2.02588748932,-1.34835827351,-0.513454794884,-1.13900208473,-0.847424149513,1.49297189713,1.84592986107,0.688212394714,1.47002708912,1.61101698875,0.399214267731,0.339861541986,0.213801428676,-0.0198269970715,-1.15254569054,-1.68369138241,-0.796009778976,-1.67375087738,-2.22428750992,-1.19919264317,-0.748598456383,-1.11039888859,-0.520104587078,1.45841312408,-0.138521671295,-1.19939625263,0.627740740776,2.0445098877,1.33310782909,-1.70623242855,-1.13981664181,0.63756364584,-0.842569947243,-1.25314283371,-0.697445034981,-1.25054931641,-1.9664658308,-1.10666871071,-0.681301057339,-1.16181373596,-0.618362724781,-0.0870930403471,-1.73872447014,-1.77199196815,2.12635493279,0.47412481904,-1.18530440331,1.69624578953,1.00860619545,-0.0401582494378,-0.837511599064,-1.40937626362,-0.732697248459,-1.28691923618,-2.26703619957,-1.10514187813,-0.793760538101,-1.08320498466,-0.436132639647,0.995000958443,1.20891773701,0.608342468739,1.21446800232,1.36640703678,0.734108507633,0.562285006046,0.70420217514,0.447883546352,-0.77622961998,-1.19738078117,-0.758177578449,-1.29928719997,-1.85238540173,-1.23248183727,-0.660774230957,-0.999595463276,-0.611114263535,1.06735682487,1.64916324615,0.794966578484,1.44282078743,2.11282086372,0.952407479286,0.693522751331,0.907911300659,0.401502370834,-1.25746691227,-1.53012382984,-0.680107295513,-1.76836681366,-2.30705595016,-1.00433146954,-0.855038166046,-1.09903895855,-0.496914923191,1.16727614403,1.61197471619,0.857061624527,1.69685292244,2.10348010063,1.07493388653,0.765923202038,0.875416755676,0.454734504223,1.86266469955,2.36665725708,0.972917437553,1.74923610687,1.85749804974,0.702538132668,0.459350466728,0.429629296064,0.263251334429,0.530853629112,2.03807115555,2.06587743759,-0.397733539343,1.30822241306,1.51847827435,-0.630063176155,-0.639017522335,-0.235396519303,0.678496539593,-1.27347457409,0.825667023659,0.664299964905,-2.14197540283,1.7361189127,0.0865599438548,-1.16948437691,1.24420058727,-0.98860424757,-1.48484778404,-0.746367931366,-1.56725025177,-2.23612141609,-0.973148047924,-0.797427892685,-0.985294640064,-0.419152915478,-1.55318844318,-0.619580864906,0.771879076958,0.57460796833,1.4853887558,1.4620308876,0.95983928442,1.82984149456,1.26658582687,-0.607474446297,-1.24262297153,-0.947533965111,-0.743326067924,-1.61800539494,-1.42337203026,-0.397916674614,-0.692738294601,-0.544322729111,-1.03619217873,-1.28331804276,-0.544854819775,-1.34490323067,-1.68848824501,-0.820634543896,-0.596532523632,-0.866030216217,-0.58549785614,2.73757576942,0.988908886909,-1.40320765972,1.36535251141,-0.806515395641,-0.610641777515,-0.501920521259,-1.08638548851,0.378888338804,0.879949331284,1.54071903229,0.741980791092,1.37452936172,2.17659854889,1.12017035484,0.725506722927,1.12883937359,0.639959573746,-1.20008850098,-1.454677701,-0.677433073521,-1.44694697857,-1.83892142773,-0.87379950285,-0.688410043716,-0.833612561226,-0.47605329752,2.67766308784,2.51288437843,0.179786249995,1.37631380558,0.178672105074,-1.57634878159,-0.407215863466,-1.33192038536,-0.966975152493,-0.932255744934,-1.45978653431,-0.675398409367,-1.49335503578,-2.33946895599,-1.11160862446,-0.746417403221,-1.18792021275,-0.522763133049,-0.958243787289,-1.49172377586,-0.595753133297,-1.47140228748,-2.47007060051,-1.14401495457,-0.719896554947,-1.16197228432,-0.614342808723,1.21369600296,0.956454217434,-0.0624573901296,1.7808586359,1.99779570103,0.469551175833,1.01400959492,1.52110683918,0.680033564568,-0.65027731657,-1.43651354313,-0.728236854076,-1.00343883038,-2.14902424812,-1.24267160892,-0.362832397223,-0.845839977264,-0.596132457256,1.08093488216,1.53063368797,0.647683382034,1.3605672121,2.3230175972,1.1201505661,0.537553429604,1.17762851715,0.649631083012,1.824416399,0.79295027256,-0.0191305000335,1.27819013596,-1.13410842419,-1.80428540707,0.33693805337,-1.54819464684,-1.07665586472,-0.922532558441,-1.6743311882,-0.908739745617,-1.55602359772,-2.52266025543,-1.26635932922,-0.851775527,-1.25023698807,-0.569267809391,0.325436681509,1.90166020393,1.95892930031,-1.92947435379,-1.03453695774,0.538652777672,-1.77712023258,-1.63072562218,-0.304039269686,1.20813894272,1.8364661932,0.985798478127,0.00691116414964,1.23225140572,1.14864230156,-1.32376194,-1.28400206566,-0.236484453082,0.875045359135,1.34186279774,0.485431700945,1.24226784706,1.95538425446,0.717732846737,0.844969511032,1.13296663761,0.453018724918,1.14491593838,1.76321864128,1.00156879425,1.23179829121,2.11818289757,1.22602808475,0.487173169851,0.853884398937,0.44777277112,-1.30064737797,-0.200464814901,1.72935795784,-0.721786558628,-2.30346155167,1.60827100277,0.020362701267,-1.77419662476,0.0879894867539,0.70349085331,1.65028142929,0.952067494392,1.56714320183,2.56412792206,1.2068502903,1.03579723835,1.28780138493,0.437507867813,-0.75049996376,-1.63362216949,-1.11577653885,-1.43104946613,-2.15407562256,-1.1279335022,-0.784521818161,-1.10116124153,-0.366973757744,0.977806031704,1.11606991291,0.438551515341,1.43129253387,1.66751146317,0.710332036018,0.903821527958,1.09560847282,0.47974511981,-0.888515770435,-1.48088860512,-0.751039862633,-1.3915117979,-2.34288716316,-1.19726860523,-0.65283292532,-1.14284181595,-0.617298781872,1.03723478317,1.26518082619,0.40450361371,1.5548286438,1.93196070194,0.815685868263,1.03485786915,1.69959151745,0.695960760117,1.32627260685,1.58440208435,0.647544920444,1.71188044548,2.21720838547,1.09413564205,0.843928515911,1.22690844536,0.547883570194,0.96958065033,1.32733595371,0.768471360207,1.34929347038,1.88664865494,1.11332297325,0.735362052917,1.26303422451,0.68722319603,0.942014098167,1.52760648727,0.623361289501,1.46657347679,1.70782840252,0.498143941164,0.675155341625,0.637399613857,0.220114603639,0.765324175358,1.35825741291,0.75395488739,1.38482284546,2.23924422264,1.23660767078,0.68717610836,1.1379994154,0.640300631523,-0.709901332855,-1.37235355377,-0.813601732254,-1.03777229786,-1.73320567608,-0.841427981853,-0.931291460991,-0.831232905388,-0.261492967606,-0.599688649178,-1.41976892948,-0.912517368793,-1.36140275002,-2.26193284988,-1.10726189613,-0.861218810081,-1.09924221039,-0.399670898914,1.25785124302,1.6160902977,0.541176378727,2.13471698761,2.37974739075,0.635739266872,1.69659495354,1.73798108101,0.561778366566,1.09636759758,1.42547702789,0.70742982626,1.5092509985,1.93482542038,0.933730721474,1.32675719261,1.75202095509,0.827096402645,-0.580486118793,2.21533417702,-1.56347990036,-1.94937539101,1.58033549786,0.254859775305,-1.07302713394,-0.789851546288,1.76193594933,-0.864629805088,-1.33321273327,-0.742448210716,-1.40178632736,-2.05517601967,-1.02474987507,-0.781711578369,-1.08688831329,-0.47171163559,0.728679120541,1.22566342354,0.591596961021,1.48504579067,1.78790378571,0.592779636383,0.992756962776,1.23547148705,0.421266496181,1.3723500967,1.8866019249,0.857116281986,1.68473947048,2.63879108429,1.33966720104,0.858502984047,0.981898844242,0.274936974049,-0.848248898983,-1.1509642601,-0.499078571796,-1.18106424809,-1.70352482796,-0.912590503693,-0.619156599045,-1.15138077736,-0.651349306107,1.01516592503,1.38780152798,0.705868422985,1.26462554932,1.75491034985,0.952336251736,0.472942382097,0.726047992706,0.488665372133,-1.04219257832,-1.49694812298,-0.728165686131,-1.25513374805,-1.97234594822,-1.23945856094,-0.479815453291,-0.991502344608,-0.764123797417,1.32550919056,1.83740413189,0.77093988657,1.76427674294,2.15215325356,0.994378507137,0.773954749107,0.999028861523,0.451084882021,-1.05785870552,1.41936600208,-0.0576876029372,-2.11002874374,2.32553911209,0.662339746952,-1.41723966599,0.999999761581,0.547668814659,-0.853463470936,-1.55892324448,-1.03615903854,-1.32438564301,-1.96772217751,-1.24095141888,-0.613987207413,-0.95717561245,-0.506457030773,-1.2141135931,-1.53383135796,-0.658846199512,-1.54338741302,-2.16900730133,-1.02010726929,-0.646165549755,-0.943499326706,-0.53169888258,-0.90508300066,-1.35405123234,-0.666270673275,-1.32224750519,-1.93320071697,-0.927489161491,-0.70686519146,-1.04912769794,-0.515067994595,1.22670793533,1.80685412884,0.806395471096,1.77698278427,2.42807459831,1.26593136787,0.846008956432,1.2176861763,0.600440919399,-0.25673276186,1.79713773727,1.82275259495,-1.85493576527,-0.345122516155,0.837866425514,-1.62849235535,-1.48888301849,-0.289893627167,0.993192076683,1.50103795528,0.687815904617,1.50723016262,2.14019322395,0.9954174757,0.71826839447,1.03457629681,0.523006975651,-0.898143947124,-1.4034434557,-0.525393247604,-1.44317126274,-2.26597929001,-0.761128485203,-0.627723097801,-0.791898071766,-0.239813223481,-0.913366734982,-1.49389696121,-0.688038468361,-1.12077832222,-1.78556489944,-0.929594635963,-0.738262057304,-1.33638477325,-0.652522563934,0.68003731966,1.54912531376,0.981647074223,1.49986410141,2.49540543556,1.3148188591,1.01270616055,1.32783663273,0.528038680553,1.15877342224,1.36162602901,0.506451070309,1.45017898083,1.66773855686,0.678048610687,0.545689344406,0.587240993977,0.322173058987,0.21527788043,-0.592240571976,-0.48140335083,-0.94181394577,-1.94069397449,-1.02951478958,-1.02576231956,-1.94810080528,-0.8790320158,1.29612576962,1.81304490566,0.760789215565,1.75037324429,2.64480066299,1.22724461555,0.846062719822,1.27517926693,0.629183828831,-1.17597341537,-1.44497799873,-0.632444262505,-1.4409879446,-2.12250733376,-1.16907536983,-0.665753126144,-1.19290673733,-0.684998393059,0.948305368423,1.52304375172,0.786111116409,1.50308561325,2.17115807533,1.08657491207,0.784558832645,1.1223988533,0.518991172314,1.20813763142,1.39979159832,0.568098187447,1.38476383686,2.14007544518,1.330291152,0.486293256283,1.1244546175,0.809163749218,-1.30145311356,-1.27431690693,-0.228080034256,-1.30648386478,-1.63879394531,-0.742060244083,-0.399048745632,-0.86835449934,-0.642979502678,0.825512349606,1.19046890736,0.692113041878,1.14624130726,1.69675624371,0.947872579098,0.59414935112,0.84776288271,0.425464808941,1.70402979851,1.42289793491,0.00300682941452,1.55579566956,-0.249128371477,-1.73453247547,0.091568402946,-1.39202094078,-1.70592427254,-0.594206094742,-1.12543535233,-0.887908637524,-1.150862813,-1.69657385349,-1.09884190559,-0.792005717754,-1.09176075459,-0.523386836052,1.50051820278,1.43458044529,0.230999484658,1.67475891113,-0.163152262568,-1.70160746574,0.666332125664,-1.40774464607,-2.03096795082,-1.00006651878,-1.49565660954,-0.580472111702,-1.47386026382,-2.10496115685,-0.806253731251,-0.664821743965,-0.914808571339,-0.335237383842,-0.500492095947,-0.904000818729,-0.759950697422,-1.15924274921,-1.84198057652,-1.02126681805,-0.723464608192,-0.838948965073,-0.538403153419,-0.747650206089,-1.24353384972,-0.690046191216,-1.12856471539,-1.83651912212,-0.883999288082,-0.625674664974,-0.90807646513,-0.398447215557,0.821559250355,1.57680010796,1.05860865116,1.57592344284,2.39499998093,1.1250474453,0.869823813438,1.15043258667,0.368329226971,0.996229231358,1.54692745209,0.797115564346,1.43204116821,2.23643565178,1.0976177454,0.64478546381,0.904032886028,0.299751460552,1.15098631382,1.38065648079,0.546677112579,1.44026124477,2.08909916878,1.11438190937,0.535040378571,0.924971222878,0.518018960953,0.637509822845,1.2281768322,0.77700895071,1.20647597313,2.01110768318,1.07157552242,0.778956830502,1.13468503952,0.478040993214,0.99896889925,1.09625518322,0.55191385746,1.11346757412,1.31858885288,0.588803946972,0.643431425095,0.537214100361,0.577301681042