-0.620862483978,1.05305218697,-0.459236800671,-1.83410608768,3.70246076584,-0.689403057098,-0.0498146526515,-0.107738286257,-0.147553443909,0.300841778517,1.02992939949,-0.262021780014,0.957861721516,3.17514014244,-0.211286902428,0.100028589368,-0.367323428392,0.0843676179647,-0.785628855228,-0.326293796301,0.502685010433,-1.01909315586,-1.98501420021,-1.19794237614,1.02392697334,0.932410359383,-0.00708111329004,0.180301561952,0.946379423141,-0.0832700654864,-0.433443933725,5.09111452103,-0.806852817535,-0.621686398983,-1.28825449944,-0.0772052258253,-1.12967073917,-0.980788648129,0.59397739172,-1.44396388531,-1.64992690086,-0.131921082735,0.516236662865,-0.613922953606,0.011800003238,1.17708802223,-1.11261844635,0.0451719872653,2.30439543724,-2.17363762856,-0.185588613153,0.376301079988,-0.42579254508,-0.302171885967,-0.568293988705,-2.02121210098,0.38458403945,0.515138268471,3.51111602783,-1.28481042385,1.03013014793,0.914098083973,-0.462650835514,-0.00470252148807,0.12476605922,-0.0937164947391,0.206819757819,2.33984017372,-0.271684080362,-0.116416178644,-0.573101103306,-0.0984504744411,-0.470120191574,-0.963091492653,-2.87262582788e-06,-1.22893095016,-1.21237814426,0.216064780951,-0.470003336668,-0.150771558285,-0.0251723788679,-0.805833756924,-1.38140833378,0.42359533906,0.213092923164,3.68530035019,-0.0509095266461,0.104308351874,-1.12773144245,-0.675469994545,1.35843098164,-1.30726969242,-1.40176570415,0.588160693645,3.33758544922,-1.20708143711,-0.88058412075,1.0477643013,0.454525262117,-0.70326936245,1.32224273682,-0.799440920353,-2.11828398705,3.06546998024,-0.895338177681,-0.30362200737,-0.0673352330923,0.200289011002,-0.429665595293,-1.27927744389,-0.206420257688,0.737474620342,2.38204693794,-0.792688965797,0.954121947289,0.756192922592,-0.465211540461,1.23116600513,4.2067284584,0.00663752667606,-1.76611733437,-2.27838134766,-1.04352521896,-0.435826539993,-0.688901126385,0.112686507404,-0.650570988655,0.0811950787902,0.53443056345,-3.39834141731,1.84176838398,1.76041436195,-0.563924849033,-0.696665465832,0.871483743191,-4.08808040619,2.48858141899,0.451532900333,3.09387373924,0.373770922422,-1.05056929588,-0.147365286946,-0.963613986969,-0.0946575850248,-0.608115553856,1.48180162907,-0.0243087485433,1.24588048458,3.41292500496,-1.3301128149,-0.723287343979,-2.30497765541,-0.550634801388,0.882395923138,0.560339093208,0.42986407876,-1.19535768032,-3.99476647377,0.67268460989,1.0313501358,1.59209251404,0.197992011905,0.838679730892,-1.30295693874,0.311187177896,3.73339748383,-2.85291934013,-0.131459772587,-0.129335954785,0.280469924212,-0.357235968113,1.07399451733,3.87419486046,0.175295561552,-1.56778144836,-2.37536263466,-0.0252475161105,-0.307473778725,-1.19862258434,-0.0702199488878,-0.311009854078,-0.888331472874,-0.228383690119,-0.938260793686,-1.82024669647,-0.115762248635,-0.281341433525,-0.118650376797,-0.264302700758,0.294889599085,0.669701039791,-0.0345685184002,0.796019494534,3.03546094894,-0.531741797924,-0.218497171998,-0.560444533825,0.116525895894,0.616909444332,0.149692922831,-0.704713761806,2.93659424782,-2.45161223412,-0.642328381538,0.430459618568,-0.909968733788,-0.184994161129,-3.01768040657,1.62116384506,0.848122119904,0.758387029171,-1.72783470154,0.606879770756,1.35876262188,0.440778881311,-1.55482172966,-0.158250361681,-1.21381676197,0.188214719296,-1.62379086018,-2.91940760612,-0.105519235134,0.391057103872,0.605865597725,0.00877174735069,-1.26495623589,0.997578918934,-1.47769355774,-1.01740777493,5.60141324997,-1.13228559494,-0.616937458515,-0.553552985191,-0.753212213516,2.6264796257,-0.425982445478,-2.63434195518,-3.42804765701,0.0279341693968,1.00950706005,0.8075517416,-0.0405953004956,-0.21031960845,1.01920926571,0.946864426136,0.0975545719266,0.94781345129,1.87445616722,-0.197915002704,0.118093512952,-0.0836757719517,0.416637480259,1.37049257755,-1.68338119984,-0.141178295016,3.24779438972,-2.16518998146,-0.36690056324,0.398823946714,-1.23062551022,0.193222761154,-1.10396468639,-0.373537838459,-0.862240076065,-0.439756333828,-0.588875949383,0.10341116786,-0.771519601345,0.134742110968,-0.662403523922,1.1398088932,-1.00836205482,-0.205147400498,2.27270269394,-2.47333145142,0.430496275425,0.504880428314,-0.76083445549,-0.35808417201,3.20880126953,-3.99034905434,0.367860168219,-2.49033141136,2.99697756767,-1.0061750412,-0.921347260475,1.1511746645,0.226696446538,-0.92751789093,-1.72478544712,0.178365558386,-2.46803236008,-2.07484126091,-0.42405256629,0.49513360858,0.487531155348,0.196662470698,-0.38638150692,-1.26832425594,0.753731846809,-0.04146720469,-2.31201696396,1.87902438641,-0.346474796534,-0.873699486256,0.201308444142,2.37313437462,-2.91891598701,0.295274674892,-1.40669322014,1.72414839268,-0.409609436989,-1.22035634518,1.49289739132,-0.189218878746,1.79546248913,2.52092242241,-0.00639512808993,-2.22337388992,-2.12363672256,-0.013667284511,-0.0476998575032,-0.205172166228,-0.412990480661,-0.0751888081431,-0.219405427575,-0.0105304373428,0.00240455544554,-2.95178389549,0.483103454113,-0.119000226259,0.097826808691,-0.131827399135,-1.42912340164,-1.38175201416,-0.175186604261,-0.899298131466,-1.03133034706,-0.212619960308,-0.447098374367,-0.0726016536355,-0.0278104711324,-0.0240855049342,0.406095415354,-0.209847077727,2.27981495857,2.33944749832,0.134765714407,-0.30432921648,0.142704829574,-0.0464178323746,-0.393757641315,-0.944936096668,-0.272583663464,1.2413431406,2.92169451714,0.379200279713,-0.552827477455,-1.48827242851,-0.0362279452384,-1.75218975544,0.294829934835,2.06589412689,-0.0937068760395,-2.72167897224,-0.647069752216,2.32598638535,-0.589094877243,-0.387267976999,-0.709333837032,-1.06314027309,-0.228515908122,-1.06981742382,-1.47702431679,-0.4738894701,-0.35797983408,-0.474243342876,-0.141789838672,1.61551487446,-1.25516998768,0.105482712388,-0.770759701729,-3.33587574959,0.366766691208,-0.227815926075,0.0262041725218,0.946625947952,-0.35941234231,-1.98756718636,0.0845764428377,3.3296854496,-1.79357755184,-1.08111858368,0.143758043647,1.30955708027,-0.393905103207,1.01176345348,-0.723251461983,-0.317502826452,2.85857796669,-1.67563593388,-1.31329023838,0.348861515522,-0.308143615723,-0.155052497983,0.031613599509,-1.5177423954,0.332517385483,-0.817737162113,-3.62775397301,0.243643626571,0.282635420561,-0.189872130752,0.0406865924597,0.474373668432,-0.516835391521,-0.885164141655,2.42953658104,0.95842897892,-2.31586647034,0.482658058405,0.305378764868,-0.358368903399,0.308247238398,0.0926502645016,0.386041492224,0.748849570751,1.54914355278,-0.0476723760366,-0.182991415262,-1.05764269829,-0.134908080101,0.989966869354,2.59086799622,0.128318160772,-2.17523765564,-3.74248313904,-0.335428863764,1.10039496422,2.25653386116,-0.041157245636,0.0463826879859,-0.635698914528,0.671629369259,0.0544438585639,-1.81770730019,1.82263982296,-0.247259229422,-0.270432651043,0.435696005821,-0.363881498575,-0.757163584232,-0.282286196947,-1.116543293,-1.86768817902,-0.483535259962,-0.123752549291,-0.787721335888,0.160055607557,-0.625173985958,-0.542531192303,-0.0890517234802,-1.03873085976,5.35210800171,0.0534203834832,-0.0143923973665,-0.0100298961625,-0.674966037273,1.25872027874,2.93838167191,0.533163785934,0.951557457447,1.00006616116,-0.0719895213842,-1.18346905708,-1.50577533245,-0.947773396969,0.448813945055,-0.3896060884,-0.102804936469,3.75337934494,-3.26991343498,-0.0945869982243,-0.257113695145,-0.471881389618,-0.0424829088151,-1.50007724762,-0.913561522961,-0.348305583,-1.11999809742,-0.215094268322,-1.07339513302,-0.159911960363,-1.30432116985,0.123031102121,-1.76733279228,1.53485190868,-0.321406453848,-0.149554803967,2.80318570137,-1.61683404446,0.12117113173,-0.62307459116,-0.0820022448897,0.0522886738181,0.876758038998,-0.118941552937,0.896129488945,2.44559812546,-0.194899708033,-0.360174447298,0.114320494235,-0.278575211763,0.905335187912,-0.295631110668,0.567231595516,1.2510445118,-3.03473424911,1.69420456886,0.427295923233,0.856729626656,0.144226834178,-0.795527160168,-4.29069423676,0.0944499596953,-0.0572906173766,2.31608939171,-0.449069261551,0.784314513206,2.16151762009,0.417499542236,-1.10625469685,0.844168245792,0.120004482567,-1.28706371784,4.18722438812,-1.09869623184,0.233705371618,0.31201389432,-0.472262710333,0.527020394802,-0.427739202976,0.409163355827,-0.34837770462,-4.35743141174,0.835843324661,0.450646311045,0.946614205837,0.168952837586,-0.945080280304,-0.405832976103,-0.665156424046,-0.508062660694,1.07792234421,-0.528345346451,-0.714083731174,-0.542794883251,-0.447594672441,0.722000062466,2.40563726425,0.903358757496,-2.60887789726,-1.03523683548,1.21715676785,-0.0723720267415,-1.67153167725,0.22678309679,-0.499019145966,-1.33309280872,0.101797789335,-1.81527578831,-1.34824669361,-0.304925888777,0.945366382599,2.77260041237,0.895722329617,0.157174944878,0.612844467163,-0.101972647011,0.950020074844,2.48061490059,-0.247402012348,-0.180647820234,0.077182777226,0.0272752568126,-0.420666098595,-0.990455150604,0.980009973049,-1.46655523777,-1.15326094627,3.04537701607,-0.0975925400853,-0.502250671387,0.107514709234,-0.466622918844,-1.81736326218,0.391245186329,2.45652675629,0.301739305258,-1.76424610615,-0.0723803192377,1.23594558239,0.00509848725051,0.173881828785,0.865529596806,0.0785401314497,0.87530207634,2.39215230942,-0.39382481575,-0.0285650789738,-0.519284665585,-0.017319092527,0.620474278927,-1.71116828918,0.177511021495,-1.38128757477,-3.50534033775,0.287951767445,-0.114673241973,0.187431305647,0.150513291359,0.0145301725715,-0.83893930912,0.198891833425,-0.189255043864,-2.94642281532,0.583825349808,-0.11715207994,-0.13938075304,-0.149655997753,-0.808391571045,-1.85940992832,0.122963674366,0.908856511116,3.69000959396,-0.167343437672,-0.106780312955,-0.665555000305,-0.0240070428699,1.07121539116,-3.37490439415,0.926965296268,-1.21980035305,3.63612127304,-0.248709991574,-0.387979060411,0.353251814842,-0.441737085581,1.29749631882,-1.18784689903,-0.302825540304,3.64687800407,-2.61268019676,-1.21026754379,0.46966022253,-0.646749377251,2.24242785407e-06,1.80771625042,0.117713265121,-0.257805228233,3.22806692123,-3.34423470497,-0.689046978951,-0.36568441987,-0.574557006359,-0.177177295089,-1.54489982128,-2.53450608253,-0.60622471571,1.22150456905,2.48373603821,0.798883259296,0.35689046979,0.0457268618047,0.0749169960618,0.0763062611222,0.881446123123,-0.073618516326,1.00638568401,3.35813856125,-0.451152414083,0.0754040405154,-0.453113049269,-0.0375447534025,0.428298979998,-0.690065801144,0.278196007013,-3.93498587608,0.978601276875,3.05720663071,-0.0386040471494,-0.170293599367,0.10110784322,-0.412662893534,-1.72348237038,0.145485177636,-1.22622644901,4.82935428619,-1.03343868256,0.153774797916,-1.55707621574,0.114029735327,1.1803548336,-0.709167122841,0.419955641031,4.81649160385,-2.72205495834,-0.500218272209,-0.596898794174,-0.547822952271,-0.109092131257,0.104530148208,1.11010062695,-0.336002290249,1.00535845757,3.29459953308,-0.11178791523,0.0160030685365,-0.602321982384,0.0622900389135,0.321921885014,1.35681855679,-0.203087538481,0.910522401333,3.80541658401,-0.386177867651,-0.288953155279,0.332395255566,0.0193353407085,-3.07187104225,2.098290205,1.28937160969,1.70530903339,-2.65597033501,-0.300163388252,1.6367534399,-0.679979383945,-0.622833132744,-0.258668392897,-0.818793535233,-0.128381624818,-2.02735638618,-2.8902323246,-0.387613862753,-0.0744356289506,-0.11983384192,-0.113618314266,-0.846685528755,-0.229906499386,-0.688054382801,-0.700191676617,0.179007798433,-0.174505069852,-0.695304811001,-0.564659297466,-0.651230931282,1.06684052944,-0.417097270489,-0.785602152348,0.441924124956,4.0367307663,-0.141688212752,-0.932135283947,0.0781937912107,0.220413789153,-0.38746830821,-0.322932630777,-0.0680287927389,-0.278123140335,6.34997224808,-1.73218548298,-0.272344350815,-1.68359935284,0.40381193161,-0.495549619198,-1.52224707603,-0.419656097889,0.31193163991,3.61131858826,-0.127617552876,-0.346956223249,-0.679256141186,-0.265388280153,-1.09807622433,1.85679662228,-0.689181208611,-0.910992622375,3.77327466011,-1.83558702469,0.736512959003,-0.678250014782,-0.110492035747,0.189329624176,-2.0752196312,0.515114367008,-1.83018398285,-5.04151773453,-0.166764453053,0.246508046985,-0.116292841733,0.657018899918,0.164731130004,-1.64594769478,0.555046916008,1.50724887848,-3.79604721069,0.442155987024,-0.3558550179,0.157273098826,-0.178254768252,0.373518198729,-1.27357387543,-0.603090941906,2.02056956291,1.92807590961,-1.56086325645,-0.0811761617661,0.935057163239,0.0093942200765,-0.0937966033816,-0.965848922729,0.0957853496075,-1.22819411755,-2.49384593964,-0.173063308001,0.108866326511,-0.0300820730627,0.175630167127,0.0244447663426,-0.67997699976,0.223345205188,-0.834227323532,-1.66071164608,-0.240032628179,0.239127859473,-0.380874305964,0.224927052855,-0.461218953133,1.0224814415,-0.389222562313,-1.40661370754,2.7240447998,-0.694006621838,-0.272093951702,0.289918154478,-0.122635789216,0.843634605408,-2.11366605759,0.999462127686,2.85314321518,-3.69914579391,2.52307510376,0.301234722137,-0.985707342625,-0.0956005901098,3.71792793274,-2.84096956253,-0.733601927757,-1.73867714405,1.69002556801,0.174283653498,-1.84591245651,1.15812325478,0.0401649847627,0.536212384701,1.24874031544,-0.210831850767,-2.59271597862,1.60668873787,1.16213595867,-0.0353899486363,-1.44092941284,-0.0180728137493,-0.0392030403018,-0.777029395103,0.143490031362,-0.807444930077,-1.39417254925,-0.509150803089,0.257805585861,-0.390676051378,0.286303758621,0.027565041557,0.758438646793,-0.356262505054,0.606125891209,2.31068062782,-0.0897986888885,0.0117662157863,-0.0857809484005,-0.0726563557982,-0.893113315105,-1.54590678215,-0.396041959524,-1.45445799828,-0.97522342205,0.0465111546218,0.955549776554,2.89446187019,0.946283042431,-0.281144171953,1.61593544483,-0.597637951374,1.77731966972,2.89188480377,-0.0626576691866,-0.522183477879,0.395871818066,-0.638235986233,2.90965104103,-1.50094926357,-1.02423107624,-1.89921164513,-2.53383922577,0.992938816547,-0.767947554588,0.929209172726,1.2343416214,-0.653522253036,0.821727335453,-0.247833520174,-2.24543690681,4.03788137436,-0.891937553883,0.326608806849,-0.437508016825,-0.263434886932,-0.655514717102,-0.393649548292,-0.473492503166,-0.313898026943,-1.74940109253,0.263872176409,-0.52356082201,0.173558652401,-0.268301874399,-0.282392859459,0.64226526022,-0.542091786861,-2.71199607849,4.5303401947,-1.74510192871,-0.0457608625293,-0.40899181366,0.0723843723536,-0.233300402761,-0.105704031885,-0.66806268692,0.481910437346,-2.51932454109,0.189382731915,-0.894170582294,0.115111269057,-0.973257005215,1.06741094589,-2.4151904583,0.591424405575,3.01464319229,-3.09427332878,0.273852109909,-0.329831570387,-0.290401607752,0.0439688749611,-0.892205715179,-1.21412682533,-0.552128732204,-1.17685627937,7.74294090271,-2.25604701042,-0.829694747925,-2.28627729416,-0.462632238865,1.60334742069,-3.03586673737,0.278515428305,-2.45369911194,2.45662331581,0.430593490601,-0.135730430484,0.90624409914,-0.330401152372,-0.495975226164,2.43511295319,-0.77078473568,-2.92514896393,2.65557456017,0.0299164038152,-0.610414922237,-0.637636005878,0.959112524986,1.41955280304,0.304172903299,-0.873264014721,-2.65515637398,-2.53276014328,0.737423479557,0.506471097469,2.50596928596,0.0846237689257,-0.668934762478,1.15203416348,0.159416332841,0.919134140015,3.06410384178,-0.486717522144,0.570352554321,-0.168238699436,-0.452758520842,-0.517827391624,-0.561206638813,0.90776270628,-2.81580686569,3.77794909477,-1.08525562286,-0.376742124557,0.684353590012,-0.245722874999,-1.46263754368,-0.472317904234,1.37647461891,-0.178911134601,-2.79142308235,-0.862183511257,1.6292899847,-0.360859692097,-0.881143391132,0.288070172071,-0.400353997946,0.190905228257,-0.704558193684,-4.27700042725,0.716405153275,0.179264947772,0.830705225468,-0.359272837639,1.17950689793,2.32438731194,0.310668438673,-1.70622622967,-2.2137401104,-0.92198073864,-0.00598313193768,0.194838702679,-0.284727156162,0.710798084736,0.637162685394,-0.281277179718,0.704464375973,2.69427967072,-0.355164766312,-0.764044463634,0.452774733305,-0.135327681899,-0.144304946065,0.703784406185,-0.210066020489,0.617871165276,2.8763384819,-0.459772348404,-0.453442156315,-0.338780254126,-0.165688425303,-0.221573084593,-1.2234389782,0.86742913723,-1.29973471165,-5.55497741699,-0.0817460343242,0.48163074255,-0.190332561731,0.196898058057,-2.96696925163,0.520011425018,1.25629866123,1.49774992466,1.89178323746,-1.35681426525,0.908689558506,-1.32160687447,-0.457874000072,0.559044957161,0.953907966614,0.197191536427,1.20088136196,3.14293646812,-0.299006611109,-0.0807760208845,-0.588898360729,0.103456057608,-0.678317308426,1.15701174736,-0.703373432159,-1.88871979713,3.18749761581,-1.11037051678,-0.656622171402,0.415107309818,-0.173657208681,-0.0423145256937,-1.37082135677,0.216860488057,-0.718928217888,4.65227222443,-0.444596081972,0.343492895365,0.0525080822408,0.517758846283,0.563501477242,0.372315764427,-0.758493483067,0.509316980839,2.87761044502,0.309155702591,-0.319425910711,-0.260986655951,-0.362987756729,0.527360856533,1.06410396099,0.0649393573403,0.423291712999,2.50770545006,-0.431888967752,0.0578836128116,-0.813143074512,0.19109120965,-1.20171964169,1.45707046986,0.471325129271,2.5183365345,3.53574180603,-0.751678526402,-0.6294683218,-0.0484804809093,-0.444763183594,1.37729012966,-1.49977052212,-0.460772037506,-1.54281651974,-1.83104372025,0.345678776503,-0.519155502319,0.0275873057544,0.582676887512,-0.641414344311,-0.681841015816,-0.502050995827,-0.726252317429,-0.376122683287,-0.491725444794,-0.512514412403,-0.526528298855,-0.29347038269,2.0065984726,-1.7691886425,-0.0921587347984,2.7365694046,-1.9696983099,-0.434127420187,-0.200431585312,0.070350497961,-0.365229845047,-2.25109839439,0.894205510616,1.09457540512,-2.37594532967,1.37147343159,1.64455533028,-1.3448060751,0.236314803362,0.554796814919,-0.425795435905,-1.89894855022,0.473505049944,-2.27455186844,3.67623734474,0.329915314913,1.05914664268,-0.109285287559,-1.21333169937,-0.665487170219,-2.06317925453,0.994342267513,-2.90465450287,3.59646654129,0.677649319172,-0.00303969439119,1.04227614403,-0.539783537388,0.287548094988,0.167012989521,-0.224438399076,2.50925636292,-2.37530708313,-0.319528132677,-0.44204646349,0.414792507887,0.179292052984,0.312755614519,0.226235568523,0.115736365318,0.906197011471,2.59410572052,0.0734886452556,-0.162902295589,-0.803875505924,0.215734943748,-0.366930395365,0.0873910859227,-0.229216650128,0.347467541695,3.94523286819,-1.11970031261,-0.514942526817,-1.12938916683,-0.140734523535,-0.144923210144,1.06203138828,-0.460268169641,0.80601722002,5.27532672882,-0.959498047829,-0.260351955891,-1.11212062836,-0.24998998642,1.1008297205,1.8480527401,0.291575998068,-0.884979009628,-2.01578783989,-0.409026771784,-0.00583740742877,0.423179417849,-0.00644466793165,0.427334427834,1.23798704147,-0.750214457512,0.00585173722357,3.24673080444,-0.356253355742,-0.434602499008,-0.170956030488,-0.0395272374153,-0.8011764884,-0.0197215527296,-1.08277487755,-0.138036578894,-0.527034282684,-0.0660335570574,-1.22241163254,0.164005234838,-1.00846540928,-1.0613809824,-0.361877948046,-0.818919360638,0.00987411756068,4.63615894318,-0.752082109451,-0.987494170666,-0.0743897929788,-0.524104833603,-0.324192970991,1.14948296547,-0.670053780079,0.995322167873,3.95629405975,-0.367060571909,-0.635612308979,-0.152491092682,-0.398952692747,0.417243212461,-1.43506217003,0.337197333574,-1.21620953083,4.11961317062,-1.87161827087,-0.385278373957,-0.294158637524,-0.0144204637036,0.115649588406,1.15285682678,-0.303026348352,1.30823171139,2.56265425682,0.33475419879,-0.367752104998,0.218985691667,-0.413612127304,-0.402695178986,1.08893787861,0.459188073874,-1.86215853691,0.420922994614,1.25336182117,-0.694676399231,-0.595160663128,0.158700466156,1.54579603672,3.11380290985,0.217792183161,-2.20334911346,-2.52787327766,-0.108165279031,0.529087424278,-0.579469799995,-0.0883855074644,0.447060018778,1.68402826786,0.148258805275,0.825379252434,-4.37551164627,0.94877409935,0.296832501888,0.364985734224,0.0849850103259,0.20835031569,-1.97674226761,0.506921648979,-1.60438776016,4.61152458191,-2.19674873352,0.141453370452,-2.18017220497,0.461428582668,-0.643222391605,1.09677779675,0.184942916036,1.08362531662,4.79846763611,-0.300935387611,-0.0532501265407,0.153543993831,-0.582173705101,-0.77278482914,0.143329679966,0.360540181398,-0.477668762207,1.02055287361,1.64687657356,0.0396945700049,1.14115417004,0.865977942944,-0.0303565263748,-1.07261717319,0.030868967995,-1.02054703236,0.855633556843,-1.04533314705,-0.0716013237834,-0.920226335526,-0.0381515696645,-1.05374348164,-1.45341825485,-0.246503710747,0.698874533176,1.80273079872,0.795858204365,0.899859786034,2.4801774025,0.492807269096,-1.11838936806,0.46685436368,0.407252848148,-2.90212225914,2.82690310478,0.431411117315,-0.428793340921,0.532566010952,-0.126636683941,0.591372907162,-2.48957014084,-0.451201170683,1.05847513676,2.46107983589,0.0342374183238,0.937175571918,0.236016765237,0.545980334282,0.211702719331,0.894717216492,0.236264288425,1.05284512043,1.4081004858,0.222333148122,0.124660216272,0.0354700312018,0.508402347565,-1.51319789886,-0.827045381069,-0.355446875095,-0.479364901781,-0.128551408648,-0.581442058086,-0.571988523006,-0.456853628159,-0.124836780131,1.08883881569,0.976546645164,-0.799416542053,1.40480697155,-0.0929979383945,-1.60126209259,-0.710837483406,-1.50987362862,-0.876246571541,1.90321409702,1.97892975807,-0.18931992352,0.799332022667,-1.30637192726,-1.26383316517,-0.188341036439,-1.75156521797,-0.0636681467295,-0.779366672039,-0.910076797009,-0.379843175411,-0.624261081219,-1.23444032669,0.0740756168962,-0.582984626293,-0.423309862614,-0.279444396496,-0.717899739742,-0.761294960976,-0.800230801105,-0.781556010246,0.573350131512,-0.772888898849,-0.476078391075,-0.72940737009,-0.329016804695,-1.62327778339,-0.252060741186,-1.42976033688,-0.148029655218,6.92071819305,-1.9324452877,-1.31882464886,-2.32416248322,-0.304600387812,-0.758749544621,-0.736460089684,1.46332871914,-0.00254878285341,-4.35731601715,2.70016956329,0.333514839411,-0.828040003777,-0.359307825565,-1.23608624935,-0.354936689138,0.838644683361,-1.83515894413,-0.785618782043,2.25192499161,-1.06237030029,0.169523686171,0.333723604679,-0.721232414246,-0.256073862314,-0.224126681685,0.166932865977,-2.4245018959,-0.0854670852423,-0.0446615852416,0.22346021235,-0.356666207314,-1.2522200346,-2.83101868629,0.501840829849,3.07538127899,-0.689527511597,-1.02801465988,0.411974966526,2.10749340057,-0.204955384135,0.320324718952,-0.559650540352,0.294764339924,-0.678753554821,-4.73235940933,0.832405209541,0.392850488424,0.957567632198,-0.00676598632708,-0.81969332695,-0.510031938553,-0.404996365309,-0.398315906525,-2.4147336483,-0.180201277137,0.314830362797,1.29530775547,-0.0889803171158,-0.801292717457,-2.08145189285,0.0490993522108,-1.18968892097,3.48303079605,0.224269479513,0.11958348006,-0.313137680292,-0.318803727627,0.748436391354,-2.03261065483,-0.206999748945,-0.643382370472,-1.34029006958,0.460833579302,-1.12126147747,-0.414082556963,0.259197235107,0.268552362919,1.22357571125,-0.389424860477,1.86139178276,-3.05831885338,0.117768883705,-1.34270858765,0.86714720726,0.556151270866,-1.27622616291,0.542179703712,-1.23107028008,0.497628539801,7.00067186356,-1.76591408253,-1.40283513069,-1.66398429871,-0.568922996521,0.0805462002754,-0.124710798264,-0.0538685321808,2.27404737473,-4.6488199234,0.921570897102,-0.308803468943,-0.683973491192,0.487290352583,-0.00607353309169,1.27005195618,-0.32335627079,0.849233627319,2.81952786446,-0.0933609306812,-0.493549317122,0.334676295519,-0.465032875538,-0.28860899806,1.30174577236,-0.63703763485,1.09602618217,3.09217119217,-0.270711302757,-0.439233005047,-0.139626398683,-0.512888431549,1.2000784874,3.3477191925,0.45913168788,-0.609706938267,-1.11401152611,-0.492950677872,-0.733049750328,-2.03032398224,-0.203413203359,0.218026027083,0.114976733923,0.497164815664,-0.308318763971,-6.17861127853,1.58568763733,0.268588036299,1.41275167465,-0.178894281387,-0.243874520063,-2.23227620125,-0.220772817731,0.880217909813,-0.551014125347,-0.00771650159732,1.10154974461,2.9607770443,0.241758137941,0.197026953101,0.730157971382,0.104672148824,-2.39153218269,2.78254890442,0.155586093664,0.44416180253,-0.436539828777,-0.0294566042721,-0.241646468639,0.318457692862,-0.273206263781,0.340425997972,4.00182437897,-1.1072614193,-0.34016931057,-1.15427446365,0.0305690225214,-0.014407929033,-1.78450036049,-0.156354978681,-1.654063344,-1.43064260483,0.286885559559,1.21323156357,3.31745219231,0.249748319387,0.900334119797,1.91773998737,-0.731582403183,0.721928954124,2.79986596107,-0.777166366577,0.220997944474,-0.28914642334,0.236005052924,0.0507175177336,-1.71692872047,-0.0277628004551,4.19276666641,-1.56150877476,-1.44594764709,0.0978241935372,0.85967874527,-0.0382493771613,-0.402051597834,-3.03947401047,0.128130614758,0.547795832157,3.25963568687,-0.456027418375,-0.109328225255,0.0784363523126,-0.0235269870609,-1.25602304935,-0.278341263533,-0.522891521454,-0.931475222111,5.68583774567,-1.00480663776,-0.303540796041,-0.850849628448,-1.24102771282,0.333680510521,1.37157428265,-0.309138387442,1.2191542387,3.02851676941,-0.0380407012999,-0.375566750765,-0.368106633425,-0.238935112953,0.113340251148,-0.720318615437,0.226974323392,-1.27133131027,-2.98140978813,-0.191544517875,0.382493436337,0.244904980063,0.0985308587551,0.0945945978165,-1.23874592781,0.401371121407,-0.836760222912,-2.53995704651,0.0515422709286,0.334439903498,-0.0744652375579,0.166231229901,-0.334366083145,0.788433551788,-0.426557987928,1.20431983471,4.93395137787,-0.629358232021,-0.491183191538,-0.606918752193,-0.08132609725,0.187841951847,0.738680541515,-0.657562255859,0.507714569569,2.77152681351,0.0655614957213,-0.483110994101,-0.240610376,-0.0619425177574,0.39875459671,0.734520614147,0.0187528915703,2.62466621399,2.68869829178,0.431451648474,0.00106860371307,0.147423699498,0.114499613643,0.226684555411,2.10179376602,-0.0983553975821,-2.2107489109,2.05106067657,1.15281581879,-0.763720571995,-1.92010092735,-0.209899663925,-2.01235890388,0.939545452595,0.199525028467,0.923907577991,2.89897251129,-1.78981280327,0.381480574608,-1.36456549168,-0.752104103565,-0.0876427665353,0.652365088463,-0.551879107952,-0.81424498558,-2.79506206512,-0.340583860874,-0.658296942711,-1.23041319847,-0.0884595438838,-2.43968486786,2.52343869209,0.592443406582,1.93456423283,-3.08003592491,0.139782249928,0.550540804863,-0.141513735056,-0.359579473734,1.04267573357,1.60874724388,0.695525527,-2.4197704792,-2.80057501793,-1.64002883434,0.701296687126,0.370508521795,0.511267483234,0.352640241385,-0.858916521072,0.485250741243,-0.907666742802,-3.79342627525,0.452428728342,0.42138454318,0.403161257505,0.149805665016,0.122343748808,1.57101821899,-0.854247450829,1.65058541298,4.43913030624,0.695008456707,-0.541413724422,0.404021292925,-0.683490753174,0.983411371708,-0.127820134163,2.14984297752,0.0621074587107,-3.9600315094,0.647871851921,1.72962009907,0.17512704432,0.235306054354,-0.171870663762,-0.901701688766,0.0284687317908,-0.962876677513,-2.32343697548,0.0827325806022,-0.00402360409498,0.363232046366,-0.0531837083399,0.00865685194731,-1.0940977335,0.35638910532,-1.25475621223,-1.35965180397,-0.443657904863,0.485098272562,-0.692472398281,0.435927689075,1.17978417873,4.33197021484,-0.232108235359,-1.1863244772,-2.14577317238,-0.226236537099,-0.194776251912,-1.73675560951,0.491204321384,0.864684402943,-0.584805905819,-0.210725277662,3.62094640732,-2.29535150528,-1.32897949219,0.462377279997,-0.901980638504,0.131146430969,-0.611171007156,-0.962938666344,-0.15257319808,-1.08610165119,-0.486865788698,-0.951682150364,-0.197606772184,-0.522065043449,0.172238111496,-0.181788980961,-0.997348129749,-0.970465302467,-0.895055711269,4.53095912933,-0.971389830112,-1.24037051201,-0.904198169708,-0.249521180987,0.134071052074,0.359940737486,-0.168912932277,1.56956470013,2.61046910286,0.0652528256178,0.139274761081,-0.00735178077593,-0.068288333714,0.544239580631,1.10053551197,-0.117492876947,1.00454843044,2.24496769905,-0.138553455472,-0.071458235383,-0.291480630636,0.0976936891675,1.32386910915,3.17397403717,-0.560915768147,-2.07499432564,-4.08185243607,0.274985790253,0.530274093151,1.38730239868,-0.334563195705,-0.173103094101,1.38483321667,0.642026007175,0.056786749512,-1.3178255558,-2.67368030548,-0.876552522182,2.82294893265,0.134350165725,-1.78236591816,0.0654059797525,0.804588019848,-0.0248444117606,2.3734061718,0.556960701942,0.43208527565,0.841506719589,-0.660422205925,0.38293248415,-1.09999632835,0.606214404106,-1.23761987686,-3.37189555168,-0.00100603164174,0.750288367271,0.121911890805,0.374043911695,-0.153043523431,-0.21180036664,-0.0244218930602,0.712012112141,3.81353664398,-2.54969573021,-0.798175811768,-1.0639154911,-1.13570392132,0.715507626534,0.983231306076,-0.271750152111,0.485216856003,2.47398424149,-0.458282738924,-0.17884708941,-0.557632923126,-0.122556336224,-0.0245193447918,0.590922415257,-0.0782438069582,-0.133483186364,3.93042492867,-1.00203371048,-0.265240311623,-0.460050880909,0.00637561036274,0.906756818295,3.29231500626,-0.296855509281,-1.80208015442,-3.15692520142,-0.0494328960776,0.0848419517279,0.0207888316363,-0.0336174033582,-0.0922963172197,5.51173400879,-0.404257059097,-0.896191418171,-1.82748603821,-0.218940719962,0.0278179682791,-0.312706679106,0.294712036848,0.252593547106,0.620868682861,0.104200102389,0.851397156715,3.36159443855,-0.718400239944,-0.203943654895,-0.482282668352,0.132910013199,-1.0050188303,-1.68039429188,0.875922322273,2.21046328545,3.42613482475,0.184530839324,-0.602896928787,-1.36721491814,-0.314634680748,-1.26394712925,-2.23222732544,-0.447994858027,1.58611679077,3.10453701019,-0.168832600117,-0.437750279903,-0.344345837831,0.0873679146171,0.0499902144074,-0.847442507744,-0.0282988213003,-1.12274885178,5.2303442955,-0.753700196743,-0.205180719495,0.126875028014,0.161991506815,1.31087076664,2.82577061653,0.447746068239,-1.96075797081,-1.60130751133,0.0858731642365,-0.188764870167,-0.651884913445,-0.229685842991,-1.15319538116,0.21312366426,-1.17227363586,0.594374716282,4.57711791992,-0.530839264393,-1.26098453999,-0.285236805677,-0.944726109505,-0.341008007526,1.58469164371,-0.397041678429,1.49477922916,4.42614650726,-0.968748986721,-0.465961962938,-1.20187747478,0.361263692379,2.10954904556,2.59067988396,-0.387874484062,0.993766844273,-3.36454844475,-0.683979570866,-0.541772782803,-0.264892756939,0.017422568053,1.07564401627,-2.48530387878,1.003875494,0.857807040215,-2.9779651165,0.357844084501,0.872326612473,-1.73840606213,0.506638765335,-0.828438699245,-0.386682599783,-0.580526530743,-0.55925399065,-0.404206454754,-0.481460571289,-0.563670396805,-0.502155721188,-0.164442449808,0.740984499454,1.53348076344,0.161693379283,-1.52977025509,-3.42184329033,-0.478040099144,0.518655896187,1.0503423214,0.300433814526,-0.387776076794,1.23089933395,-0.916829764843,0.690105557442,4.58734178543,-0.341165244579,-0.672714233398,-0.670348584652,-0.165970101953,1.2332367897,-0.979008257389,-0.314022749662,3.13205647469,-2.17862534523,-0.852317690849,0.591086089611,-0.464134991169,-0.161848112941,-0.297920197248,-1.10223138332,0.265914440155,-1.36745893955,-3.38187336922,0.420911580324,-0.121055789292,0.501247167587,-0.2727252841,-0.811948895454,-2.0223865509,-0.103746347129,2.21915268898,4.58520460129,-0.235061988235,-1.08036148548,-1.34377741814,0.534829318523,0.393304735422,-0.792938530445,0.262963563204,-0.652395546436,-4.09929895401,0.495376080275,0.201441451907,0.200110852718,-0.115215718746,-3.37897491455,3.74898314476,-0.173989713192,0.949676096439,-1.92499065399,-0.328172445297,2.4740486145,-2.08296918869,-0.153838098049,1.2126609087,-0.643826246262,-0.349739700556,2.6903181076,-2.27962064743,0.261694341898,0.673772573471,-0.438366413116,-0.0119997309521,0.870666384697,2.24589943886,0.134969949722,1.23396682739,-0.876287579536,-1.49153220654,-0.362295329571,-1.13340330124,-0.512842535973,1.68008995056,-0.82883900404,-0.472454339266,-2.84433746338,2.50402235985,0.677472770214,0.540972709656,-0.378834336996,-0.248706355691,0.162999331951,1.84971058369,-0.907682836056,1.59146666527,1.97784745693,0.951928853989,-0.748763084412,0.816073775291,-1.09405648708,-0.372857838869,-0.977262437344,-1.50367665291,-1.26525819302,0.729356348515,-0.165213286877,-0.831134557724,-0.356900632381,-0.561646878719,0.716981172562,2.04903101921,0.146927163005,-1.53229391575,0.664795100689,0.318130552769,-0.542169868946,-1.80780112743,-0.250022768974,1.90375328064,-3.01457023621,-0.141748741269,-1.98535919189,-0.501684844494,1.76052713394,-0.465752720833,1.75244188309,-0.750239908695,-2.65089297295,1.21790742874,0.887099921703,2.92318916321,-1.93317806721,-1.80948722363,-0.220447614789,1.04402923584,0.173889130354,-0.510828077793,0.924058198929,-0.648381948471,-2.31118273735,3.99374961853,-2.06786346436,-0.651901304722,0.91292321682,-0.295847922564,-0.288276165724,0.586358964443,-0.668228209019,0.623252928257,2.39430737495,-0.304389923811,-0.540427088737,0.0964015200734,-0.118131130934,-0.922289907932,-0.100321352482,-0.7983096838,0.00194738712162,4.83135652542,-1.49118351936,-1.16186058521,-1.40012049675,-0.445491999388,-0.250656098127,-2.85617780685,-0.284233123064,0.682177960873,4.87121629715,0.234298422933,-0.778727352619,-2.22608351707,-0.0995561331511,1.31840097904,-1.79169523716,0.0842238143086,2.69149303436,-1.33244502544,-0.39764714241,0.237675070763,0.0494513697922,-0.150153875351,1.10038948059,-2.42775344849,0.60434037447,-3.16779828072,3.10023140907,0.514479875565,1.36473321915,-0.0964348763227,-0.106009453535,0.99396944046,-0.464473068714,-0.269970566034,1.06951069832,2.44764518738,-0.0387472137809,-1.47101449966,0.616941213608,0.229760736227,-0.382181972265,-2.24427747726,-0.185520395637,-1.92606282234,1.1388143301,0.844324469566,0.374243348837,2.7044043541,0.0628179088235,0.348618507385,-1.72655558586,-0.0239527113736,-1.38250672817,5.51611185074,-0.677368819714,-0.0681986063719,0.344559460878,0.587086141109,0.223605215549,-0.328236728907,0.177877753973,-0.884220302105,-5.0721154213,0.239790454507,0.27617546916,0.7014118433,0.12585580349,-0.556942105293,-0.959202766418,-0.281965553761,-0.743665337563,-1.06569123268,-0.53353959322,-0.330610543489,-0.521967947483,-0.0667865648866,0.763663053513,-1.98588228226,-0.669037997723,1.69074034691,3.50538110733,0.116682216525,-1.98829853535,-1.67558550835,0.55426388979,-0.368584364653,2.02413916588,-0.367487132549,-2.63030815125,1.34885656834,1.78120350838,-0.620423913002,-1.76535928249,0.339578956366,-0.735478699207,-0.150903955102,-0.424074202776,0.461079150438,3.48960471153,-0.926224768162,-0.647031903267,-1.08635032177,-0.122315220535,-0.486577600241,1.19961392879,-0.68178832531,0.298614561558,6.35731363297,-1.70726072788,-0.596226215363,-1.59806525707,-0.0337789393961,-1.31523966789,-2.19015717506,-0.337108373642,-0.961932361126,3.38456606865,0.566627979279,0.195287108421,0.685645282269,0.0432951822877,0.0835533514619,0.852424681187,-0.155908077955,1.19290208817,2.42801761627,-0.196830913424,-0.412294566631,-0.0536433719099,-0.0729540809989