-0.449602365494,-0.556561887264,-0.29833894968,-0.674597024918,-0.813282370567,-0.52103728056,-0.547259151936,-0.700151562691,-0.393936961889,-0.499359816313,-0.631384074688,-0.367329984903,-0.668448626995,-0.850589394569,-0.478593796492,-0.44856774807,-0.61342561245,-0.309113174677,0.642780900002,0.715660095215,0.502812504768,0.861093044281,1.00978076458,0.634194254875,0.598576843739,0.794420778751,0.397620171309,0.802210628986,1.09444510937,0.557899951935,0.911166548729,1.2172062397,0.699924886227,0.500414192677,0.715366542339,0.289275944233,0.645370364189,0.828983724117,0.477358907461,0.743451833725,0.885325968266,0.569132447243,0.480383425951,0.589084565639,0.363201141357,-0.507645010948,-0.697294652462,-0.34888023138,-0.75443136692,-0.954181730747,-0.54130846262,-0.485115766525,-0.631565392017,-0.352022260427,0.837766826153,1.13149881363,0.54562497139,0.989907205105,1.10483527184,0.784567594528,0.541925549507,0.599103271961,0.480399549007,0.619464933872,0.749444007874,0.493779301643,0.766035020351,0.901148438454,0.577477872372,0.440074831247,0.606625080109,0.323839008808,-0.846870660782,-0.899680018425,-0.704859375954,-0.771612823009,-0.813863933086,-0.574310421944,-0.221081018448,-0.39586135745,-0.0705069452524,-0.587032079697,-0.708871304989,-0.420215934515,-0.667127072811,-0.734292030334,-0.553575754166,-0.47327581048,-0.540520846844,-0.359693408012,0.630691766739,0.81396740675,0.437127053738,0.793443024158,1.03239667416,0.641018033028,0.495620936155,0.645488679409,0.382889837027,0.644064426422,0.859101235867,0.500184834003,0.874629676342,1.13490462303,0.70537430048,0.571955442429,0.742568552494,0.406077176332,0.575446605682,0.782518327236,0.434806346893,0.803772091866,1.11333978176,0.688493847847,0.547588169575,0.796115338802,0.408414810896,-0.676738619804,-0.618823885918,-0.513598978519,-0.669589221478,-0.444760650396,-0.599162995815,-0.475381046534,-0.57257014513,-0.308273077011,-0.549303770065,-0.746631324291,-0.400733828545,-0.725742101669,-0.981118261814,-0.566167771816,-0.455221563578,-0.618652939796,-0.347601264715,-0.545257329941,-0.721702098846,-0.43907341361,-0.802170395851,-1.046205163,-0.617118954659,-0.501501023769,-0.696447372437,-0.367056965828,-0.767846405506,-0.791268587112,-0.459250062704,-0.586127877235,-0.610074043274,-0.419428616762,-0.3907096982,-0.480089902878,-0.136757254601,0.908731758595,1.07629024982,0.495951741934,0.652603447437,0.770462810993,0.525431275368,0.397192299366,0.413936167955,0.273852944374,0.598481655121,0.744230926037,0.425763070583,0.851101279259,1.01740455627,0.628380954266,0.540793120861,0.711029052734,0.402284443378,-0.719321548939,-0.906088709831,-0.480633765459,-0.731710076332,-0.711914002895,-0.573986768723,-0.398256659508,-0.452010273933,-0.169827520847,0.658674001694,0.877554178238,0.490570157766,0.863001048565,1.19821560383,0.753977656364,0.478623181581,0.746145546436,0.323026508093,-0.532138288021,-0.686766445637,-0.381204038858,-0.685666561127,-0.843412160873,-0.531161367893,-0.45830026269,-0.545074999332,-0.313107818365,0.599732875824,0.879880607128,0.557244002819,0.903467237949,1.21164894104,0.770604848862,0.627102255821,0.878040850163,0.372707426548,0.725368142128,0.830149590969,0.583587288857,0.813257038593,0.988510966301,0.690956711769,0.445467680693,0.635015010834,0.33542367816,-0.435539901257,-0.572275340557,-0.390723407269,-0.698779404163,-0.78737783432,-0.452428400517,-0.529874622822,-0.59990978241,-0.373725831509,0.763639032841,0.986423969269,0.609954476357,0.925940811634,1.18417882919,0.683283746243,0.547318458557,0.76435983181,0.368552058935,-0.641239225864,-0.727562189102,-0.461403995752,-0.581658840179,-0.520002245903,-0.411570549011,-0.425652712584,-0.446719974279,-0.334117263556,0.646129846573,0.811899542809,0.473431259394,0.80585283041,1.00577449799,0.616069197655,0.470085263252,0.632469236851,0.40397849679,0.774258852005,0.86050003767,0.595499396324,0.888091921806,0.960758328438,0.815503537655,0.643588006496,0.859490215778,0.502136051655,-1.41978418827,-1.49820959568,-1.0984326601,-0.00874483119696,0.0441532246768,0.0280748773366,1.18786406517,1.23606050014,0.856507360935,0.65537405014,0.838543057442,0.534827172756,0.826559782028,1.00750648975,0.698779821396,0.578861057758,0.713355302811,0.427877485752,-0.507742524147,-0.585062325001,-0.414729952812,-0.708002686501,-0.752874195576,-0.547052741051,-0.506823658943,-0.597217857838,-0.360583335161,-0.534471750259,-0.633702158928,-0.366779386997,-0.736144602299,-0.839284181595,-0.540357470512,-0.598859012127,-0.620247602463,-0.419352799654,0.205263718963,0.551143050194,0.939173340797,0.177408277988,0.622874557972,0.962183594704,0.0682451426983,0.281577318907,0.887523889542,0.612928926945,0.739211976528,0.443786352873,0.853219985962,0.981897652149,0.684743344784,0.577826559544,0.75664037466,0.461586147547,-0.673518180847,-0.68200057745,-0.500384151936,-0.703640818596,-0.632332503796,-0.577220678329,-0.486642539501,-0.583917975426,-0.4226988554,0.667427241802,0.755255103111,0.540697753429,0.763309657574,0.789708375931,0.535190284252,0.525229632854,0.578260600567,0.475813359022,-0.482425332069,-0.584712743759,-0.325956791639,-0.581996619701,-0.706439971924,-0.41355407238,-0.431504279375,-0.49152687192,-0.305723726749,-0.918339550495,-1.01186621189,-0.642765164375,-0.0073079187423,0.467195749283,-0.0215412247926,-0.898827135563,-0.982841074467,-0.653848171234,-0.467640757561,-0.526864588261,-0.34271556139,-0.604843497276,-0.664062857628,-0.460423588753,-0.434082090855,-0.558443307877,-0.355899274349,-0.534202218056,-0.708579957485,-0.401074618101,-0.753595232964,-0.940677762032,-0.589833319187,-0.517815232277,-0.624564707279,-0.381189584732,-0.601275980473,1.33864843845,-0.57943713665,-1.11569881439,0.363538444042,-1.00192022324,-0.810011506081,1.05702936649,-0.836327195168,-0.766613304615,-0.919579029083,-0.420761287212,-0.669495284557,-0.721313297749,-0.353950560093,-0.275449812412,-0.398889899254,-0.0486185066402,0.69238114357,0.904417991638,0.532107710838,0.919096887112,1.12016904354,0.724751532078,0.552378773689,0.753884732723,0.381210416555,-0.815085172653,-0.929033279419,-0.51335310936,-0.562389910221,-0.621140897274,-0.394683718681,-0.372390538454,-0.509036362171,-0.181185603142,0.611483931541,0.69803828001,0.468240857124,0.819740116596,1.00436234474,0.659105300903,0.570012390614,0.717719078064,0.440493822098,0.640994727612,0.861723005772,0.475060075521,0.981001973152,1.34280383587,0.765677630901,0.62324899435,0.888296663761,0.425370275974,0.602658450603,0.821948409081,0.46894004941,0.890058100224,1.12166249752,0.665360331535,0.59173053503,0.752127707005,0.419249922037,-0.466636687517,-0.494184434414,-0.305675625801,-0.588200390339,-0.677679598331,-0.490887731314,-0.556619822979,-0.691629111767,-0.330149412155,-0.804090499878,-1.04220235348,-0.628742277622,0.124579571187,0.0392356067896,0.143917232752,1.40297520161,1.59245121479,1.06831502914,-0.606049597263,-0.737905263901,-0.397363007069,-0.636956632137,-0.700028598309,-0.46371075511,-0.388392776251,-0.499432563782,-0.264697670937,-0.522521793842,-0.658135771751,-0.416636347771,-0.719511330128,-0.866386890411,-0.555831730366,-0.460500627756,-0.640436828136,-0.338008522987,-0.503336012363,-0.656637310982,-0.345959663391,-0.677165329456,-0.872970581055,-0.567773997784,-0.406366884708,-0.520152151585,-0.311383187771,-0.526014328003,-0.692262113094,-0.405283808708,-0.713856637478,-0.869520068169,-0.559902966022,-0.442737400532,-0.571195840836,-0.332272201777,0.652343511581,0.858635604382,0.514915704727,0.862039864063,1.07579350471,0.656935334206,0.605590999126,0.759694218636,0.474700301886,0.625960588455,0.746459901333,0.475331664085,0.765247344971,0.890151321888,0.614867985249,0.576822161674,0.667399227619,0.468446075916,-0.561128377914,-0.675539731979,-0.451042979956,-0.692436993122,-0.756160855293,-0.539219558239,-0.434329479933,-0.571372568607,-0.338285326958,-0.514864742756,-0.614220738411,-0.346645057201,-0.646353960037,-0.724215149879,-0.48708358407,-0.448607832193,-0.555828750134,-0.387909799814,-0.498894035816,-0.627798140049,-0.400650322437,-0.69532096386,-0.84846585989,-0.512976765633,-0.425934761763,-0.579612016678,-0.325293600559,1.10645651817,-0.0304063670337,0.861275553703,0.51918309927,0.276518940926,0.407928824425,0.509984910488,0.0619831942022,0.555357336998,-0.659037709236,-0.709127783775,-0.506630718708,-0.778331637383,-0.507962942123,-0.665079236031,-0.552022814751,-0.6710703969,-0.401070564985,1.32450902462,1.47874975204,0.924386620522,0.666919112206,0.505269289017,0.597856104374,0.157249107957,0.0882274806499,0.114796489477,-0.59446233511,-0.53384655714,-0.35352897644,-0.568132340908,-0.580109059811,-0.450991719961,-0.460562825203,-0.504850327969,-0.279420495033,-0.685415267944,-0.752475976944,-0.478256940842,-0.650613129139,-0.644430756569,-0.554388582706,-0.533787071705,-0.573261201382,-0.342556506395,-0.628347754478,-0.574373722076,-0.45309394598,-0.528010904789,-0.336446017027,-0.394586920738,-0.584017276764,-0.55147010088,-0.39209869504,-0.610519051552,-0.557800710201,-0.392239570618,-0.554025232792,-0.481644541025,-0.392218917608,-0.428100734949,-0.635556876659,-0.2700124681,0.622104167938,0.823389112949,0.478251636028,0.824525296688,1.01623690128,0.642880737782,0.513303101063,0.649227559566,0.418277949095,0.612362325191,0.826300382614,0.466260254383,0.871390342712,1.14097654819,0.661655604839,0.587103426456,0.795902431011,0.436486244202,0.680174171925,0.832283496857,0.484365850687,0.945717573166,1.19216835499,0.688831150532,0.597608268261,0.794559001923,0.424651443958,-0.515669167042,-0.602207005024,-0.406946629286,-0.718683838844,-0.834636569023,-0.563600301743,-0.561147451401,-0.680746257305,-0.420496970415,0.656458377838,0.767863094807,0.521828889847,0.882588684559,0.962663590908,0.619546115398,0.589053988457,0.722836911678,0.441661864519,0.588699519634,0.810449063778,0.484978348017,0.820858478546,1.07600212097,0.673079073429,0.535354554653,0.718225240707,0.39478507638,0.638656318188,0.808923304081,0.406280815601,0.855125665665,1.07398223877,0.589985132217,0.59959435463,0.72355812788,0.377722531557,0.630738735199,0.816507458687,0.523294329643,0.874726355076,1.11737251282,0.715436756611,0.544744193554,0.733171105385,0.399257272482,-0.526987373829,-0.713148832321,-0.352408349514,-0.728437900543,-0.869634509087,-0.532645463943,-0.523903310299,-0.60323536396,-0.315398424864,-0.605465710163,-0.770821869373,-0.473507195711,-0.767492234707,-0.922341167927,-0.600545942783,-0.4805303514,-0.640425801277,-0.319491118193,-0.538925886154,-0.709126055241,-0.390284627676,-0.747215569019,-0.955779254436,-0.551944494247,-0.504393577576,-0.653334379196,-0.372092276812,-0.542413651943,-0.729248821735,-0.388078212738,-0.791695892811,-1.00810980797,-0.592921197414,-0.520715594292,-0.660280168056,-0.376628756523,0.549938976765,0.784804701805,0.479744762182,0.921683490276,1.14119887352,0.708012700081,0.738121092319,0.943824708462,0.564341127872,-0.672022819519,-0.846812009811,-0.47327747941,-0.774482488632,-0.956338524818,-0.489078491926,-0.527112305164,-0.635321617126,-0.388390421867,-0.85990267992,-0.946142911911,-0.479862451553,-0.673445165157,-0.753538966179,-0.429648697376,-0.379795581102,-0.540164113045,-0.13401350379,-0.469985753298,-0.658415436745,-0.345484226942,-0.636824607849,-0.796068668365,-0.514860868454,-0.477966994047,-0.589322090149,-0.323025822639,0.59617382288,0.733219385147,0.480231046677,0.833767592907,0.798970520496,0.660476922989,0.743588268757,0.759700238705,0.667997181416,0.776460766792,0.91202378273,0.564624428749,0.807419061661,1.01464021206,0.579943299294,0.504491150379,0.536800146103,0.423123091459,-0.833458006382,-0.720968425274,-0.511737644672,-0.611085832119,-0.48874732852,-0.481562525034,-0.512486040592,-0.61882609129,-0.316340684891,1.05927491188,1.32668995857,0.816922724247,-0.0605763606727,-0.0790199264884,-0.0434487760067,-0.880032837391,-1.05136120319,-0.703648269176,0.615486502647,0.773337602615,0.474567860365,0.779652893543,0.939928293228,0.606170117855,0.570831537247,0.680058121681,0.387855708599,-0.594213068485,-0.557578444481,-0.445342600346,-0.568913936615,-0.428334772587,-0.396841615438,-0.501634716988,-0.515642642975,-0.356404960155,0.143343776464,0.177445709705,-0.293929100037,0.759156286716,0.615398943424,0.512835204601,-0.330731421709,-0.674623072147,-0.543376028538,0.786467313766,0.914280772209,0.595154523849,0.830747902393,0.967915415764,0.684989213943,0.450247108936,0.531612694263,0.364742636681,-0.339372724295,-0.380678504705,-0.274838507175,0.357720673084,0.372475415468,0.326064884663,1.17179465294,1.23442327976,0.797730922699,-0.504327237606,-0.617809355259,-0.318212598562,-0.610649049282,-0.710822105408,-0.427865594625,-0.541913032532,-0.661136627197,-0.347936451435,0.508557856083,0.6086794734,0.418258160353,0.764353632927,0.855291843414,0.56932079792,0.530532479286,0.618066489697,0.449534386396,-1.50621581078,-1.49973368645,-1.05351793766,0.00128720141947,0.198579952121,0.00510347262025,0.947117269039,1.06988132,0.713231027126,0.4863268435,0.676436722279,0.360521733761,0.836141467094,0.982200741768,0.611600935459,0.634173214436,0.787299871445,0.485716670752,0.674238801003,0.887982070446,0.531407117844,0.95524764061,1.21303319931,0.678890109062,0.57115149498,0.765587627888,0.459913134575,-0.723677814007,-0.784765541553,-0.416758984327,-0.590505123138,-0.6370023489,-0.440424025059,-0.403821974993,-0.527284085751,-0.155462130904,-0.218372493982,-0.333894610405,-0.142981603742,0.657261431217,0.62191426754,0.528492927551,1.57465851307,1.70311236382,1.11392819881,-1.28723621368,-1.40177118778,-0.912399172783,-0.10540920496,-0.136173009872,-0.00951846968383,1.10321784019,1.29805874825,0.926573395729,1.01615655422,0.724141418934,0.370171397924,0.822214722633,0.628137648106,0.243079781532,0.748165845871,0.44828504324,0.286701798439,0.636344075203,0.838486909866,0.485231667757,0.785772204399,1.03156960011,0.644146203995,0.495726764202,0.655818164349,0.350040584803,0.60236531496,0.796338915825,0.401955157518,0.851456522942,1.02329421043,0.665072023869,0.56115603447,0.72593319416,0.410733699799,0.649850964546,0.787044048309,0.512929439545,0.855592906475,1.03228473663,0.716396987438,0.517503917217,0.649149119854,0.38593095541,-0.560280561447,-0.76242005825,-0.406138062477,-0.759170770645,-0.979512810707,-0.591777026653,-0.474350452423,-0.62529528141,-0.344000697136,1.1658642292,0.273214012384,0.330876082182,0.764450132847,0.348317563534,0.373575478792,1.2113237381,0.56353110075,0.456261098385,-0.64469653368,-0.748783767223,-0.442972838879,-0.696335315704,-0.830115437508,-0.499212712049,-0.438760370016,-0.562644183636,-0.24955226481,0.639953076839,0.831007957458,0.522894561291,0.786112725735,0.953292965889,0.586750149727,0.427592486143,0.553399264812,0.303930282593,0.607036292553,0.765471935272,0.385414719582,0.858172416687,1.02371966839,0.639927089214,0.584474205971,0.664652764797,0.509349107742,0.594907402992,0.760271012783,0.485260903835,0.834251344204,1.03361546993,0.596916496754,0.475648522377,0.686989367008,0.389411360025,-0.540818572044,-0.654464483261,-0.389931559563,-0.703101456165,-0.834637284279,-0.566987156868,-0.456307202578,-0.576224207878,-0.39698138833,0.676889181137,0.828825771809,0.413458913565,0.909678220749,1.10937702656,0.696637451649,0.653221845627,0.846876740456,0.550629556179,-0.503734588623,-0.588428318501,-0.375761508942,-0.729740977287,-0.854880452156,-0.559072315693,-0.568724691868,-0.727701604366,-0.408690392971,0.826992988586,1.05610358715,0.417918562889,0.701272964478,0.763717651367,0.473930239677,0.470746010542,0.588803470135,0.389480948448,-0.648188591003,-0.406127631664,-0.477303922176,-0.536861479282,-0.171683385968,-0.480975300074,-0.664512991905,-0.50616145134,-0.530582129955,0.867878377438,1.07387804985,0.590116858482,0.915482401848,0.938913226128,0.634771943092,0.526607751846,0.489820808172,0.440241664648,0.662349700928,0.855183303356,0.437799155712,0.816473901272,0.981874227524,0.669508635998,0.541527569294,0.646224677563,0.435511320829,-0.537865519524,-0.663471162319,-0.399132072926,-0.661458015442,-0.810987114906,-0.511912465096,-0.454890757799,-0.582632660866,-0.331116199493,0.558894991875,0.686053037643,0.417145818472,0.770186007023,0.850651085377,0.613836288452,0.486456513405,0.595060944557,0.400640815496,0.17670404911,-0.463549166918,-1.60846412182,0.0926288440824,-0.719770908356,-1.56132912636,0.27312284708,-0.373226553202,-1.17014968395,-0.502007305622,-0.68126809597,-0.36601382494,-0.727594435215,-0.904382765293,-0.53751707077,-0.467745929956,-0.616397321224,-0.393425673246,0.26209384203,0.362188875675,0.184955269098,-0.805908560753,-1.14831423759,-0.795688450336,0.404371321201,0.462103277445,0.264747828245,-1.42516160011,-0.608838677406,-1.1335401535,-0.607998549938,-0.25381270051,-0.525546729565,-1.1883841753,-0.764457821846,-0.794474363327,-0.523222625256,-0.696902930737,-0.352991759777,-0.601190805435,-0.779110968113,-0.485310673714,-0.346549987793,-0.432687550783,-0.238524839282,-0.576959311962,-0.689736783504,-0.278184682131,-0.711820065975,-0.992829740047,-0.527563214302,-0.523561954498,-0.687637984753,-0.259814947844,0.650987446308,0.863465547562,0.560681402683,0.880845785141,1.09356582165,0.660781741142,0.569211602211,0.751896858215,0.422668933868,0.536853909492,0.725318014622,0.422742217779,0.807152748108,1.03424406052,0.690246641636,0.523797512054,0.752038419247,0.4379324615,0.603453040123,0.816566050053,0.420116603374,0.926409244537,1.10085785389,0.672945618629,0.684119343758,0.857572555542,0.545516908169,0.654798090458,0.774210691452,0.484513401985,0.819813549519,0.939122498035,0.64427447319,0.506298422813,0.628557443619,0.425482153893,0.627225100994,0.837399065495,0.507939934731,0.850822687149,1.13268923759,0.719866573811,0.587151050568,0.804218709469,0.383192867041,-0.583900570869,-0.772555291653,-0.394767791033,-0.655210793018,-0.70678126812,-0.417683750391,-0.442137718201,-0.547564744949,-0.260764837265,-0.567287623882,-0.756482124329,-0.401603609324,-0.747986495495,-0.98157954216,-0.567730009556,-0.432189583778,-0.635474979877,-0.332062453032,-0.567235350609,-0.75190192461,-0.469765037298,-0.766925036907,-0.977386057377,-0.573274731636,-0.492488771677,-0.64590638876,-0.344841957092,0.522372424603,0.642885267735,0.42249366641,0.844843626022,0.804119646549,0.568814456463,0.779148995876,0.816956341267,0.70148640871,-0.771432697773,-0.768698096275,-0.426519244909,-0.699875056744,-0.818055868149,-0.510779321194,-0.423442572355,-0.533423841,-0.146556720138,-0.813952386379,-0.894614875317,-0.628247559071,-0.908492743969,-0.900126814842,-0.691697061062,-0.64941829443,-0.682817816734,-0.436981290579,0.600471615791,0.703569054604,0.43911793828,0.793348014355,0.892875432968,0.56200671196,0.513055205345,0.601906478405,0.396320253611,0.602511584759,0.759360611439,0.426721334457,0.816441595554,0.931019961834,0.578512847424,0.531157195568,0.61231815815,0.390844225883,0.609030902386,0.795979857445,0.484418302774,0.820836722851,0.996480643749,0.614279985428,0.502746880054,0.655815064907,0.342477798462,-0.631269752979,-0.746981143951,-0.485957980156,-0.722462594509,-0.872308492661,-0.560687422752,-0.450999826193,-0.586114823818,-0.313505828381,0.536161959171,0.577999174595,0.391131609678,0.756612300873,0.85610383749,0.556819200516,0.679217457771,0.881904006004,0.517895936966,-0.594739437103,-0.654202759266,-0.351568579674,-0.53603208065,-0.498336017132,-0.402607709169,-0.435833692551,-0.475565135479,-0.26448944211,-0.669531524181,-0.910566806793,-0.41684666276,-0.921792030334,-1.18057239056,-0.604850113392,-0.539337992668,-0.715109527111,-0.379428416491,-0.629681944847,-0.708072185516,-0.444572150707,-0.819749236107,-0.787765324116,-0.63632619381,-0.450346767902,-0.579327404499,-0.30716201663,-0.644504249096,-0.83625215292,-0.526635706425,-0.756321132183,-0.929706513882,-0.570252180099,-0.412099093199,-0.556963682175,-0.282000184059,-0.55092138052,-0.671547591686,-0.415183484554,-0.670024991035,-0.714245438576,-0.507666707039,-0.425987333059,-0.507588326931,-0.316842734814,-0.569794714451,-0.524403393269,-0.419374138117,-0.563143610954,-0.404804646969,-0.426819235086,-0.495732754469,-0.475982964039,-0.324359178543,0.674979746342,0.785705506802,0.507053852081,0.88589066267,1.1122303009,0.691571772099,0.504680812359,0.717624485493,0.38837903738,0.644052088261,0.785331785679,0.419354259968,0.800035715103,0.895777702332,0.600523293018,0.558614253998,0.658728420734,0.452768474817,-0.541600823402,-0.615786850452,-0.430556744337,-0.749672591686,-0.815313398838,-0.607019901276,-0.505989789963,-0.599050521851,-0.377795755863,-0.566131055355,-0.750274062157,-0.437582522631,-0.797566890717,-1.00671184063,-0.598220705986,-0.513746917248,-0.711628437042,-0.356059193611,-0.497901409864,-0.605656147003,-0.358473241329,-0.632336378098,-0.762912452221,-0.49609875679,-0.477500528097,-0.519800961018,-0.291345030069,-0.629213392735,-0.616448581219,-0.47360381484,-0.587086975574,-0.436036676168,-0.459374159575,-0.468514472246,-0.500298976898,-0.376722842455,-0.734683871269,-0.87464350462,-0.399112403393,-0.764185965061,-0.779215931892,-0.448091059923,-0.415929973125,-0.534488618374,-0.120563402772,0.589415252209,0.811097621918,0.448016792536,0.853650331497,1.11065399647,0.619034051895,0.530845165253,0.699352502823,0.39182087779,-0.601501703262,-0.684099674225,-0.34323912859,-0.593491137028,-0.656836628914,-0.441039979458,-0.428102731705,-0.511980235577,-0.238713771105,0.649585127831,0.888474166393,0.453905075788,0.848559677601,1.07036459446,0.649972856045,0.603971481323,0.828323602676,0.41872638464,0.616940021515,0.669703006744,0.450338512659,0.879461705685,0.964448869228,0.590714514256,0.593064308167,0.823820650578,0.447126805782,0.985336005688,1.09001255035,0.627714693546,0.528916597366,0.789101779461,0.460581421852,1.09593069553,1.06910741329,0.848243176937,1.08887422085,1.07880461216,0.82497382164,0.902055799961,0.778936684132,0.650349795818,0.326796621084,0.203236654401,0.337713003159,0.61007219553,0.759925305843,0.501469612122,0.856890678406,1.00264334679,0.600931406021,0.52520865202,0.723428010941,0.386250466108,-0.686935901642,-0.840975046158,-0.452592432499,-0.727525234222,-0.795393288136,-0.45815372467,-0.529410481453,-0.617148578167,-0.278222829103,-0.56329703331,-0.59287494421,-0.348312795162,-0.629976868629,-0.621047258377,-0.507316827774,-0.443424463272,-0.51305949688,-0.215057060122,-0.864817321301,-1.07722008228,-0.498356461525,-0.623866558075,-0.587414681911,-0.436400651932,-0.268504232168,-0.448096573353,-0.0985683277249,0.648772597313,0.807645618916,0.46650031209,0.805607020855,1.00594365597,0.612023293972,0.430442422628,0.623182356358,0.324572861195,-0.434731274843,-0.54996907711,-0.320522069931,-0.64865309,-0.739141225815,-0.508332908154,-0.525118589401,-0.64243888855,-0.362780600786,-0.561478435993,-0.735544025898,-0.419261813164,-0.75305980444,-0.981886684895,-0.577311813831,-0.469184279442,-0.653994679451,-0.316637486219,-0.630078911781,-0.680835187435,-0.331987887621,-0.60325217247,-0.722134053707,-0.448315620422,-0.482809215784,-0.62914288044,-0.218705028296,0.822625279427,1.00144410133,0.494060635567,0.693962216377,0.787714123726,0.349981695414,0.345116376877,0.371004164219,0.282514870167,0.832296133041,0.92460411787,0.60851675272,0.78845500946,0.87088650465,0.566865861416,0.730534493923,0.743132591248,0.547610998154,-0.624361038208,-0.70891982317,-0.46210205555,-0.654429495335,-0.54659819603,-0.52399545908,-0.538568258286,-0.602628648281,-0.369432538748,0.660417616367,0.885307013988,0.489628851414,0.886028289795,1.23343527317,0.69022154808,0.528952598572,0.774856805801,0.363794714212,0.685378193855,0.860455453396,0.517520666122,0.923171460629,1.18377268314,0.688402295113,0.61443901062,0.844606161118,0.421504616737,0.564354240894,0.761982023716,0.425780504942,0.835205852985,1.06966781616,0.632280945778,0.603425145149,0.731719076633,0.427342653275,0.743757605553,0.807869255543,0.504948318005,0.755120396614,0.707333028316,0.571000874043,0.62388586998,0.68228405714,0.503740131855,-0.034416731447,-0.20434473455,0.00645127566531,0.865093231201,0.781717479229,0.668664634228,-0.326289594173,-0.391624838114,-0.317179113626,-0.524993598461,-0.582522273064,-0.376759290695,-0.615439713001,-0.687601029873,-0.529578268528,-0.362326145172,-0.53011059761,-0.275467902422,0.656615197659,0.900971651077,0.481287866831,0.941228091717,1.20503211021,0.681557774544,0.60565674305,0.837403059006,0.449783295393,-0.106704354286,-0.241231396794,-0.205565154552,0.580119550228,0.588708758354,0.358507454395,-0.601714789867,-0.976280629635,-0.596670985222,-0.529153347015,-0.658671736717,-0.361157417297,-0.698420524597,-0.847621381283,-0.555975973606,-0.495712906122,-0.633287250996,-0.378929316998,0.631205797195,0.848331987858,0.451925128698,0.825555384159,1.0556974411,0.653496026993,0.546815216541,0.74366992712,0.436322391033,-0.561938762665,-0.555289030075,-0.439849942923,-0.676601111889,-0.631037473679,-0.501856863499,-0.459593445063,-0.590582132339,-0.331980973482,0.578252196312,0.722761273384,0.416953712702,0.698910713196,0.828892588615,0.539125323296,0.458841651678,0.557800114155,0.419232368469,-0.591400980949,-0.725371718407,-0.451862722635,-0.715187430382,-0.852309703827,-0.540860950947,-0.462485849857,-0.606544971466,-0.355005979538,-0.505530774593,-0.593419969082,-0.39386293292,-0.726088762283,-0.779167294502,-0.542316317558,-0.57023024559,-0.640837371349,-0.368734449148,0.748434662819,0.987933218479,0.544113457203,0.982226371765,1.24157249928,0.776806652546,0.594434440136,0.831584095955,0.415170520544,-0.542805075645,-0.587473750114,-0.416016459465,-0.528298258781,-0.626197397709,-0.418634563684,-0.382772952318,-0.459006309509,-0.274214684963,-0.588495194912,-0.753967761993,-0.388109236956,-0.676536679268,-0.878915846348,-0.457234561443,-0.377852141857,-0.484958052635,-0.275627285242,0.670110404491,0.810546875,0.552475512028,0.878463327885,0.98361235857,0.69427216053,0.550786674023,0.66835463047,0.409775227308,1.43899846077,1.52216422558,1.13109064102,0.640721201897,0.48144903779,0.466716945171,-0.394550651312,-0.5551456213,-0.313236474991,0.608764469624,0.804352104664,0.47194391489,0.83123677969,1.12155067921,0.682006239891,0.509461939335,0.725020825863,0.352664381266,0.64578127861,0.786983251572,0.469030916691,0.854872107506,1.02830255032,0.681675553322,0.533974230289,0.737500190735,0.380764603615,0.618799567223,0.773260712624,0.440913796425,0.725129544735,0.830985367298,0.581273436546,0.491730868816,0.547729730606,0.355631262064,0.676655232906,0.598312795162,0.574610233307,0.715567290783,0.633496165276,0.677584171295,0.517866134644,0.510893404484,0.467767328024,-0.705035328865,-0.809594273567,-0.415266782045,-0.837351799011,-0.913534402847,-0.556006371975,-0.488785088062,-0.663069844246,-0.194993779063,-0.55299448967,-0.686920166016,-0.426317930222,-0.777158439159,-0.877301812172,-0.579227507114,-0.562410056591,-0.735802590847,-0.44761505723,-0.538157165051,-0.64498513937,-0.385067015886,-0.762071669102,-0.787345230579,-0.611585795879,-0.465537548065,-0.649613201618,-0.381273537874,0.589405477047,0.803101360798,0.48143529892,0.812698185444,1.0562813282,0.688612878323,0.481261432171,0.678835868835,0.334140002728,-0.52067476511,-0.661172986031,-0.342088460922,-0.74263471365,-0.966829419136,-0.538580298424,-0.456442147493,-0.631636202335,-0.323712348938,0.605591952801,0.729798018932,0.430614948273,0.782160758972,0.920428454876,0.612123072147,0.530654549599,0.654624521732,0.401266604662,0.552397966385,0.682125806808,0.384132385254,0.677861809731,0.890025794506,0.568626821041,0.497009515762,0.588301599026,0.338261634111,-0.571029424667,-0.637008547783,-0.41517162323,-0.624574542046,-0.675508499146,-0.492642194033,-0.482863634825,-0.578643202782,-0.327091753483,-1.25684058666,-0.565109193325,-1.06286978722,-0.628987431526,0.378698348999,-0.606551647186,-1.02279376984,-0.677366197109,-0.830804109573,0.221604764462,0.190586864948,0.202814564109,0.848375797272,0.895971894264,0.739412367344,1.21668422222,1.26746606827,0.901418149471,0.156276896596,0.190446808934,0.113951742649,0.806818127632,0.899675309658,0.607262194157,1.13049352169,1.28006911278,0.774624764919,-0.700826942921,-0.658645153046,-0.487162917852,-0.578007400036,-0.501276791096,-0.433669745922,-0.504725575447,-0.568448483944,-0.305472493172,-0.811229288578,-0.880654990673,-0.574567973614,-0.649738311768,-0.456016033888,-0.511020183563,-0.433384001255,-0.509013175964,-0.178367570043,0.858025074005,0.91329562664,0.526510596275,1.07223165035,1.26451468468,0.727611899376,0.793783485889,0.879659235477,0.603483319283,0.779298722744,0.963623225689,0.610945284367,0.999342262745,1.10731863976,0.732679367065,0.676734089851,0.81537091732,0.525449812412,0.556033611298,0.73309481144,0.378562450409,0.824174582958,1.04172861576,0.531434714794,0.567738950253,0.69481408596,0.404797136784,-0.618076086044,-0.833381414413,-0.447416424751,-0.812275886536,-1.07903528214,-0.624030768871,-0.472448974848,-0.673893094063,-0.352067768574,1.43877649307,1.54368293285,0.977609753609,0.624079585075,0.492405802011,0.576073944569,-0.245494931936,-0.458297133446,-0.141803443432,0.592051506042,0.728604853153,0.452283710241,0.789757192135,1.02522397041,0.60414236784,0.522124767303,0.712567806244,0.364249020815,0.632643222809,0.812846243382,0.449155509472,0.81187415123,1.03696286678,0.601018548012,0.564819931984,0.685447633266,0.436367690563,0.584317028522,0.735854685307,0.398608267307,0.895079851151,1.11194217205,0.657081246376,0.739484608173,0.951828420162,0.556516587734,0.66643589735,0.864479720592,0.50166785717,0.932475030422,1.20028614998,0.731588542461,0.615621745586,0.867167890072,0.434852540493,-0.52882283926,-0.538785457611,-0.410843282938,-0.702965378761,-0.751228034496,-0.542821228504,-0.468932628632,-0.616140902042,-0.409458637238,0.522984623909,0.607799172401,0.392258435488,0.810896217823,0.928676962852,0.601549565792,0.582180500031,0.780388891697,0.47908782959,-0.519478678703,-0.635897576809,-0.318304806948,-0.604441285133,-0.776030600071,-0.48867687583,-0.460703879595,-0.530692636967,-0.308748096228,0.691626966,0.898471415043,0.509285032749,0.884942471981,1.21071445942,0.686846733093,0.554038703442,0.770415067673,0.442609578371,-0.585298001766,-0.741764307022,-0.401179432869,-0.817051649094,-1.0551046133,-0.605202496052,-0.552115321159,-0.718168795109,-0.400434374809,-0.528525292873,-0.59087818861,-0.348752319813,-0.630477428436,-0.605154395103,-0.436002880335,-0.570817470551,-0.613619685173,-0.433939605951,-0.567141354084,-0.738003134727,-0.445446252823,-0.80477142334,-0.984998822212,-0.646552979946,-0.53473085165,-0.675962865353,-0.404823929071,-0.680192351341,-0.689912199974,-0.40481710434,-0.584456205368,-0.482008159161,-0.485580414534,-0.478127688169,-0.476523607969,-0.264807194471,-0.493509292603,-0.582248568535,-0.35762578249,-0.651679635048,-0.796715676785,-0.528902590275,-0.482974201441,-0.605684041977,-0.339573889971,0.75167620182,0.986400306225,0.539609372616,0.778594195843,0.95937114954,0.442726314068,0.362983047962,0.340928435326,0.145444899797,0.649803638458,0.701794326305,0.432763636112,0.713680684566,0.713378608227,0.495255321264,0.413218528032,0.521020233631,0.352628141642,0.825731277466,1.01138353348,0.490701973438,0.805625081062,0.936748147011,0.548528194427,0.601177453995,0.583921015263,0.530811309814,-0.59604716301,-0.819710373878,-0.423269748688,-0.81179445982,-1.02015459538,-0.653670787811,-0.575383782387,-0.764913320541,-0.376466482878,-0.675979852676,-0.777326643467,-0.540530502796,-0.751428902149,-0.929735481739,-0.528175771236,-0.480473101139,-0.634507119656,-0.318436056376,-0.62210804224,-0.662749707699,-0.253996372223,-0.708826839924,-0.871160209179,-0.359594613314,-0.296384036541,-0.439878702164,-0.246746867895,-1.35351729393,-1.56347858906,-1.01709938049,-0.360849946737,-0.344167530537,-0.239879101515,0.286060631275,0.414401650429,0.291617572308,-0.689488768578,-0.919214785099,-0.527837276459,-0.976290345192,-1.0328732729,-0.715457141399,-0.574565649033,-0.793554961681,-0.397839218378,-0.560419142246,-0.492207914591,-0.404357433319,-0.604008555412,-0.352700352669,-0.449450582266,-0.581473171711,-0.475051611662,-0.409451425076,-1.42586398125,-1.52229619026,-1.07226288319,0.0182789340615,-0.0403150171041,0.0963184908032,1.2689794302,1.34549641609,0.92121732235,-0.487035959959,-0.663160741329,-0.339834213257,-0.714295685291,-0.957400858402,-0.553691029549,-0.481547385454,-0.679389297962,-0.365656167269,0.753703594208,0.900482594967,0.635989427567,0.854596018791,0.994691371918,0.68966448307,0.456357806921,0.619645059109,0.309227764606,1.34126126766,1.42531275749,0.957776129246,0.170295849442,0.0640777125955,0.164267539978,-0.561939358711,-0.724749207497,-0.442898869514,-0.498709648848,-0.605635583401,-0.371952354908,-0.624956846237,-0.77748298645,-0.519009709358,-0.522998034954,-0.655673742294,-0.347573459148,-0.683779597282,-0.814822018147,-0.350574970245,-0.728037059307,-0.893423438072,-0.587952435017,-0.420566380024,-0.545446395874,-0.212248548865,0.598198652267,0.753588795662,0.418050080538,0.761772632599,0.969681620598,0.531050860882,0.47455573082,0.623450696468,0.376510709524,0.807250916958,1.02641952038,0.538193762302,0.995775699615,1.28586828709,0.699431121349,0.525478005409,0.76822835207,0.420431107283,0.121680013835,0.502019762993,1.15356171131,0.510835826397,0.659237742424,0.910167217255,0.0146299488842,0.387685626745,1.09342944622,0.710291802883,0.941936790943,0.505203008652,0.922974050045,1.22982418537,0.691027522087,0.568548500538,0.776668250561,0.439721852541,0.718656122684,0.959385454655,0.508767068386,0.900132894516,1.20375490189,0.681903541088,0.520852088928,0.722963571548,0.357401877642,-0.483573824167,-0.670609712601,-0.37526267767,-0.718046963215,-0.924656689167,-0.539251029491,-0.47562739253,-0.626810789108,-0.340519994497,0.631038248539,0.860725045204,0.491235375404,0.834215760231,1.05859267712,0.697349667549,0.59198653698,0.782616972923,0.447202563286,-0.766953825951,-1.0426107645,-0.560461163521,-0.910670995712,-1.21501886845,-0.676815807819,-0.428355425596,-0.586673974991,-0.280999898911,-0.513433218002,-0.649330735207,-0.356148064137,-0.628360450268,-0.751968443394,-0.491599231958,-0.441419571638,-0.524329185486,-0.334241867065,0.628719091415,0.78132468462,0.470416754484,0.608032107353,0.691940665245,0.493677854538,0.521237194538,0.530116915703,0.419972717762,-0.621393680573,-0.771944582462,-0.480621904135,-0.689769983292,-0.845582664013,-0.563087880611,-0.451617568731,-0.580031514168,-0.257789492607,0.782373964787,0.110084488988,-1.10938763618,0.995166063309,0.318990498781,-0.913446009159,0.540441930294,-0.0052561420016,-0.795880198479,0.69509935379,0.909621417522,0.54979133606,0.928813993931,1.14457690716,0.77241486311,0.588740706444,0.799681961536,0.481032550335,0.63464897871,0.798476874828,0.456578105688,0.799548149109,0.999741256237,0.637573897839,0.545244514942,0.733550965786,0.418439745903,0.653709113598,0.853842437267,0.45503950119,0.911009311676,1.17636549473,0.674675881863,0.594608187675,0.804822564125,0.464543581009,-0.552415013313,-0.717543423176,-0.406269729137,-0.727482616901,-0.899879038334,-0.554649114609,-0.447227984667,-0.588459193707,-0.346266061068,-0.844212949276,0.00799741782248,0.883688509464,-0.77170419693,0.0912634581327,1.13337051868,-0.691066741943,-0.0941398739815,0.822708189487,-1.61918258667,-0.175721719861,0.586911439896,-1.77590632439,-0.388024538755,0.768515646458,-1.36074340343,-0.171478524804,0.487721741199,-0.580807089806,-0.779785990715,-0.419378519058,-0.796118736267,-1.06439208984,-0.576209247112,-0.492420583963,-0.649368524551,-0.341896653175,0.605719089508,0.712282001972,0.428161174059,-0.368426978588,-0.262008547783,-0.253818064928,-1.68464720249,-1.83538734913,-1.19837033749,0.565786719322,0.708990514278,0.43600666523,0.831168532372,0.941644251347,0.677358984947,0.597424149513,0.715776801109,0.430121362209,0.59115421772,0.785203099251,0.436462134123,0.858189344406,1.06167292595,0.658480405807,0.55341219902,0.701755404472,0.420128941536,0.672319233418,0.767982065678,0.459533333778,0.826492547989,1.03445911407,0.518377244473,0.470589876175,0.606720089912,0.378722965717,0.613788306713,0.811311006546,0.425078243017,0.837353110313,1.08585298061,0.67717975378,0.506168067455,0.692915737629,0.419078916311,0.596192419529,0.81181293726,0.412380605936,0.877002716064,1.05057561398,0.662107229233,0.554389595985,0.655843853951,0.400377452374,0.58682847023,0.599410533905,0.467496573925,0.725859284401,0.738477289677,0.564821243286,0.860532641411,1.03412532806,0.609883964062,0.706021130085,0.929807424545,0.492647141218,0.927164077759,1.18690979481,0.774780988693,0.597277283669,0.802872121334,0.477632433176,0.725950837135,0.982860386372,0.58278721571,1.09173333645,1.47089862823,0.874489665031,0.627615571022,0.898010075092,0.457190543413,-0.749737501144,-0.840764343739,-0.485338419676,-0.659538686275,-0.751364827156,-0.480207324028,-0.407731413841,-0.536925137043,-0.226317510009,-0.610328495502,-0.780956566334,-0.393656253815,-0.720824360847,-0.796851277351,-0.558473706245,-0.503634810448,-0.625458538532,-0.365366876125,0.678733170033,0.83881598711,0.514452636242,0.882444798946,1.08761310577,0.738604724407,0.483857870102,0.701783418655,0.371826678514,0.752042591572,0.864133119583,0.537550032139,0.884872615337,1.0752300024,0.656644999981,0.52365654707,0.712333321571,0.351655036211,-0.706816852093,-0.852837860584,-0.341584563255,-0.699236512184,-0.867058634758,-0.486307233572,-0.386185854673,-0.536748409271,-0.153835043311,-0.803687691689,-0.914613425732,-0.339352279902,-0.961125791073,-1.05565106869,-0.476033210754,-0.470225661993,-0.47105973959,-0.171620428562,0.62472563982,0.813456356525,0.496955752373,0.825393080711,1.03802275658,0.681769251823,0.543051600456,0.760574400425,0.412994861603,-0.555415630341,-0.565468668938,-0.309186846018,-0.645042657852,-0.675034940243,-0.512195765972,-0.572377562523,-0.668352723122,-0.290078938007,0.797517836094,0.789426863194,0.535570323467,0.706725358963,0.654401659966,0.536213636398,0.593795537949,0.75326615572,0.387341827154,0.620724380016,0.831836104393,0.538882017136,0.875439941883,1.07093477249,0.608892023563,0.567884802818,0.756919264793,0.431604355574,-0.586138188839,-0.737953484058,-0.407370746136,-0.796003401279,-0.999243021011,-0.659191727638,-0.528304159641,-0.688492357731,-0.403602182865,-0.635392546654,-0.807811319828,-0.471400827169,-0.820029437542,-1.00641572475,-0.619205951691,-0.545611798763,-0.652276158333,-0.356753349304,1.34542798996,1.42352080345,0.887257575989,0.253743439913,0.352078914642,0.160547569394,0.170569971204,0.10732448101,0.274946689606,-0.449126362801,-0.499023675919,-0.304241627455,-0.626738488674,-0.676185250282,-0.448803663254,-0.558976709843,-0.643489837646,-0.425319641829,-0.574497401714,-0.609470367432,-0.441855281591,-0.608881771564,-0.619277119637,-0.440615952015,-0.367367446423,-0.532628893852,-0.234580114484,-0.517038762569,-0.638199150562,-0.332727432251,-0.684901475906,-0.845930278301,-0.483074575663,-0.47481778264,-0.593308389187,-0.400486379862,-0.584721148014,-0.789394855499,-0.451312184334,-0.788407087326,-0.992938637733,-0.613298296928,-0.498352736235,-0.665705502033,-0.397042632103,0.150347158313,0.225109502673,0.18783070147,-0.54688680172,-0.711015999317,-0.430459588766,-1.25351989269,-1.384542346,-0.799555718899,0.595999360085,0.829428434372,0.438559919596,0.833250641823,1.06310498714,0.660074114799,0.491106629372,0.656382858753,0.389324754477,-0.615295410156,-0.66857534647,-0.426142394543,-0.72898876667,-0.844358146191,-0.529796302319,-0.392911016941,-0.573587238789,-0.296069860458,-0.525697648525,-0.686706900597,-0.399358332157,-0.666686952114,-0.769729912281,-0.526532888412,-0.475617557764,-0.611830413342,-0.345544010401,-0.771580338478,-0.935112059116,-0.488472104073,-0.691854298115,-0.626346290112,-0.462298005819,-0.548682808876,-0.688783526421,-0.240759268403,-0.52854090929,-0.679285347462,-0.404967367649,-0.694066286087,-0.815769433975,-0.527543008327,-0.467189103365,-0.614389955997,-0.358039021492,0.834442973137,0.977400064468,0.596307456493,0.848592281342,0.923183858395,0.618689477444,0.457162380219,0.567280828953,0.357596546412,0.632405042648,0.752737700939,0.433273881674,0.832508802414,1.00507700443,0.605436146259,0.601882874966,0.788886725903,0.474694341421,-0.54408544302,-0.479804217815,-0.319678246975,-0.50683504343,-0.417711436749,-0.417488783598,-0.44699665904,-0.501215696335,-0.305256932974,1.17483222485,1.20062708855,0.911498606205,0.678482890129,0.427765905857,0.507246553898,-0.0152341239154,-0.158175319433,0.00374515983276,-1.04488563538,-1.18119812012,-0.592432796955,-0.681100964546,-0.65388417244,-0.435208231211,-0.250238001347,-0.5284537673,0.0300003476441,0.74725908041,0.768858611584,0.542810618877,0.719024956226,0.806232154369,0.430167526007,0.48809325695,0.627823114395,0.45498368144,0.634898483753,0.745294094086,0.466524630785,0.837491333485,1.01813673973,0.599285006523,0.544365406036,0.725125193596,0.399323612452,0.48319709301,0.647924423218,0.346453249454,0.737184286118,0.885696649551,0.545985639095,0.507076740265,0.623394012451,0.392691075802,0.657907664776,0.86068123579,0.508956193924,0.886952340603,1.04857075214,0.72171574831,0.537169754505,0.695515751839,0.407064020634,-1.60733020306,-1.80519139767,-1.09728300571,-0.295725464821,-0.346665620804,-0.149414032698,0.715304374695,0.847168564796,0.554442942142,0.749531805515,0.99240219593,0.550897657871,0.909353077412,1.21183764935,0.661918461323,0.603271186352,0.853693544865,0.428053379059,0.644302487373,0.852387726307,0.476285457611,0.879220247269,1.16417896748,0.698893845081,0.559597551823,0.755722820759,0.360344797373,-0.599312245846,-0.762704789639,-0.413104683161,-0.835695922375,-1.11100566387,-0.607394278049,-0.498875558376,-0.70032286644,-0.382034540176,-0.500037133694,-0.604766964912,-0.307220220566,-0.752176582813,-0.74922144413,-0.56533664465,-0.516494452953,-0.548732221127,-0.408161103725,-1.54905056953,-1.74615752697,-1.17731547356,0.0162359438837,0.22321626544,0.00669355364516,0.943958938122,1.1129348278,0.669169962406,-0.22217348218,-0.226266548038,-0.0604440644383,-1.00059902668,-1.34408187866,-0.718117535114,-0.930469810963,-1.06894731522,-0.513598024845,0.576694011688,0.785854041576,0.472298800945,0.857273817062,1.07848978043,0.615663826466,0.565380811691,0.760687112808,0.38284739852,0.583074271679,0.77346354723,0.428169816732,0.809739947319,0.978514552116,0.610553860664,0.517084598541,0.653339982033,0.357361853123,0.570109546185,0.753581821918,0.428389310837,0.811912059784,1.04655337334,0.612068831921,0.488873630762,0.6580311656,0.383491158485,1.62910366058,1.86366593838,1.0982786417,0.290070444345,0.314480423927,0.238862678409,-0.707745790482,-0.951039791107,-0.505076289177,0.631051003933,0.804607212543,0.451185852289,0.87331032753,1.12789797783,0.70380538702,0.580838859081,0.769296646118,0.416473031044,0.395756185055,0.360845714808,0.268944591284,0.926862776279,0.873453021049,0.550299704075,-0.575561285019,-0.421942859888,-0.369915097952,0.591740727425,0.790564715862,0.426554083824,0.842405557632,1.06515932083,0.641080081463,0.536936163902,0.69374024868,0.372334301472,0.671504974365,0.751281440258,0.541557967663,0.825472593307,0.965878069401,0.624694108963,0.568642497063,0.810491859913,0.385090440512,-0.594452321529,-0.692431330681,-0.478917479515,-0.72601878643,-0.826426923275,-0.585350036621,-0.484130263329,-0.583443760872,-0.318833202124,-0.519805312157,-0.669498443604,-0.357059240341,-0.718414962292,-0.985698997974,-0.570821285248,-0.496200919151,-0.661177694798,-0.342167794704,-1.40755236149,-1.58785462379,-0.966935455799,-0.085571192205,-0.146446064115,-0.161032646894,0.746152877808,0.849117815495,0.668747603893,-0.70553034544,-0.937044501305,-0.56365686655,-0.873366057873,-1.10508000851,-0.632345736027,-0.433030694723,-0.608539819717,-0.303584694862,-0.49077668786,-0.667991518974,-0.362675845623,-0.742959082127,-0.946502745152,-0.600008189678,-0.485564261675,-0.664831638336,-0.360011041164,-0.65373146534,-0.58139193058,-0.45321983099,-0.634035468102,-0.425144910812,-0.507152676582,-0.574700176716,-0.601310193539,-0.375044286251,0.598678052425,0.819199621677,0.453441381454,0.881539225578,1.18442523479,0.689750850201,0.581806123257,0.787408173084,0.396990269423,-0.784363031387,-0.82422542572,-0.379164785147,-0.729307472706,-0.85015642643,-0.462401896715,-0.474839031696,-0.72286683321,-0.0953195691109,0.657785236835,0.871201038361,0.511527895927,0.873384594917,1.09580683708,0.703901410103,0.523746192455,0.676175236702,0.369789063931,1.41235148907,1.48603892326,0.974240779877,0.0904331728816,0.172546759248,0.0703649446368,-1.01815867424,-1.2870850563,-0.785747170448,-0.836282134056,-0.784404635429,-0.774057030678,-0.777043282986,1.70424187183,-0.620959877968,-0.773962795734,-0.942014098167,-0.611965239048,0.593139350414,0.742224752903,0.396184146404,0.562979996204,0.766464054585,0.433128923178,0.821705639362,0.824083507061,0.648833334446,-0.606590926647,-0.728589355946,-0.340390950441,-0.771237850189,-0.891768038273,-0.450464814901,-0.370519608259,-0.516519129276,-0.201999902725,0.53100168705,0.767174065113,0.387152165174,0.855238735676,1.08299696445,0.662217795849,0.576013207436,0.751704514027,0.48370590806,0.692315220833,0.835167765617,0.526983380318,0.742842316628,0.832243025303,0.486718714237,0.535729169846,0.675203919411,0.361950963736,-1.26985931396,-0.107929840684,0.291688174009,-1.05090808868,0.10746987164,0.473219722509,-1.34077882767,-0.610368132591,-0.0709893628955,0.670962572098,0.686039566994,0.570802867413,0.859641313553,0.751677274704,0.617416799068,0.581169366837,0.678917944431,0.534730792046,-0.655930221081,-0.754536926746,-0.336263626814,-0.859472751617,-0.906302571297,-0.579155027866,-0.500469267368,-0.647211074829,-0.272348225117,-0.603366374969,-0.844800531864,-0.436822623014,-0.824312627316,-1.10248637199,-0.617983520031,-0.527310729027,-0.69810038805,-0.396792113781,-0.738908171654,-0.920737206936,-0.352944493294,-0.791171789169,-0.882731080055,-0.50005877018,-0.463936030865,-0.627049028873,-0.161721140146,-0.523107469082,-0.647832632065,-0.364546060562,-0.675112426281,-0.823993504047,-0.499317914248,-0.440097779036,-0.602516710758,-0.303570091724,0.646926283836,0.868876934052,0.482417017221,0.866493105888,1.07560861111,0.6591168046,0.506524562836,0.696598529816,0.393490940332,-0.486332476139,-0.592182934284,-0.389266878366,-0.607918202877,-0.677272975445,-0.510427892208,-0.533460915089,-0.590396940708,-0.379318147898,0.617444217205,0.768808543682,0.484954446554,0.82771140337,1.07154655457,0.646986961365,0.494702637196,0.697088778019,0.377023845911,-1.42016577721,-1.46173250675,-1.01294159889,-0.428915709257,-0.338404148817,-0.377635508776,0.70285743475,0.795208454132,0.363998711109,-0.564321756363,-0.629144370556,-0.431552350521,-0.615510165691,-0.671539187431,-0.477086871862,-0.363626599312,-0.490545034409,-0.265977293253,0.684900105,0.728600740433,0.460222542286,0.73280698061,0.707221508026,0.485567718744,0.432205051184,0.605005502701,0.33004784584,-0.7294896245,-0.662436068058,-0.513763189316,-0.698082447052,-0.264907062054,-0.53647762537,-0.574754118919,-0.640071988106,-0.390876740217,-0.482131719589,-0.416634947062,-0.356326878071,-0.566210627556,-0.453725844622,-0.468297362328,-0.549204826355,-0.585005581379,-0.362418264151,-0.61801981926,-0.676316380501,-0.381162047386,-0.62528938055,-0.751629948616,-0.473525077105,-0.429184168577,-0.521743535995,-0.266907423735,-0.586490809917,-0.672830820084,-0.415787100792,-0.829035699368,-0.865304946899,-0.661729872227,-0.611028730869,-0.708680033684,-0.410903960466,-0.574696958065,-0.585263252258,-0.386624366045,-0.510376095772,-0.366655498743,-0.389620900154,-0.580857813358,-0.544387996197,-0.451355874538,-0.704342365265,-0.747050046921,-0.481331348419,-0.608637154102,-0.460286825895,-0.419156879187,-0.416785746813,-0.418823808432,-0.281457751989,0.80970954895,-0.130597531796,-1.09106040001,0.774340629578,-0.264795780182,-1.48499619961,0.40094602108,-0.68604850769,-1.13433027267,0.406741589308,0.529642343521,0.403735548258,1.03277099133,1.22413742542,0.827752172947,0.960460424423,1.23382592201,0.730753004551,-0.654479086399,-0.793286681175,-0.453817903996,-0.808420598507,-1.0402725935,-0.621287882328,-0.465589612722,-0.685235440731,-0.362853527069,-0.65711581707,-0.638077914715,-0.375642418861,-0.734392404556,-0.880877375603,-0.475077688694,-0.446699351072,-0.631086349487,-0.141057893634,-0.439833760262,-0.339583337307,-0.322574466467,-0.55993193388,-0.621619224548,-0.466258257627,-0.99404835701,-1.18499755859,-0.627544820309,-0.50750875473,-0.687800228596,-0.397591918707,-0.708024203777,-0.897848010063,-0.549425184727,-0.466022580862,-0.607927024364,-0.345261573792,-0.679309546947,-0.867412865162,-0.406717836857,-0.714500665665,-0.778864443302,-0.461032003164,-0.467810750008,-0.492961108685,-0.306322842836,0.65020775795,0.787742614746,0.507437348366,0.840068817139,0.972750604153,0.68280684948,0.49882081151,0.716383516788,0.43795222044,-0.583868205547,-0.724390268326,-0.395185410976,-0.766839802265,-0.888012349606,-0.586548507214,-0.433833003044,-0.590310394764,-0.321216225624,0.621825754642,0.741179049015,0.453516840935,0.902152121067,1.12694585323,0.667113244534,0.509272217751,0.760940730572,0.372797906399,0.641158044338,0.846516013145,0.41831985116,0.82257181406,1.00903046131,0.597394108772,0.477389752865,0.642001569271,0.412416607141,0.591553688049,0.741418004036,0.478872358799,0.762126386166,1.03048396111,0.603483080864,0.421563565731,0.689946651459,0.314968883991,-0.470161229372,-0.61013841629,-0.304074317217,-0.668849647045,-0.754524171352,-0.509846627712,-0.458618402481,-0.544304430485,-0.336363881826,0.253522187471,0.580895245075,0.160400718451,-0.415820509195,-0.116388313472,-0.345765769482,-1.6517624855,-1.86334872246,-1.28024876118,-0.534164786339,-0.708257436752,-0.339915454388,-0.599499762058,-0.747971177101,-0.488453119993,-0.43300819397,-0.493509203196,-0.260167568922,0.612151801586,0.79992711544,0.447596520185,0.861733198166,1.04336822033,0.65141928196,0.539424717426,0.687505543232,0.418129205704,-0.95021635294,-1.0002720356,-0.719790041447,0.38205909729,0.480677366257,0.299965143204,1.45745790005,1.55016613007,1.1799737215,-0.698410272598,-0.656527578831,-0.472690612078,-0.576933085918,-0.374264538288,-0.435950905085,-0.511379182339,-0.540119230747,-0.375126898289,-0.528819203377,-0.644194960594,-0.369680911303,-0.721148431301,-0.798838675022,-0.566637396812,-0.498703420162,-0.596286356449,-0.389857888222,-0.446431159973,-0.509970724583,-0.300140529871,-0.639959871769,-0.751768231392,-0.45780223608,-0.487280607224,-0.542640209198,-0.393710374832,-0.953420221806,-0.0427725836635,0.957859873772,-0.807228207588,-0.0116189215332,0.637519538403,-0.892400860786,-0.0524499304593,0.768720269203,0.823040008545,0.99855864048,0.712602436543,0.863758444786,0.980479717255,0.643853127956,0.498321741819,0.601552009583,0.377681314945,-0.556486904621,-0.734393596649,-0.363241106272,-0.736594438553,-0.846246540546,-0.55067294836,-0.427046775818,-0.499889969826,-0.334249794483,-0.635600566864,-0.687375128269,-0.422225773335,-0.593181371689,-0.771291553974,-0.433948516846,-0.303230643272,-0.529478549957,-0.159074962139,0.693625986576,0.826463699341,0.52769702673,0.843009352684,1.01358914375,0.62359803915,0.510116636753,0.665017545223,0.331460416317,-0.685296118259,-0.831152915955,-0.382248073816,-0.648197948933,-0.800417661667,-0.440692067146,-0.365824848413,-0.479968249798,-0.228596433997,0.643300354481,0.859370291233,0.474487960339,0.882260978222,1.14729321003,0.700342059135,0.536037862301,0.724588513374,0.396737754345,-0.561048865318,-0.674608707428,-0.339513003826,-0.687428057194,-0.782355129719,-0.516355097294,-0.439214557409,-0.599301338196,-0.179437339306,0.811981022358,1.05699491501,0.550860881805,1.07592284679,1.42435896397,0.736909747124,0.625572085381,0.794268488884,0.359938532114,0.685355424881,0.8215457201,0.508209943771,0.918167114258,1.08013415337,0.655732274055,0.525778651237,0.695428609848,0.383142322302,-0.63633275032,-0.701498687267,-0.418425053358,-0.621763706207,-0.710206270218,-0.430752664804,-0.42081028223,-0.466620743275,-0.214103132486,0.677695393562,0.858580470085,0.521531224251,0.843710243702,0.972795665264,0.62662923336,0.476927906275,0.67255795002,0.34575843811,-0.57536649704,-0.693606495857,-0.41135469079,-0.756963133812,-0.920249819756,-0.547557413578,-0.43229842186,-0.620461583138,-0.333191990852,0.798813998699,0.843553245068,0.646032214165,0.904911398888,0.906675577164,0.627529263496,0.753460466862,0.95322149992,0.518725335598,0.712452709675,0.799779474735,0.506720304489,0.798069894314,0.885250866413,0.555911242962,0.437499731779,0.510056197643,0.328793078661,-0.643201708794,-0.84170538187,-0.463088661432,-0.802630901337,-1.03179514408,-0.614485085011,-0.423436492682,-0.605224251747,-0.31131541729,-0.707781016827,-0.763557851315,-0.430406093597,-0.626803219318,-0.775559544563,-0.500330150127,-0.368396103382,-0.500068247318,-0.148222595453,0.581756711006,0.749435245991,0.427166670561,0.780201554298,0.92673176527,0.601857125759,0.524607777596,0.673190355301,0.403162360191,0.530141592026,0.719983458519,0.383798390627,0.793759822845,1.00379168987,0.597178637981,0.5577647686,0.675291180611,0.417171001434,-0.231857270002,-0.353363156319,-0.158145576715,-0.725707054138,-0.771102488041,-0.505123436451,-0.842606604099,-0.860049068928,-0.641904294491,1.42760658264,1.71317982674,0.970303356647,0.591892242432,0.554227054119,0.511089503765,-0.127076208591,-0.275097638369,-0.0782061517239,0.57757371664,0.742635369301,0.499566257,0.842508077621,0.957338690758,0.706745743752,0.512496292591,0.703260183334,0.351491779089,-2.18095302582,-2.26428747177,-1.67194628716,-0.159748613834,0.00893716048449,-0.116218864918,0.537670195103,0.782741904259,0.325237423182,0.673387050629,0.509645938873,0.475097447634,0.70907407999,0.594626545906,0.645164489746,0.672451794147,0.785911858082,0.544472515583,-1.43892431259,-1.47245764732,-1.1057664156,-0.151578813791,-0.0603473708034,-0.0736288204789,1.24172437191,1.22108566761,0.928277254105,-0.57091230154,-0.717537760735,-0.374087899923,-0.677635788918,-0.843466460705,-0.511155068874,-0.383211016655,-0.52979695797,-0.295681983232,-0.638405799866,-0.751373946667,-0.410350769758,-0.680412054062,-0.768246173859,-0.527930378914,-0.480320453644,-0.556584596634,-0.314499527216,0.623761236668,0.677153468132,0.486417382956,0.726806521416,0.783089339733,0.587616205215,0.44592949748,0.659065127373,0.35858938098,-0.51614677906,-0.625949084759,-0.408574253321,-0.706448495388,-0.858063280582,-0.547389149666,-0.424736708403,-0.631914317608,-0.281445682049,0.643015563488,0.803140997887,0.490839421749,0.841550886631,1.05846989155,0.732631146908,0.529906988144,0.777928769588,0.399640113115,0.673870682716,0.812343358994,0.599120378494,0.785235345364,0.914536714554,0.653342545033,0.759793221951,0.807776153088,0.621083378792,-0.547445714474,-0.673773705959,-0.383764177561,-0.667382001877,-0.791910946369,-0.49996188283,-0.426830023527,-0.591872632504,-0.324230641127,0.786920845509,0.888343989849,0.58636277914,0.945278048515,1.16278934479,0.690244436264,0.524240732193,0.769864082336,0.38820785284,-0.540866434574,-0.712171077728,-0.418966978788,-0.70136910677,-0.861706256866,-0.568354606628,-0.450474411249,-0.618063211441,-0.350686252117,-1.18192481995,-1.3091635704,-0.899296760559,-0.593982577324,-0.515223920345,-0.401775419712,0.0606164224446,0.148208528757,0.0336115285754,0.50910115242,0.725263476372,0.388601690531,0.797447383404,1.02011585236,0.590300321579,0.5641695261,0.752838730812,0.43813726306,-0.654672980309,-0.637347042561,-0.467626035213,-0.636603951454,-0.397914230824,-0.52312463522,-0.563353121281,-0.515869855881,-0.400768190622,-0.760833621025,-0.726779699326,-0.498008906841,-0.574477136135,-0.471283376217,-0.428790897131,-0.416723072529,-0.525336802006,-0.245304852724,-1.38391923904,-1.54183208942,-0.970274507999,0.0590863525867,0.0712338238955,0.0504619218409,1.39249885082,1.63539922237,0.946158051491,0.583658397198,0.805744111538,0.495058566332,0.868140041828,1.12706327438,0.662911474705,0.561333239079,0.75721347332,0.408698171377,0.649015069008,0.749962091446,0.521679878235,0.846923530102,1.02457392216,0.692591845989,0.510302007198,0.769829332829,0.441221028566,-0.584673464298,-0.479020297527,-0.427408993244,-0.599377214909,-0.36398807168,-0.420996725559,-0.505875587463,-0.458991706371,-0.385063141584,0.709871470928,0.925791740417,0.52223855257,0.912766575813,1.18569946289,0.692440509796,0.583387374878,0.83687710762,0.450698375702,-0.65857475996,-0.716038703918,-0.380766689777,-0.684592604637,-0.792151272297,-0.482310056686,-0.50466966629,-0.590026557446,-0.27102509141,0.726112723351,0.920756459236,0.545742630959,0.851713776588,1.05428695679,0.682231724262,0.523662090302,0.675513386726,0.413385599852,-0.47112172842,-0.566108465195,-0.359621942043,-0.712833464146,-0.757800161839,-0.555778563023,-0.567509889603,-0.661923289299,-0.413633853197,-0.50170725584,-0.71480768919,-0.339877158403,-0.675760626793,-0.864828884602,-0.528820097446,-0.485244572163,-0.58513468504,-0.381948649883,-0.179749667645,-0.500785708427,-0.0796038433909,1.06733453274,0.501560986042,0.996262431145,-0.609484553337,-1.7386944294,-0.840124845505,1.03240251541,1.19547986984,0.814871668816,0.0977336242795,0.132029443979,-0.0227921772748,-0.929003894329,-1.42099487782,-0.621921777725,-0.547008872032,-0.698157250881,-0.388068526983,-0.750685751438,-0.812889099121,-0.639328718185,-0.509058535099,-0.625530779362,-0.434003591537,-0.485304057598,-0.604744076729,-0.328443467617,-0.661926448345,-0.820483624935,-0.50355809927,-0.467589616776,-0.54972410202,-0.37543451786,-0.579446852207,-0.732859373093,-0.451831102371,-0.685117125511,-0.815478742123,-0.482505589724,-0.492018073797,-0.602173745632,-0.366568863392,-0.617700695992,-0.830008685589,-0.385155528784,0.500201642513,0.372086167336,0.367658436298,1.60068917274,1.84158718586,1.2858723402,-0.626119732857,-0.6529520154,-0.461180269718,-0.681837558746,-0.520561754704,-0.59440356493,-0.566408634186,-0.58753323555,-0.462625473738,-0.711735606194,-0.736294686794,-0.484198510647,-0.736931204796,-0.746590137482,-0.52896130085,-0.559245407581,-0.701472699642,-0.441241890192,0.631397068501,0.795437633991,0.490877389908,0.798440992832,1.03999102116,0.568952381611,0.486816734076,0.688106119633,0.397013157606,-0.922074496746,-1.05453240871,-0.485379368067,-0.67522495985,-0.89603215456,-0.330974549055,-0.406231343746,-0.609654784203,-0.161918893456,-0.583232045174,-0.68132597208,-0.385452061892,-0.722742795944,-0.839856863022,-0.499161928892,-0.495790272951,-0.640258014202,-0.28958439827,0.57130408287,0.757437705994,0.444184809923,0.786705136299,0.939921021461,0.598520874977,0.520683526993,0.732650876045,0.428832709789,0.604881763458,0.703585684299,0.500594556332,0.803683042526,0.764790177345,0.616070985794,0.566642403603,0.564285159111,0.516802430153,0.605286896229,0.710804283619,0.435405015945,0.881044566631,0.996443152428,0.665575683117,0.657271385193,0.823798060417,0.513315796852,-0.608324170113,-0.59954893589,-0.372577577829,-0.616271257401,-0.370701402426,-0.481437385082,-0.50377869606,-0.506685435772,-0.391878783703,0.730143010616,0.862850964069,0.51566952467,0.809228181839,1.01778233051,0.563386023045,0.431515753269,0.606461703777,0.298922181129,-0.547130703926,-0.608045101166,-0.340628415346,-0.683427751064,-0.722788691521,-0.518499433994,-0.481246322393,-0.56551939249,-0.235694050789,-0.489243775606,-0.654271066189,-0.385921448469,-0.718287527561,-0.91706007719,-0.524929940701,-0.445665955544,-0.640938162804,-0.340037435293,-0.707291245461,-0.612907707691,-0.369058847427,-0.590019524097,-0.39601752162,-0.568923950195,-0.740409433842,-0.631537258625,-0.517983853817,0.737732708454,0.829107582569,0.540553927422,0.848265647888,0.997275412083,0.64577126503,0.518847882748,0.681003630161,0.409186393023,-0.883962512016,-0.925135552883,-0.611311614513,-0.36697730422,-0.129654020071,-0.254495054483,-0.58166217804,-0.288322985172,-0.446639686823,1.24997973442,1.26690602303,0.837747991085,0.254513025284,0.0954075977206,0.224707826972,-0.463856518269,-0.487543404102,-0.384319126606,0.593260347843,0.717456042767,0.443362891674,0.764376819134,0.902820646763,0.615178763866,0.419434905052,0.590327680111,0.327398777008,0.641402363777,0.709979474545,0.474476695061,0.842140078545,0.960967361927,0.667381048203,0.632674753666,0.797334372997,0.477273792028,-0.728444576263,-0.862143337727,-0.396371364594,-0.776014268398,-0.848649501801,-0.410243481398,-0.453066766262,-0.476136147976,-0.2114944309,-0.473163574934,-0.6526517272,-0.360875487328,-0.698333024979,-0.880641281605,-0.512730717659,-0.499637126923,-0.636552631855,-0.390974998474,-0.548303484917,-0.517627477646,-0.416481137276,-0.589028656483,-0.351998567581,-0.529878675938,-0.528612136841,-0.595049500465,-0.375178277493,0.651875078678,0.840187013149,0.531077742577,0.907170057297,1.0497430563,0.707587182522,0.562250733376,0.740163862705,0.395801216364,-0.543621301651,-0.688616514206,-0.359610259533,-0.633876264095,-0.768021166325,-0.488527655602,-0.433340013027,-0.561275064945,-0.349389195442,0.57903856039,0.78788536787,0.449087888002,0.937699735165,1.24214363098,0.689579546452,0.602751970291,0.855113565922,0.481795608997,0.696787834167,0.909707427025,0.530507743359,0.874565660954,1.09427118301,0.675525248051,0.525895774364,0.729163050652,0.361079722643,0.564093291759,0.624673724174,0.383181482553,0.607036292553,0.71549731493,0.379514068365,0.378675818443,0.412085831165,0.320502758026,-0.503069877625,-0.620830357075,-0.401650249958,-0.676614165306,-0.810290515423,-0.533052623272,-0.410721868277,-0.614800155163,-0.288209199905,0.82137966156,0.880274236202,0.597613036633,0.715517163277,0.712198317051,0.579953849316,0.641053259373,0.69882529974,0.422194838524,0.611956357956,0.80431085825,0.498738348484,0.814653933048,0.943295776844,0.640151083469,0.512325942516,0.615936696529,0.370301097631,0.555272936821,0.69694429636,0.390129566193,0.781678140163,1.02192926407,0.61544585228,0.592322349548,0.812518358231,0.431109577417,0.586375892162,0.650260806084,0.47280561924,0.772712349892,0.875421881676,0.585141837597,0.510069966316,0.712963879108,0.36498400569,0.55962318182,0.744085609913,0.411514282227,0.795023500919,0.90265083313,0.595398843288,0.526011288166,0.629458010197,0.450614064932,0.722903370857,0.917106389999,0.591224133968,0.992869019508,1.18842959404,0.714175701141,0.554579973221,0.703897953033,0.441366970539,0.653267085552,0.794190943241,0.417272746563,0.790840089321,1.01893401146,0.541664242744,0.503010869026,0.614616990089,0.333468735218,-0.534156858921,-0.636028289795,-0.295964211226,-0.507148981094,-0.561302304268,-0.412594258785,-0.494733661413,-0.539279103279,-0.22932946682,-0.705380856991,-0.872034907341,-0.532302618027,-0.694531798363,-0.852414727211,-0.516946613789,-0.345957428217,-0.437816977501,-0.253509998322,0.672877728939,0.880759716034,0.560515880585,0.917341947556,1.17640864849,0.746729314327,0.536247432232,0.765147268772,0.357502102852,0.681361198425,0.8589823246,0.494705498219,0.842435359955,1.08420217037,0.639259278774,0.524281561375,0.657225072384,0.370029717684,0.571575343609,0.747585117817,0.448128730059,0.72122657299,0.953775048256,0.581423461437,0.45971763134,0.587424635887,0.301739573479,-0.640783667564,-0.793261229992,-0.493453770876,-0.783007323742,-0.911613166332,-0.589875876904,-0.438707768917,-0.58872282505,-0.337368071079,0.653243839741,0.776901066303,0.570579409599,0.855616092682,0.868549764156,0.582344949245,0.532420694828,0.670976221561,0.479274123907,0.76794230938,0.951939702034,0.452679902315,0.723806500435,0.752353191376,0.503233909607,0.799464762211,0.85434025526,0.632510244846,0.824100136757,0.883822917938,0.597825586796,-0.481959462166,-0.527445018291,-0.242214173079,-1.7833647728,-1.83748424053,-1.29890680313,-0.753131270409,-0.604733645916,-0.536085367203,-0.623749911785,-0.200272426009,-0.472266376019,-0.655241370201,-0.594652473927,-0.465256899595,0.661264240742,0.888934314251,0.5352871418,0.919872760773,1.11961472034,0.715281069279,0.60789000988,0.833317935467,0.406300961971,-0.580398082733,-0.728351056576,-0.404308229685,-0.770923912525,-0.859033823013,-0.542223155499,-0.519723534584,-0.585049927235,-0.339769661427,0.643278896809,0.817812621593,0.505585312843,0.875496149063,1.14662444592,0.712035596371,0.553491055965,0.762957632542,0.357138901949,-0.524820923805,-0.668303072453,-0.392194807529,-0.668739914894,-0.837091863155,-0.503435373306,-0.423482328653,-0.491506904364,-0.317883640528,0.614014148712,0.793485462666,0.496486067772,0.848052978516,1.01080608368,0.65735077858,0.562779843807,0.73197722435,0.397222399712,-0.516984581947,-0.622600018978,-0.381144315004,-0.704112350941,-0.777184844017,-0.521237969398,-0.449023574591,-0.519098460674,-0.335473924875,0.577947318554,0.749583661556,0.413962095976,0.82885825634,0.948972702026,0.586072862148,0.510602355003,0.638058125973,0.406432598829,-1.09351491928,-0.927569448948,-0.739323019981,-0.562751054764,-0.442846417427,-0.444388687611,-0.471534520388,-0.501400947571,-0.289233326912,0.38000535965,0.40465092659,0.311691612005,0.751202821732,0.755591571331,0.589512765408,0.862073719501,0.963342487812,0.652376055717,-0.534597158432,-0.640200018883,-0.384155094624,-0.699487149715,-0.856623888016,-0.540737390518,-0.455047726631,-0.559697926044,-0.345144271851,-0.538932204247,-0.54561072588,-0.43020299077,-0.75020378828,-0.833475530148,-0.564968883991,-0.474632531404,-0.653952360153,-0.328084051609,-0.533174693584,-0.683650076389,-0.402910232544,-0.624927043915,-0.728036463261,-0.503566801548,-0.452853679657,-0.521270394325,-0.289704918861,0.693905472755,0.842414081097,0.554427683353,0.941055953503,1.23384058475,0.728826582432,0.574693024158,0.854898393154,0.393055558205,0.673815608025,0.889172554016,0.49514618516,0.951155602932,1.24531364441,0.686299681664,0.601535439491,0.807216525078,0.399417579174,0.632529973984,0.75157392025,0.464733362198,0.86670011282,0.978018164635,0.601069569588,0.627638876438,0.786723732948,0.516029953957,0.683213829994,0.873409211636,0.638853788376,0.862958788872,1.08257830143,0.669113337994,0.558866679668,0.734301626682,0.484768241644,0.609979271889,0.830892503262,0.47592946887,0.924762904644,1.19734096527,0.752473950386,0.639949917793,0.873270690441,0.489648103714,-0.605596482754,-0.546834945679,-0.457133293152,-0.575905263424,-0.345888704062,-0.535762906075,-0.557741582394,-0.524680733681,-0.401653140783,-0.462300181389,-0.588397145271,-0.292441993952,-0.631730258465,-0.701077818871,-0.462912768126,-0.446105241776,-0.531200110912,-0.34934002161,0.744111657143,0.735360920429,0.297174662352,0.304852694273,0.296136647463,0.478006094694,1.09100794792,1.33192181587,0.722791731358,-0.528060674667,-0.598049938679,-0.342622816563,-0.635976970196,-0.722649276257,-0.496467977762,-0.453452199697,-0.602950632572,-0.324102342129,0.789480686188,1.00137746334,0.558513760567,0.835043489933,1.04524552822,0.563310444355,0.34559032321,0.504352390766,0.225238069892,0.608693301678,0.831237971783,0.419910639524,0.809221565723,1.01019597054,0.606895387173,0.547919213772,0.693598806858,0.384623497725,-0.652421176434,-0.60341656208,-0.485051721334,-0.677953720093,-0.381790459156,-0.537280619144,-0.483400762081,-0.606417000294,-0.385339915752,0.952799141407,1.10191106796,0.711471259594,1.01101434231,1.04719650745,0.609652400017,0.546900093555,0.652338683605,0.516273856163,1.15835762024,1.30750131607,0.801607847214,-0.250912696123,-0.114555686712,-0.224568873644,-1.13748252392,-1.33308303356,-0.810594260693,0.595402061939,0.819407463074,0.441343128681,0.839038729668,1.04226481915,0.632414758205,0.5325127244,0.655372679234,0.407633543015,-0.551325619221,-0.657156229019,-0.36173465848,-0.59492367506,-0.580450117588,-0.438807666302,-0.476143807173,-0.584128975868,-0.344370812178,0.610069155693,0.778747200966,0.395212769508,0.776783406734,0.978741168976,0.600302696228,0.499230086803,0.633135080338,0.398318767548,-0.594805300236,-0.724261522293,-0.446624219418,-0.669772624969,-0.793163478374,-0.512535095215,-0.434341818094,-0.574362576008,-0.270275533199,1.46265304089,1.72136473656,1.05442333221,0.428268522024,0.241865351796,0.412566691637,-0.361390441656,-0.602135121822,-0.27928057313,0.568045556545,0.754751205444,0.459206610918,0.828770160675,0.997725129128,0.671170294285,0.592429459095,0.727338373661,0.452161967754,-0.535167396069,-0.597946047783,-0.447417110205,-0.699855566025,-0.695986807346,-0.512749791145,-0.451542109251,-0.566683888435,-0.321469515562,-0.53452205658,-0.583325088024,-0.335870504379,-0.604516386986,-0.563318610191,-0.49564743042,-0.481711685658,-0.448527544737,-0.389845430851,-0.496824145317,-0.75117880106,-0.380743473768,-0.817629754543,-1.15847885609,-0.508585870266,-0.487944513559,-0.642463922501,-0.336808681488,-0.566867589951,-0.614637434483,-0.40516808629,-0.639028191566,-0.730419933796,-0.404130935669,-0.53050750494,-0.667943120003,-0.366886198521,0.658834338188,0.841626465321,0.49138456583,0.827558219433,1.04275274277,0.643191695213,0.548218131065,0.72740149498,0.389893710613,0.724731385708,0.900432825089,0.49962168932,0.904522657394,1.0431728363,0.658318638802,0.570822298527,0.636820018291,0.396563321352,0.685726523399,0.877929389477,0.519805073738,0.908558368683,1.08122038841,0.690291881561,0.535596430302,0.74215900898,0.438539713621,-0.195231229067,0.796204328537,-0.711798250675,-0.567421019077,0.625859260559,-0.870570600033,-0.327467113733,0.501649737358,-0.655844509602,-0.583672881126,-0.773814976215,-0.471419453621,-0.724889874458,-0.869995236397,-0.546755552292,-0.435755699873,-0.598722815514,-0.324581205845,0.623638629913,0.729819536209,0.468617260456,0.834596991539,0.998978972435,0.638786971569,0.518056988716,0.671826064587,0.416045695543,-0.311239570379,-0.22430549562,-0.211740151048,-0.340014398098,-0.278115183115,-0.252229601145,-1.33004844189,-1.60326886177,-0.799322724342,-0.449810415506,-0.589964568615,-0.315738618374,-0.684808790684,-0.870838403702,-0.504478394985,-0.495758682489,-0.624998807907,-0.394264042377,0.404527544975,0.703621804714,-0.790520310402,0.787831604481,1.38803803921,-0.652147889137,0.0144527945668,0.438211023808,-1.22253465652,-0.662980735302,-0.779293835163,-0.454783409834,-0.657840669155,-0.844722688198,-0.462192922831,-0.529177963734,-0.583634138107,-0.289440363646,-0.510536789894,-0.613541483879,-0.384356617928,-0.646878540516,-0.738180398941,-0.517212688923,-0.510314166546,-0.591118097305,-0.383490115404,-0.664979755878,-0.703012347221,-0.469411045313,-0.688619196415,-0.483596473932,-0.561414301395,-0.552587747574,-0.629974484444,-0.436910897493