1.1120620966,1.45961368084,0.849102258682,1.25821053982,1.73978340626,1.02679669857,0.701614141464,1.0407255888,0.556944966316,0.762840628624,1.10575842857,0.598705708981,1.09055519104,1.5013217926,0.620471298695,0.558911621571,0.716496229172,0.32766354084,0.982359170914,1.17809164524,0.666284918785,1.1734931469,1.37757408619,0.82040399313,0.64612442255,0.791295409203,0.419044643641,-1.05198943615,-1.16368460655,-0.588617384434,-1.20351171494,-1.68079411983,-0.886287033558,-0.509513676167,-0.82366001606,-0.52997893095,-0.787638306618,-1.02079045773,-0.461499720812,-1.0160779953,-1.39121830463,-0.657590687275,-0.495432406664,-0.674232304096,-0.365043669939,0.920870125294,1.23368859291,0.592989504337,1.22575497627,1.74472606182,0.861230075359,0.583893895149,0.93044346571,0.453281849623,-0.750489890575,-0.909988164902,-0.631984114647,-1.12982261181,-1.39287292957,-0.890543758869,-0.699071705341,-0.932796418667,-0.569569408894,0.801868915558,0.969086945057,0.527101278305,1.09729111195,1.27972054482,0.860940039158,0.901547789574,1.00531208515,0.740307211876,0.966908991337,-1.51685941219,-0.305090516806,1.37030506134,-1.54329764843,-0.582293629646,0.597982287407,-0.487945586443,-0.619893014431,1.11386680603,-0.266366094351,-0.291352510452,1.55133759975,-0.254170328379,-0.422772467136,0.760744452477,-0.521413445473,-0.269351810217,-1.10868608952,0.313168525696,0.803638637066,-1.28765749931,0.796277284622,1.07944643497,-0.689304351807,0.562535941601,0.621696293354,-0.897695422173,-1.27020692825,-0.644968450069,-1.18756616116,-1.6543533802,-0.864291787148,-0.629839599133,-0.850688040257,-0.471913516521,-0.576489746571,-0.893510758877,-0.427898943424,-0.915652275085,-1.61920917034,-0.813991248608,-0.578820288181,-0.934590101242,-0.506846666336,0.775620758533,0.982322096825,0.581382513046,0.92630147934,1.18313527107,0.756631493568,0.564166247845,0.763385534286,0.519263386726,0.915185511112,1.28665614128,0.706384897232,1.18624031544,1.70861935616,0.856580674648,0.53812867403,0.754423558712,0.376134097576,-0.713896095753,-0.886395037174,-0.490955114365,-1.05654251575,-1.20590019226,-0.813402175903,-0.603206276894,-0.836449980736,-0.453801751137,-1.61617922783,-0.0554878972471,0.505327165127,-1.03409004211,0.867280125618,1.35258686543,-0.0691847726703,0.822061359882,0.428793698549,-0.826544284821,-1.18262016773,-0.546525776386,-1.1861127615,-1.79163610935,-0.939746320248,-0.62902033329,-0.910592257977,-0.556321680546,-0.894552826881,-1.26153457165,-0.678953528404,-1.33323812485,-1.58204102516,-0.928487300873,-0.870995998383,-1.034085989,-0.510542571545,1.04590022564,1.34109592438,0.595335900784,1.287135005,1.68986666203,0.754641413689,0.599934279919,0.788787722588,0.405083298683,0.941356360912,1.1492408514,0.643968224525,1.27962589264,1.44976747036,0.82524138689,0.855243623257,0.936314463615,0.475565552711,0.771775841713,1.2222751379,-0.791647255421,1.35272490978,-0.0309819057584,-1.38570785522,0.595905721188,-1.34416365623,-0.166244581342,-1.69971287251,-0.992487609386,-0.383999019861,-0.986077785492,1.0324382782,1.79815208912,-0.349625557661,1.64526343346,1.17293441296,0.93179577589,1.43015348911,0.804465413094,1.32817983627,2.18347620964,1.14685380459,0.572061598301,0.997657775879,0.604631483555,-0.691942811012,-1.04172074795,-0.522209882736,-1.0400146246,-1.60121273994,-0.853288292885,-0.558609306812,-0.952339351177,-0.51373064518,0.660773217678,0.928741395473,0.447145432234,-0.435236603022,-1.16923904419,-1.08732652664,-0.562360942364,-1.86758005619,-1.51396071911,1.38368701935,1.57251679897,0.968744277954,-0.886204242706,-1.41396641731,-0.924895763397,-0.725852429867,-1.14058196545,-0.463287502527,-0.299104809761,0.959758996964,0.918342351913,-1.77413678169,-0.458103239536,0.680287003517,-1.26416611671,-0.939217686653,0.133126020432,0.939091444016,1.3399194479,0.732818126678,1.36825561523,1.90381228924,1.02564823627,0.785256147385,1.0934278965,0.589992403984,0.279774814844,-0.341889858246,-0.703093588352,1.18286073208,1.64719688892,0.907179713249,-1.31316280365,-0.852094233036,0.00998724158853,0.979908287525,1.46474289894,1.11902880669,1.7940107584,2.057741642,1.03236758709,1.02875089645,0.932320952415,0.148804739118,-0.408057928085,-0.784261345863,-0.48445558548,-1.07154774666,-1.61586940289,-0.664595246315,-0.777683258057,-0.860513329506,-0.234236180782,-0.716496825218,-0.933525323868,-0.519083738327,-1.01593291759,-1.32558321953,-0.65988612175,-0.525332272053,-0.676882147789,-0.328891128302,-0.946945667267,-1.2946614027,-0.549333035946,-1.23774588108,-1.62880003452,-0.690864980221,-0.679897487164,-0.778656959534,-0.289045542479,1.3065046072,1.38716042042,0.629278242588,1.52881884575,2.05267357826,1.16681218147,0.805396020412,1.34376716614,0.881097793579,-0.662892460823,-1.01075530052,-0.517857909203,-1.08842420578,-1.5931532383,-0.815590441227,-0.711149811745,-1.03136229515,-0.494960427284,0.880057156086,1.13650679588,0.328317165375,0.981886267662,0.501915037632,-0.495264947414,0.303944945335,-0.130959704518,-0.444845199585,0.577156186104,0.932340860367,0.497207701206,0.852953135967,1.24875450134,0.580308735371,0.583043336868,0.642571508884,0.356818407774,0.633890330791,0.373878270388,0.0562609396875,-0.869143724442,-2.0140953064,-0.930848062038,-0.934685587883,-1.63516640663,-0.534125983715,0.947021603584,1.26767301559,0.638937056065,1.30282247066,1.75119495392,1.05001866817,0.743096411228,1.1147569418,0.738003611565,1.1695356369,1.36078298092,0.61310762167,1.26767623425,1.87390553951,1.1562962532,0.452439039946,0.979980289936,0.782286882401,-0.577782571316,-1.00346696377,-0.776716709137,-1.25106799603,-1.46406197548,-0.91847038269,-0.697084724903,-0.577570140362,-0.319816052914,-0.615364253521,-1.06982564926,-0.694928884506,-1.02418661118,-1.63048493862,-0.934963405132,-0.646946430206,-0.998895347118,-0.515370309353,0.686622262001,1.10220849514,0.773905336857,1.05083978176,1.42137300968,0.820350289345,0.707566142082,0.916569173336,0.573274493217,1.10228872299,1.34672284126,0.600332677364,1.39654791355,1.72121322155,0.84897428751,0.755725264549,0.933713853359,0.494461447001,-0.817764937878,-1.1271238327,-0.593843519688,-1.14139103889,-1.66365599632,-0.821695029736,-0.614940047264,-0.864884197712,-0.413949161768,0.933163583279,1.356107831,0.853156626225,1.15413033962,1.75510978699,1.15879666805,0.739508867264,1.09679114819,0.746172428131,1.22264182568,1.36625242233,0.549898862839,-0.069632537663,-0.845493793488,-0.560657024384,-0.718960285187,-1.5550134182,-0.669553637505,0.940825104713,1.24441432953,0.693239986897,1.26142716408,1.63244378567,0.840845108032,0.832113146782,1.03555607796,0.584977686405,-0.723022937775,-1.00976490974,-0.454757094383,-1.04958641529,-1.39495968819,-0.689578771591,-0.574165165424,-0.820797204971,-0.374406248331,0.826692402363,1.17700469494,0.62526756525,1.25097894669,1.72863435745,0.873468875885,0.618505179882,0.949121177197,0.412915617228,-1.09591460228,0.154091790318,0.748521387577,-1.99853122234,-0.260614007711,1.10038816929,-1.34411752224,-0.496669203043,0.57816618681,-0.599441051483,-1.00931513309,-0.519879758358,-0.945756077766,-1.4711843729,-0.728820502758,-0.550165295601,-0.875631392002,-0.509729743004,-1.21477019787,-1.59049534798,-0.797392070293,-0.410052001476,-0.764160037041,-0.220949217677,0.796954751015,0.982099533081,0.528249144554,0.676840662956,0.949191868305,0.470889568329,0.96380096674,1.26316535473,0.656620562077,0.562045454979,0.738659024239,0.452665776014,0.902899265289,1.19366979599,0.558132827282,1.29652488232,1.72058904171,0.866969108582,0.617516100407,0.89241206646,0.480814754963,-0.596608221531,-0.954302728176,-0.568432450294,-0.954331696033,-1.21283876896,-0.724907875061,-0.707470059395,-0.802424550056,-0.373317092657,-0.714724838734,-0.969009518623,-0.466055601835,-1.0394821167,-1.36899507046,-0.728265166283,-0.53114181757,-0.733185708523,-0.395731806755,-0.977563142776,-1.33286714554,-0.841064035892,0.282265633345,0.545821905136,0.0691025257111,0.683946669102,1.02035737038,0.501092553139,1.12587201595,1.3822401762,0.701483309269,1.41392719746,1.82306742668,0.973431348801,0.725367188454,0.998948335648,0.484881579876,-0.830077469349,-0.97024923563,-0.579017460346,-1.12269377708,-1.38853132725,-0.73612511158,-0.70437669754,-0.787065029144,-0.481627136469,0.915444731712,1.29567146301,0.661187469959,1.06484365463,1.69194459915,0.948975682259,0.471619844437,0.75983697176,0.368435055017,0.893760144711,1.10445606709,0.626964509487,1.19040226936,1.64046192169,0.869893908501,0.613402068615,0.967057406902,0.489369511604,0.711013257504,1.43835365772,1.05856609344,1.35198152065,1.98700046539,1.24733781815,1.04314470291,1.17039728165,0.552758574486,0.504852116108,0.883043289185,0.673469185829,1.0097643137,1.50810050964,0.829064130783,0.662375211716,0.799677729607,0.262657463551,0.949539422989,1.32235753536,0.810813009739,-0.215194121003,-0.00621505500749,-0.146864682436,-1.01395046711,-1.22965908051,-0.628296613693,-0.863571107388,-1.16603028774,-0.593750238419,-1.23168253899,-1.63095700741,-0.776681482792,-0.610737621784,-0.836747646332,-0.415888100863,0.122978843749,1.74108445644,1.27374505997,-1.40979456902,0.0123668164015,0.741835176945,-1.30414819717,-0.979580879211,-0.0305357463658,0.613035857677,0.916639864445,0.604304552078,1.07708930969,1.61142635345,1.02827382088,0.81613779068,1.16493344307,0.788045525551,0.803100883961,1.09159493446,0.500079572201,1.16676878929,1.55678546429,0.804650127888,0.620230257511,0.877557635307,0.492290586233,1.02166306973,1.23481428623,0.61478471756,1.19410908222,1.36347138882,0.678072690964,0.571354866028,0.654637813568,0.376183480024,-0.452949464321,-1.41385674477,-1.11880993843,0.86292809248,0.182950437069,-0.530226945877,1.0276671648,1.13155901432,0.237119928002,1.24716091156,1.49655222893,0.782824099064,-1.24801063538,-0.563226938248,0.107634231448,-0.338778436184,-0.564650475979,-0.625627100468,0.991742670536,1.36736869812,0.631933033466,1.38757288456,1.80504560471,0.881776690483,0.642243683338,0.919347167015,0.458258628845,-0.845446586609,-1.1085819006,-0.481810063124,-1.12737369537,-1.53740549088,-0.607426762581,-0.576783180237,-0.745967328548,-0.370772957802,-0.690710544586,-0.904862046242,-0.542272865772,-0.887920737267,-1.11562883854,-0.779498457909,-0.58844858408,-0.795716941357,-0.538565337658,-0.74436289072,-1.0484085083,-0.573352575302,-0.899931609631,-1.27251887321,-0.788920223713,-0.600943505764,-1.0518001318,-0.540649831295,1.28322410583,1.52873790264,0.563648998737,1.57836532593,1.85123717785,0.665078520775,0.777542173862,0.997089624405,0.292185515165,1.43943798542,-0.107713319361,-1.25410687923,1.59081602097,-0.150471404195,-1.5200933218,0.70156031847,-0.293079555035,-0.694404661655,0.813817918301,1.11957728863,0.597439885139,1.01414084435,1.58858919144,0.82715690136,0.531104564667,0.833512783051,0.476943582296,0.859135627747,1.21165406704,0.684849619865,1.18653798103,1.60664725304,0.909052610397,0.592769384384,0.71641099453,0.37577649951,0.886482715607,1.44440960884,0.960086226463,1.53920006752,1.95759880543,0.998604595661,1.02610826492,1.02288389206,0.345928519964,0.977090895176,1.13789188862,0.598733246326,1.03952038288,1.24937498569,0.695306003094,0.526044309139,0.592804014683,0.360153675079,-1.10055708885,-1.36326861382,-0.689858078957,-1.38599479198,-1.82921350002,-0.79449993372,-0.581976234913,-0.766017138958,-0.311532765627,-0.917951703072,-1.22371900082,-0.61962479353,-1.29660344124,-1.82587838173,-0.831545174122,-0.595054984093,-0.748975038528,-0.367646455765,-1.26675224304,1.20539367199,0.967831134796,-1.55648958683,0.617127180099,1.11298644543,-0.696694612503,-0.264719069004,0.749713897705,0.615791499615,0.980441868305,0.515253186226,1.0922191143,1.79491853714,0.929111421108,0.734509587288,1.11917090416,0.588478863239,-0.840888381004,-1.11243975163,-0.65590763092,-1.02096748352,-1.15449118614,-0.84081941843,-0.575051486492,-0.883519232273,-0.548678219318,-0.662496507168,-1.07677006721,-0.71752011776,-0.944670200348,-1.58030867577,-1.13893187046,-0.661824345589,-0.798668444157,-0.476307719946,0.856174170971,1.1305232048,0.526676297188,1.26530897617,1.78187453747,0.869647085667,0.62591356039,0.947216510773,0.482849299908,-0.501552343369,-0.912184357643,-0.714385569096,-0.74298197031,-1.26777255535,-0.916018426418,-0.380863696337,-0.670383036137,-0.577853441238,0.734209001064,1.14898514748,0.740672945976,1.21265518665,1.81170165539,1.04020559788,0.753040909767,1.05479168892,0.551074802876,0.888454675674,1.01827549934,0.5045748353,1.13533341885,1.57271301746,0.922473907471,0.543376386166,1.07155096531,0.707849681377,-1.13953661919,-1.91586494446,-0.686182200909,0.74176543951,0.408578276634,-0.216866135597,1.13461840153,1.43142306805,0.7052115798,-0.512925207615,-1.25425493717,-0.876381933689,-1.29446446896,-1.56870317459,-0.703947901726,-0.933065235615,-0.825611293316,-0.111761823297,-0.795565068722,-1.02498865128,-0.790017902851,-0.982883036137,-1.4489043951,-0.825005412102,-0.583190977573,-0.730182766914,-0.372180700302,-0.891275048256,-1.03250873089,-0.558757483959,-1.25566470623,-1.36449193954,-0.907054781914,-0.783239424229,-0.848731517792,-0.530196070671,-0.764747798443,-0.979234516621,-0.49490737915,-1.09194147587,-1.48221421242,-0.663402438164,-0.518841564655,-0.711048185825,-0.338158786297,1.16189229488,1.3835439682,0.557667136192,1.38830721378,2.08545470238,1.15560507774,0.515419721603,0.972817182541,0.714980185032,-0.112237505615,-0.259006261826,-0.12378026545,1.1819678545,1.67884850502,0.691447615623,-1.02082717419,-1.38307654858,-1.02182257175,0.926682054996,1.1567081213,0.479890614748,1.15105748177,1.67028450966,0.718756198883,0.582456946373,0.925427913666,0.542504131794,-0.961423754692,-1.13711154461,-0.593113064766,-1.14999091625,-1.4922246933,-0.784507870674,-0.55613809824,-0.717984616756,-0.398871600628,0.626296758652,0.785633087158,0.506388247013,0.807608664036,1.02236950397,0.631601929665,0.602712452412,0.660361051559,0.494767248631,1.33596992493,1.83195209503,0.682313621044,-0.548835396767,-1.19444096088,-0.621270000935,-0.171229675412,-0.0650744885206,-0.278446465731,-0.802999794483,-1.04047417641,-0.541168868542,-1.07485711575,-1.28636908531,-0.686080813408,-0.623114585876,-0.706836998463,-0.256513386965,-0.69202464819,-1.03720366955,-0.590532898903,-1.07322728634,-1.4455370903,-0.773305237293,-0.737347483635,-0.918752133846,-0.439904659986,0.748075723648,1.19595885277,0.758983135223,1.24740600586,1.84880590439,0.919900715351,0.650776803493,0.927572727203,0.391349673271,-0.910932004452,-1.1788828373,-0.559322059155,-1.18368089199,-1.50729048252,-0.76323312521,-0.595951080322,-0.805976331234,-0.403440207243,-0.896607816219,-1.26135456562,-0.641546070576,1.34834396839,2.01983952522,0.931017816067,-0.214786633849,-0.716214895248,-0.278229117393,-0.862970769405,-1.1148712635,-0.458160996437,-1.19795501232,-1.5848505497,-0.631279289722,-0.529549002647,-0.692422866821,-0.320838242769,-0.893230974674,-1.08775627613,-0.457423627377,-1.19214618206,-1.62888145447,-0.635006546974,-0.627765893936,-0.877899110317,-0.365970224142,1.15047860146,1.15867137909,-0.650152146816,1.1402118206,1.66395938396,0.919828057289,0.165495082736,1.07906115055,0.847107172012,1.26894950867,1.55664122105,0.496783733368,1.0370631218,1.81722581387,1.09994280338,-0.218078896403,0.642381966114,0.648692667484,0.878490924835,1.1340637207,0.74770629406,1.17695462704,1.4915766716,0.932304501534,0.769274055958,1.03825807571,0.58011341095,-0.482294857502,-1.06762754917,-0.788344323635,-0.93729954958,-1.15170884132,-0.807148873806,-0.68818539381,-0.732715666294,-0.381786137819,0.784739553928,1.13764894009,0.633963167667,1.22194766998,1.52981305122,0.886758804321,0.902053773403,0.99667352438,0.556718707085,-0.52775645256,-1.12279951572,-0.784400761127,-1.03685700893,-1.39161849022,-0.607920348644,-0.939020752907,-0.846908628941,-0.163727805018,0.709279477596,1.11048531532,0.598305106163,0.968427836895,1.4206558466,0.774187386036,0.566088080406,0.761234998703,0.332627028227,0.769757628441,1.20281922817,0.653858661652,1.28183066845,1.92101287842,0.991513729095,0.820251703262,1.18145060539,0.595788896084,-0.79295450449,-0.457787573338,0.0923524349928,-1.84614932537,-1.59546709061,-0.0926084220409,-1.0500844717,-0.963329136372,-0.0551071800292,0.294829815626,-1.51453948021,-1.41061079502,1.96101236343,-0.144697681069,-0.855834543705,1.24634087086,0.403485476971,0.2280831635,-0.83621764183,-1.00975680351,-0.657087683678,-1.12102377415,-1.25093328953,-0.874893605709,-0.671186625957,-0.843048989773,-0.620670795441,-0.741451144218,-1.03977668285,-0.528396129608,-1.13817834854,-1.39400601387,-0.903292000294,-0.534314036369,-0.897341191769,-0.487145423889,-0.822677075863,-1.02959501743,-0.33588039875,-1.00341105461,-1.41964125633,-0.721728444099,-0.233054086566,-0.822640538216,-0.558641016483,-0.932518899441,-0.971640825272,-0.537656009197,-1.09409534931,-1.37411856651,-0.987318873405,-0.511847317219,-0.708792924881,-0.469505161047,0.868563294411,1.11798584461,0.567269861698,1.15972220898,1.4839001894,0.728491604328,0.453578799963,0.770373702049,0.486282289028,0.935715794563,0.948481142521,0.549236893654,0.985340833664,0.993203401566,0.512413561344,0.571564614773,0.606350839138,0.465686887503,-0.876924812794,-1.0771176815,-0.582067489624,-1.11584019661,-1.42046153545,-0.563685178757,-0.65366101265,-0.67541384697,-0.180820912123,-0.976582229137,-1.20404183865,-0.539270997047,-1.22175884247,-1.62781584263,-0.704740822315,-0.594665884972,-0.814081192017,-0.355643600225,0.726326525211,1.07520127296,0.540006577969,1.08145165443,1.50147521496,0.732436954975,0.636691212654,0.818300306797,0.394086390734,-0.770711660385,-1.09096562862,-0.506122171879,-1.15363526344,-1.479342103,-0.724788725376,-0.671119093895,-0.922666788101,-0.440094292164,0.713020503521,1.13563609123,0.802616775036,0.937257409096,1.60563802719,0.943322181702,0.425136327744,0.680187702179,0.391828417778,-0.728661715984,-1.03006160259,-0.555717587471,-1.04557394981,-1.40431106091,-0.818576276302,-0.617633938789,-0.856928527355,-0.452770233154,1.10330760479,1.40771353245,0.679641604424,1.55386447906,1.82201755047,0.896089851856,0.772404968739,0.874632418156,0.423475652933,-1.47781646252,0.0148054910824,1.00234305859,-1.67426168919,0.280883282423,1.34114444256,-0.857819139957,0.150686085224,0.647197365761,-0.769635617733,-0.991622686386,-0.560023188591,-0.990730762482,-1.42800998688,-0.734589040279,-0.441927462816,-0.717180192471,-0.399160504341,0.975855112076,1.4457461834,0.780648827553,1.29411971569,1.74788665771,0.84608066082,0.733045399189,0.766503989697,0.276432305574,0.940390706062,1.55639624596,0.91368573904,-0.552001059055,-0.831729650497,-0.410395532846,-0.590396463871,-0.975638926029,-0.333711862564,0.767644762993,1.13518834114,0.540721237659,1.14492857456,1.70650529861,0.753810822964,0.621495366096,0.898190975189,0.472258746624,2.07719898224,0.900654315948,-0.176201432943,1.2036819458,-0.356701672077,-1.236718297,0.0710269138217,-1.18992304802,-0.690363585949,-1.14225423336,-1.49187612534,-0.657883703709,0.83816832304,0.935709178448,0.473932504654,0.40353474021,0.437641441822,0.180954679847,-0.949940681458,-1.15103721619,-0.697879374027,-0.986670911312,-1.003262043,-0.89921027422,-0.643284678459,-0.978363990784,-0.65847414732,0.808212339878,1.14632129669,0.665586054325,1.36236250401,1.74677467346,0.942377209663,0.782788872719,0.916443943977,0.437871992588,0.646798312664,0.914005875587,0.700675666332,-1.10362195969,-1.4059227705,-1.11791741848,-0.776937067509,-1.16020965576,-0.777173578739,-1.10280716419,-1.16095626354,-0.267441540956,-1.39272511005,-1.9928996563,-0.916933298111,-0.484997928143,-0.965850949287,-0.615941524506,0.7976115942,1.19775640965,0.612647771835,1.21875321865,1.96039175987,0.940970540047,0.697676718235,0.992823779583,0.445318132639,0.852101027966,1.14533686638,0.598087906837,1.14359915257,1.47474384308,0.856592357159,0.648372590542,0.839276134968,0.44762262702,0.830274224281,1.14928221703,0.604192078114,1.07153642178,1.60538196564,0.839160919189,0.563074290752,0.807848334312,0.413029670715,-0.847327232361,-1.20327234268,-0.631458997726,-1.1867338419,-1.52859508991,-0.879420995712,-0.664450705051,-1.01753389835,-0.507773041725,0.865706861019,1.11611998081,0.579428434372,1.26152312756,1.59542322159,0.79608052969,0.619339942932,0.804980814457,0.371156334877,-0.65371131897,-0.901798546314,-0.473544508219,-0.949862241745,-1.13819420338,-0.760394215584,-0.533837080002,-0.830388069153,-0.382283955812,0.858586251736,1.311221838,0.602003216743,1.37682390213,2.06974720955,0.9200476408,0.719449937344,1.09869790077,0.564975142479,-0.969668507576,-1.01623666286,-0.480431139469,-1.13716840744,-1.4700473547,-0.619495153427,-0.571771085262,-0.620095193386,-0.302651137114,-0.908884227276,-1.12509989738,-0.419132143259,-1.0608317852,-1.48676609993,-0.645117223263,-0.437324106693,-0.729233026505,-0.30551674962,-1.03772091866,-1.53614330292,-0.833911299706,-1.25270080566,-1.66538417339,-1.19610178471,-0.637078106403,-0.941172540188,-0.667711377144,-0.78274589777,-1.03435003757,-0.565405130386,-0.961923778057,-1.26427745819,-0.745116174221,-0.646629989147,-0.862747251987,-0.465726137161,1.11988008022,1.50354266167,0.702800452709,1.48753368855,2.03888225555,1.01951181889,0.668742835522,1.08307182789,0.576215922832,1.05764842033,1.35100090504,0.557859361172,1.40947461128,1.78591835499,0.791659355164,0.672128498554,0.890016913414,0.409377515316,0.924143254757,1.2011384964,0.630608737469,1.1652302742,1.47450768948,0.806306421757,0.579399049282,0.769528985023,0.385995805264,0.816804170609,1.38962996006,0.831208109856,1.06988203526,1.81137490273,1.10965120792,0.563355982304,1.05567359924,0.600316226482,1.10175430775,1.38236284256,0.799018323421,1.4419965744,1.73078131676,0.997520089149,0.885874867439,1.13080859184,0.651098847389,0.887148737907,1.22557342052,0.626098573208,1.15235280991,1.74592161179,1.00781869888,0.583609342575,0.931433439255,0.568570137024,-1.106544137,-0.896387159824,-0.477232694626,-0.949897766113,-1.20254063606,-0.888447582722,-0.267927497625,-0.697177708149,-0.533920049667,0.745374321938,1.02666389942,0.590114951134,0.943888306618,1.30248808861,0.791384398937,0.615958452225,0.775893568993,0.46859151125,-0.590368211269,-1.06158041954,-0.474428623915,-1.04918086529,-1.69767475128,-0.77076613903,-0.505549967289,-0.699236989021,-0.411118984222,0.841650009155,1.13685965538,0.555255174637,1.09447991848,1.46007657051,0.721172094345,0.552869558334,0.739926040173,0.354868531227,0.937514364719,1.20579791069,0.715856909752,1.37311398983,1.8825609684,1.00170016289,0.82554602623,1.14774799347,0.628458201885,1.07641232014,1.11991500854,0.293290287256,1.01836776733,1.44959509373,0.838136851788,0.333570063114,0.905843734741,0.69595682621,-0.635721981525,-1.07847905159,-0.685780227184,-0.904002249241,-1.2787014246,-0.73612177372,-0.474320203066,-0.574633777142,-0.279786407948,0.934732317924,1.42651391029,0.683116674423,-1.28892469406,0.137478023767,1.12068140507,-0.559429466724,-1.47764468193,-1.10561919212,0.815276861191,1.06119954586,0.519137740135,0.953957140446,1.20882213116,0.58063107729,0.458770632744,0.538473308086,0.276426166296,-0.685221612453,-0.848417043686,-0.637756109238,-0.88591337204,-1.08419144154,-0.722831726074,-0.541555523872,-0.705738306046,-0.398710608482,1.04816162586,1.32064557076,0.611904382706,1.3022108078,1.64645719528,0.73125898838,0.576519489288,0.710008561611,0.354423761368,0.993967950344,1.27576518059,0.694042861462,1.19724392891,1.41042149067,0.771390557289,0.686478197575,0.807975232601,0.370025038719,-0.0846816822886,-0.724790990353,1.3877518177,-0.140559241176,-1.12926840782,1.50806069374,-0.156482487917,-0.593803405762,0.577655076981,0.99127805233,1.22364211082,0.646425127983,1.24659645557,1.63852322102,0.772430598736,0.66764652729,0.780287265778,0.408830106258,-1.45248198509,0.938363611698,0.584154963493,-1.78438818455,1.36800158024,1.18805480003,-1.21650719643,0.676413595676,0.482296228409,-0.928245663643,-1.08573102951,-0.809565126896,-1.24118888378,-1.48176181316,-1.07535779476,-0.598089516163,-0.955781519413,-0.562265098095,-0.759937822819,-1.06048429012,-0.619953632355,-1.08901178837,-1.47635817528,-0.866471946239,-0.582297086716,-0.835965156555,-0.439055621624,-1.53100442886,-2.31480431557,-1.39725661278,0.0280673652887,-0.124578766525,-0.047752622515,0.738492846489,1.05296730995,0.570125579834,0.519719958305,1.10418856144,0.752824187279,1.15186107159,1.51882946491,0.713444113731,0.756999790668,0.727086722851,0.172263219953,-0.727370738983,-1.01663208008,-0.496855258942,-1.01961064339,-1.45319032669,-0.618819594383,-0.614256978035,-0.788898169994,-0.399398088455,-0.64600020647,-0.809231877327,-0.4637619555,-1.00188338757,-1.22257483006,-0.645963847637,-0.787634789944,-0.91961568594,-0.368523180485,0.945962548256,1.32473182678,0.722151219845,1.1995524168,1.58382511139,0.847813725471,0.660216450691,0.865837097168,0.547718882561,-0.573665320873,-0.932724833488,-0.581152796745,-0.978004693985,-1.34796750546,-0.682257950306,-0.721888482571,-0.945695996284,-0.400808721781,0.524119436741,0.719713747501,0.146567210555,-1.05911529064,-1.85718262196,-1.02194881439,0.44770142436,0.97067463398,0.449596911669,-1.36088013649,-0.914447367191,0.370771467686,-0.867708444595,-1.65132844448,-0.840412080288,0.248468860984,-0.844048440456,-1.03373146057,1.2683300972,1.16012144089,0.155677095056,1.03246557713,-0.400976836681,-0.892564475536,0.188474312425,-0.846461772919,-0.727000534534,0.87626761198,1.23245179653,0.551887392998,1.23255062103,1.64980125427,0.772097408772,0.597572505474,0.760309994221,0.343430966139,-0.671017348766,-0.98794400692,-0.514943361282,-0.979129314423,-1.32315683365,-0.65488755703,-0.501179158688,-0.658372461796,-0.362722694874,0.856663525105,1.16163170338,0.728751242161,1.15380692482,1.52536892891,0.956104099751,0.669019520283,0.927474856377,0.525843203068,0.889108359814,1.14308023453,0.638261020184,1.26492249966,1.68080258369,0.906853377819,0.802015244961,1.02448415756,0.567065656185,-1.52023398876,0.422583580017,0.774479269981,-2.19604206085,0.717954933643,1.19307255745,-1.22000789642,0.332620024681,0.590594470501,-0.727361142635,-1.54625952244,-1.0735449791,-1.42521572113,-1.17835617065,-0.154153466225,-0.828098058701,-0.0671224668622,0.387560904026,0.952292263508,1.17164456844,0.596435308456,1.10606229305,1.53137111664,0.760614931583,0.56216609478,0.759666323662,0.372136116028,-0.895918309689,-1.09650075436,-0.424466699362,-1.22963631153,-1.48221588135,-0.498643994331,-0.715372145176,-0.741380512714,-0.367275178432,0.885464608669,1.11039853096,0.55385774374,1.12066459656,1.41770839691,0.721567094326,0.462963014841,0.663828670979,0.306365638971,-0.834834873676,-1.34578931332,-1.01335310936,-1.24784004688,0.183971017599,0.944000303745,1.43462407589,1.52924001217,0.320271581411,0.560505032539,0.942680716515,0.549535989761,1.04334235191,1.40969264507,0.669573545456,0.573382973671,0.689954221249,0.297180622816,1.1190059185,1.44017839432,0.60316747427,1.40198242664,2.00977349281,0.835503220558,0.6256929636,0.8065315485,0.400587439537,0.809663176537,-1.51879072189,-1.35389888287,0.879500985146,-1.7824665308,-1.51157486439,0.298597216606,-0.149151325226,-0.053998645395,-0.804785013199,-0.997372329235,-0.547340512276,-1.00849342346,-1.5003862381,-0.856898128986,-0.437305897474,-0.751291632652,-0.516018211842,0.856046378613,1.10032010078,0.556044280529,1.07331907749,1.36960875988,0.682776033878,0.51188492775,0.735646128654,0.376309633255,-0.734461724758,-1.09102582932,-0.765342950821,-1.0393140316,-1.26176667213,-0.834141016006,-0.776926994324,-0.897230744362,-0.446576625109,-0.946593403816,-1.61478698254,-1.15619087219,-0.695134997368,-1.12961339951,-0.724952459335,-0.0292176548392,0.0521210730076,0.130085065961,-1.34132993221,-1.53815853596,-0.747077584267,-1.03132176399,-1.33211863041,-0.376201212406,0.155889630318,0.227253109217,0.0506761558354,0.878356814384,1.19942510128,0.573266327381,1.15475130081,1.51584982872,0.739585459232,0.578809976578,0.703944087029,0.331021845341,-1.25733244419,0.760729253292,0.817915558815,0.69912981987,1.5417201519,-0.268348991871,0.885153055191,-0.163119912148,-1.093765378,0.925033271313,-0.957458913326,-0.0337231233716,1.38651418686,-1.24670445919,-0.118757076561,0.668456554413,-0.657163262367,-0.327158153057,0.967304289341,1.29118156433,0.696644246578,1.39281046391,1.89239323139,0.973151862621,0.700933277607,0.991561114788,0.543581187725,0.766645252705,1.27021789551,0.794453620911,1.12142658234,1.77024042606,1.00267446041,0.634747982025,0.793497383595,0.399044424295,1.52104139328,-0.313924998045,-0.974245548248,1.68850934505,-0.120212383568,-1.12892496586,0.744313418865,-0.211778774858,-0.911255478859,-0.781765699387,-1.01752877235,-0.585518956184,-1.18253397942,-1.53128826618,-0.872978329659,-0.642249941826,-0.858462810516,-0.409794896841,-0.807507812977,-0.983637690544,-0.637058436871,-1.1574754715,-1.48713099957,-0.845563113689,-0.716844081879,-0.786206960678,-0.347865372896,-0.385098069906,-1.18362998962,-1.06744217873,-1.08903670311,-1.52124047279,-0.860481619835,-0.836711406708,-0.70636254549,-0.129434600472,0.740841805935,0.933437526226,0.44798502326,0.996949315071,1.24183654785,0.606112599373,0.508980989456,0.697275340557,0.3569432199,1.03324043751,1.25706493855,0.721252322197,1.25344562531,1.50793492794,0.915437102318,0.776256024837,0.937596559525,0.572924911976,0.871577322483,1.1235435009,0.637806236744,1.18947911263,1.67937529087,0.877672553062,0.72789555788,0.955957651138,0.628699421883,-0.705115318298,-0.941650867462,-0.481845766306,-0.984417021275,-1.28270053864,-0.665843367577,-0.546507656574,-0.704086899757,-0.340411812067,0.758154809475,0.85197353363,0.434921950102,1.0886336565,1.3709717989,0.661471188068,0.684355974197,0.802554607391,0.451119840145,0.963569164276,1.35053467751,0.633920371532,1.46725320816,1.78886711597,0.858609855175,0.861765980721,0.948653757572,0.451765298843,-0.67242783308,-1.10228466988,-0.567527413368,-1.10497462749,-1.59295713902,-0.931117355824,-0.595008254051,-0.929645657539,-0.485420465469,-0.661019563675,-1.21956753731,-0.767590582371,-1.16940927505,-1.53371942043,-0.912337124348,-0.956399440765,-1.06790649891,-0.543044090271,0.894739806652,1.2701202631,0.694480240345,1.36718201637,1.88458406925,0.844461798668,0.861633121967,1.08187496662,0.467440336943,0.947621464729,1.38284063339,0.661478996277,1.40655648708,1.97759354115,0.968798279762,0.788248479366,1.00316417217,0.452092856169,0.650892794132,1.09810757637,0.762093067169,1.20190286636,1.42697262764,0.784976899624,0.814509451389,0.869276404381,0.111459583044,-0.823343157768,-0.944794535637,-0.37583681941,-1.00093317032,-1.26901888847,-0.437074244022,-0.483699113131,-0.511547505856,-0.232920855284,0.258180260658,0.906726181507,0.670623779297,0.709646522999,1.96471846104,1.3877184391,0.595458209515,1.24233925343,0.788772940636,-1.09298706055,-1.31050634384,-0.702892541885,-1.14584827423,-1.63647603989,-1.13994586468,-0.556365430355,-1.01764595509,-0.565538585186,1.02890527248,1.15656161308,0.598086059093,1.24312400818,1.51664280891,0.817207872868,0.629393935204,0.949978291988,0.579349040985,-0.341678798199,-0.68753528595,-0.700436890125,-0.400897353888,-1.25195789337,-1.27818131447,-0.253764361143,-0.74125546217,-0.633589148521,1.06910121441,1.38476133347,0.566717624664,1.40334272385,1.87030136585,0.865195810795,0.635026037693,0.930204153061,0.4723726511,-0.753200829029,-0.998574078083,-0.477720201015,-1.04458868504,-1.35814702511,-0.660008490086,-0.566195607185,-0.742965102196,-0.375994771719,1.54539906979,2.28699564934,1.06813073158,0.269129484892,0.365436673164,-0.101835951209,-0.459372729063,-0.815966904163,-0.367829680443,0.598990559578,0.994047641754,0.525866270065,1.27835631371,1.64468944073,0.835332095623,0.972426056862,1.04729020596,0.345931321383,-0.79987180233,-1.14015483856,-0.491581499577,-1.15855181217,-1.50691461563,-0.859697818756,-0.564055383205,-0.864260077477,-0.417210370302,0.752351164818,1.07901990414,0.450082480907,1.07402074337,1.45468509197,0.668142437935,0.564638257027,0.699033081532,0.303242117167,0.978791177273,1.66913557053,1.12749052048,0.4733735919,1.51309287548,1.31349396706,-0.334245085716,0.435370981693,0.552485585213,0.767679572105,1.27101671696,0.713433146477,1.11630630493,1.553789258,0.761719942093,0.732297182083,0.791311979294,0.305775225163,1.00565862656,1.19906628132,0.682571828365,1.13304340839,1.54231584072,0.995544791222,0.492079734802,0.915708601475,0.664189279079,0.915029942989,1.26939451694,0.59913277626,1.10492682457,1.61945748329,0.870584726334,0.616539418697,0.902438402176,0.527391552925,-0.824249565601,-1.1258084774,-0.45524212718,-0.812873601913,-1.31746447086,-0.910960555077,-0.551773488522,-1.07710301876,-0.823218524456,0.801479041576,1.14263248444,0.730495691299,1.08729064465,1.44563794136,0.825583279133,0.698432505131,0.787642598152,0.454537898302,0.790463685989,1.19040584564,0.651976108551,1.17594361305,1.67332148552,0.853654205799,0.701307415962,0.967298030853,0.496688872576,0.938170075417,1.2427188158,0.559538602829,1.18273878098,1.47579133511,0.687679231167,0.568247914314,0.727053999901,0.422125756741,-0.7545748353,1.44603323936,-0.491298049688,-1.17601037025,1.81916081905,-0.683834731579,-0.765192806721,0.738386273384,-0.267382025719,-0.765672624111,-1.03844130039,-0.501319527626,-1.086830616,-1.36367285252,-0.768472552299,-0.698962271214,-0.837951362133,-0.448953419924,0.96300381422,1.18665957451,0.54459965229,1.2246953249,1.69694757462,0.767027199268,0.595176994801,0.819025158882,0.413437187672,0.849541902542,1.13801145554,0.675241470337,1.14683175087,1.41294372082,0.858135819435,0.632872164249,0.877212524414,0.497207581997,-0.859215974808,-1.09344923496,-0.478051632643,-1.1168268919,-1.46929836273,-0.661724150181,-0.585659742355,-0.822484314442,-0.385615646839,-0.873806715012,-1.03686475754,-0.52542167902,-1.04496502876,-1.26933825016,-0.62944483757,-0.646203756332,-0.646592199802,-0.313787549734,-0.915550112724,-1.01650762558,-0.465183615685,-0.928992629051,-1.10340178013,-0.557311415672,-0.550996661186,-0.657155275345,-0.251698732376,0.831671655178,1.1602306366,0.632708847523,1.12192356586,1.56296217442,0.861805975437,0.584310829639,0.799609184265,0.497788667679,0.713133871555,1.08246302605,0.550059199333,1.00371837616,1.56985974312,0.861486792564,0.516970813274,0.845064401627,0.444392353296,0.750985145569,1.46010160446,0.998654961586,1.36841166019,1.96803116798,1.15347087383,0.916565179825,1.10110521317,0.56988286972,-0.682187497616,-0.963439464569,-0.498828053474,-1.00356554985,-1.33774137497,-0.776548027992,-0.596834480762,-0.825953185558,-0.44695687294